-0.87475014,-1.864429,0.46661663,-3.875649,-2.5941463,-0.51087475,-2.3208494,-1.6613669,-1.0238905,3.9284806,0.9105458,0.027579784,1.859488,0.84097147,0.12747478,2.5902705,-3.3381944,-0.23922634,-0.4320469,-1.928998,0.14610958,-1.4682479,2.168889,1.3094997,3.3912854,-0.34197235,1.3646598,-2.8687134,3.4790244,-2.5606332,-2.2899728,-0.16738462,3.8006597,-1.142098,-2.7811446,2.7060819,-1.2791824,-0.35756826,-1.6555839,-1.4203506,3.830319,3.8069577,-3.9283342,1.9360623,1.3429532,3.686451,2.1857653,-1.100604,-1.0588508,-1.3545403,0.5884118,-0.89644766,-1.219265,-2.0906172,2.3432617,1.2016687,-3.7234821,-2.8156886,-3.642046,-0.331491,2.184855,-2.1653442,0.29204512,2.8477535,2.4782925,2.4485912,1.081574,3.2854671,2.2973046,1.8350077,-1.3189001,3.7777987,-3.783297,1.1824565,0.15691996,0.8778682,0.15600014,-0.28417587,-3.3401408,2.6117296,-2.9045734,2.2805104,2.2265825,3.7289977,-0.44096947,1.5619755,2.5938892,2.9680629,-3.5551682,1.9310293,2.6749568,-0.31842995,1.695992,3.1374555,-1.9209294,-2.9971776,2.6178856,0.3267622,0.721087,0.9208231,1.0804529,-2.6775546,1.4527669,-1.3214335,-2.2452126,-2.88067,0.6692643,3.4487748,1.894134,2.517725,0.53952837,-0.9686556,-3.416041,-0.6364374,-3.9567919,0.2401352,3.07997,0.64169073,1.1579447,1.7112246,0.6785755,-1.4815784,-1.2562761,2.2031522,2.9977689,3.2905197,1.9543123,-2.6701684,-2.310608,-3.8585248,2.0337892,3.4515038,-1.817245,2.8273635,-2.5821357,1.6561642,0.42618227,1.2341948,-3.9309082,-3.9738536,-0.27616167,3.611744,1.471353,3.459752,-0.738338,-2.2343316,3.856091,-1.9111452,1.0050235,3.2756524,-2.1801496,2.808052,-2.8166595,-3.2773714,-2.0662436,0.7419839,2.02992,0.89814806,-3.720313,-2.1172342,1.9202986,3.104003,-2.2608242,2.011817,-3.7241006,0.12559032,-1.4014783,-2.1124,3.9234605,-3.4014812,2.531313,2.1656632,9.827614E-4,-1.2700787,-3.1834164,-2.6222138,-3.420516,-2.7457986,-3.0887651,-1.5843244,-0.8468747,-0.20724773,-1.991796,-0.65050554,3.8899632,-3.7310948,3.3912063,-0.80480814,1.5081153,-0.3516922,3.2818065,-3.314908,-1.0508118,1.1013546,1.129107,-1.4238071,3.3888712,-0.08640337,2.2055979,2.058002,3.9052835,1.4224596,1.8586864,-1.9706993,3.2954812,3.3794909,0.36525154,3.158739,-1.3089051,3.9970021,1.210238,-0.3894601,3.001895,-1.7682924,-2.4510489,1.1115017,3.662775,2.4060822,2.030334,-2.2080936,-1.8482594,0.01599884,-2.9057865,1.2085238,0.3855548,1.5910525,3.9733295,-1.4644046,3.1122937,1.9571738,1.2199817,-1.4028091,-0.8422203,-0.48004913,2.5513988,1.8445563,2.8222003,-2.3131242,-3.293468,-2.6872535,-0.5341716,2.8477802,0.99393463,1.9048519,1.595109,-1.8696322,0.07480955,-0.94278,-3.5858932,0.26228094,1.6812091,3.0681133,-2.6820674,-1.7521229,-0.5441327,2.383027,2.2758665,0.2771573,-1.4187598,-3.6948075,-2.7909741,-0.47863197,-2.3698611,3.4475002,-2.3378296,-0.44495916,2.0328932,-2.6050696,-3.7218814,-3.4770694,-0.74464655,2.2624207,1.4078689,3.412766,-3.61771,-1.0052285,1.856421,2.5962725,-0.9090557,-2.629561,-3.8749604,3.9818745,3.3936696,1.8727589,3.041863,0.6281209,1.0658813,1.138082,3.475884,-2.4324565,-3.9800944,-2.0367303,-3.3689919,0.0816617,-1.6740875,3.3628502,1.5686469,3.069481,-1.9680481,-0.45834732,-0.91426706,0.90943766,-0.064739704,0.6497359,0.48169136,3.8986096,3.1705399,0.69575214,-2.690668,0.6584544,0.69688845,-2.9797096,0.77240753,0.64370155,0.8975239,-0.5948982,3.4832692,1.0255513,0.5945091,3.475192,1.9292202,2.8124242,-3.51167,-3.0786023,-3.057642,2.3164048,-2.351429,0.7390704,-0.92350197,-2.7084365,-2.878975,1.7766623,-0.95728207,2.706849,-1.4824758,-3.8258352,-1.1562486,-3.2584696,-1.2184143,2.6283345,3.203412,3.9005003,2.9647198,-1.142806,3.1620474,0.9605303,3.2190084,-2.716682,3.7792392,-2.2779994,-2.6496205,-3.9283566,-3.147843,2.3241262,3.847972,2.6258464,-1.851285,-2.6195035,-1.4028921,-0.02452898,-0.7795143,0.72620916,0.41081047,1.8068347,0.37783337,-1.4167175,3.6165037,0.9620609,1.4804239,-3.9822803,2.3746343,2.935186,2.0467696,-2.625146,-0.02651596,-1.7599444,-1.331696,0.75976753,-3.5465097,3.6443524,-1.6967554,-2.4780684,-2.3960147,2.4155154,0.8247113,-0.8218832,0.30951214,-1.7097464,0.93283796,-1.5396843,-3.3092117,3.3676643,1.5634737,-2.4736958,2.401084,-2.8305378,1.2130837,1.2647634,1.3412585,1.4672937,0.7521949,2.6349897,-2.8899055,-1.9706082,3.5447736,0.79837704,-1.5001321,-0.8052864,1.8797784,1.2454271,0.6944246,-0.72497463,-1.6695757,3.1433086,-1.4325829,-0.528059,1.7879457,0.79527855,-2.7241292,-0.34046173,-0.70355225,-1.3900948,2.4879508,-3.4683604,0.79530334,-3.3547096,-1.0122199,2.8789802,-3.5678759,-3.933278,-0.39659214,2.9031358,0.8440962,-0.6943259,2.570716,1.3739972,-1.0549765,-3.97085,3.3651228,-3.8963623,-3.8486662,-3.9586625,2.118557,-0.22561598,-0.8908844,3.8897119,2.0303512,2.8806138,-1.0524635,-1.6945662,-1.6585245,2.8050685,-2.3916721,-3.1315994,2.7610545,-0.6409168,-1.7620797,3.7710009,0.6263213,-0.8950529,1.9549208,-1.2932649,0.08124304,-3.7946062,-1.8775997,3.3007784,-2.661016,1.2927966,-2.2114296,-3.1754656,-0.5617604,-1.0731263,-3.9376554,1.0156083,-3.7726178,1.7473049,2.3386397,-2.396287,-2.3477154,-3.3154488,-3.4164147,-2.3078785,-1.5522203,0.9510765,0.058664322,0.6587143,0.32797813,2.503951,0.25675344,-1.9592514,-1.3488016,-3.1187263,0.41865826,2.39852,-2.1599097,3.5267963,1.3975563,-3.0146194,-0.2692399,-2.187623,-0.9326129,0.880476,-1.704628,1.9542441,2.7811985,2.886341,2.2448454,1.0293508,2.0533342,-0.098511696,-0.08897591,-0.40989828,-0.23331356,2.7186217,-0.8049722,2.332325,0.51964617,0.46746492,0.5395684,1.4002919,-0.4216609,-2.4623346,0.751801,1.8466992,-3.7351022,2.2271814,-3.3910818,-1.7373719,0.09338045,-3.864718,-1.3148227,2.535406,-3.2119117,-3.847937,1.5355105,-3.9112082,0.3360505,-1.3914056,-3.3287005,-1.0571289,1.9128356,-3.311308,-1.292582,-0.24179411,-0.01976204,1.6352305,-3.6897244,-2.9169765,0.8123083,0.8061614,-3.57656,3.8113194,-0.48580027,1.5682883,3.6044974,0.016521454,0.2329855,-3.1942973,3.7132044,-0.3923869,-3.6775045,-3.9650946,2.8107805,-2.4548244,-0.05809641,1.4553313,-3.2475944,-3.33852,-3.208177,1.5425935,1.9937105,0.5843568,3.898614,3.957573,3.626348,2.1269064,2.6490092,1.6677871,-0.72834444,-2.8430066,-2.6203713,-0.54636765,-3.515976,-1.0902677,-2.909029,-2.2786021,2.6609635,1.5855756,3.2597094,3.2126908,0.6640415,1.6440511,0.86802006,-0.6435509,3.5879202,1.341392,-1.1191044,1.3503232,-1.8372564,2.7771382,2.3334584,2.4031963,-1.4478893,1.1430435,-3.5832462,-1.1346545,1.85396,0.26510572,-3.426046,3.2874475,-0.9111037,1.2790856,-3.6341267,-1.0202909,3.158866,3.8892899,1.0867777,-2.2918925,3.0927653,2.7624617,-0.21478987,1.211371,-2.596498,-3.0387988,-2.928491,1.8202839,0.7273936,-2.1927838,2.1004329,3.3053918,-0.1094327,-3.8083396,-3.7445798,0.9906044,-0.43769455,-3.7492337,1.8069901,-1.9061928,1.7511554,-3.2424216,-2.726725,-1.7382898,0.24008846,0.9278445,-2.897808,-1.4498439,1.9311752,0.10763264,0.97386074,1.9831982,3.8921862,-2.3649764,0.46513748,2.7498312,-1.7937517,2.8059182,-3.3728595,3.6366057,-2.31466,-3.7924447,3.4279075,-2.8572412,-2.0920482,-0.27954865,-1.1425529,0.7023277,-2.7051725,-3.63694,3.2579894,-0.5097909,-1.916676,-3.8787699,0.22973633,3.486693,0.7647033,-0.6505747,3.998464,2.0128546,-2.9013753,2.760354,2.767456,1.1477098,-0.8706908,-3.932922,-1.7109423,2.742515,3.2373948,-2.2354646,-0.71784115,2.728334,3.3343801,2.2186046,3.6177106,-3.2346778,-3.3680716,-0.8218756,-3.753447,1.826395,0.41014194,1.1715164,3.1288838,-1.0106268,-1.0936694,-1.7473936,0.044233322,-1.3993435,-3.4871392,-0.3972392,-1.1586051,-1.7347674,2.1983972,-3.9136763,-0.21908188,2.1327777,0.36534643,3.6263924,-3.8948855,-0.8670335,1.7666178,-3.0239992,-3.556439,-2.2647352,3.7910104,-0.0113630295,2.3524475,0.16471052,-3.8223414,-3.1505518,2.0452785,-2.384182,-1.5498972,2.0473862,0.6770539,-1.1829352,-1.8912463,-3.593347,-0.5043988,3.3787808,-2.4491553,-2.3640256,-2.5011406,-2.0970545,-2.9115129,2.1042595,2.2871013,3.1647186,-3.777782,-0.4560871,3.5509348,-1.7621756,1.038518,-2.1237388,-1.3089623,-3.2005315,-3.6007538,-2.7699547,-3.3495874,-0.28940868,-3.7321434,0.49154472,-3.993804,1.1443057,1.4856558,0.51643133,-2.807837,2.974607,1.6103702,-0.29327297,-3.493318,2.9091902,-3.2771258,0.3940506,3.0305014,2.1498117,-0.3147521,-1.119451,2.0859814,1.5113721,-2.8916154,-3.2957559,-0.6092129,1.372066,-1.200769,0.47389698,3.1961617,-3.8680577,1.870513,1.3426318,-2.320691,-1.2787738,-3.2015367,-0.1326642,-0.46734285,2.943224,-1.079206,-1.2349687,0.536438,-3.9952455,-0.78310966,-3.8141465,1.0166402,-3.449772,-1.6308832,0.95774555,3.2045755,-3.9310098,0.3571906,-3.671677,3.9785385,-1.990314,1.1009245,3.6673775,-0.7410083,0.7555022,-0.52070904,2.1570072,1.0478287,-3.6394916,2.5797896,2.568151,-2.0237823,-1.6847205,-0.9394274,-1.1897578,-3.8942008,-0.5801878,1.4527645,-1.8224664,1.0912056,-2.9611897,-1.8690529,-3.640761,-2.2404747,-1.3310151,-0.80003977,2.7137594,0.42104435,2.0554137,2.9750328,1.537777,0.14687872,2.374555,-3.0161338,-3.2783313,0.8095765,-3.299481,-1.9672623,3.031345,-3.5160542,-3.3410335,3.0180001,0.1760993,-2.92618,-1.4551258,3.6186018,2.820127,-3.3822064,0.05664301,2.1885228,1.9048595,3.1096725,1.1249938,2.11933,1.3280287,2.9490862,3.1610694,-2.673473,0.55614567,-1.9590745,-2.3905296,0.6179986,-2.362256,3.4406147,3.2889094,0.44276714,1.9680676,2.2721868,0.081076145,-0.56751776,1.7896996,2.0293708,2.6574936,0.40065765,3.680757,1.5328679,1.809897,0.8447175,-1.8095021,-2.38865,1.3923364,-3.0825644,1.4643564,3.4759622,3.8380628,-3.6635265,3.4143162,2.8698368,3.751638,1.4474435,3.1189828,3.1218858,-2.6080637,1.9363656,-3.8114839,-0.4305091,3.2750502,-0.584455,3.435595,2.4142423,0.0829463,-2.1780849,2.112535,-2.4598975,-3.8657064,-2.5672436,-2.9105215,3.3809047,-1.4464431,-1.8904915,-1.3330498,-3.574533,3.783524,3.5402398,-0.6290989,1.8703938,1.1701808,-2.1958098,-0.6725941,2.374371,2.0776682,-3.8081431,-3.959713,1.5600867,-0.4398446,0.17026567,-0.894083,-1.7977386,2.347241,-3.400445,1.2280726,1.909347,-2.7647867,-0.6772299,1.5998716,1.1537199,-1.5115023,-2.7700868,-1.8177671,-3.042766,3.2391915,-0.3710885,3.636866,3.247435,2.9480596,-3.3457556,-0.20074415,-1.6589813,0.7030368,-0.4523387,3.8613186,3.2869248,-0.44851685,3.6187034,2.2571793,-2.3617187,0.38547182,0.8247318,2.1166244,2.9718156,-1.5544577,1.114924,-0.29789782,2.1119456,1.7230129,-3.5007668,-0.76557684,0.14607,-0.005683899,0.39576244,0.82239723,-1.835856,0.6083226,-1.0326185,-0.1496377,-1.9289117,0.28948355,1.2947869,3.2776675,-1.7185979,0.061213017,-3.61233,-3.8764448,-3.286808,1.0055299,-3.1277761,3.3323016,1.9801593,1.1519122,9.98497E-4,3.7447424,0.38655615,0.6509018,-2.6758723,1.676292,-2.7617679,0.9815297,2.4783058,1.3759794,1.6942105,-1.1635623,0.25559616,-3.7012048,-1.8756247,-1.7800364,-3.802681,2.6724863,-3.4386954,-3.9972658,-2.1670613,1.412725,-3.1853423,0.6468067,0.38908768,2.295105,-2.7436094,2.1184015,-2.0062647,-2.188518,3.9109416,3.3361163,-2.61595,-0.1703763,3.648027,3.181491,-1.1921797,-3.3282642,3.9533095,-3.42876,-3.2735844,-1.7129579,-0.45440388,1.9266801,-3.7537422,-2.3010116,-0.75515795,-2.7288232,3.7147417,-3.133337,-3.175239,0.96111345,2.029459,-0.35453892,2.5837288,-3.3447037,1.9656129,-1.0782962,3.1395726,-3.3778853,3.8896441,0.6126518,-3.7757707,-3.9314804,-0.11358118,-0.42505884,3.3747869,-3.8297062,-0.5030818,3.183743,-3.6354046,2.334405,2.4822764,3.1897106,-3.4064803,-0.49810982,-2.537715,-0.6861806,1.686604,-2.3011212,-3.2887902,-3.0906053,3.0869322,-0.6155033,-3.7549992,0.03870535,0.9479232,-0.6273365,0.6407542,0.73634624,-1.7658057,-0.70936584,0.4557166,3.4460115,0.3550954,3.8757844,3.948235,3.1290112,-2.7674599,1.2239432,1.9609251,0.9848156,-1.578517,-0.16718197,3.8460026,-2.1461854,-0.64119816,-2.4969058,-3.6416988,3.0731997,0.24108505,1.5628967,-3.6980019,-1.1637955,2.2753453,2.2887979,3.8065667,-3.9043107,-3.4143047,-3.2462401,-2.5349298,1.0130448,-0.005074978,0.7096486,-3.142405,-3.7345548,-0.04056692,-1.2955189,0.49352598,0.69636583,-1.5294881,-0.23718786,-1.1474829,-2.5411224,1.7212467,-0.9332051,2.5244665,-3.2836995,-3.62227,-0.26410055,-3.3923402,-3.9868464,3.6125464,2.7102776,1.3105216,3.6188383,1.5090799,3.71668,-1.4697886,-0.39010143,3.5036802,-3.7180724,1.0896521,0.4518385,-2.699284,1.8275957,3.967566,-2.2488112,2.8995504,0.22602034,-1.4572377,-2.8194265,3.3640742,-1.8576536,-0.49163198,-0.03324747,0.7212033,0.47542048,2.2329135,1.5318661,-3.5037541,-0.18785715,3.1173353,2.774107,0.10680485,-1.2791576,-3.2909918,-3.9262934,2.4945207,3.7495217,-2.6000009,-0.4538226,2.4519763,3.1098676,3.495863,0.5950532,-1.7978878,-3.712062,0.9575772,2.8237448,3.6360173,0.42283487,-0.5183401,2.3583136,1.5636249,1.5556579,1.7062335,2.2428927,-2.6428833,-1.7819581,-3.247179,2.554843,3.0703893,2.8727937,2.1990657,1.1304297,1.7262063,-2.8660069,2.715423,3.301587,-3.1726408,-1.6993732,-3.5967913,0.95308065,-2.2543206,1.4817591,1.3813229,-2.2251873,-0.4251814,0.5426874,-1.9514933,3.1890478,2.0257597,-3.544189,-2.0137734,-1.4153032,1.3497124,-3.282641,0.57827854,-3.1766424,3.0678592,-3.2629871,-2.35399,-1.747664,0.07298279,1.0921006,-0.10325241,0.55122614,2.6708431,3.9567695,0.5466423,-3.3414326,2.2008462,3.6896877,1.5217867,3.9064798,1.4926643,-0.5633707,3.2021446,-2.4082036,2.6795125,-0.25281858,-0.5843215,-3.0851183,2.5264049,-0.18703032,-2.3959374,2.0298386,1.794415,3.3286514,-1.3193417,1.5050426,2.226317,-3.3983107,1.6250076,-2.4513974,2.106576,2.9629955,2.4700747,-0.207623,0.24602747,-1.5468426,2.827877,1.258246,-0.4797063,-0.0014996529,-1.119945,-1.5155869,-2.7723804,-3.207028,1.8714218,-2.074749,-1.3720903,-2.5638928,-1.7493691,-0.9614544,-2.193121,1.7393985,-3.0080924,-2.5533185,3.8289661,-1.6763358,-2.780651,-0.16384363,0.9765506,1.6336699,-2.420343,0.6006923,-3.67737,0.36374187,-0.9655657,3.5198283,2.176011,2.2146425,0.6583452,1.0051765,-1.0761743,-2.7920756,-3.9513373,3.7731934,-1.0476704,0.41461658,-2.8860369,0.47424793,-0.24492073,-3.0192204,-0.02086544,1.2057695,-3.2357473,2.9484344,-1.1905589,-1.5299344,0.2176323,-3.1029577,-3.5677738,-0.36204815,-2.522797,3.3132935,1.2599802,2.1053276,-3.7530394,-2.5941644,-1.6429524,-2.0358658,0.32395554,-1.4879808,-0.6668,3.1595678,-1.290618,-3.883902,2.5047956,2.9047565,1.5822082,2.7578473,-0.52271986,-1.1698041,0.8980055,-1.1723356,-2.364541,-3.65912,-3.053166,-0.3859067,-2.7306695,-2.552947,-3.562162,-1.6872172,1.1273966,-2.442298,-2.448845,2.467383,1.6152873,-2.862958,3.5114264,1.0631552,3.8093624,1.6062479,2.8181539,1.9284463,2.7216983,2.433228,1.1679688,0.037900448,1.2486267,2.1252694,2.7990832,-0.30022764,3.9988236,3.0805988,2.5804052,1.5181532,-0.6071081,0.34821558,1.3835177,1.6447525,-3.6564693,0.7984996,2.4665465,0.49432468,3.3777776,-2.3470707,-0.2585621,0.2382369,-1.2104607,1.5175629,1.491868,1.5823636,2.475697,2.8945613,0.5845008,2.2737532,-1.6983719,0.616765,1.3231606,1.2856646,3.576024,1.8949814,-3.6897736,3.6479435,1.529468,0.9440656,-3.8962088,2.4895911,0.25050497,2.8447952,3.8193793,-0.7619157,-1.3741693,1.9118762,-0.5271168,-0.60411453,2.3719273,0.0068850517,1.7733874,2.3338766,1.7729607,2.7164454,0.8522978,2.6745563,-3.5818691,-3.0068011,0.285213,2.7799988,2.8499818,-2.2619686,0.5768533,2.431139,-0.9924946,-3.9806724,-3.4863596,-0.068775654,-0.2867489,3.4365702,2.5447855,2.6575499,-2.123828,2.9242325,2.3575196,1.7172341,0.85065556,-0.43465805,-2.5829859,1.1550488,1.4211235,3.3752775,0.4230547,0.55953884,-2.2901025,-2.7170396,-3.0046601,1.488163,0.097649574,-2.438446,-0.33619928,-3.4217257,-3.2101216,-1.2481766,1.2612648,-3.651297,-3.6265569,2.8112826,2.5695896,2.4719105,1.6233563,3.068963,1.6586852,2.7793546,0.60583735,-2.048099,-2.492837,0.6482544,0.06811333,1.8830657,3.555272,3.0266042,2.122696,1.8642492,-3.208137,-0.36958075,0.86293125,-1.1907735,3.4189181,2.3630981,-0.048464775,3.5650854,-2.703712,-2.5432367,-0.8062606,-0.23917341,2.0971885,-2.9601727,0.055518627,-3.7150345,1.8783841,-3.260902,2.0543528,0.57572746,2.6892772,3.5988593,-0.40096807,1.3913522,2.6380005,-2.7612133,-1.5247064,3.8217998,1.8515358,3.097633,-0.320395,3.639608,2.9875169,-2.7343307,1.2332387,-3.5754042,-3.020802,-3.6338391,0.12700987,-2.8826466,0.748683,0.9000478,-0.5572896,-2.2321863,-1.4415064,-2.7612114,-2.615572,-2.6195092,0.96441174,-2.016698,-2.5293207,0.17499256,-2.9150987,-2.2275286,-2.849358,-2.3380194,-1.1592116,2.0179915,2.9038181,-1.8112998,3.2948537,2.7838469,-0.6237283,3.6673017,-1.7888403,1.5636363,0.83720493,3.821288,3.0597725,-1.3923144,-1.6288714,0.35331488,-2.8593001,-0.5903368,-2.457662,3.959093,0.14287806,0.79963064,1.1938372,1.2200742,-0.23357677,-3.247672,-2.3886185,1.3597903,-2.8792343,-2.4235725,-0.84107304,-1.9720612,-1.80581,2.7977314,-1.0363626,0.1904006,3.123323,-1.8928242,2.2106586,2.4851513,-1.7492166,1.6583614,-2.3607168,2.8112764,-3.3528948,3.3394423,0.076920986,3.3338614,2.115727,0.10590601,-2.9055104,0.51920414,-3.4511304,-2.1356206,-0.46941233,0.39538527,1.334065,3.6883874,2.7510977,-0.77943134,-3.5724888,-1.604682,-0.25021505,1.5183053,3.4378762,0.9150009,-0.15691853,1.5133338,0.9542165,3.7546067,3.682598,3.005826,2.3808832,-0.34267807,1.1411061,1.4144211,-0.6877823,-3.1662126,2.485785,-1.0183892,-0.782948,0.6108904,2.9255314,-3.0231338,-3.24092,-1.1874957,0.52114964,-3.7138505,-3.0693398,-2.393529,-1.3827043,-2.7010522,0.42602444,1.9918647,2.0572734,0.87849903,-3.9481335,-0.24438906,-2.2348428,1.9353037,-0.17964172,1.9182701,1.7383752,-2.6489272,-2.3316307,3.8604245,3.6268482,2.4778557,0.09862995,0.044062614,1.0461278,1.0479503,-2.3296728,-0.7871442,3.3707495,-1.9178262,1.0297036,2.9916315,0.39432907,2.4100056,2.5422454,-3.1460347,-3.03624,-3.027269,2.6685052,-0.44205666,-0.83962536,-2.4470534,-3.257872,-2.4408822,-1.8999019,2.468309,-3.887247,3.9167786,1.8715553,3.717195,0.68472433,3.260252,-0.935163,-1.1733794,0.31654882,1.046248,-2.0717397,1.1113243,-3.4277058,3.3117218,-2.7849755,-0.7849531,-2.2137275,2.2295065,-1.3397784,3.8036041,-1.207149,1.9515204,-2.1996746,-0.6278324,-0.91422176,-1.4531379,-0.8239875,-2.3010035,2.3324199,-3.4949942,-3.8658366,-3.9673872,-3.570541,-3.402186,-0.6199336,-2.728219,-3.3755898,-0.6764455,-2.334587,-1.0544524,2.2433076,-2.73814,0.6955395,-3.3932214,3.485754,0.145895,-2.7102451,-2.675076,-2.5743442,-0.8727913,0.44541836,-3.5650349,2.2660346,-2.484826,-2.7211337,-0.17254353,-3.8591418,1.2868834,2.5083237,1.2320876,3.0623884,0.08012009,-3.5053153,-0.33793116,1.3307204,1.5219679,-1.2204738,3.0816832,3.8295274,3.053996,0.09504223,-0.8076043,1.7300568,-0.53789854,-0.8682418,-2.1132522,-0.5592141,-2.1996717,-1.2739682,-2.5982857,3.024314,-3.8663888,1.9844604,-1.3529196,0.23266602,1.4597149,-2.7644687,2.8475118,0.88876534,3.3760023,-0.7458291,3.902163,-3.708086,2.7273455,-0.76863194,-3.7593107,3.3903122E-4,2.9278255,2.3728251,3.0722442,3.7207227,1.3361483,-0.6533222,2.542235,-3.2852979,1.5532656,-3.775208,2.3130999,-1.6577802,-3.5041766,3.8640628,2.477991,1.9527984,-0.5989027,3.2675438,-1.3672357,0.7849598,-2.516693,-3.6107697,-2.3700309,-3.0574107,-0.14202929,-1.2350864,0.40133762,0.61170626,-0.22445917,-3.4461594,-2.2295294,3.813305,-3.5216942,3.9759545,-2.9822206,-3.865652,0.56073236,-1.7336302,-0.13691759,-0.35890532,0.14338207,1.3064885,3.380426,-3.2166443,-1.8404093,3.8188443,-0.8375592,-1.6034937,1.4225197,3.8444757,1.9407625,2.3767567,2.833354,-0.80363035,2.1024475,-1.6541977,3.179572,-0.6355767,0.5028124,2.3601499,-2.3492804,0.22544956,2.1704636,2.809671,2.788251,-0.19991207,-2.4366999,0.065867424,-0.468884,-1.2638707,-2.2772145,1.7844701,3.8901205,-2.6511889,-1.1294208,2.2659369,2.2770548,0.7020869,-1.2954407,2.78268,2.449417,1.7848787,-0.9868989,-1.2299404,3.3536224,-1.6381588,3.4950576,1.3508253,-3.0708508,-1.7766457,-1.7689571,-1.4536009,-3.6315188,-0.38668728,-0.3929038,1.0746818,1.7332606,-3.5100904,3.2774982,3.8195176,-0.3489442,-1.4869642,0.72715807,-2.5168614,-3.3700614,-1.5837679,2.0384693,-0.1736331,0.024909973,2.5003886,1.590601,-1.8863411,2.6914735,-0.20535517,0.7536912,-0.6121855,-0.1873908,-0.9937453,-0.55583906,-1.8961582,-2.6436238,-2.610343,2.0631523,-3.8202734,-3.692307,-1.6053863,0.3557477,-0.9748502,-0.46021795,-3.6818027,1.73697,-3.4357872,0.3936925,-0.27539778,0.3893633,0.27642345,2.2884846,1.274374,3.8291016,-2.9318166,2.6854296,2.6096587,1.6707735,-0.7936158,1.2972345,-1.5113568,2.1281838,-2.9270554,1.5131588,0.48942757,-0.37261772,0.23586321,2.673286,1.975349,2.1615996,-3.994885,1.2654219,-2.080844,0.19356728,-1.3979192,0.65644884,3.5366492,-1.358305,-2.7042933,0.05179453,1.0203843,-1.469449,-1.0511489,-0.4277544,3.154903,2.1258674,-0.39922237,-3.65798,-3.9742079,1.817687,0.8381481,-1.8839326,-3.1803284,-2.204928,-0.74636555,3.1833363,3.8901196,-0.07013321,-3.6399593,2.1365466,-1.5004683,-1.3619041,-3.3548937,-2.206884,3.228156,-0.67645025,3.3695536,0.40666628,-0.11703396,-3.0382314,-2.7950034,-2.2307482,1.3798418,-2.78826,1.4805899,2.44145,1.676672,-1.9699125,0.8843651,2.856029,-3.8084092,-2.8839493,2.7985969,2.2413754,3.6636662,-2.231955,-1.4851389,-2.8514562,1.1420183,-2.8582082,-0.5247669,0.91098404,-2.6123438,-1.1512327,-0.8521056,2.8140364,-0.27070284,-1.1701446,1.5198455,2.4224515,-2.7558193,2.1153755,3.4529853,0.8538208,3.5764508,-0.8030448,2.9041414,-1.6357837,-3.076889,3.1718001,-1.5187941,3.1248012,0.4999423,1.5836196,3.8479824,3.3350606,0.561152,-0.89040804,-1.423821,0.7848897,-2.1740212,0.18712473,-3.7241821,0.7143588,-0.37295628,3.7205753,-0.058326244,-0.4780612,0.5280247,2.6643834,-0.21519089,0.859519,3.4762378,1.178021
-3.6486125,1.3711171,-2.7019353,-1.0523906,1.067277,-3.6480455,-0.32412672,-1.9481955,0.7130761,-1.379015,-3.5467615,2.4233928,0.58166456,-2.2667632,3.6149507,-2.3441463,3.6757522,-0.74619055,1.618506,1.8836341,2.3677592,-3.756607,3.578651,3.1089797,0.19523287,-2.4389963,0.41509676,-2.8354049,0.25349903,3.393622,1.3798242,0.123009205,3.9498878,-1.9801373,-2.0764742,0.14814138,0.30223083,-3.2239847,1.8047242,-2.58505,3.724989,-0.7869096,-3.520947,-2.1929393,3.200863,1.3331914,-3.4558654,3.7727294,-0.63936186,-0.4820671,-3.603506,3.2341485,3.3909192,-0.6189575,-0.054911137,0.18685532,3.5848012,-2.5129786,0.5103822,0.10258293,-3.9039493,2.9981365,0.83244944,3.0931706,2.0295496,3.2883754,0.9555254,-0.23710155,-0.9988651,-1.0344076,0.8136859,2.6546788,-1.0448356,-2.732705,1.4020629,2.1897006,0.18965912,-2.7384005,2.8942327,2.1432266,0.683321,-0.3617959,1.9982095,-1.7509322,2.0476246,-0.8149748,-1.1051111,-3.1353416,-1.532856,-0.49018002,3.562911,-0.7346029,-1.8061957,-1.497098,0.076775074,1.7038426,3.5024729,-0.10768223,0.10971594,-1.3757286,-2.9022865,2.5868711,2.5434299,-2.7511845,-0.98875046,-3.969502,0.57222366,-0.84427357,3.8982477,-1.6760135,-2.5963159,3.5860682,3.804494,-2.647749,-0.35946846,3.3001208,-0.9625201,-2.3424063,-2.6569777,0.24184275,0.45890903,-3.4830508,-0.09282923,0.56661415,0.6756849,3.9343085,-3.8348045,2.3770957,-2.7822967,2.4936886,1.0600739,2.5520806,3.4552178,-1.1965704,-1.9700809,-2.7733908,-2.0472093,0.29463196,-3.3508067,-2.2039156,-2.9675598,-3.7645588,-3.4734545,0.9055419,-2.9979067,1.9340043,-1.0075645,-0.9946232,-0.101567745,-2.703436,2.3876672,-1.9104748,-0.57777834,3.378611,-3.9243436,-2.3108387,1.360827,2.6366334,0.56066704,-0.29278755,-3.8266115,-3.2989335,2.8405075,2.0042086,-0.83938026,3.2178884,-1.4807,0.6670232,-2.0200458,-2.6577845,3.043004,-3.3832998,0.04941368,1.6325774,-3.888556,0.7726083,3.0865817,-2.6654348,2.9047298,-3.3544955,3.754086,0.427588,2.903225,3.3644013,-1.1434693,-1.466157,2.0676699,3.259388,1.1074524,2.1746306,-0.106211185,3.857418,-0.8648114,-0.64889336,-1.0972781,-1.7415133,-3.2749524,-1.4051876,-3.3609533,0.22827864,2.5284948,-3.8268394,2.0109897,2.9781766,-0.5402837,2.8667483,0.23678303,-0.3627491,-2.7775197,-3.3956723,1.7960424,1.1112814,1.967267,0.31767988,-2.710411,3.7539139,-0.30329704,-2.1420531,-2.7256308,1.5523877,2.067998,2.0173688,1.8761334,-2.012144,-2.3390675,-3.928718,1.830328,0.12583065,-0.80952215,-0.63513994,1.7253513,-1.291359,3.7709794,1.0128307,3.410956,0.06674242,-2.9644823,-0.42149067,1.2021976,3.672081,0.1561532,-0.40365648,1.6950579,2.3823552,-1.3001623,0.06999254,1.3776622,-3.7473354,-3.4826279,0.81117296,-0.9399357,2.7285714,0.85049105,-1.9966822,2.3698244,-2.285182,0.5315275,0.12387991,-0.2907958,3.194621,-0.85732603,1.9101839,1.3067694,-0.36153316,0.5242553,3.1013455,0.11060572,1.3964462,-0.07489014,3.05333,2.67626,0.74719095,-1.1501603,1.9509454,1.9390025,-0.46274853,1.3787599,-0.7001591,0.49112415,-1.2299161,-1.8564701,-3.131349,-2.0002298,2.601489,-3.4138222,3.5866866,-2.3866296,0.60122395,-0.41188383,-3.4687552,0.15410852,3.6063433,-2.3696232,0.6310806,-3.2558913,0.9034896,2.5631723,2.7641397,0.053214073,-3.1573935,3.6736612,-0.64144325,2.0004325,0.43625784,2.5219388,3.3616133,-1.4716196,-2.7053652,1.0684114,0.591979,1.6644492,2.7693453,-3.3326235,-3.7684293,3.7730021,3.9369016,1.903398,3.865014,-2.3962593,-2.321653,0.9754858,-0.51772785,-2.00846,2.3624697,-1.0092587,1.7938933,-2.9734235,3.3993635,1.3405523,1.7637672,2.9795504,2.2065086,-3.8497834,-0.7383728,-0.35072374,2.0538979,-1.9064593,3.122095,1.1379623,3.0858178,2.7491488,-0.26087475,-1.9828267,-1.062468,0.87141275,0.81961536,-2.2861733,-0.7168951,-3.192285,-1.6119976,-3.3653007,2.998795,-2.208274,3.020154,-1.4011517,-3.8374066,1.5810289,-0.8398409,-1.2758322,-1.282546,-0.88658714,1.9329596,-2.1939473,0.31134987,2.380951,2.9295325,-0.15309763,-1.275733,1.0412107,2.9547749,3.784019,-3.3414779,-2.4978766,3.7617364,1.2844124,-0.11294842,2.057787,-0.4553585,-3.98284,-0.66750145,-2.5317087,0.7476082,0.9913826,1.2207379,0.14413738,-2.9886284,-3.1004028,-1.2261848,-3.5834541,3.3970108,-3.9036899,3.8618793,-3.5245676,-1.9110675,0.6592512,1.6294398,-1.7113295,3.4095297,-1.6603208,-2.5190816,-2.3439765,-2.8797073,1.147809,-3.7881136,0.60034275,0.7090349,2.5036287,-0.11169529,-3.7161088,-0.13438797,3.601315,-1.1855874,3.9105134,-1.0506201,-2.1988702,1.2233863,-1.3886123,-3.6040587,-3.9848256,0.9313774,1.7148328,1.2688289,1.3567562,2.9977999,-1.7043228,1.228941,1.566443,-3.5593543,1.3385634,0.8911042,1.3251882,3.397903,-1.2911558,1.8084135,-1.4446845,1.0627275,-0.49401093,-2.7587175,0.8576503,3.6335979,3.0042062,3.6247768,-1.3731966,3.9191756,-1.3851266,0.5650449,-2.959436,-0.24627972,1.1119237,-0.28109407,-2.4273462,0.7705488,1.3461032,0.6101384,-0.9052739,0.23096085,2.0635676,0.0070877075,-0.19738436,2.522089,-1.9097953,-0.2508154,-0.462574,3.7521238,0.5218644,-0.18985462,3.6132302,-1.1569505,-0.22601795,-0.0066928864,0.6739378,0.032311916,-3.8816018,3.1651053,-0.32861853,-2.7465596,0.022090912,-1.3336525,-1.3010788,3.104467,3.1786265,0.94308233,-0.3310938,-3.2102408,-0.81006527,-2.9202366,-1.1477008,3.4184818,-3.359899,0.4923787,3.8936195,-3.6309042,0.6558056,0.3686037,-2.5117378,-3.78306,1.4463816,-3.5288897,3.501193,1.2288041,-3.1382089,0.7192769,-3.4199,-2.9626832,-0.574337,1.7289672,3.5613518,-3.6732464,-1.0555058,-1.4598632,1.0976305,-1.1766696,-0.36028004,2.5430517,-1.5090394,3.344984,1.3982067,2.6962233,-2.1419425,-0.9891,-0.5846791,-3.7919688,0.2755947,3.9473906,-3.9352841,-2.2501884,-2.1348557,1.0870194,-2.2531638,-1.0738373,3.9202757,0.1998992,-2.1544971,1.2187271,-1.1843352,1.5026379,-1.514677,-1.8619347,-2.140892,1.5693803,-2.116356,-2.8152943,-1.6338544,1.4534693,1.7059312,1.8804088,-2.4073834,-3.3246212,2.5642915,-3.845613,1.9169784,1.9254584,-0.12796068,0.4520278,-1.3893585,2.9765449,0.5341773,-1.1041594,1.0850511,-2.4655557,2.8910928,2.6152582,-2.30228,0.83146,1.0421352,2.0438342,-1.2999048,-3.9276276,0.88367176,3.7546148,-3.993061,-2.118626,-2.7457876,-0.41262293,3.0740218,0.30522585,-0.53610516,2.8602495,-3.1726956,3.460166,3.798493,-1.0766296,-3.5434241,0.45064926,-2.4441934,0.89892626,-2.2412539,0.74467516,-1.3536758,-1.0194855,0.0046982765,3.896061,-1.7530274,-2.9194274,3.047923,-1.3836617,1.5381999,-1.0120587,-1.7429442,-2.8991456,0.9070711,-0.27622128,3.1270719,-2.2871003,-3.4858909,3.7833438,2.0192504,-2.7408967,1.775816,0.86892176,-3.0628037,-0.09323311,2.7097344,1.1256881,-0.27070427,0.18200302,2.4511318,0.48291302,-3.594046,3.45439,3.4314356,0.2979145,-2.2130046,1.9920874,3.1850395,3.0448713,-0.51032686,1.318872,2.6245184,-0.64466524,3.9949317,-2.3959274,-3.3787045,-1.5026546,-3.5220237,1.675808,-1.7991419,-1.3042464,1.1728339,2.5999966,-2.4146261,0.9930148,-0.2014308,1.3701878,-0.70649767,-2.8023458,2.171156,2.989132,1.7639542,-3.4378872,-3.6512055,1.0999856,1.3574381,-2.006908,-3.0762515,-2.524036,-3.4123702,0.77112913,-2.5803628,3.3598948,-2.8627133,-1.9877315,-3.156403,-0.7576661,-0.6428709,-2.3613367,-3.4330907,0.6864543,2.874226,2.7570505,3.7796211,0.88266754,2.6298838,1.5196052,0.32341433,2.503655,-2.2739701,-0.66896915,3.9166384,-2.985982,1.110363,-1.6358576,2.4349527,3.875896,2.225656,0.57402945,3.414616,-3.784542,-2.2358623,1.7033987,-2.6579027,-3.2670035,2.705388,-2.7807608,2.2474294,1.3341813,-0.39778996,-2.091179,0.91871643,-0.36022663,-1.034903,3.3115592,-2.3846178,2.8284779,3.5587025,2.717751,-1.9827003,3.9404998,0.064742565,0.69593143,2.4698348,1.7005572,0.11156988,-1.2870798,-0.83980465,-1.8836131,-2.0271845,1.204854,2.102315,-3.2949824,-1.2274513,3.3889294,2.7549348,-1.547967,2.9039598,2.2445135,0.41458082,-1.0984397,-2.7008734,1.6340795,0.50087833,2.6146011,-0.46939993,0.79932594,3.4001431,3.2533627,3.4578876,-3.0987644,0.19348097,1.5072918,3.8549423,-3.5550313,-1.4681635,3.8553467,2.3951273,0.0367198,3.921544,1.7665057,2.3792944,-0.21969748,3.164074,2.5093746,0.14721966,-0.31846333,2.6918702,2.5298843,-1.6857939,-3.2410998,0.7224932,1.7462325,-3.4502363,3.3545527,2.8048124,3.6102448,1.9154887,1.7212048,-3.6322374,1.0270634,-3.2188935,-0.22743797,-3.1567369,-2.0317755,-0.35724926,2.4986548,-0.015621662,-3.2602706,0.0024003983,2.6574798,0.9266982,-0.6157222,-0.31637383,-0.21856928,3.7593403,2.7383976,2.032917,2.2262225,-0.07905388,-3.5115328,3.489462,-1.9882212,-3.720333,-1.4425564,0.72589827,0.7541418,1.5834198,2.8143096,2.3197646,-3.6148043,0.99176455,-2.9363976,-2.3132062,-0.95180273,-0.8373885,1.3007512,-3.6057034,-3.8879452,-3.9702702,-1.8069158,0.20228863,-0.6386423,-0.24029016,0.6741538,-1.896749,-0.08742046,-3.166267,-3.446803,2.7250953,-2.7749581,0.7992649,-1.600009,1.8275094,3.7883735,2.6436777,-1.9491606,3.9860435,-2.1282868,1.244884,-3.5982342,-2.7274446,-2.565967,2.867416,-1.6569839,-2.2184415,0.3650651,1.735013,-2.4975324,-1.1788435,-1.7773161,1.4868402,3.7873645,2.711194,-3.7494621,-1.3970923,2.5517063,0.2615161,0.51958656,-0.9207492,1.7034774,0.6164336,1.4842248,2.7839766,-1.5405278,-1.6508584,3.1482782,0.6954446,-0.86136913,-0.8014536,-3.406467,3.9027214,-0.13472414,0.012242794,-0.8459778,1.7500587,-0.035671234,1.269844,-1.5317073,0.37058735,-2.0707517,-3.3879576,-2.420342,-0.75627136,-0.98710775,3.3192449,-0.12371111,0.11506939,2.7395787,-1.4790688,-3.210752,-1.9492764,3.0961409,3.5496168,-2.2574573,-0.40048838,1.0884895,-1.6170244,-1.0547671,3.6697483,-1.8689895,-1.7290668,-3.5730515,3.0820785,-3.1232376,3.7728386,-2.4348707,1.7496886,-2.7702165,-2.4901643,-2.3197975,-2.3985505,-2.835369,1.5707436,0.65409756,0.8661275,2.495398,3.9227638,-1.3467321,3.9658465,-3.1053195,-0.7773323,2.7300324,-1.5614796,-2.6048584,1.5763698,1.28093,0.061070442,3.570198,-3.8434806,-1.8718524,-3.6580033,-3.0311809,-3.1144958,-1.4446831,-3.9177194,1.680234,-0.023387909,3.2923179,-1.318213,-0.23967934,2.9756188,-2.349443,-0.16668034,-2.5795493,0.6603141,3.3307729,-2.6376247,0.24431086,0.9629903,-1.444921,-3.9735603,3.266636,-0.16768932,-2.0659547,3.4975038,1.6525884,3.1227398,-2.186648,0.55435896,3.2155843,1.2934833,-2.1766195,-1.628756,0.4874606,-0.35881996,2.174191,2.9956326,-0.98414516,-0.6670346,3.2181358,0.57439756,3.6423063,0.6255865,-3.6119456,2.1533847,-0.5312748,-3.0464869,0.38100815,-3.8954406,-1.0676985,-3.7289495,-2.9089189,2.2165189,-1.1125193,2.9918633,1.1202388,-0.36776638,-2.028901,2.5606308,-3.3410754,3.1715736,-2.9390187,3.2173471,3.1982598,-0.20054102,-1.2879314,-2.3984032,-2.8912516,0.3824649,-2.4247308,3.8435636,2.9165564,-2.668539,-2.3944893,-3.3229012,-1.4269304,-3.2055898,-3.8952098,-1.5105062,-3.2831688,3.9059086,2.206071,2.3191772,3.5644407,3.007401,3.2926092,-0.5220051,2.4588766,-3.8615766,2.1974025,3.185586,3.195282,3.5036397,2.0968227,-2.5388265,1.1058617,-3.2929597,2.1839228,-1.7505465,-3.2875266,-2.3975644,0.9881711,-2.2862911,1.8680625,3.55239,-0.76766443,-1.2126102,1.1516514,1.2551022,-3.8583179,-0.9632554,0.42637253,0.2544341,2.0283933,-2.1218166,-2.3885574,0.58147144,1.7729726,-3.933453,-1.322753,-3.8993545,-3.352806,3.6008205,2.5931969,0.088695526,-3.9723425,-2.1163273,-2.4889655,3.0245867,-1.6818862,-0.15289402,3.0470886,3.8020763,-3.6598706,1.1699681,1.455987,2.5079045,-2.8017058,-0.35927248,0.21076536,-1.9232836,2.9357758,2.7622762,1.590518,0.70282507,-2.9485946,-1.9188209,-1.9779558,2.6478581,0.15852451,-3.6967173,-1.0533762,-1.5537148,2.861237,-0.4924941,-1.1675487,-2.4831696,-1.436593,-1.2084842,2.6976752,2.5009112,0.7924614,2.203412,-3.6562629,1.5585928,-3.7783422,-0.81594896,1.7440996,3.2721071,3.5437403,1.9418201,-0.86521244,-1.7240782,-0.55633307,0.8070617,-3.1191945,-1.585412,2.02115,2.8935452,-2.158318,-1.0856438,-0.8670807,2.1808891,-2.4495177,3.155747,2.3927183,-3.0986977,0.9989524,-0.80892944,1.2418747,2.9679008,0.2572527,-3.1726866,3.9676776,1.8468294,0.7454152,3.1799126,2.308539,-2.8970637,-0.9645543,-0.98918295,3.9768443,0.8154745,-1.9567504,0.43391037,-0.1896925,-0.23227262,-0.061419487,3.8664417,-3.7866359,3.9891524,1.7543297,-1.7843981,-3.9205394,0.72222996,-2.666041,-0.37109184,-2.3741488,0.6751418,0.86310434,1.7446151,-2.2174926,-0.39263296,-0.14141369,1.9180918,-1.6612153,-0.39523935,-1.6693497,1.660986,-1.5266051,-0.81475306,-3.7875676,-1.573853,2.2078238,-0.38749266,0.5098319,1.4417605,3.488391,2.0844903,1.5353913,2.7069588,-1.0994782,-1.9671674,1.7468042,2.297495,2.4582949,3.4698467,-0.06543255,-1.7921753,0.6257272,-1.371738,1.7394247,3.1143222,-1.0285954,0.15685797,1.7988677,-3.6526837,3.0177813,0.5891471,-0.581563,-3.7036686,1.4285102,2.043881,-2.1418314,-1.642664,2.3144217,-0.8781018,1.5626087,-1.0979548,-0.11101341,-1.66465,3.5146432,3.771459,3.850124,2.3691,-0.94567823,0.25787354,0.7148633,-1.118289,-1.205842,-3.144312,2.0194216,0.8814893,-1.3725824,-3.7295527,-3.9224238,0.06303644,-2.6640596,1.9418411,-0.75244284,2.5883174,1.1544156,0.9488373,-3.1000948,-1.005115,2.159051,-2.462173,-2.8613653,-3.8107982,0.96554136,-2.813303,3.5634246,-0.56347466,2.5144968,-2.74685,0.85424185,-2.8828797,-3.6126947,3.6434383,-3.2804046,-2.3667736,2.9521337,-1.0079732,3.9083467,2.698771,1.6336884,0.60262585,-3.1995444,-1.5741491,0.8018198,-3.4694238,0.9470606,0.86508083,-1.621695,-1.0251899,-2.6673431,-0.687418,1.588603,-0.4914012,-1.2853098,3.7412052,-2.2187767,-2.848885,3.91643,0.7491455,-0.5279808,3.0305223,0.2903037,-2.3280673,-3.5605593,-1.7970743,3.7388577,-1.1745195,-0.38008928,-1.5158362,0.81185436,2.71496,2.6753168,-1.0378871,1.7486567,-0.44165277,-2.5025258,-1.1499963,2.287713,-2.6389256,2.772585,0.8052726,1.1274705,2.3909497,-3.6274366,0.6877451,2.7282786,0.21683598,2.2148733,-2.495469,1.4505086,2.0921898,-1.0914164,-2.8490095,0.71314096,-2.3880787,2.6769829,0.29653168,1.9371524,1.0997467,3.536633,-0.20507812,0.6420903,0.5698476,1.4644723,0.3602686,-2.5500145,0.452734,3.368846,1.6059432,-1.6989245,2.3073578,2.2924256,0.18351221,1.408505,2.811246,0.73522186,-0.40369463,3.0070271,-3.5956812,-3.2604194,3.8366175,-1.4584188,-0.33832407,1.9965215,0.4707861,-0.5217252,2.0125337,2.4093142,-2.038414,-2.5894394,-1.3417625,-2.893865,-2.7134233,1.7100978,1.9484453,-1.2257137,0.3232937,1.8926988,0.15269804,0.46412945,-3.3084269,2.517766,0.24125957,0.8768716,1.0588813,0.3224411,-1.684114,-2.0729904,-0.75965595,-3.957768,-0.31541443,2.5027986,1.3003497,-3.2541318,1.8560996,-2.5929785,-2.5489006,2.3964596,3.1662521,0.14074898,-3.3655248,0.7514448,-1.8088975,-2.6848474,-2.3189363,1.7631702,3.0275202,0.98597,2.9032154,-1.4019856,3.0319672,0.17229462,0.56169605,1.6376233,-3.570527,-1.5587273,-0.8631549,0.8688073,-3.3114295,0.033334732,-1.350719,3.5418358,-0.31906557,-0.98591185,-1.0488825,-3.3619752,1.0081258,1.9392791,1.1104741,-3.5805264,-1.291183,1.2035913,-2.4711819,1.1443915,-3.2903137,-2.5672107,1.6764331,3.0534549,-1.6716237,-0.082816124,-3.6548734,3.2238703,3.979127,-1.7571363,3.7632551,3.2311249,3.6974006,3.1509638,2.085281,-3.7384505,1.5406604,0.56467247,1.5704722,-2.985345,3.3149347,-2.8858871,-2.2579136,-3.8194752,1.0225248,2.9308991,-3.8665528,1.3571591,0.15169382,-2.327558,0.66988754,3.993412,-3.713975,3.4912262,-3.280446,1.4378085,-0.024110317,3.9316554,-1.5893312,2.699936,-0.51131773,1.5869365,0.6221056,-3.527948,-2.335248,-0.023800373,-3.6029735,0.8218546,-2.996194,-0.17209864,-1.6799607,0.38585997,3.268588,-2.775117,-1.8241911,-0.37570333,0.9203658,-1.5504551,-3.8645563,-3.3742847,3.8207955,0.5597544,-3.4147139,0.08038759,3.6986012,1.5476856,-3.064931,3.5088968,0.36378956,-3.6699495,-0.64222956,2.8938694,-3.3416262,2.8594646,-0.9139719,-2.0985951,-3.6126132,-0.47166538,0.9086795,-1.5977774,-0.6711774,3.0788913,-3.2100515,-1.356298,3.8527355,-3.11875,3.6120863,0.94060755,2.2894526,3.2658386,3.0839186,-0.97276306,0.20145369,2.2926412,-1.3481317,-1.745233,2.9843454,3.7276454,-1.7893977,3.7575517,2.2261925,1.0220914,-1.423368,-3.1911693,0.09274244,2.8227787,-1.2760015,2.2225714,-3.5945873,3.1772537,2.975645,-3.6582112,3.3908186,3.4563427,2.6113434,0.5174937,-3.7182846,3.5436487,-0.7679219,1.7841983,-3.3589845,0.6075125,0.87574816,-0.43949318,1.6896381,1.470931,0.09891558,-2.3454857,0.8968868,1.0493002,-3.561789,-2.2336273,0.11538601,3.479926,2.8819647,1.3122377,-3.2870574,-3.508638,-3.1182942,2.1277394,1.1975303,0.45005608,-2.6965628,-3.0471048,-3.8994298,1.6968732,0.47412205,3.1868358,-0.64572763,0.69209385,-1.3413343,3.987668,0.67264986,3.694807,3.0708752,3.2630358,-3.2505708,-2.0935235,3.6675596,-0.54169416,-2.7289433,3.0292745,0.9120922,3.4345818,-2.7141385,2.9727464,-1.538527,-1.6042213,-1.5271926,-0.9421234,2.9933186,1.1555667,2.0416288,2.7109861,3.4352236,2.5389142,0.72215176,2.6313553,-3.3972306,-0.97790384,1.5407152,-0.79857635,2.2330637,-3.4128919,-0.56249523,-0.9428749,-1.2178016,0.08435583,2.4767365,1.943708,-0.07354307,-1.8310213,-3.7063594,0.069586754,-1.1174622,-1.7658744,-2.0154028,0.082659245,-3.5194054,0.96667147,2.9811625,3.600439,1.0495028,-0.41990662,3.2816315,-2.8773866,1.8956294,1.9433208,-3.9031906,0.46250582,-1.6115642,-3.6438613,0.47632456,1.9977922,-1.0523214,-2.6210103,1.419725,-0.36907196,0.7217183,-1.2094412,3.569271,-1.9385571,2.2437105,-3.5717754,-1.319622,-3.3741388,3.2661405,0.4970293,3.147591,3.5018039,-3.6565156,-0.82982826,-3.9696074,2.571145,0.2216897,-2.6690893,5.9223175E-4,0.88826656,0.99078083,-1.3699875,2.7730904,-3.1762776,-0.8227315,2.2873025,-0.13898754,-2.0035834,0.03522253,1.0082946,1.5161371,3.6388903,-0.59707355,-0.09991217,-2.297235,2.7559414,-1.5849533,-0.6374583,2.7592173,-0.84320927,3.5122461,2.734002,-2.497355,-3.8892784,-1.3897476,-0.75666475,0.03125286,-2.9341536,1.6425934,1.9445753,0.10003948,3.7757134,-1.7353911,-3.7051153,-3.9567814,-0.38082838,-3.7850094,3.5136275,-0.23477173,-2.6794324,-3.7859254,-2.4120965,-0.075808525,-0.7497039,3.4994507,-0.3492198,-0.6865573,-3.294787,-1.051763,0.46042824,2.459815,2.8548503,-0.37433815,0.9842863,-3.9216032,0.3379755,-0.4295516,-1.0999742,-3.6460648,-2.1248264,-2.657022,-2.452724,-1.214426,2.9220943,0.6113944,2.0086517,1.8857217,-1.3548727,-2.2522697,-2.8016634,0.34211922,-0.19818258,2.5898905,1.8492289,0.936151,3.0226927,2.3599463,-3.001844,-2.2132568,-0.7854276,2.0037718,2.9808311,2.20929,-2.841741,3.3456092,-3.8032336,2.119605,-1.1989808,3.4727998,-0.7528248,-2.4246168,-1.6831865,-2.6553245,-1.1312499,-2.5412865,-2.0798988,3.044569,2.8909183,3.8143096,1.9925575,-0.72089577,3.8665628,-1.0540624,-3.2384696,3.2134652,0.82409906,3.6395302,0.12478781,-1.3207607,-0.35504007,2.0522866,0.94344807,-1.008214,0.8928442,-3.2657766,2.0441947,2.4809303,3.6423178,0.40867996,2.2283154,0.4111972,1.2322936,1.6328549,2.8490353,0.90985394,2.2874484,-0.9850116,-1.8145885,2.1217632,0.31550264,0.63299847,1.2309647,-3.0164561,2.3333259,0.6566992,2.0736103,-0.70515585,0.057896137,-3.4762158,-1.6593962,3.325718,1.101953,-0.41489983,-1.0865636,0.8252306,3.3466535,-0.23108768,3.1032543,-3.5984578,2.3574133,-2.0065312,-3.3372946,1.8669314,-1.3777714,-0.11626148,3.4654627,3.9465342,-2.0930476,-0.45171165,-1.3946309,0.026105404,1.6470084,3.0974917,-2.6265302,2.275878,-1.3372364,-1.7889094,-3.491508,-2.9263158,-3.6460633,-0.006750107,-0.14512491,-3.6750221,-3.220047,1.8130841,1.7976112,0.8292985,2.6757364,-2.3301296,-2.6048307,2.6861424,-3.3810253,-3.6787114,-2.0539703,1.9071779,3.513177,3.0716162,3.8711033,-1.4296432,-1.3363619,-3.5385437,-0.53108454,3.3037705,-2.491352,-2.517198,3.6231546,-2.4628386,1.1586089,-2.6603713,-2.6416135,3.3458652,1.0491099,0.7863345,-1.1803017,1.9997106,3.1131263,3.9307356,1.4910774,-1.692904,1.9303069,-0.06341839,2.0857673,-1.0738368,1.4504786,2.7792082,1.4849939,-3.9602642,-3.6280594,1.1985788,-0.56038,0.8226018,2.4655962,0.9831352,2.6777716,-3.7422214,0.58131266,0.05713272,-3.0993547,-3.003244,1.3859196,3.5100684,1.3437757,0.64635134,-2.1792397,-1.6990461,0.702436,2.26585,3.7135262,-0.8808813,2.9627805,-1.23843,1.9420147,-1.3615003,-2.1348162,3.6859784,-3.840693,-2.359418,-0.7017083,-2.2759876,-3.39156,-2.6962094,-3.04814,-1.4555454,3.362793,3.0908647,-3.7611294,-3.001955,-2.066103,-1.5379972,-1.8470459,0.7706604,-2.7759461,-1.9229398,-3.1988444,2.0883021,-0.9751768,-1.1737761,3.4148636,-3.9150376,2.5568876,3.172083,-3.6114388,2.7736788,-0.08010769,0.74830246,3.1473284,-3.3806438,1.9053531,-3.5821657,-3.6550298,0.53826,1.679472,-0.851696,-1.8843722,-0.59247637,-0.2515092,-3.159576,3.0380378,0.14767742,-3.11513,-0.001376152,-2.5564356,-1.9439106,-2.049097,3.838059,1.1520314,-2.1415663,-3.4347901,1.680398,0.22357082,1.0728908,-3.800334,-2.471262,3.5654616,3.5368161,3.5775514,1.3813915,3.0505934,1.742166,-0.6991253,3.6214905,-1.8659472,2.0030618,-1.2762799,-3.1938787,-1.1332884,-0.89939165,3.5919113,-1.8985686,-2.1050773,2.2055254,0.39509773,-1.1794739,-0.17623043,-0.5176945,-0.641634,3.9954834,-0.3468399,-2.6313686,3.2944417,-2.7449412,0.44161272,1.2646456,-2.9726715,2.712171,2.607285,-2.9525132,0.7916293,-2.0583534,1.159821,1.8613334,2.0415955,-2.0745368,-2.3845954,-2.9389305,-3.2719846,2.1615143,0.45115852,1.6727171,-1.2978482,2.6991868,0.89918137,1.5649796,3.9919147,2.0324378,3.9852624,-1.3823023,-3.1009188,-1.4748793,-2.5719538,3.063809,-3.0544653,-3.0344448,-0.09858942,-2.9644508,-0.46610546,-1.8255811,-1.0786014,0.95223045,0.7914891,1.1734257,-1.9304872,0.16004372,2.5690618,0.7385812,-2.6481447,1.2129879,3.224843,2.3125834,-3.7112002,0.03233385,-3.976647,0.9627681,-0.9720917,1.1890206,2.2244477,-1.3045893,-2.3060298,2.6331124,0.86440325,1.9507895,-3.220315,-0.11397791,2.5951352,3.1076946,1.208899,1.1786275,-2.367271,-3.4523125,-1.5332069,-1.9492068,-1.1198359
-0.88018274,-3.2917056,0.9391985,1.7642436,0.18237686,-1.0274353,3.3098125,-2.4788938,-1.1189246,2.6180263,0.60293674,-2.038887,-3.320622,-3.9556832,1.9415164,0.650187,3.7381968,-1.9948549,0.121432304,1.5936303,2.5252433,-0.21544218,-3.6051722,-2.3420959,2.6206799,-0.22106886,1.1382518,0.99858093,-3.6981745,-0.7066121,0.45555258,-3.3134427,-2.012856,-1.5553718,1.5151205,-1.327611,-1.5248833,3.9076452,-3.998684,0.45813227,1.2284465,0.92181396,0.1347642,3.7401543,2.4549398,2.677671,-1.4252262,-2.6471915,-3.2251248,-3.7403007,-1.9265909,0.7144866,-1.1826677,0.16787434,1.5438972,3.4121518,-3.2437015,3.6519256,3.400033,-1.5591254,0.8080406,-2.637412,-1.5928078,1.9488864,-0.08428764,1.9737749,-0.72649145,0.2591281,2.722086,-2.5959716,-0.15921736,-3.2970643,1.5781779,-3.8650002,-1.3271651,3.7932396,-0.5190592,3.0844684,-1.6266656,1.9912472,-0.1712699,3.8617969,-3.9902606,0.41484594,-2.29459,0.46006727,-2.8861241,-0.94327736,-1.345634,3.0917678,-3.9630365,0.3082528,3.808875,2.6490908,-2.2533746,3.829383,1.6568146,0.9860091,1.879641,-0.8021755,3.112121,-0.1774149,-2.9540024,1.570724,0.04433918,2.6328053,-3.318787,-0.81866217,1.707531,-2.4091291,2.4540248,0.38001823,1.9623775,2.8376875,-2.7306013,2.7457142,1.7769918,2.4345388,-2.198504,-1.7008705,2.82441,-2.03504,1.411809,3.924365,1.2944226,-2.4760575,-1.9568324,-0.23976183,2.155984,0.61607933,-3.355165,3.6881828,-1.4796066,-2.7835045,2.91648,-3.621338,3.5664024,2.0006137,-3.6764736,2.0450406,-3.5771337,-2.2836142,1.7222567,-3.3992114,-1.1858597,-2.8242025,-2.5457802,-1.0445433,-1.8653374,-1.1733494,2.9649367,-3.5250607,2.5336137,-1.0989766,-0.9642482,-1.9450893,1.7848005,1.4188452,3.3789616,-2.1791978,-0.9575081,0.673923,3.0491467,3.306098,1.5174408,3.1908655,-1.0930271,0.33087826,2.7503085,-3.4150043,2.899735,-2.9127727,-2.761294,1.4787984,-0.5154276,0.6452017,-0.9593215,0.9480653,2.0297227,0.8552747,0.60823536,2.3339725,-3.9745626,0.19840717,3.1010036,-1.7658539,2.583284,2.4059286,-0.9811287,-2.2282872,-2.2103486,-1.353971,2.025104,-2.3433723,-3.5796704,2.8847613,2.7844539,0.043600082,3.3571754,2.9347253,2.6157804,2.8259835,-1.5608516,-3.9130187,-2.5177426,0.98035336,0.7174468,-2.4110522,1.6658635,-0.7874689,-2.9178047,-1.7840633,-2.6268396,3.8977718,3.5251555,-0.45563745,3.0978894,2.7260847,-0.9366517,2.153339,-0.950789,-0.7465215,1.3613048,0.8661752,3.1940799,1.541645,2.7690377,0.42701244,2.9348063,3.1875186,3.8777323,0.9482918,-0.75011396,-3.6294045,3.4496918,-2.555242,3.9942718,2.2751865,3.9923353,-1.7029138,-3.6640944,-2.3028255,-2.7679777,-1.8042445,-0.02481842,0.2657628,1.8412819,-1.2386589,3.4545531,-3.9296846,2.1467328,-2.496266,1.7433324,-0.7238493,2.9835877,2.0777464,-3.770574,-0.6387458,0.78028345,1.0489445,3.74184,-3.146275,3.3924704,-0.14084196,2.366857,-3.0323853,-1.1765752,-1.2412033,3.3333907,-2.4819942,0.056972027,-0.33938122,-1.519268,-2.7349987,-1.2967324,-1.2001824,-2.2387538,-1.1639042,3.5563993,-2.4840279,0.47318935,3.1774335,-0.3502884,-3.713581,-3.308845,-2.2178793,-2.2408104,-0.65430355,0.5153961,-2.4417267,2.9611382,-1.0452433,2.7728968,1.0762286,-0.16311884,-0.10558939,3.7741475,1.1436114,-0.101689816,2.4327908,0.38674116,-2.6059766,-2.927082,2.3643112,3.3816128,1.1603827,1.5495014,-3.6295395,-2.283338,3.7826047,-0.5149059,-1.3313875,-1.2529063,-3.7581973,-0.8260617,1.5767035,1.518724,1.3147168,-2.9305048,1.2368708,-1.8387542,3.123022,-0.055307865,3.4428573,3.4296026,1.9578118,-0.4871378,2.5618978,-0.2552457,-1.3397813,-1.323771,2.3148012,-2.6132197,-0.1698618,-3.4906373,2.1857657,-0.8549619,3.036642,1.0358834,-0.8909979,1.7085066,3.4612994,0.35681963,-1.4197688,-0.013897419,-1.410542,-0.097411156,-1.6495581,2.6081839,1.3700151,-0.70349073,-0.6152916,3.9282317,3.511538,3.9502559,0.94321823,-3.6055994,-2.7828517,-3.9003,1.7227426,-0.70422363,-3.2473392,2.197249,3.367424,-2.665606,2.9873652,3.69317,-1.1742568,2.5828457,-0.23510599,0.17748976,2.6287193,-2.864716,3.0981112,-1.8449945,3.9505444,3.7482824,-1.6927457,-1.4472461,-0.8301749,2.2239962,-0.97010803,-2.7989702,-0.41481447,0.062865734,-2.6549654,3.399817,1.085978,-3.516666,1.0171742,-0.6786938,3.1951008,-1.6267667,0.14952326,3.0701437,-1.630795,3.8282385,2.5345201,-2.9848213,2.2697349,1.9985962,1.0241308,-0.5661049,3.5390759,-3.0171652,2.757886,3.1124182,-0.8126006,0.077870846,3.653267,1.4840803,0.90042067,0.045413494,-0.12366676,1.9570732,-3.575986,-3.963584,-0.10938263,0.6907449,2.8012953,2.9050794,-3.9252934,-2.7302928,-3.1108294,3.9431267,-1.1262159,-1.8408418,1.647306,-2.6996593,1.2031484,3.7927504,0.6807852,2.8802023,-0.32743788,-0.43999624,-0.9387994,-2.7135077,-3.4053717,0.36277533,-3.6925893,-1.9505367,-3.7515564,-1.0363345,0.45946455,1.1051965,-0.8130102,-0.15745354,-0.56490993,1.1906576,3.323247,1.1247468,-3.5495467,-1.0737705,-2.948688,0.38477612,-2.5265465,-0.01124382,-0.17491484,3.4270272,-0.15857697,3.6579394,2.6237073,-1.211431,-2.1764345,-3.5011964,2.9002013,-2.3868742,0.67461824,-5.0640106E-4,-2.617004,-1.7513947,3.367844,-1.7815452,2.0495024,1.5871987,1.5954018,-1.8654132,1.4119854,-2.4138274,2.7901888,2.2898774,-0.23105097,-3.0069294,-2.0117893,2.9428287,-2.7745748,3.0902228,-2.4277368,3.4142838,2.1432586,-3.0657568,-0.3010521,3.331585,1.4430003,-2.6143107,-3.980307,-0.5861044,0.16270399,-3.883689,1.7952251,1.2676339,2.3310447,-3.714643,3.4297514,0.9777279,-3.8969164,-1.1436453,0.6986785,-3.685471,-2.068029,0.3706622,-1.4800863,-2.0208764,-0.8707199,-1.1820378,-0.8435912,-1.0418482,2.4457202,3.0858288,-2.5055146,-2.145451,0.35310316,1.9945731,0.9013896,-3.2705183,-2.2771454,3.4188352,0.63430595,-0.11529446,-0.10354471,-2.6220727,-0.5154815,-2.8898225,0.17422152,-3.2182355,-3.9476452,-1.1794066,-2.91885,3.9124355,3.6437807,-3.5668626,3.0974345,-1.5078592,-2.734107,-1.8512921,-2.3129601,-2.2496314,-2.2911782,-1.533258,-3.6342716,2.2959313,3.4935884,-2.6088696,3.2904081,2.4868264,1.9220357,-1.9019146,-0.37994432,-0.33805037,2.0938845,-0.8121815,3.0149088,2.9674916,2.1900768,2.5070167,-0.44939232,0.116455555,1.3186827,-3.4900217,3.5976372,-3.5737376,-2.3374734,-3.55058,0.54925394,-1.3241811,-3.4357734,0.20495892,-2.5067663,-0.8761039,-0.33273745,-2.2553086,0.9597063,1.474165,-1.4411182,-3.825336,0.8092303,-1.6771269,2.9148712,1.788949,2.3475275,0.97199345,3.4353232,-0.15894413,-2.8138251,-1.6522517,3.5172853,-0.10792351,2.6574159,3.670815,-1.6075459,-0.8461323,0.30635405,-0.35568,2.2486095,-0.5367508,3.820507,0.047917843,-3.3398151,2.247223,0.53528357,3.1650114,-2.3910651,2.546174,-3.680243,0.46444225,1.7380261,-0.04659462,2.2704182,-2.9280896,1.6347432,-3.0681815,3.4167652,-1.9110069,1.3862534,0.73360205,-0.10814428,-1.3369994,-1.9676828,-2.9470239,0.18873167,0.41809464,2.6062121,-3.8130088,-2.2198682,-0.40885162,3.0933852,0.09157944,3.2195268,-1.2361555,3.8541536,1.1511159,-2.3135042,0.859499,0.9850373,-3.7937694,-0.26580238,0.11819363,3.9907951,-0.4919567,-1.1886125,1.7409811,2.3887768,2.5139766,2.1615162,-3.9076605,-3.0233836,3.1623802,2.267137,-0.3163085,3.0963602,-1.5630646,-0.44549084,-2.8312254,-2.919289,1.2587647,-1.8287725,-1.5720153,-2.947085,1.2509222,2.9942074,1.2926121,1.3788333,3.5580263,-3.563231,-3.0248337,2.4706173,-0.8501997,-3.9528203,1.8678532,0.5740814,1.9927673,-2.6028533,-1.2882595,2.019043,-1.1341586,3.5427113,-0.4866619,-0.3185172,-0.22531843,1.7221222,-2.0927687,2.7310967,-2.1370654,2.380814,0.4721756,2.8755484,0.027478218,2.6529708,-2.0323434,0.14625692,1.3460627,0.77756214,2.3575168,3.807685,-2.2291346,3.4045591,0.240798,-3.6543264,-0.1929946,3.2995577,0.9565935,3.9581594,-3.8174205,2.652573,-2.1665254,-3.0835276,-0.44719076,-1.7653532,-3.8959932,-2.904871,-1.5829611,-0.6555767,3.8150806,1.5154305,-3.3598795,-0.7086811,-1.8256803,3.671053,1.8607368,0.6426673,-2.6542754,-1.4149938,3.8650336,1.314529,3.5330615,-1.0053711,2.5560708,-2.3699064,0.6813617,-3.0924892,0.93468237,-2.3489923,1.3243136,1.2741942,-0.37314034,-1.5240631,0.6723666,-0.9339781,3.6733532,2.9924173,-0.737875,-1.8636446,-3.1096425,-1.9170027,-3.713923,0.51346636,3.0924659,1.970046,-3.3679576,0.98141575,-0.55785084,0.8057461,0.8478756,-1.1659136,-2.6196666,-3.5299716,-3.5018735,-2.4550095,-3.1481419,2.6498308,2.1094623,-3.085659,1.3441677,-2.4166026,0.14987469,-3.7069983,-0.2908206,-2.5663214,-3.0829835,1.1230922,0.5633664,-2.6994052,1.1125326,1.7850618,0.61128855,-2.2867656,-1.8339806,3.2337399,1.4896784,-3.494637,-2.4166484,3.8990784,0.28426647,3.8411636,-0.10643673,-3.2962093,-2.0436006,3.5182676,2.9453979,1.817699,-1.6172771,-2.6478233,1.7730479,-1.9398589,-2.9646711,-0.6145959,2.0495863,3.9350557,0.6133685,1.9364314,0.9402065,-1.4788089,-1.0932403,0.30316257,0.24467802,-0.6499319,-0.8201413,-1.4167042,-3.0065064,-0.38030672,-1.615643,-1.9847741,-1.3259578,-2.6296344,-1.8522258,1.0480514,-2.8240972,-2.5269284,-2.0366735,-2.2866988,-0.852962,2.4587321,-0.81980944,-2.3855543,1.1593637,-2.519248,-2.2631516,-0.08161354,2.931943,1.3117533,-3.8041735,1.1963,-3.4830809,0.61085224,-3.7476954,-3.9853039,-3.893581,-1.7318139,1.8533449,2.1417017,2.8819566,-3.928595,-1.644599,2.5536733,-2.3594446,-2.9976296,0.36692858,2.673616,-3.0421872,3.044084,1.2968392,-0.8591666,1.1766095,-1.534183,2.0098224,0.7210727,3.9551592,-1.7087655,-1.1472421,-1.3365006,3.5086098,-0.70208216,0.7640891,-0.034617424,1.698607,2.8297992,-3.0632672,-1.1872058,2.0540686,-0.56545734,-0.07359648,-3.753831,-0.44193745,-0.501431,1.1576691,0.29857063,-3.8509097,2.4010892,3.0812483,-3.957707,-2.4755936,2.1279755,-2.9954896,-2.1487222,2.787252,-3.2156258,1.7044635,-3.4369216,-2.8368597,0.15447283,0.81522036,-0.9499321,0.46166086,-1.3644357,-2.2383575,3.0555491,1.8437061,3.9043627,2.4140787,-0.7882385,1.0586958,-3.9358468,-3.9825544,1.2536998,0.5562463,-0.59527683,0.27788687,-1.9793949,-0.70903444,-2.9591932,-1.6265478,-2.5338573,-2.208363,-0.538075,3.3182354,1.2740626,1.9461017,3.4347172,3.403747,1.6187811,-0.62532234,-2.1189733,-0.15643835,-2.9347982,-0.7329383,2.5689068,2.3589869,-0.3605342,2.8044076,0.082145214,1.9912763,1.9175391,0.06867504,-1.9152594,0.26126432,-3.1080818,-1.4304476,0.002726078,2.8968039,-1.1664715,-1.26577,-1.3352699,1.3136511,1.9365048,-1.9288135,0.05743885,2.0929494,-0.08681202,0.024969101,2.1704988,1.6998467,-0.28424168,-3.8012414,0.060237408,2.1095586,1.144669,-3.3255892,2.0106163,1.9509511,-0.6671314,0.26967335,0.39593887,-0.029994488,0.1638875,3.028483,-1.9391894,-2.5920873,-2.0883403,3.9567137,2.3614874,3.2576036,-0.7743468,-0.46847486,-3.7831254,-3.0902162,2.5968947,-1.0083866,0.47988653,-0.3484006,-0.6759677,1.6472607,-3.3315926,-3.3105245,1.5740609,-1.1528053,-0.27742147,1.3089662,-0.65498924,0.8429203,1.2393351,2.5602589,-3.9419084,-2.735496,2.95889,3.194786,2.3298168,2.553749,2.648973,0.8278289,2.5208068,0.40548277,-3.4160533,1.4405613,-0.6274066,-1.4158039,1.3051972,2.9643102,3.9971585,2.5757399,-0.8407054,2.0363655,2.371409,3.191153,0.24911594,2.9321413,3.1306777,-2.1239247,-2.9667397,3.6393056,-2.2030854,-2.8663425,0.12843227,1.1473398,-0.31115913,1.8054552,0.29091597,-2.9926744,2.8382702,2.2625527,-2.4154868,-2.5767856,1.59938,-2.2477875,0.016300201,-0.4560485,-1.2687378,-1.2373481,2.195983,-3.1628518,1.1288686,3.474298,-2.267613,-3.333869,1.7688713,-2.050983,1.1294789,-0.6853533,-1.3547564,0.08347368,-1.9829154,0.18389463,-1.5601702,-0.44197226,0.9060159,-0.1736021,3.4762201,0.7124071,1.6763701,1.6071134,-2.6639476,1.7629747,2.199215,3.4456615,-3.3041272,1.9576855,1.4884796,3.2712064,-3.0848851,-1.3170218,0.3394766,-1.8851352,0.24197721,-1.6441793,-2.5841227,0.40020323,2.8992734,1.9430904,3.2059784,-0.1781578,-3.4129925,0.5634012,1.3145471,2.7021327,0.037839413,-0.11748886,3.4461918,1.9877229,3.2560053,1.5765824,-3.4470406,-3.1817331,-1.844984,-3.7031074,1.4704337,3.2200294,-1.195159,2.2391934,-0.4141178,0.92432404,3.8506408,2.1397977,-2.5732274,-0.8138857,-2.5572834,1.452785,2.4110065,2.0082836,0.9165726,0.39740515,2.3694224,1.2136264,2.303043,-2.0839868,0.9691901,2.8260317,2.4767776,2.3896508,1.0915732,2.3262553,0.4371705,2.8848104,-1.0680904,-0.7373729,-1.9455123,3.0400333,-0.3985834,-1.2254305,3.9257412,3.3588676,2.9523478,3.8035278,-0.78488874,3.195382,0.9779444,3.7233276,-0.9272518,-1.7359958,2.3393383,3.0466895,-3.8711123,2.8659558,-1.6491079,3.6082,3.46771,0.6140628,1.2462082,2.6630015,2.3426003,-3.7047124,-2.9929585,-1.2235975,0.7716651,0.30004835,0.84938,-0.060894966,-1.7550445,-1.9417319,-0.8671222,-1.622694,-2.5969834,3.0682611,-3.3756118,0.013173103,-2.844429,-1.0749869,-3.538568,1.0706534,-0.13043642,1.4132705,1.7097955,1.1408238,3.662806,3.017129,-1.9010625,3.9715667,2.3133707,-3.474392,-0.5177002,0.804883,-0.21899748,-2.1779532,-2.935245,-1.6468987,-3.0945635,1.0981474,-1.1508675,-1.7907233,0.692996,-0.079835415,-2.4141822,3.9786606,-0.9525633,-1.2908249,-1.6033349,1.6739049,-3.7109165,1.8185935,1.9446778,0.538146,2.9081345,-3.335752,-3.583044,-0.3261032,-2.591061,-0.92562723,-1.3119712,-1.4867153,2.6423492,1.5929651,-3.033228,1.7432289,-3.361711,-2.0709257,-0.73959064,-3.1008668,2.7107058,2.7608695,1.4964437,0.18922901,0.70745707,-0.034216404,-2.3644028,1.5603294,1.0386853,2.9707413,1.2187185,-2.458932,2.9842243,-0.1614914,1.2760086,1.6022058,-2.6761851,-0.9083853,-2.7294106,-0.11810398,0.24873066,-1.0868769,1.7582479,-2.0115304,3.6201468,-0.3320861,1.8538928,-3.3091602,-2.1165075,3.6980228,-0.33925295,0.7386894,-0.6005044,3.7251573,-2.076725,1.5476551,-0.19310808,-0.7682705,2.817258,-1.60959,2.6091967,0.802752,-2.3770542,-0.97063494,3.9238262,-3.8662615,-0.20222902,0.012267113,1.8164883,-0.5915446,0.55645084,3.354807,-3.437488,-2.1860232,-0.5137596,3.906046,-3.650096,1.5031538,-3.8935037,-0.190454,-3.6882558,1.3752894,2.882316,-1.7628164,-2.5815973,2.288649,3.404685,-1.2897997,2.8682365,-3.9675522,2.7620978,-0.81522083,1.5092454,3.4852395,2.1838303,-0.3562374,3.9489727,-3.5897818,-1.4092808,1.8037395,1.9359708,-3.550095,-2.3716793,-3.0559158,-0.98119116,-3.1278849,0.08741045,-2.356751,-0.7718868,2.9000072,-1.5291657,-0.15575886,0.5288906,-2.9294996,1.1014829,-2.7326822,2.1246252,3.6714482,1.9664989,0.47005892,3.5567455,0.19777346,-0.03450966,-2.8252807,2.2532825,3.8543067,-3.991581,3.8166509,-2.8157587,3.957449,3.2496448,1.217197,1.1486616,-0.18696117,3.5312953,-3.9236274,1.6448989,2.0629778,0.8493695,2.4663777,0.08158207,-1.9876227,3.4826808,-0.8368354,-1.7826352,3.111247,-2.4043117,-3.4186025,-0.75676346,-0.7658615,-1.9757795,-3.995182,2.037171,-2.0332675,2.085958,0.08079529,-2.8524747,-3.3157935,-2.7419481,1.1512523,3.4442,2.3313603,-0.80973434,-1.4761839,-2.314559,-1.346982,-3.3436694,-1.5265245,-0.8213835,-0.035812378,0.6966319,-1.5422049,1.0856462,3.80695,0.50468636,0.2044363,2.6833048,-1.9459248,-1.1840401,-0.91010666,-3.894288,1.8520555,-2.946797,3.2995539,2.9661946,-0.46241236,-0.2245059,-1.0070181,-3.901207,-3.7743278,-2.2986603,2.071279,-2.0788507,1.6934214,1.4873586,-2.2429338,3.1708221,-3.36452,-2.5739717,-3.7214208,-3.2985878,2.1337233,0.28656292,-1.6508188,2.4636307,3.6796513,-3.2050195,-0.6711631,2.6849227,0.35171795,2.9906702,-0.95374155,2.669704,-2.5541997,-0.7099395,1.9761791,-2.2338886,-2.725861,-1.9588642,-3.8429604,-2.795403,-1.0995011,1.2983937,2.876841,2.1541166,0.80600214,-0.7558546,-3.6493497,3.0333529,-2.9548178,2.0116825,2.5887203,-2.4473433,2.144343,1.6365776,0.2610345,0.96756697,-1.7716494,0.6070242,0.0788455,3.5421228,3.6765842,-2.7394524,3.1379914,-3.6799335,0.66800976,2.4653368,2.529036,-0.8202419,-1.4317279,1.1377864,-0.33285666,-1.8755236,-0.84763,0.81630325,-3.793395,-3.7208982,-3.3160167,-1.5070739,2.682692,-1.3027372,-1.9491057,-0.91843367,0.3935089,-2.4748015,1.2742596,3.2825847,-2.6515756,-0.85984945,-0.8181815,0.32071686,1.8439188,3.5273728,1.9004931,-0.6550636,1.4839516,2.4511318,2.7463713,1.567421,-0.033256054,-3.8933034,1.3587575,2.9922857,-2.9352427,-3.7674112,-1.5460577,0.47586346,-1.0937982,0.56057024,-2.0973792,-0.37303495,-2.4738245,-0.44463253,2.1265402,1.5804753,1.9200969,-2.6578283,2.854063,2.9686866,0.352993,-2.6420422,2.4849281,-0.39525414,-0.06797409,-2.4621778,3.7306628,3.739304,-3.4620776,-1.1697655,-0.51710606,-2.362288,-0.13970613,0.7206459,-3.6937017,3.1587353,-0.1562357,-2.4484563,3.470171,0.6295552,-2.697115,2.2041965,-2.4383469,1.3636246,3.4056377,0.7232156,3.628592,1.5405173,-1.6155982,-2.58495,3.269895,3.868126,-2.9387927,-3.3440928,0.54011345,0.6101918,1.0474324,-3.9513307,1.001945,-3.555996,-2.101574,-0.25751162,-0.59057665,3.5970373,0.7973952,-0.13183689,-0.37516928,-3.694932,2.8618412,-1.5325036,1.3778944,-3.5292263,-2.1135602,3.4508595,-2.0943336,3.2387514,1.8601036,-1.425509,-1.4702888,3.9231534,-3.8514266,2.882956,-0.37712717,-3.6645174,-3.3311396,0.33297157,-2.3949275,3.195384,2.1747313,-0.6522155,-1.3746886,2.2242846,3.0247893,3.9168105,0.09941006,3.1033154,1.2430711,-1.2514257,0.56907177,3.2308726,-1.3419147,0.22648,-3.6583405,2.7743063,3.396339,2.9518862,2.6007032,2.63231,-1.3877211,0.057662487,-3.6913576,-0.50750923,-0.715281,2.9332166,2.0447626,-0.8098793,3.0518236,2.3391433,0.34672308,0.18199968,0.8691287,3.0515752,-1.8074088,0.4015479,-0.14054346,2.2331967,0.63592815,2.440476,2.8065033,0.87515783,3.5783176,3.4164634,2.6768928,-3.7880025,-0.85419416,-3.3319397,-1.6848464,2.4255452,-3.3328753,-1.6747336,0.64398813,-2.2061138,-2.0036454,0.71982145,-1.4551301,0.40316916,-1.3300962,-3.4691129,0.9430499,-1.556355,3.5514088,-3.3575788,0.9529753,-1.0978923,3.2374563,1.175859,3.3565545,1.2112484,-1.76406,3.4386215,-2.0858707,0.31757593,1.0764937,-2.8967943,-2.601915,0.0038576126,-2.0172062,-1.5639572,3.768211,2.5947928,-1.9312773,-3.412274,-2.822136,2.9561515,0.37843513,0.71941376,2.7372055,-0.33678055,-2.7366176,-1.917943,-0.9841771,0.18439293,-1.0086484,1.2183385,1.6185503,-1.1545248,2.1526575,-1.5202918,1.916707,2.2799463,-2.969182,-2.574553,1.8889866,-1.774446,0.92845345,0.90508413,-0.6267147,-1.7817369,2.3977847,-1.6474104,-2.1704998,0.4062643,0.95807934,-0.20168352,-3.434712,3.929686,-1.6462693,3.2155552,-3.491479,-3.218853,3.505455,3.0705323,-2.1267376,-0.4012885,3.4473596,1.4706011,-2.0629053,-1.608582,-3.2364883,3.3630185,1.7280998,-3.1713238,1.0031075,0.20890379,-2.5636897,-0.3661852,0.5525255,-3.0484705,-2.8314533,0.12914848,-3.6105285,-2.4521585,1.2338338,-0.46947908,-1.4218202,-2.4051785,3.0805779,-1.2463956,-2.550758,-0.4591589,-3.4670486,-0.032337666,3.9322233,-0.3657112,-1.0559263,0.7352929,-2.1122198,-0.7396755,-3.2259068,3.2541904,0.55763817,1.9094071,-2.986206,-2.9604945,3.0795488,-3.908883,3.5353765,2.5482593,-0.31068563,-0.43851233,-3.7867732,-3.9292307,-3.3328419,-1.0955248,-3.5047455,-1.8564582,1.8202739,-3.443932,1.621429,1.3438072,0.49126434,0.6657162,2.1069388,-3.696785,-2.467443,3.7620726,2.2845497,1.9474139,-2.1962934,-1.8387599,-3.8891897,3.2746825,2.5709434,1.6836934,-1.8147097,2.5007071,-1.6196585,2.91355,0.7375994,-0.6866026,-0.1732521,3.448742,-1.4448819,-3.3784628,-3.9359102,-0.014320374,-3.5683079,-2.010531,1.437985,-3.5849419,2.3156028,1.4971333,-3.5672183,0.25926685,-3.8495436,-3.2539535,0.0012674332,-2.235651,-2.7131753,-3.0326052,2.7004318,2.9033027,3.77207,1.6237874,-3.07014,2.7106595,1.9023457,2.6015358,1.6246634,-1.8665786,-3.1291227,2.2610307,2.2813783,1.458487,1.5218215,-3.4308887,-3.8929663,-0.00561285,2.0958738,-1.2753983,-2.082325,-3.1966429,-2.9661336,2.6767597,3.3371077,0.78126144,0.6144757,3.4215007,0.6485324,-3.7245026,-1.7066259,-1.2376842,-3.2548456,2.8475409,3.5602913,-0.7129779,2.049831,0.98506117,3.0390353,2.708253,0.6924381,-2.0686283,-2.8498135,1.6401844,0.93592787,3.8351517,3.2883754,3.6567326,-3.2578912,0.7637491,-1.8875184,-2.4573584,-0.9949479,-1.4732747,-0.19081783,-2.4211488,1.5177798,2.6054401,-1.7053099,-0.8074212,3.96557,3.787262,1.1177688,2.1709776,-3.4290676,-0.50783825,0.79577065,2.8303943,1.4900455,-3.487114,-3.443931,-1.8785982,2.3423524,-2.6496224,2.6944299,3.8282871,-2.3669105,-0.9785328,3.3511329,0.11081505,3.216864,-2.2211332,-2.5784397,-1.9188166,-3.1119647,3.372005,-0.8378525,-2.519538,0.83470106,0.17405796,-2.9485154,3.5117464,-0.15343904,3.7134442,0.47167444,1.3221159,-1.7631092,2.0099049,-0.7367835,3.447524,2.464429,1.8838634,-2.7206469,3.8143349,-1.9138765,-0.53408146,1.4495301,1.8236046,-3.7744236,3.9887943,1.907886,0.94978046,-1.8813872,-2.7702317,3.4281754,0.60946274,1.0358624,0.44525337,2.332683,-0.63131523,-1.853467,-2.8163257,0.4361558,-1.4460106,2.466824,-1.014144,0.29810572,1.8338618,3.344674,2.8166442,1.564529,3.288011,0.0088739395,-0.6247754,1.5848083,-0.047014236,-1.7809825,1.5873947,3.5177755,2.018921,3.2824187,0.09869337,2.144246,-2.9258504,2.5690079,-0.9043622,-2.4416776,1.4973493,2.6944542,-0.95887136,-0.5820265,-1.1489482,-3.0806623,-3.197805,0.7233844,1.6311212,1.8172393,-3.818489,-2.9890738,-0.20554161,0.31115198,1.1712437,-3.1221628,-2.9329462,2.804731,2.5867138,-1.0105691,-2.803102,2.0066166,-1.5092096,-3.1065826,-0.7435322,-0.5484853,-1.5042553,3.4262686,3.1378765,-1.4251246,-1.7397056,-3.778916,-2.034411,3.0380254,0.04352379,3.4166574,-3.152814,-3.0085287,2.9171624,-1.6500468,-0.11266041,-0.1050787,1.1810765,3.6406026,3.5242195,0.79737616,-1.1933408,-3.8772202,0.95632124,-3.341457,2.606845,-2.3513904,1.7814989,-3.9721642,-1.3174095,3.604515,0.16411018,-2.5215726,-0.96837425,-2.6006694,-1.7990599,-3.464707,-0.3410802,-2.8229613,2.117301,-3.023057,-2.1425471,2.179264,-3.9383001,-1.5052748,-3.584704,3.7597208,-0.7239666,-0.44985485,-1.6414323,-1.1137958,-1.8812532,-0.7062168,3.5922928,-1.4679599,-3.2439318,1.638032,2.710414,3.7596889,-3.6183763,0.674191,1.6949487
0.26103067,2.7727752,-1.1185646,-1.2795725,2.9932585,3.163179,3.9049196,3.456037,3.3129187,-3.74928,-3.3781576,0.8721838,2.264906,-0.76165295,-0.06828022,2.4932861,1.6548405,-0.18216181,-2.0104833,-2.697703,-2.926342,0.77338886,3.861651,-2.7724032,-2.3708735,3.348507,2.864335,1.5872583,-1.1282163,-3.2437057,0.8053179,-3.5878997,3.0091753,0.41513348,-2.7171707,-2.2747684,0.33370352,2.9793806,3.013578,-3.7452607,-0.17748165,1.4531908,2.4039845,2.4556246,0.70421696,-2.8045778,2.4095464,-3.0001683,1.6532302,-2.860056,-3.0646,-0.93293,3.020247,2.8889565,-1.9691978,-1.0330753,-1.3875914,-0.56757355,-1.0395093,1.1022649,-0.89815664,-3.8252592,-3.439262,0.42803097,0.89200544,-2.0944667,0.39646387,-1.1240697,-0.44023085,-2.34438,-1.9579182,0.3371687,0.7938528,-0.5235872,-2.1481304,2.4799576,0.66854095,-1.3575892,0.029661179,-0.1910677,3.3522954,-1.7033486,1.4415884,-2.042367,-0.19463539,2.9586854,-2.1464381,-2.6243615,3.1453996,-2.46094,-3.8438244,2.5866323,0.2569666,1.6236792,2.3278756,0.43539095,-2.3837314,-3.9988203,2.6715531,-3.2817016,0.54788923,2.026846,-0.8456831,0.93624353,1.2025657,-0.10706711,-3.975902,3.3785238,3.045373,1.7778912,0.43402576,-0.77556896,-0.20110083,-0.12882233,3.3652306,-1.1566291,-2.5524836,-1.7635527,0.11496019,2.1174593,-2.4467125,1.329206,0.048690796,3.6603785,-3.1370335,-2.2041626,-2.1336722,-2.3543382,-2.2745032,-3.855433,0.5927229,0.094317436,-0.45804644,-1.6842804,3.785572,3.5386395,-1.6884127,0.53389263,-2.4015203,0.7339592,1.9200473,-0.33131647,-0.49249983,-0.5841975,-0.63441896,-3.6412845,1.4950023,-1.9957466,2.4875708,3.186215,1.6991897,3.7730713,-3.5742788,2.1715946,1.0201979,-0.4138975,-0.90081596,2.8597288,3.5883803,2.240573,-2.820644,-2.5128384,-1.3636942,-3.746255,-1.3103142,-2.527297,3.0871186,1.2190137,-1.5229573,-2.7919817,0.6173992,-3.6024227,3.963677,-0.5897498,2.2364874,2.8851962,-1.9669695,-1.1692634,-1.6644683,3.5080338,0.47826242,2.7127738,-1.8876925,-2.3100233,1.6258426,3.0025105,-2.688795,1.1539917,3.639552,-3.9893227,3.9957747,-3.1452336,-1.6607614,-1.8056693,1.8828936,-3.503059,-1.5147309,-2.7026033,1.52704,0.0054883957,-2.6395898,-1.2981324,1.8894238,-1.8599949,3.7273445,3.0683475,-2.2761765,3.9657264,2.0788054,3.8805513,1.5480733,3.1186948,3.3799438,-3.826314,-2.8388066,3.8635983,0.7055683,1.4666591,3.7503047,1.0980849,2.3999124,0.8030958,3.2727275,1.0897136,-2.6398888,-2.968472,-0.7138667,-0.6510644,1.1182241,1.3411264,-2.3526874,2.2763748,1.5469294,3.0613241,2.0471663,1.8330693,-1.1574593,2.4019246,-3.640079,-2.6489868,1.1723042,-3.1498876,2.0474296,3.7361455,-2.1374145,0.17250204,3.7887526,-1.1503673,0.72712517,0.3392868,2.1401577,-2.9562216,1.191577,0.26400805,1.0351963,1.0588813,3.9886088,-0.7682781,-2.4022217,3.2647543,-3.2714634,-1.4092169,1.9771347,0.18815565,-0.42974043,3.1543398,2.2613955,0.16292715,1.1278529,-0.63272524,-2.8498368,-2.3440256,-0.124014854,1.3380747,-3.244872,2.3671708,-1.4859691,-1.866777,-3.9346275,3.707654,-2.5091672,1.2295494,-2.7002687,2.9865885,-3.7188568,-0.21217394,-3.7636008,3.964148,1.7673817,-1.3559222,-2.051015,0.86599016,0.56803274,3.9339085,0.102508545,-0.8652892,-1.6566114,1.5149298,-3.3886018,-2.125544,-0.39809418,0.40343475,1.1985431,2.0088649,-0.4471612,2.989099,-3.9911575,-3.372373,1.9544969,0.6560168,0.33662605,3.9759674,-3.830865,1.5651336,-1.2372146,-2.6978397,0.8565607,1.8123755,-0.77142096,-2.2965307,-3.35431,-3.8361082,-0.9121361,-1.2913761,1.068007,3.405035,0.8920684,3.2377963,0.9957881,-1.5315828,-3.8884082,-2.453116,-0.59744835,-3.5011625,3.34756,3.67457,-1.3198924,-0.4355898,3.6280684,-1.224112,-2.142675,-3.3458223,-2.4727707,1.6777129,-0.6531143,-1.1418781,-3.8673916,3.287528,-2.6005569,0.27616978,-0.018974781,3.5097938,-2.003749,2.4437704,-0.7267246,2.582099,-1.1869006,0.2132721,-2.120839,-1.1312251,2.1168265,-2.4620738,0.39438152,-0.09932232,-3.3876934,-2.960791,-2.025641,-3.290856,-0.43074322,-2.7063956,-2.363954,1.2775464,0.8759842,-0.7276597,0.601244,3.3582196,-1.5321198,-1.7478838,-3.9069977,2.233623,3.9636335,-1.1430631,0.45433807,1.6212301,0.038332462,-3.1139383,0.8248825,-3.660358,-3.5785794,-2.448855,-0.1998229,-3.7984085,-3.5945773,0.13212776,1.0492764,-1.3643255,-3.0099564,1.4367218,2.9431252,-0.35439682,1.4921942,-2.4922972,3.6379333,1.9013567,3.4773235,-1.4140582,3.1785336,-3.846393,-3.3123603,3.3506045,-2.9244776,3.0290356,2.3600187,0.99139357,3.130948,-2.017538,-0.33289814,-1.0834613,-2.6705537,-1.7401648,-0.66906786,2.1846838,-1.7108698,-3.2029958,-3.2740426,1.5142307,-3.3817515,-2.1995301,2.60893,0.5403948,1.7137256,-1.7890348,0.21374321,1.553463,0.85523224,-3.6535654,-2.3189282,1.0819378,3.3074684,3.8906398,3.132443,2.3265796,1.5829601,0.2950244,-3.7524061,-0.32372856,-0.2981181,3.9774141,-1.3107824,-0.46066952,3.5033765,-1.0605607,-0.5079293,-3.1752424,-3.2715135,3.218062,1.5704293,0.052230358,-0.75265646,-0.3069501,2.4006176,3.8277411,-0.39339733,3.074541,-2.0696383,-2.0110693,0.81645966,-1.5992966,-2.2944078,-0.07923937,2.3938818,3.217832,2.564611,1.3134103,-1.8309188,1.0517745,3.1307774,3.050593,3.9097824,-2.806831,2.4646788,-2.8268967,3.7115293,0.7174654,1.9666252,-2.720334,0.2562461,2.6768312,3.9268641,-0.24960136,-3.0054564,-0.7073226,2.605682,0.3776722,-1.7760849,2.6274767,3.6151123,0.060249805,-1.2959251,3.6305923,3.5198832,-0.020463943,-0.7137275,-0.23219919,0.4540391,-2.9230418,-2.9253888,3.9159102,0.2629738,3.7591953,-3.4518266,3.2151332,2.9549184,-2.2315083,-0.85774183,2.6304975,2.432866,-1.6110239,2.9292722,0.7123785,-2.4460263,2.0620294,3.7938771,-2.7769742,-2.8696885,1.6246462,-3.9730678,-1.2064581,3.7688856,1.4597178,1.3576484,-3.398017,-2.6981702,-2.3234563,-0.48273754,-3.6491327,3.4559817,-3.0310507,3.5194736,-1.1707487,-3.5436096,0.09750652,2.6169796,-1.5465484,-1.8228493,-0.79321766,-2.3612905,-1.1007361,-0.40308142,-3.2613902,0.042870045,-3.1000047,0.66206264,-1.0165653,1.0757823,3.2465653,1.809247,1.8940673,3.0696754,1.8711743,3.577867,-1.6349082,-0.06670904,-2.3675923,0.80270576,-0.42306805,3.7013001,1.179913,3.2950835,2.1615906,-3.3487272,-0.6811743,1.7981,0.9375715,0.6342931,-1.9993248,-3.9350352,3.9798427,-1.8136258,2.9464607,-1.4896064,-1.8428183,-2.3933792,2.5916781,-2.999814,3.429185,-0.95628357,2.290196,-3.4250274,-3.2810607,1.8888116,-3.5932326,-1.5227385,1.7601466,3.2193232,1.0744934,-2.3820734,3.7796793,3.0886168,0.12648153,0.055663586,-1.8365583,-1.849966,-0.71187305,3.2723556,2.435326,-3.8956094,-3.4793239,-1.2648277,0.15130568,-1.9431143,-3.0541763,0.79426146,-2.0064125,-1.0235429,0.68785715,-1.6504393,0.888607,-2.3929825,-0.99786615,3.533152,-1.0622377,2.5497942,2.0992136,0.12126255,-3.96352,-0.39179707,1.1306643,-3.6359496,-3.9141922,2.2754302,1.0081339,-3.1217508,-3.3834682,2.4891868,2.3396268,-1.7108436,-3.480876,-0.8579984,-1.8311849,3.1609025,2.598999,2.608068,2.90245,1.768981,2.1758409,-3.3570042,3.440374,0.42322063,2.3635259,2.970017,0.840044,0.94432163,0.5736866,3.849259,1.7356939,0.75927067,-0.12343025,3.7246957,-2.8009152,-1.2379699,-3.052154,1.0704021,1.9070497,2.0623584,-3.6252694,-3.1471963,-0.37146854,2.11906,-0.8404889,-1.7471743,3.5433545,-1.749052,-1.4613724,1.7402358,-0.7356291,-1.5091252,-2.9488368,-2.8238816,-3.7132902,-3.828074,2.5872598,-0.122600555,-0.3095727,-2.8881721,-3.5050893,0.6736617,-3.841279,0.018368244,1.4180818,-0.2896986,-1.2491412,-3.3732843,3.200541,3.5173397,-0.48011732,2.5755334,3.8633652,2.7090845,-3.7522054,1.2342486,-1.5797491,-1.7296987,-2.331872,2.33536,1.3287063,-2.9912581,-0.9346256,-3.3052416,0.007319927,3.325799,3.7154665,2.4963212,-0.4751358,3.5158138,-3.9807453,-3.8239832,1.8563313,1.5141759,-1.7355728,2.0920377,3.6994243,1.1639261,1.7384748,1.7626061,-3.427176,2.074154,1.5388627,0.9686227,-3.2799077,-0.9599061,2.1443748,0.5558419,2.2905998,-1.5513792,-0.993546,1.0572939,0.55673885,3.392777,-2.4009237,-3.3571858,2.8752089,-2.7208147,1.1630917,0.36534357,-0.84537506,3.0717373,-2.4461489,3.8146734,3.3224468,-3.8621688,2.0321088,3.3351321,0.38655567,-0.26119232,-3.4644923,0.765851,-1.018981,-3.0519366,-0.9358487,-0.30268288,2.7170148,3.2277474,-0.4332533,0.60746336,-1.7011662,2.7120004,-2.4936981,-2.3288941,-3.5933475,-2.279582,1.6242437,1.8797216,-3.887302,1.0739303,-3.0581398,0.34088135,1.5308042,0.94558287,-3.5039701,-3.1502876,0.071504116,-2.585091,2.5850134,-1.7349024,-2.2189584,-1.604312,3.4075599,-1.267498,2.6033096,-1.412951,-0.95255756,0.84992933,1.9640522,1.5960484,3.0436602,-3.4249468,-3.0929775,2.0601969,1.6767101,3.7466989,2.307478,1.7499285,0.10136652,-1.1059685,-2.2302861,2.1677694,0.19909954,-2.4913187,-3.872366,-0.3779354,1.2664795,-3.2398834,2.5809011,1.3025832,-0.7176156,-0.030559063,-0.8906393,-2.6877627,3.5144644,3.8730164,2.7354498,1.32756,0.766819,1.2814298,0.39355898,-2.390428,-0.10585022,3.2729335,2.6870546,-2.8697257,-1.3045502,-1.7198834,3.8632812,-0.092695236,0.4604807,-0.31420565,3.2345786,-3.8356462,-1.0923281,3.815508,2.4645586,-3.8031945,-1.2196035,3.1011252,1.1938372,-3.0151863,1.842751,-1.0805454,3.093462,0.44872808,1.4437275,-2.966992,1.4277277,-3.8015327,0.33285284,3.153729,-1.4738059,-2.2717953,-0.73120403,-1.9838772,-2.722086,0.91462326,-0.4520588,3.2103906,-1.9356546,-0.31992388,-1.599761,-0.7595625,3.7615986,-1.3046727,-0.11229992,1.8125505,0.012732029,-3.4407997,3.2543716,-1.1703234,-3.5327883,-0.831512,3.498467,0.19018364,-3.1974287,-1.2300406,-0.72477055,2.1202483,1.9031768,2.8812714,3.2259617,3.8822103,3.5180411,2.918129,1.7222333,1.3988991,2.1242042,1.6352277,-2.802579,-0.6573653,-3.220397,-1.3326454,-2.7817655,3.9088912,-2.2200985,-1.5413408,-1.1404533,-0.19491673,-0.6172414,-2.7684722,3.5445232,-0.4639058,-0.69922304,2.5358148,-2.8184953,-0.913352,2.7862468,-1.8765697,-1.8228302,-2.5620794,-2.2429585,-3.1734457,0.8650117,1.488514,0.48897552,1.8190594,-2.6830902,3.9796176,0.9959254,1.7741818,1.7863574,-1.3226066,-1.4696841,-1.7138681,0.6725726,-1.3060341,-1.0164738,-0.58677864,-3.4719572,0.4083705,2.7936902,2.8643107,-2.9841175,-1.4179721,-3.152464,-1.6470332,-1.2595048,3.1763139,0.488688,-0.22623634,-0.46673536,-0.07588005,0.93748856,-0.47331238,3.2071686,3.35957,-0.86771584,1.567729,-3.741901,-1.1282291,-1.7105021,1.2604585,-3.1308837,-2.853766,-3.4549909,-3.86617,-0.62530756,1.4429798,-2.7972417,-3.8703775,0.6979666,-1.4901714,1.823267,3.3879275,1.9430299,-3.8553557,0.2053957,1.234972,1.1890182,0.7278123,-2.0557098,1.593379,1.6011944,-1.7023945,0.50756884,-0.05521536,3.3790045,2.4128814,-0.39446306,-3.722373,0.060157776,-3.7586932,1.1100378,0.8129263,-3.324123,3.7535949,3.0956507,1.0070987,2.713441,-0.053366184,-3.9432821,-1.7027164,2.420772,-3.3625703,0.43941593,2.8204727,-3.558024,-3.8329368,1.8900642,2.0668564,-0.0148563385,-0.4440875,1.7544522,-0.09058142,3.702302,3.1098037,0.18843317,-0.9000921,-1.66115,-3.331944,1.702702,-2.825017,-2.7559628,-0.28980875,1.1348848,-2.5603814,0.40779877,-1.8751197,-1.8849163,2.5768647,0.31039286,-0.055858135,3.3871999,-3.6122289,2.1725674,1.7343645,3.3129907,-0.26812887,3.9333014,-0.78495073,-0.91079617,3.0810385,-2.6577759,-3.7272596,1.3456326,-3.993081,-2.0574613,1.7030587,2.683792,-2.1914773,-2.4296026,0.22459269,-2.692482,0.39100504,3.5660405,-3.333777,0.2583742,0.093248844,-0.4365635,-3.539194,-1.9042916,3.7196312,1.0064244,-3.9653955,2.4737606,0.47437668,2.063342,-0.6600523,-2.588231,3.3642364,1.1365371,3.239952,-1.3021688,3.0909696,-2.4290662,-0.05474949,3.508656,3.288237,0.4646616,-1.9248643,0.7856307,3.5822034,-0.19244576,1.6459122,-1.8718886,0.4103651,-1.2221637,-1.5209017,-3.9821362,-2.5170212,2.2964063,-2.1020045,1.2694149,-0.49497366,1.3795366,-2.505361,-3.9699454,-3.7920551,0.077447414,-2.8232236,2.8756938,1.4084821,-3.4041986,0.24789381,0.13496494,0.88102674,-2.54744,2.1589465,1.2192717,3.0887208,-1.7683182,-2.3500295,3.2611713,-3.3184123,-2.2094526,1.7496405,-1.2871332,-2.8240638,3.917714,-1.3772745,2.801011,2.042438,-1.1956968,-0.724175,-2.9312387,2.8396006,-0.20607567,1.0022521,-1.0185761,-2.0510426,-1.654675,-1.8558607,-2.8266296,3.4371862,3.7366838,-3.1247911,-0.058470726,-3.2473426,-0.35645437,1.4878507,0.73995686,-2.8513632,-0.6584401,-3.0453248,3.5210848,3.3265805,-0.94672394,-1.1958575,-1.2524548,0.8497772,-0.86690235,-3.2962112,0.8342943,-1.9460115,-0.25113535,2.3095193,3.869409,0.7668786,3.9803014,2.2669716,0.023736,3.055859,-2.5535169,2.7176738,-3.4601912,3.9936986,0.454381,-1.1298656,-1.8404961,-3.77323,-2.888722,-1.6292729,-0.9970231,0.7413416,-1.1268444,-1.7972131,-0.9310436,0.062812805,2.7419167,-2.8686938,0.6336546,-1.76963,-1.9656978,-3.6034374,0.95279217,-2.070755,-0.2926116,1.169498,3.0138035,-2.5763454,-3.852528,2.5662208,-0.03652954,3.3296404,-3.2562728,-3.2447243,2.6954184,-2.6624947,-0.76691914,3.48075,2.492322,3.9023752,-3.398868,-3.6064496,3.2746887,-3.542295,0.26342297,-3.216229,1.731996,-2.7156577,0.46477365,3.1155734,2.3480663,-3.173893,2.579546,-2.716022,-2.8487926,2.6458406,-2.3446016,2.466971,-2.8838964,3.6525435,3.6251526,-1.8120556,2.839058,1.614666,-3.2513614,0.7092552,2.846251,-0.15416145,-0.20340395,3.7491655,2.246523,3.4714832,-2.865241,-2.0217733,1.1011004,-3.3532128,0.21585894,1.658773,2.6730018,1.9126115,-2.8266149,-3.380774,-2.416113,-1.4149742,2.491209,0.6049342,2.9161415,-1.6595554,-1.5194402,1.6457834,-3.3516335,1.2707806,-0.9619551,-3.2205105,3.8234682,-2.444243,-0.48169947,0.24474764,2.965497,-3.928462,-3.7097483,0.7119608,-3.9453468,-0.10975933,-0.46037054,-1.5224352,-3.4653249,2.5127587,-2.8597999,-3.3373804,0.18357325,-0.7683487,0.07487631,1.8039169,3.172577,3.280796,-0.7966571,0.9078646,-0.66037893,1.0580316,-0.47215366,-0.21948719,2.8079772,-2.004734,2.011157,0.6027274,1.9080467,2.5115194,3.08328,2.2643695,2.3562288,-3.542838,2.9940162,3.506878,-2.6205864,-0.2936716,3.0098238,-1.3235035,-3.3576097,-0.1319232,3.1233706,-1.2879267,-1.741425,-2.120463,3.575562,-2.6415467,-2.2126827,-2.4450445,2.3404317,-0.3894472,-0.9861264,1.6573968,-1.8240452,0.7808137,-1.3336692,1.0238695,2.4063768,0.6954346,1.3676038,-0.37607718,1.9068537,-3.660872,1.4953928,2.70535,-1.4331098,-2.6142445,-2.2009363,-2.4574008,0.69807243,-0.30045223,0.29504156,3.5429077,-0.56832314,0.9203315,3.9518476,-2.0039077,-1.7441993,-1.867168,-0.072366714,-2.3846025,2.7273998,-3.5338068,-2.2926493,-1.1270738,0.44497156,1.0020137,0.59876394,1.2729735,-2.909706,1.9389176,-1.9932475,-2.9558659,-2.6245122,1.5455785,-0.8409424,-3.1945672,0.8225384,3.6337242,-3.925932,-3.2630258,2.339047,0.3245592,1.2378025,2.4508028,-0.45574093,-3.3822212,3.5131726,-1.4731541,-0.12390137,0.17851925,1.1852584,-2.4088945,-2.069127,2.9357085,1.8220077,-3.4673886,2.6352901,-0.7380419,-2.0042624,-3.728723,0.2332716,3.0318909,2.1874957,2.3145947,-1.6794333,2.7092333,-1.1710958,-2.2837067,-3.9638247,3.3946404,0.99500036,-3.8614154,-0.09609699,0.70265627,1.4420285,1.3106189,-0.28221512,0.27899075,1.3064837,-0.31676483,-1.5855379,1.1949873,-1.2087417,3.543141,2.331689,1.4663143,-0.36817646,0.93231964,-2.0022254,-0.73589134,1.2552662,-0.29016018,-0.86023045,-0.62939644,-1.3619361,1.9073515,-0.42863035,-3.9457803,-3.6200275,-2.2945194,-1.2173004,1.40278,-3.9883084,3.060162,0.28606892,0.48447084,-1.2616849,3.024695,-2.917601,-2.6440163,-2.4906688,-3.4409385,-0.86499834,-3.6175041,3.4443955,-2.8681207,-2.271346,-1.323669,0.30258036,-1.6336908,-3.5648217,0.42688465,2.0566025,1.648386,3.6099148,-3.1647844,-0.9569955,-2.0813622,-1.4606981,-3.7408123,1.0496545,-1.6554322,-1.6939201,1.6207762,-2.356369,-3.6133165,1.0182877,3.3526115,0.730803,-0.28672457,-0.7310829,3.0177193,-3.4064069,-0.096803665,-0.31221437,1.7011251,2.4207525,0.940495,-3.5264425,0.44625044,0.6928873,-3.1860018,-2.7651935,-2.8807364,1.9151664,3.3778486,0.8323269,0.4824257,-0.5854821,1.9197011,-2.1666288,0.91946936,-2.3120604,-1.8392344,3.419989,2.7838073,3.6716166,3.8402634,1.0209079,-0.039616108,-3.0072627,0.40518284,-2.4327216,1.7958531,2.58744,0.048534393,3.239944,-3.4639401,1.9645987,1.4547005,-2.8625736,0.9160495,3.9364572,-0.2170167,-1.1675634,-1.6973772,1.0187273,2.9391704,3.808187,-1.8556509,-1.7549529,-2.0361147,-2.093083,-3.584515,-1.7110934,-0.055217266,-2.0603118,1.8500404,3.1106553,1.4012961,2.3814254,-2.7232375,-2.4567285,3.3847432,3.6162386,-3.8632603,-2.8814535,-2.0027986,-0.361979,-2.2308779,0.9605088,-2.301271,-3.2919612,-2.6112447,-2.1943717,-3.6916952,1.60748,-0.42116213,-0.65516186,-0.7016463,-2.6934385,-1.0663586,-0.5588856,-1.2500391,-0.26441002,1.1874037,2.8034697,1.7149386,2.6451616,1.3573155,3.9641137,-1.114152,-0.8347273,2.3376093,-2.394474,-2.8050418,1.6243176,-0.1403184,0.238554,3.6620069,-1.3984203,-2.7434459,3.886735,3.5275745,-0.6813164,3.1402583,0.8561454,3.107965,-0.29059792,-0.35537338,-1.9404869,3.1777563,1.3509746,2.6548796,-3.9615908,-1.0582972,-2.4734216,-1.5839505,1.2333722,-0.66247797,-0.22449684,0.68609047,2.759118,3.6793003,-2.7421374,-3.5968533,0.6458931,2.2969303,-3.8780007,-3.4785647,2.0287852,-2.7358503,-1.0519466,-1.2869482,-2.9501772,-0.4245243,1.5081673,-1.8646212,-3.6468205,2.8946977,-2.0846162,1.1521454,-2.8028378,2.543643,0.23723078,0.12218475,2.6981273,-2.356277,-2.5409117,2.1100621,-2.9935699,-3.1965947,-3.9454513,-0.7713747,3.863205,2.6262417,-2.762124,-0.4783225,-0.30540466,-2.6144638,-0.7548237,2.6869588,0.9872055,1.8871741,1.8488531,-1.997951,-3.899518,-1.1393476,-1.9879236,-2.3498216,-2.0213933,-1.1560168,1.5192423,-0.0241642,1.6217713,-1.2500162,-2.9175143,0.38310337,-3.0154428,-1.9664507,2.4560714,-3.4006987,-0.3669734,-3.839096,-3.7522373,-0.53557396,-3.417778,-1.923388,0.28180552,-2.500445,0.9474902,-1.6386495,1.5498481,0.10641575,1.1966362,-0.81282616,0.11671686,-1.1677508,0.83070564,-1.9537063,-3.9147134,2.800528,3.3195338,-2.781683,-0.7484064,-1.1144814,-0.73066473,-2.6614985,-2.094431,0.84873104,-2.5760813,-3.8500452,-1.0127959,1.4345098,-1.356143,3.104888,3.250372,-2.0580692,-1.9605236,-1.9119077,1.0997448,-0.7225952,-2.3508701,-2.0411806,2.358069,-3.2015715,-3.7257824,-3.7407527,3.5243154,3.8604083,-2.7478614,2.3577924,2.355722,-3.0230808,-0.8619294,2.147728,-0.76873016,1.62574,3.6715384,-2.5050278,1.2385583,0.33009052,2.344451,2.8375397,-2.0968847,1.6932168,2.8089213,-3.7778559,0.70675087,0.16645098,-2.1638613,-3.21525,3.9024315,-3.287407,2.2570634,2.030686,-0.36485672,-2.960423,0.10212135,-0.33979654,0.15410566,1.2003703,2.955698,0.15623093,2.2093663,0.18553019,-1.577642,2.5665445,1.9479856,-0.5986314,-3.239314,0.16177225,-2.730401,2.9807582,1.4977493,-1.1524396,-2.6991343,3.6919003,-3.3622308,-0.10701275,2.1610556,-0.605639,0.49288988,-3.1280704,1.3995361,-1.232049,-3.1126018,-1.5113392,-0.6019244,-3.7398453,0.33951473,-3.4124837,1.7794337,-1.6616526,-0.24756002,3.1681209,-0.2934804,1.2955408,1.2188439,3.3064137,2.2762527,1.7694402,-0.044113636,-1.1933203,-3.4830232,1.1457424,0.4613557,3.0950093,-0.5793252,-3.895608,2.160994,0.84912014,2.7391095,3.3335361,1.6728239,-1.6926031,0.8292036,0.10674238,-1.9583974,-1.0996509,0.65526533,-3.1538339,-1.2842274,3.214529,1.2768884,3.4544568,-2.4043188,-3.6286144,2.0293121,-3.8073044,3.2458053,0.34556675,0.52054787,3.937252,-2.4695168,-3.1520796,-3.965557,-2.8833904,-2.1774073,2.0719457,-2.4260983,-3.5134625,1.9929781,0.38774633,-2.638462,0.75004435,-1.8144035,-2.8712702,-2.9811544,0.0938859,-0.38543558,-3.2575765,-0.12254381,0.84758234,-1.895061,0.18191099,-1.9300947,-1.8495002,1.7843671,1.5375986,0.4604602,-0.16088152,0.28812742,0.21433973,2.4917274,-1.533289,-3.7392635,-0.2645321,-0.85221815,3.79286,-0.8563447,0.4170742,1.102272,3.2071037,-0.32411528,-1.758069,-2.5118475,-0.01891756,3.7728267,-1.5630374,0.47718048,-3.796575,-1.8161016,-1.6899533,2.9999313,-0.40715933,-3.6185575,-0.7546382,-0.3963809,1.5839982,-0.5523095,2.4304695,-0.106720924,-3.760621,0.37332582,-0.4430623,-3.385306,3.3849282,1.3557539,1.6885939,-3.2773628,-3.7504435,-0.2920537,-3.3584228,-1.6316442,0.78493834,-2.695096,0.10721159,2.3935857,-0.64583063,2.674747,-0.4635229,-3.4824762,3.8322496,0.5805011,2.282547,0.9559617,-3.790401,-0.94294214,-2.9204345,2.8509693,-1.9915237,1.3109617,-0.33941984,-3.1270595,-1.6871963,-0.27117586,0.84945536,0.06731272,-1.2989354,0.6686716,3.0896635,1.963583,2.2112017,-3.9523344,0.011193752,-2.222701,-1.3676248,-1.5652547,-3.1755385,0.9741769,-2.4874182,-3.021896,3.2311454,-0.5876694,2.5200658,1.7403584,3.9453402,0.74150467,1.0517349,-1.3008814,-3.761602,-0.14994907,3.7199936,-1.2572737,-0.8036289,-1.8310156,-2.3279562,-1.4795203,-3.7258582,1.9505754,-0.6705737,1.1890898,-1.4658122,-1.2555556,-0.5681381,-1.747354,-3.415451,-1.1702023,3.2048955,0.26738405,-0.7810025,0.08610487,-0.352952,-0.25469208,1.2767248,-2.4210143,-3.4243836,0.8376012,-3.9318938,-3.9888525,-3.9674,-2.870019,1.2713795,3.2727199,-2.5900702,0.083137035,2.5313773,3.879076,0.3078866,-3.6276436,3.7499204,-0.5099802,-3.5811887,1.8167481,3.5371199,-0.53012705,-0.018452168,-0.93955564,-3.5922651,1.2063313,-0.4429655,3.1210527,-3.404055,3.4147758,-0.36631775,1.9248338,3.9894967,1.796845,2.1091528,3.6988144,2.43921,1.2053094,-0.1354804,2.4077349,1.9963818,0.024446964,-2.075985,-1.7464309,2.5077162,-0.9359813,0.18032265,3.6677523,-0.88084507,3.268393,3.0881042,2.4164639,3.8954053,0.4681654,-2.5611606,-0.2723241,-2.134859,-0.11736345,2.3045402,1.1804886,2.8918467,0.8754544,-1.9218216,-2.957129,0.011161327,0.45552588,-3.5288448,-0.50140905,-3.9436235,1.2086849,-1.7954531,-3.411831,3.9285812,-3.1245813,-2.5723834,1.6474919,-3.2041783,-2.085988,-1.284142,0.631474,-3.5093317,-0.51043224,0.56812334,-2.8456912,-0.2932191,-1.0846615,-3.0102367,0.68260574,1.186533,2.2764397,3.9927807,-1.4715767,2.4825249,-3.4548483
