-0.043436527,1.7779493,2.9278808,-2.059143,-1.8830547,-3.49437,2.521142,3.9812841,-1.3618255,0.9832139,-3.9636526,-3.9881897,-1.0230064,0.22784853,1.9056501,2.115765,-3.8315315,-2.2389035,-2.4487624,-3.1002216,3.2684789,-3.6819506,0.108192444,3.952012,-1.0898962,1.1330857,3.9153638,2.968728,-2.3523316,0.36289263,-1.401556,-3.9305182,-0.39839602,-3.2225728,-2.005517,1.3691645,-3.9655142,-1.6309166,2.5441785,-1.4712954,-0.051968098,-2.1677752,2.0187798,3.0554576,3.857543,3.1512656,-3.374154,-0.6392622,2.61411,0.8048568,-1.4658103,0.29740047,-2.7289228,1.2181525,0.31921673,2.1538548,-1.4991612,-0.58239603,0.42064953,1.8905439,-3.6528811,2.742847,-1.6531005,0.37918139,-0.22936535,-2.6941538,-2.0652342,0.49508238,-1.2463932,-1.9926887,-1.4651232,0.34333897,3.9775171,3.401979,-1.8564315,0.026462555,1.5346203,3.2197075,-0.30504608,-2.9931273,-0.72804403,3.754807,3.447424,-3.90831,-3.8889465,2.9624038,-3.9663448,1.8615327,2.4529462,-1.9470344,2.5502543,-2.97787,2.3535662,-3.8947954,2.292005,-1.1559668,-2.0498633,0.70758724,-0.61336946,-1.4966202,-3.250721,2.786251,-3.8262782,1.7641077,-1.9996715,-2.0137162,-3.71556,0.41687965,3.7095332,-1.3089933,-0.09047699,-2.1415753,-0.085579395,2.4992514,0.8131685,-3.1040368,0.29676056,-0.21692657,-3.2769637,3.0897484,-0.49346447,2.73849,0.16733646,-3.4872837,0.6824794,-3.4985547,0.6621218,-1.9314542,2.9156818,-0.98797417,-0.38310194,-1.3207488,1.9879856,-2.1799822,3.7465472,-0.6924238,-0.8733859,-2.7085724,2.1628346,-1.5267615,1.065,3.8234582,-3.1494765,-0.61561155,0.13251734,-0.49269676,-0.94788647,0.42866993,-2.1538167,-3.440765,-0.9238229,3.0228243,0.14237833,2.6584463,-1.1307764,-2.409923,-0.7611275,-3.9302664,-1.133317,-1.190577,-3.5319428,-0.8063288,1.640852,-1.3503013,-3.5161843,1.0369902,-0.9030771,-3.2183242,-2.8793998,2.9922028,-2.2108936,-3.3508816,3.9075031,0.88921547,0.8535476,-3.7061152,-3.3390398,2.200179,-2.6550627,2.0231872,-3.5122905,-1.1903334,0.9825487,-0.20185089,2.30927,-2.3331208,0.37750006,-2.1256366,-3.4389606,-1.3254762,-2.9544601,0.39673233,3.3324523,3.756732,-0.4036088,-2.9618773,-1.8731842,-0.80208683,0.53149605,-0.5276718,2.3859458,-0.6153674,-2.6520433,1.7695432,1.1288671,-0.28223085,3.5681252,3.325162,-3.8743534,-2.0055456,0.62607336,-0.65014505,-3.2101932,-3.911868,-1.8412609,3.8208733,2.187807,-2.8592215,3.7215185,-0.7860217,0.8156996,3.6451187,-2.1494246,3.2965932,1.0933962,-3.5234952,-2.311977,3.5374184,1.2251024,-1.6730533,-9.536743E-7,3.70396,1.4365969,2.983591,-2.0029707,3.4995327,-0.49318552,-1.9131212,-0.62369585,-1.2743416,1.4909391,3.9016953,2.0479894,-2.7832217,-0.70512915,3.7267203,3.9996967,-3.390141,-3.9199066,-0.53075504,-0.7029629,0.41958094,0.46724796,3.7591372,-1.290864,0.7247591,3.1295705,-3.8907657,3.5802426,3.9587202,-1.313365,-1.2646542,-3.4691558,-3.356062,-3.6926494,0.48166943,-2.3129263,3.0452147,-0.30864334,-0.6007142,1.8092899,-0.0745759,0.8066921,-0.48240137,2.3160524,-3.328145,-1.486423,-3.2204137,1.0306673,1.1748753,2.8949142,1.6742821,-1.4361396,-0.66032124,-2.0652404,-1.6682959,-2.8573637,0.4017167,-0.5451255,1.3345451,1.1378889,1.5954838,-0.15127516,-1.6736054,2.0838294,2.2340913,-2.137107,-2.8757353,-1.7851043,0.5193052,-2.4977026,-1.734592,-0.38995028,3.4769459,3.707006,3.395235,-1.7728,0.18357658,1.9256167,-0.31092548,-2.3933568,1.3017778,3.0821228,0.41581964,3.872538,-0.76147985,1.2296329,-3.2584662,2.1229582,0.2413559,-0.5342598,0.0061273575,-2.4780293,-1.1008925,-2.2226171,-3.8184147,-3.2469478,-1.8517365,1.4348583,-2.6437545,-0.5990858,-3.6621637,2.184204,0.33160305,0.86571217,1.2370353,-3.7984662,0.33635664,0.079194546,1.0340643,-3.7212114,2.9301848,3.105051,2.8321395,0.15083027,-2.5020075,-1.7734356,-3.5639153,-0.8503609,1.5760059,2.1630569,-0.93366814,-3.4053054,2.4752364,2.246097,-2.665844,-2.8420877,0.42805195,-3.7465558,-0.5093932,1.2461457,3.7775865,2.3183951,2.6481347,2.4494953,-3.223464,3.7141938,1.7568579,1.240869,-3.300992,0.5503912,-3.1201396,0.43983984,-0.29903364,1.7290678,2.7835603,0.73110294,2.0931454,-2.7645917,2.709353,3.0564766,-3.665464,-1.0513859,-1.4488764,2.8701777,2.0269432,2.1374373,-2.665338,-2.9756656,0.9687147,1.6754827,0.5356674,0.044036865,-3.601489,1.1230636,-2.9126377,1.6615405,0.2299099,-3.1051464,2.1418352,3.2770987,3.301444,-1.8166165,2.3439727,-2.7208767,3.4912653,-3.1370144,-0.6795492,1.8158121,2.1123471,2.6005445,-0.7328367,1.1191387,-3.581325,-2.7224727,-3.232256,-2.6173964,-0.3321805,-0.37149096,0.53190565,-1.5603771,-0.9951091,1.6294017,-3.804494,2.5479622,2.2043562,3.478778,-3.223567,-2.4498115,2.1134863,3.425292,2.5962462,0.31954336,-1.6345716,-0.97510767,0.6391611,-3.929399,0.37384033,3.6451602,0.17754316,1.1126957,2.9678931,-1.2443533,-0.2734542,-0.55131674,3.3705711,-2.2748604,-3.0408502,0.6566777,3.8131785,1.6643405,-1.4945688,3.640696,1.5621204,-0.6540351,1.3187695,2.7333078,-0.8168373,-1.1532884,0.52165985,-3.590993,-1.8253584,-1.5299344,-2.0388546,2.2645602,0.21934271,0.42191315,-1.7775187,1.7723436,-2.7541113,3.2622385,-0.723691,-3.271502,-3.498559,-0.8663449,3.298911,-3.7043314,-1.5250964,2.997837,-3.434679,-1.0700421,-3.1238532,2.79733,0.90647125,2.9184866,0.66795206,1.1088238,-3.8188262,-0.7504411,-2.865488,-3.1105795,-3.0593605,3.9022093,1.3423128,-3.9053612,3.9369817,0.87505054,3.6914334,0.9741039,2.4810753,3.9659228,-0.32180977,-3.458818,1.910223,0.9713416,2.433282,-3.888649,0.31458426,-0.20941353,-0.46756268,-1.934619,2.8270202,2.3376722,-3.351293,-3.0365987,1.8707752,-2.8663187,0.90858746,-0.37687492,1.5462756,-1.7933278,-1.859559,-3.4859238,0.4109807,3.1290417,-2.3573608,-3.7426167,1.7760854,-2.631166,3.1838818,0.6424303,-1.5507879,-0.9732766,-1.1407337,-2.0590825,1.169199,2.291597,2.453741,-2.5967011,-3.4700093,2.814979,-3.0029502,-3.5156026,0.920804,1.0037823,-3.2094703,2.6257567,-3.015697,1.9661083,3.5241556,3.431085,1.159894,2.0759215,-3.4673567,2.6663623,-1.2657466,2.7436848,-0.22334814,0.7637429,0.1833024,2.9628415,-0.3938179,3.0140586,0.55657864,0.7869792,0.7312279,-3.7569842,-1.4107256,-0.3435359,1.65062,3.1879888,-1.9767437,-2.5574455,1.3611183,0.37810898,-1.3747196,-0.96170425,3.4107728,1.4265747,0.9661894,3.0395603,-1.998723,-2.415904,0.5725846,-1.7523017,2.853331,-3.192421,-2.861917,-1.7181706,-2.9533386,-0.51111937,-1.1889162,-2.464963,-0.26267147,-0.27650404,-0.59217834,-3.8435717,1.5262928,3.89861,3.7101436,-1.9414988,3.6565366,3.342986,-1.20123,3.2348876,1.8276381,-1.9276748,-0.48137856,2.440835,0.9653692,-1.1754584,-0.1052413,-3.3267908,2.4341145,-2.101129,-2.0470247,-3.7195554,-1.4597716,1.7049899,0.42454147,-1.4332385,3.5614996,1.9323621,-2.8817015,-1.0763197,-3.908605,-2.970015,-0.40666246,1.235692,-2.505015,-0.9684253,2.1053557,-3.6602225,0.47338963,1.0851197,-1.3715181,-0.8928795,-3.7364063,3.219841,-3.2926803,-3.0895534,3.1148987,0.09091854,-1.61094,-3.1806479,2.8012433,-0.39357615,-0.72351885,1.9216042,-1.868959,-3.585383,2.5221705,-0.23601389,0.5514035,-2.6910682,-3.5618162,3.6694064,-0.23477125,0.5511465,0.5313134,-1.798687,-3.3698492,-3.9020534,2.962082,-1.4436231,3.9696212,2.0828876,1.2551799,-1.8417206,0.12113047,-3.4118981,-0.9137993,-0.43833017,2.9423337,-2.5814462,0.04479742,-2.042791,3.8484683,-2.0279164,3.1733913,-1.93465,-0.938694,-3.853642,-3.6949391,0.46838427,-1.1676383,0.10899067,-2.511128,1.2481413,2.3829389,0.8718891,-3.65898,-3.1305227,2.5938349,1.2015986,3.2575717,-0.898355,1.8892837,0.29557848,2.7990656,-1.1577854,0.5206547,2.9855833,3.6786885,-3.4531512,3.113011,-2.2045846,0.008300781,-3.6734352,-1.8426023,-1.5782995,-1.5755754,2.0000596,0.5264859,0.72208834,-3.7448587,2.1976233,-3.2458382,1.3932528,-1.8706269,-3.1531968,3.7247396,-3.00454,-1.2526493,-1.3340158,-3.8935552,0.06616402,1.1005859,-1.0418577,1.536468,-0.8935385,-1.7205186,1.9028225,-3.0865088,-1.399332,3.179893,2.5846977,3.392807,2.223343,-3.8026023,-0.8825326,-1.8747063,-0.09939957,-3.8309603,-0.1322403,-1.2604246,-3.6360073,3.7337604,-0.708189,1.7614884,-2.99016,-2.5570369,1.4906726,-3.4851546,2.7360225,-0.9833875,3.0024667,-2.0178022,-1.2539177,2.966411,3.618703,0.60784817,-3.2717452,-0.06648493,2.23814,-0.705286,1.0820332,1.4723797,-1.6048846,2.6868234,1.7013216,3.7198157,0.77592707,-1.0574856,-0.9233494,1.756496,2.821528,3.4397202,-1.360856,3.3793254,0.47035933,-3.9809155,0.21165848,-0.16626406,-0.24725103,-0.91432476,-3.112886,-1.4819837,-3.9411373,2.7746348,0.4966674,2.301629,-1.0747185,2.5825543,2.7568517,-0.4341483,-1.4712777,-3.8045235,-0.7246847,2.177227,0.89251757,-1.7675662,0.32170105,-0.6453376,1.8411422,1.8121052,-2.939763,-1.1392527,-2.7269435,-3.2530808,-3.4396658,3.2872524,2.2893848,-0.15251303,0.37200356,0.73294926,3.1836572,-3.0188384,0.33163118,0.7497268,-2.027863,2.0095897,-3.456511,-0.8295903,-2.1471186,-0.055854797,2.875887,-1.0701208,2.9290552,3.9580693,0.4575019,-2.340794,2.171812,-2.8121476,3.3632097,3.1652045,-1.8659158,-3.0645952,3.2286696,-3.6093369,-3.4372244,2.009678,1.843154,2.0425053,1.7696285,3.0454397,-3.620378,-3.830514,-0.4117961,2.8953261,-1.0060477,-1.6871152,-0.2964282,-3.6228304,3.8505917,1.2558122,-2.8537889,3.3826613,3.6237397,1.1967497,3.3890924,3.055203,-3.7794075,0.75333834,-2.881249,-3.5778666,0.8472128,1.2004466,-0.24114466,-3.3594942,-1.1925697,2.5986567,3.9542365,3.9524221,-0.6806774,-2.07648,1.4116025,-3.5869713,-2.1471763,1.0944133,0.75147724,-0.13828516,3.6673322,3.0279174,2.811554,0.5759034,-3.2119823,0.064605236,-0.3094921,-0.108318806,3.485303,-2.5212512,-2.6179657,-2.455688,1.6142974,-1.2219529,0.27651644,-1.1110587,-0.59171057,-3.048356,-3.5445995,-0.9212723,-3.2781048,3.3481722,2.2954865,3.0305767,2.506269,1.6366076,-2.6187463,2.7802505,2.9199772,3.569654,-2.2870326,2.6247382,3.9975438,1.743557,1.916379,2.786941,-1.3676133,-2.3373442,-1.3935161,1.6014423,1.3796229,1.0546851,0.16858244,2.7812433,1.3460932,0.33890915,0.012874126,2.9664407,-0.074121,-1.8060966,-2.2195668,-2.6824975,1.5808015,-2.324676,-1.4133005,-3.1995487,2.3329606,3.0563593,-0.40382814,-2.3549967,2.1954446,-0.64523363,0.42457485,-3.0436678,-3.3772302,1.1419907,2.1225357,-2.508247,0.68270206,-1.8320704,1.3688502,-3.5728984,2.6234217,-0.4000883,1.6861296,-0.26859426,-2.843514,-2.5928845,-2.7941155,-0.5719857,-2.1360931,-2.255012,-3.9095688,3.7368045,0.07004213,1.5879693,-0.54595137,0.55622244,-2.9780154,0.5182395,3.4689965,2.5156236,-3.936201,2.7138247,-3.379043,-2.4444866,-0.5066538,-1.6592083,1.2684956,3.592204,-2.105834,2.044797,-2.962225,-1.4817781,-1.7077665,0.084619045,-2.2025228,-3.9024115,-2.4760175,1.2998176,3.67948,-3.8192096,-2.7774425,0.5377946,1.1339712,1.1510792,0.90478754,2.6378088,1.5298362,0.5840745,2.491157,-1.1742978,-0.94292307,-0.6884227,1.4175782,3.753559,3.1535172,-2.5823445,0.7224798,-3.540666,-3.0534892,-3.0649805,-0.14588928,2.1541166,2.547069,0.29055738,-3.867951,-1.8830824,-3.197135,2.1034694,2.9996347,-3.0943432,-1.03229,-1.2145824,2.8688636,3.670484,1.0425973,2.9534297,0.025436878,0.5730672,0.7388706,-1.7848458,3.7317023,-0.3991909,-0.66158056,0.34857178,-0.29667425,-3.7072644,1.7715073,2.8349123,-1.1771073,-0.5805454,2.4019032,0.04349327,1.2130194,-0.30337715,-2.4510288,-1.9159589,-2.44812,0.42218828,-2.4570546,-2.3409243,-2.0439591,3.7292829,1.7280006,-1.2429085,-3.6523528,-2.4236946,-1.5951056,-0.014704704,2.6431122,-1.2129416,0.49109125,-1.0627337,-2.2081141,1.6971722,-0.42635965,-3.4273171,1.8403196,0.2627945,-0.018559933,3.3839517,0.5308471,-2.270846,0.971786,2.1531615,3.073471,0.45013762,3.6733413,-2.0004,0.8738346,1.120079,-2.951851,2.3023667,0.5060153,3.2934752,-3.505012,-2.3521724,1.603888,3.5029445,0.7045126,2.7096844,1.9264956,0.6346712,-1.219553,-0.40553904,3.4174652,-0.95078135,3.8747873,-3.6500921,1.6421618,2.6397333,1.9098024,0.9018655,-1.5817494,3.481989,2.9300342,1.1055222,3.2812848,-3.04073,3.9818888,-2.5697432,-2.341292,-3.6865306,3.4959168,1.5144453,0.2108717,0.33073282,0.3737564,-1.0900102,0.8685889,-0.96086884,2.5750198,-0.17139482,3.8097663,1.4761944,-0.55380154,3.3668804,-2.2994447,2.998901,-1.2204151,1.0813694,1.0534363,-3.0927587,-3.2796345,3.611928,2.7918773,-3.1920633,1.0020523,-2.2001915,-0.075397015,2.2563624,1.7428055,-3.069209,1.9200463,-3.7442613,1.4956355,2.9443078,2.0525255,1.012032,-0.9400215,3.5410628,2.775249,-3.8206897,-2.5915685,1.6115208,3.7992878,3.2198143,2.8034182,-3.9966712,-2.802342,2.4751792,2.032547,0.52695084,1.4975219,-2.948915,1.3485699,-3.848473,-3.7212234,2.387423,0.2826562,-3.482862,2.1492972,3.1136894,-3.5029974,-1.1648574,-3.1582718,-0.950953,2.7028542,2.1434655,0.74190235,-0.29316092,-2.7991843,-0.72649765,0.4794426,0.678761,-1.9383788,-3.0735822,1.2724261,0.14265585,-0.48007727,0.5297203,0.24376345,0.76355696,2.4520965,2.2212567,3.0394788,-1.915256,1.1782284,1.1095414,-0.75744915,1.8246112,-2.9554644,0.5350094,0.6626797,-3.1730976,0.8677392,-3.5995984,-2.1840796,-0.008627892,2.1514869,3.5818114,3.5240712,2.2743664,-2.3117332,-1.0371056,1.6268334,1.2791672,1.4502592,2.95188,-3.5409021,0.075074196,1.2614894,-2.3863225,-0.23876572,0.7439246,-1.0760283,-2.9106083,-0.8583455,-0.8937073,3.0299034,-2.124165,0.8595567,-2.9480548,2.3542085,-1.3414974,-3.6085372,0.24996996,3.4806123,-1.6128597,-2.3381739,1.0683951,-3.6334882,-0.61168957,1.5384359,1.3053341,3.6877322,1.2147136,2.4774466,2.979947,1.7564898,3.095541,-3.258185,-1.7922072,-0.2758913,-2.8590822,1.5522647,2.3923516,-1.9452915,-2.682311,-2.2472048,-3.113462,2.0308595,2.7688136,-0.8290105,-3.2340617,0.48452473,1.9406104,3.5835834,2.0399232,-0.6781726,-3.9614801,3.7878304,-3.360021,-2.595078,-3.2884817,-2.363233,-0.6205158,-2.392325,-0.48413706,-1.8138189,-2.7863193,-3.991724,3.5003943,-2.388012,2.0900707,-1.3527851,3.3255033,0.20285559,-3.8874907,-2.2915645,3.005498,-1.9465928,-1.1251526,-2.0511713,-0.6783762,0.24214697,1.8942161,-3.8490047,1.3465428,0.058289528,1.2364521,3.4356523,3.1841726,2.7196202,0.73709154,-1.05443,3.5217285,-2.8947644,0.14307928,-0.23355103,1.6048203,-2.5384374,-1.3340769,-1.9350038,-0.21591043,-1.7175298,3.095203,3.2685356,-3.655829,3.2242503,-3.4023962,2.7572556,1.7916989,-1.142632,1.4175615,1.4862003,2.998642,-3.1233015,2.0938063,-3.011032,3.699284,1.4159341,2.967956,-0.4714737,-0.17509842,-2.226273,-3.424142,2.5841756,-2.2179947,0.789495,-0.46732664,1.06955,2.0400858,0.04885578,-0.85856104,1.0092907,-3.0048566,-1.8956223,-3.1227722,1.8646178,1.3363204,-0.21723747,-3.4608483,1.1614308,-1.4900742,3.970827,-0.19567728,0.48045778,-1.8160987,-0.13216734,3.2806802,-3.0846024,-2.0935984,3.0500426,-3.5075622,1.7505741,-2.8063827,0.39543676,-3.7081852,-1.2269073,2.1564226,-2.7757425,3.7661586,-2.5926085,-3.6862879,-2.3008633,2.3315344,3.9451551,1.7251053,-2.276998,-0.33691406,1.3652515,-0.029559135,-2.9480872,-0.984694,-3.736847,-1.4355531,3.4011202,1.1160488,2.0108705,1.3576126,1.6471281,2.1905441,3.3632684,-0.5319009,-3.3035803,-3.5517879,3.0577426,2.282597,3.649704,2.017715,-3.536438,3.5703454,1.915472,-2.334187,-1.7960143,-0.28365326,-1.1449933,-0.7815161,-0.8128209,-0.9823394,1.2845182,-3.6844845,1.9912095,1.4962602,3.7125168,3.7645168,-0.25560236,3.6115313,1.7375255,-1.6768556,2.4114313,-2.4324512,3.0651116,-3.3243923,3.8224616,3.8885489,-3.0851402,0.3561039,-3.8344512,1.8160429,-3.8594632,-1.4955511,2.6598315,3.4632883,-1.6752858,-2.8587618,-0.96646976,-3.8381,-3.1777372,3.3885522,-0.07473612,-2.2014384,2.9028926,2.9879827,3.2393422,-0.18303967,-0.25199318,2.4264627,-1.4397564,2.684692,-3.83252,3.0774336,1.1900482,-1.8131871,1.305253,2.804234,-0.9508791,2.6363316,-3.2237387,-2.3471065,-2.042719,-0.22501421,0.45655632,-1.1589599,-2.3640924,2.8302026,1.3338084,-0.7423105,-2.0999608,1.3475423,-3.2340674,-3.7854404,-3.8025122,-3.4131923,-3.4157667,-2.7302327,-1.2793307,-2.3091135,3.5417671,3.5640411,0.98995495,1.03437,-2.1442432,3.2063813,-1.1460185,-0.6033864,3.9734817,-2.4372354,-2.3259845,0.716475,0.33643866,2.2560163,3.636106,-0.09684944,3.347992,-1.5323043,2.2233682,2.439517,-2.4736,1.045052,-2.065557,2.289506,-0.9154558,1.0109854,0.76045036,1.4870806,0.48359013,0.8679447,1.0404587,-3.0466743,1.6724124,0.30987692,0.47896624,3.6497383,-3.9730577,-3.6325183,-1.3584642,2.5953126,2.3310528,1.9844298,0.69241285,-3.9167209,-1.139605,0.6595068,-1.024229,-3.0596867,1.6263466,-3.3433685,0.8198595,1.5669894,3.6010718,-1.1711702,-1.4205966,3.194222,2.9406428,3.3089666,-1.4945893,-3.5365787,-3.8596988,-0.16533136,1.9945922,-0.47458172,-1.5113654,-3.6681547,2.598628,2.5595737,-2.1280127,3.5084386,0.15999603,3.6991062,-3.306974,-0.570415,-0.92886734,3.235209,-0.43506098,3.5611997,0.45987558,-3.4447708,3.7954955,2.8595552,2.473475,-0.21444559,-2.3051682,-3.007462,-3.319622,0.44422388,1.9475574,1.0803914,-1.2943587,-2.1058345,-2.659461,-0.9728637,-3.478383,-1.7215681,-2.4413018,2.4485478,0.7275977,0.7506237,-1.4959598,-1.6502161,-2.8275042,-3.6703658,-2.4517603,-1.9245586,0.23311281,3.9360723,1.9709492,-2.9788256,-0.5693183,-2.0920262,0.20896435,0.9276552,1.548037,2.1984901,-3.6371498,-3.7176533,1.482935,-0.59532595,0.012420654,0.9979749,1.5759373,-2.591877,-0.13210869,1.8182335,-2.885663,-1.7995214,-3.9926295,-0.72395515,-0.07975435,-0.13496208,-3.8551512,0.8167653,-2.1649203,3.5646777,3.4094353,0.70731926,-1.373488,-2.6034603,0.04150629,-2.8485475,0.21554565,-0.36264896,-3.8448672,3.5760884,-2.20537,2.6275053,1.110465,-3.51939,3.5363164,2.3383856,3.335434,-1.9256582,3.8725944,-1.253067,0.51950693,0.6716504,-3.379416,-3.6837764,3.2406812,-2.0941696,-1.8186836,-1.4200721,-0.85094166,-0.041769505,-3.5198588,-2.798997,0.3906541,-0.878005,-1.5235944,-2.6725125,1.2213802,-3.6630526,-2.2020445,-0.94588566,-3.9013095,-2.0495863,-0.1706152,-1.4338899,3.2053123,-2.9962592,-2.4967456,0.99910116,0.5653858,0.2941332,-0.16262674,-3.5608668,0.25520086,-2.470518,3.2577033,-0.09096241,-2.28584,3.145608,1.1468339,-3.2986422,3.9844694,1.6622486,-3.5473843,-3.3568735,-0.9732046,-2.3442497,1.5035448,-2.1683393,1.0382333,1.7416029,2.5394769,-0.84867096,-0.92165804,-2.4301162,3.215014,1.4142346,0.58603,-1.5738101,-1.1239662,-3.6667323,-0.8885789,-2.7040157,0.058100224,0.9293165,-2.6328034,1.0279942,-1.9512286,0.41952467,2.3789926,-0.39795542,-2.4637055,-3.4604106,1.4804249,0.9618311,2.5898876,1.8948646,-1.266088,2.129024,-1.3627868,2.1537595,-0.665535,0.8221197,1.4505019,-3.8331704,3.7243667,-0.55171967,-3.236424,-0.21626472,2.506774,-3.1325321,2.5988088,-2.8123002,1.6110563,2.0443087,-3.2899227,-2.9099145,-3.2171726,0.848753,-0.98131704,2.9165187,2.7052116,-0.23205471,3.8209143,1.2032499,-0.04036951,3.4215088,-0.4321699,-3.271031,0.7145519,-2.776215,1.9553719,0.2822442,-0.19160414,-2.3179026,-3.6327453,1.1410975,1.6507945,2.4022183,-3.7919507,1.1305413,-1.721684,-0.1435008,-0.4038353,-2.97959,-1.4455519,-3.9928603,-2.869101,1.7186766,0.6328058,-1.1020823,-0.82966995,-1.3748493,-0.8123617,3.5097866,-3.2263951,1.0689621,0.54053354,3.229784,-2.1440544,-0.16621637,-3.0889726,0.5219455,0.06087637,-1.0992317,0.23237514,-2.1214623,3.0350413,1.9183879,3.9311562,-1.3297157,-2.6699257,-1.8472252,0.2892561,-3.5016193,-0.7920656,-2.5404282,-2.9350886,-0.009870529,0.7726884,3.6678352,-0.2924776,-3.3809905,2.8346057,3.8935523,2.4888902,3.559667,-3.8754354,3.7758212,1.0582137,3.6372123,-2.368146,-0.3985858,1.7432723,1.7738013,-0.13604975,1.2106099,0.65815353,0.068761826,-0.9022474,3.7741199,2.2683735,-3.490056,-3.5434928,-2.6111112,-3.4204879,2.8593926,0.42232132,-3.8698254,1.8356857,1.6636801,-2.3124151,1.9465108,-2.064536,-3.4692183,-2.3337846,-1.8788404,1.1605625,-2.1507583,3.0985966,3.5513926,0.57963085,0.71980906,-3.9377928,0.27409315,1.638587,-0.46137,-3.4239674,-3.940022,-1.2195277,0.54725647,-3.4429088,3.994134,0.97700834,0.37923002,-0.8228016,-1.6309109,1.0700512,0.5152917,-0.33708143,3.5276928,0.2229538,-3.6375709,1.5468612,1.5102758,-2.4636912,0.11119652,-1.4901567,-1.8883758,-2.6326818,-1.7894197,0.1684823,-0.020905018,1.2741632,3.3383842,-2.0942154,0.35458422,-2.3979917,-2.6069226,3.2791142,3.9870687,1.7344708,-3.3300858,1.7571931,3.2963767,1.6166668,2.284288,3.6665268,1.2693748,-2.042696,-0.21764755,3.8628635,1.7210035,3.495109,-3.375547,3.8372345,3.4432998,1.0364356,-1.8235674,1.4949217,-2.5031743,3.7982092,-1.7165027,-3.587988,-0.97549486,-3.549303,-2.6483274,0.12018108,-3.5063715,0.09408808,2.956181,2.7380905,-3.4300022,1.0148368,-2.7319565,-2.272357,2.1554327,2.855485,-0.30592299,-0.5888181,-2.9710503,-3.286717,-2.7020216,-0.39593744,-2.3844194,-3.7617269,-2.8837285,3.7906547,3.9775925,-0.91233873,-2.6955414,2.3710876,-1.2883611,3.9393673,2.5160766,3.63489,0.03231144,0.7820306,-3.6392784,0.3747487,-3.2473936,0.40445852,1.9814105,0.9576373,2.0770097,2.84166,3.7851548,-3.8367887,-0.9815011,-2.6083336,-2.7228398,-1.9913878,-1.5046101,-3.631701,0.6473336,-0.9160123,2.4334707,-2.0819378,-2.9553633,-1.2258663,-1.577672,3.050396,2.6177683,-1.9268279,-2.259728,1.334085,-2.886146,-3.7376351,0.4855423,-3.056717,-1.0154762,1.4697833,-1.9079123,2.8417158,-0.5200429,-2.379777,-3.109355,-1.9907193,-0.94215775,-0.23800945,3.762219,1.4834843,0.8823328,3.3852377,-3.8094845,-2.7185302,-3.872182,-2.606256,-2.7127357,-3.8791661,-3.0102363,1.4104323,1.0428553,-0.5686774,0.74654865,3.1861763,-2.356144,-2.5789986,-1.6370807,2.9484925,-1.3559136,3.6425772,0.6669035,2.042087,3.6472797,-3.220389,3.8752775,-0.5980334,1.6523261,-2.7640882,0.024229527,-3.9110827,-0.8029895,-3.8682232,3.8744726,-0.61287737,-2.6424947,2.193818,0.40801954,-0.29898882,-3.15702,2.8118181,-3.2900257,-2.70653,-0.94800663,3.633287,1.0769548,-1.0932693,-1.1307201,3.2366157,2.4751396
-0.043436527,1.7779493,3.5832405,-0.1686039,-1.0473971,-3.49437,2.521142,3.9812841,-2.0993104,0.9832139,-3.9636526,-3.9881897,-1.0230064,0.96922827,-1.8777652,-0.16022635,-3.8315315,-2.2389035,0.022871017,-3.1002216,2.7040777,0.294065,0.108192444,3.952012,-1.0898962,1.1330857,3.9153638,2.968728,-2.3523316,0.36289263,-1.288188,-3.9305182,-1.0896645,-0.9640322,-2.8398285,1.3691645,-3.9655142,-1.6309166,-3.0801344,2.3123665,-3.2939992,-2.5780768,3.9550219,-3.7207332,3.857543,3.1512656,-0.013464451,-1.0152178,1.2532063,0.8048568,-1.4658103,0.29740047,-1.3252258,-0.4163165,-0.3919716,2.1538548,1.6700869,-2.692832,0.42064953,1.8905439,1.3627839,2.742847,-2.9913893,0.37918139,-0.22936535,-2.6941538,-2.0652342,-2.8140125,-2.8540244,-1.9926887,-3.4542623,-0.04227209,3.9775171,-2.1527286,-1.8564315,0.026462555,-3.2091498,3.2197075,-0.30504608,-2.9931273,-0.72804403,-3.7280045,3.447424,-3.90831,-3.8889465,2.9624038,0.93297863,1.8615327,2.4529462,1.5569253,2.5502543,-2.97787,2.3535662,-1.2601261,2.5675077,-1.1559668,-2.0498633,0.70758724,-0.25648642,-1.4966202,-3.250721,2.786251,-3.8262782,1.7641077,-1.9996715,-2.0137162,0.41676712,3.1507583,3.7095332,1.2152896,-0.09047699,1.906426,-0.085579395,1.043787,2.3651624,-3.1040368,0.29676056,-1.5332179,-3.2769637,3.0897484,-0.49346447,2.73849,0.16733646,1.1553454,0.6824794,2.481071,1.0788689,-1.9314542,2.9156818,-2.3966398,-0.38310194,-1.3207488,-0.089514256,-2.1799822,3.7465472,-0.6924238,-0.8733859,-2.7085724,2.1628346,-1.5267615,0.6424494,3.8234582,-3.1494765,1.6735811,0.13251734,1.1724987,-0.94788647,0.42866993,-2.1538167,0.11765623,-0.9125109,-2.5499024,0.14237833,2.1433458,-1.1307764,-2.409923,-0.7611275,-3.9302664,3.1722388,0.03540516,-3.5319428,-0.8063288,1.640852,-1.2737045,-3.5161843,1.0369902,0.77494574,1.5581274,-2.8793998,2.9922028,-2.2108936,-1.7407651,2.9336896,0.88921547,1.0603819,-3.7061152,-3.3390398,2.200179,-1.1353898,-3.1133137,-3.5122905,-3.8770404,0.9224596,-0.20185089,2.0542908,-0.78998804,-0.95862913,1.8903432,-3.4389606,1.397481,-1.2354608,0.39673233,3.3324523,3.756732,-1.0851636,-2.9618773,-1.8731842,-0.80208683,0.53149605,-0.5276718,-3.8755326,-0.6153674,1.0337315,1.7695432,1.1288671,-0.28223085,2.8707652,3.325162,-3.8743534,3.4351315,0.17845154,-0.65014505,-3.2101932,-0.8398113,-1.8412609,3.8208733,2.187807,-2.8592215,2.067563,3.671647,0.8156996,3.6451187,-2.1494246,3.2965932,-0.50536823,-3.5234952,-1.3238907,-1.1319151,1.2251024,-1.6730533,3.3398132,3.4411168,-0.7115226,-0.6337104,-2.0029707,3.4995327,-0.49318552,-1.9131212,-0.62369585,-1.2743416,-2.0924234,3.9016953,3.646679,-2.7832217,-0.70512915,3.7267203,-0.44261932,-3.390141,0.55366564,-0.53075504,-1.2779803,0.41958094,-3.835112,3.7591372,0.9201608,0.7247591,3.1295705,-3.8907657,1.9548202,3.9587202,-1.313365,-1.2646542,-2.320095,-3.356062,-3.6926494,2.8001986,-2.3129263,3.0452147,-0.30864334,3.0401516,-0.1914587,-0.0745759,1.4476056,-0.48240137,3.1316829,-3.328145,-0.5529041,3.0779867,1.0306673,1.1748753,-3.0235085,1.6742821,-1.4361396,-0.66032124,-2.0652404,-1.6682959,-2.8573637,0.4017167,-2.428668,1.3345451,1.1378889,1.5954838,-0.15127516,-1.6736054,1.714714,2.2340913,-2.100163,-2.8757353,-1.7851043,0.5193052,-2.4977026,-1.734592,-0.38995028,3.4769459,3.707006,3.395235,-1.7728,0.17108059,1.9256167,-0.31092548,-2.3933568,3.925047,3.0821228,0.41581964,1.9690943,-0.76147985,-2.969131,-3.2584662,2.1229582,2.0134473,-0.5342598,0.0061273575,-2.6921997,-1.838881,-2.2226171,-3.8184147,-3.2469478,-1.8517365,0.97287226,-2.6437545,-0.5990858,-3.6621637,2.184204,0.33160305,0.86571217,-1.4797497,-3.7984662,-1.0967832,0.079194546,1.0340643,-3.7212114,-1.9917812,-1.2430458,2.8321395,0.15083027,-1.2671194,-1.7734356,-3.5639153,-0.8503609,1.5760059,-2.3718467,-2.91432,-1.8961477,2.4752364,0.2619257,-2.665844,-2.8420877,0.42805195,-1.7230172,-0.5093932,-2.568296,3.3867717,2.3183951,2.6481347,-0.6208215,-2.2921157,3.7141938,-0.9200387,0.19130516,2.6113434,0.5503912,-3.1201396,0.43983984,-0.29903364,1.7290678,1.6234474,0.73110294,2.0931454,-0.3767929,2.709353,3.0564766,-3.665464,-1.0513859,-1.4488764,2.8701777,2.0269432,-3.7882185,-2.665338,-2.9756656,-3.6127496,1.6754827,0.5356674,0.044036865,-3.601489,-3.5262318,3.4501858,1.6615405,-1.0344148,-3.1051464,2.1418352,3.2770987,3.301444,0.14145279,2.3439727,-0.6315489,3.4912653,-3.1370144,-0.6795492,1.8158121,2.1123471,2.6005445,-0.7328367,1.1191387,2.4412704,-2.7224727,-3.232256,-2.6173964,-0.3321805,-0.37149096,-3.5075798,-1.5603771,-0.9951091,1.6294017,-3.804494,2.5479622,2.2043562,-0.27412224,-3.223567,0.27121067,0.052613735,3.425292,2.5962462,0.31954336,-1.6345716,-1.5599833,0.6391611,-3.929399,0.37384033,3.6451602,0.17754316,1.8987355,-0.92797947,-1.4585786,-0.2734542,-0.55131674,3.3705711,0.6316619,-2.8259244,0.6566777,2.9569535,3.3026047,-3.9167252,3.640696,1.5621204,-0.6540351,1.3187695,2.7333078,-0.8168373,-2.4600787,-1.165134,-3.590993,3.5842724,-2.61874,-2.0388546,2.2645602,-1.5125155,0.42191315,-2.4251418,1.7723436,-2.7541113,3.2622385,-1.2457204,2.094401,-2.4527264,3.0186076,3.298911,-3.7043314,-1.5250964,2.997837,-3.434679,2.9333253,1.4748812,2.79733,1.3326416,2.9184866,0.66795206,1.1088238,-0.47898626,-0.7504411,-2.865488,-2.301828,-3.0593605,3.9022093,1.3423128,0.8071909,3.9369817,0.87505054,-3.8639064,0.9741039,2.4810753,1.6934915,3.6841612,-3.458818,1.910223,0.9713416,2.433282,3.4344263,-1.4390135,3.5130033,-0.46756268,-1.934619,2.8270202,2.3376722,-3.351293,-3.0365987,1.8707752,-2.8663187,0.90858746,-0.515646,1.5462756,-1.7933278,3.2596135,-3.4859238,0.4109807,1.8086991,-2.3573608,-3.7426167,-0.40762806,-2.631166,1.8258204,0.6424303,-1.5507879,-0.9732766,-1.1407337,-2.0590825,1.169199,2.291597,2.453741,-1.4956698,-3.4700093,2.814979,-3.0029502,2.0839958,1.8751588,1.0037823,-2.6085072,2.6257567,-3.015697,1.9661083,3.5241556,-0.71130276,1.159894,-1.1322937,-3.4673567,2.4923863,-2.4814672,2.7436848,-2.2998757,-2.2807016,0.1833024,2.9628415,0.6192565,3.0140586,0.55657864,0.7869792,0.7312279,-3.7569842,-3.3139071,3.9318194,1.65062,-0.6894536,-1.9767437,-2.5574455,1.3611183,0.37810898,1.6241994,-0.96170425,-3.5595737,1.4265747,0.9661894,0.56511164,-1.998723,-2.415904,0.5725846,-1.7523017,2.853331,3.70954,-0.15093327,-1.7181706,-0.73180103,-0.51111937,3.8399487,-0.6764488,-0.26267147,-0.27650404,-0.59217834,-3.8435717,1.5262928,3.89861,3.7101436,-1.9414988,3.6565366,3.342986,-1.20123,-1.7918105,1.8276381,-1.9276748,-0.48137856,2.440835,1.9578834,-1.1754584,-0.1052413,-3.3267908,-1.2386918,-2.101129,-2.0470247,2.6187897,2.9807992,1.9003468,-3.7948265,3.0270667,3.5614996,1.9323621,-0.09339285,-1.0763197,2.592805,-2.970015,-0.40666246,1.235692,-2.505015,-0.9684253,2.7740808,-3.6602225,0.47338963,2.505518,-1.3715181,3.188661,-3.7364063,3.5127406,-3.2926803,2.0423403,3.1148987,0.09091854,-1.61094,-3.1806479,2.8012433,-2.9862099,1.1281047,1.9216042,-1.868959,-3.585383,2.5221705,-0.23601389,3.8993769,-3.4810324,-3.5618162,1.3051233,-0.23477125,0.5511465,-0.462842,-1.1402698,0.86778784,-3.9020534,-0.5218668,-1.4436231,3.6508021,3.4689012,1.2551799,-1.8417206,0.4345765,-3.4118981,-0.9137993,-0.43833017,2.9423337,-2.5814462,-2.3620424,-2.042791,-3.730053,-2.0279164,3.1733913,-1.93465,-0.938694,-3.853642,-3.6949391,0.46838427,-1.1676383,0.10899067,-3.902958,2.1715264,2.3829389,2.1528707,-3.65898,-3.1305227,2.5938349,1.2015986,3.2575717,2.551241,-1.1905756,-1.6723094,2.7990656,-1.1577854,0.5206547,2.9855833,-2.4881659,-3.4531512,3.113011,-2.2045846,3.854762,-3.6734352,-1.8426023,2.6648307,-1.5651116,2.2393146,1.1715908,0.72208834,-3.7448587,2.2490978,-3.2458382,1.3932528,-1.8706269,-3.1531968,3.7247396,0.9985738,-1.2526493,0.08279705,3.1699944,0.18832493,1.1005859,-1.0418577,1.536468,3.0680351,-1.7205186,1.9028225,-3.0865088,1.2011337,3.5388293,2.5846977,3.392807,2.223343,-3.8026023,-0.8825326,-2.8269114,-0.09939957,-3.8309603,-0.1322403,2.3073907,-3.6360073,3.7337604,-0.708189,1.7614884,-2.99016,-2.5570369,1.4906726,1.2961946,2.7360225,-0.9833875,3.0024667,-2.0178022,-1.2539177,0.38731956,2.4994636,0.60784817,-3.2717452,-0.06648493,2.23814,-0.705286,1.0820332,1.4723797,-1.6048846,2.6868234,1.7013216,3.7198157,-0.15374708,-1.0574856,-0.67743444,1.756496,2.821528,-2.4408016,-1.360856,-2.121292,2.219408,-3.9809155,0.21165848,-1.8551216,-0.24725103,-0.91432476,-3.112886,-2.8796415,-1.6127143,3.9883704,3.7617989,2.301629,-1.0747185,1.035368,2.6168828,-0.4341483,-1.4712777,-3.8045235,-0.7246847,2.177227,-1.9597502,-1.7675662,0.32170105,-0.6453376,1.8411422,1.8121052,-2.939763,-1.1392527,-2.7269435,-3.2530808,-3.4396658,-1.5930996,2.2893848,-1.8130488,-3.4816217,0.73294926,3.1836572,-3.0188384,0.33163118,0.7497268,-2.027863,2.0095897,-3.456511,-0.8295903,-3.6377196,-0.055854797,2.875887,0.21121979,2.9290552,3.9580693,0.4575019,-2.340794,2.171812,-2.8121476,-0.4661026,-1.0728054,-1.8659158,-3.0645952,3.2286696,-3.5968375,3.7609577,1.7443275,1.843154,2.0425053,1.7696285,1.1507816,-3.620378,-3.830514,2.0120854,0.30130243,-3.1036177,-1.6871152,1.2179575,-3.6228304,3.8505917,1.2558122,-2.8537889,3.3826613,3.6237397,0.14004087,3.3890924,3.055203,-3.7794075,-3.1058297,-2.974121,-3.5778666,0.8472128,1.2004466,-0.24114466,-3.3594942,-1.1925697,2.5986567,3.9542365,-0.036638737,-0.6806774,-3.6613584,1.4116025,-3.5869713,-2.1471763,1.0944133,-2.8078651,-1.8744416,3.6673322,3.0279174,2.811554,-2.5645504,-3.2119823,0.7746353,-0.3094921,3.992013,3.485303,-2.5212512,-2.6179657,3.4984646,1.6142974,1.2929673,0.27651644,-1.1110587,3.5169353,3.8663583,-3.5445995,1.4344692,-3.2781048,3.3481722,2.2954865,3.0305767,2.506269,1.6366076,-2.6187463,2.7802505,-3.237403,-1.5021038,-2.2870326,-2.6371536,3.9975438,-3.5833774,1.916379,0.04422617,-1.0416346,-3.2651749,-1.3935161,1.6014423,1.2395296,1.0546851,0.16858244,2.7812433,-1.6522036,0.33890915,-1.585772,2.9664407,-1.486074,3.0798712,-2.2195668,-1.5821476,2.4306545,-2.324676,-1.4133005,-3.1995487,2.3329606,3.0563593,1.4266448,-2.3549967,2.1954446,-0.64523363,0.42457485,-3.0436678,-3.3772302,1.1419907,-3.053794,1.0624804,3.7624593,-1.8320704,1.3688502,-3.8328028,2.6234217,-0.4000883,1.6861296,-0.26859426,1.6281219,-3.098806,-2.7941155,-0.5719857,-3.7560992,-2.255012,-1.375721,3.7368045,0.07004213,1.5879693,-0.54595137,0.55622244,-2.9780154,0.5182395,3.4689965,-3.435988,-3.936201,2.7138247,-3.379043,-2.4444866,3.4697475,-1.6592083,1.2684956,3.592204,-0.378726,2.044797,-2.962225,-1.4817781,-1.7077665,0.084619045,-2.2025228,1.8689694,-2.4760175,1.2998176,3.67948,-3.8192096,-2.7774425,0.5377946,1.1339712,1.1510792,0.90478754,2.6378088,1.5298362,0.5840745,2.491157,-3.2040439,-1.1373968,-0.6884227,1.4175782,-1.0747194,3.8474874,-2.5823445,-3.793841,3.631319,-3.0534892,-3.0649805,-0.14588928,2.1541166,2.547069,-3.39635,-3.0640721,-3.7534184,-3.197135,2.1034694,2.9996347,-1.8492641,0.24692106,-2.4249282,-0.823328,3.670484,1.0425973,2.9534297,0.025436878,0.5730672,0.7388706,-1.7848458,3.7317023,-0.3991909,-2.3816218,0.34857178,-0.29667425,2.453876,1.7715073,-3.8983212,3.2379832,-0.5805454,2.4019032,0.04349327,1.2130194,-0.30337715,0.28419352,0.742126,-2.44812,0.42218828,-2.4570546,-2.3409243,-2.0439591,3.7292829,1.7280006,-1.2429085,-0.8458481,-2.4236946,-1.5951056,-1.295527,3.9808578,-1.2129416,1.1013174,1.3476071,-2.2081141,1.6971722,-0.42635965,-3.4273171,1.8403196,0.2627945,-2.476945,3.3839517,0.5308471,-2.270846,0.971786,2.1531615,3.073471,0.45013762,3.6733413,-2.0004,0.8738346,1.120079,-2.951851,2.3023667,0.5060153,3.2934752,-3.505012,-2.3521724,1.603888,3.5029445,0.7045126,2.7096844,1.9264956,0.6346712,-1.219553,-0.40553904,3.4174652,-0.95078135,3.8747873,-3.6500921,1.6421618,2.6397333,-3.9728155,0.9018655,-1.5817494,3.481989,2.9300342,2.4427943,3.59967,-3.04073,0.6733179,-2.5697432,-3.8404436,-3.6865306,3.4959168,1.5144453,0.2108717,0.33073282,-1.206636,-3.540668,0.8685889,-0.96086884,2.5750198,-0.5664277,3.8097663,1.4761944,-2.6912303,1.1630244,-3.641796,-0.7507663,-1.2204151,1.8272977,0.093993664,2.1063595,-1.2898965,3.611928,2.7918773,-3.1920633,1.0020523,0.8406477,-1.3442006,2.2563624,1.7428055,-3.069209,1.9200463,-3.7442613,1.4956355,2.9443078,2.0525255,1.012032,-0.9400215,-1.944603,2.775249,-3.8206897,-2.5915685,-2.8182516,3.7992878,-1.9575038,2.8034182,-3.9966712,-2.802342,2.4751792,2.032547,3.9236145,1.4975219,-2.948915,1.3485699,-3.0736322,2.03408,2.387423,2.7045112,-3.482862,2.1492972,3.1136894,-3.5029974,3.5272303,-3.1582718,-0.950953,2.0112371,2.1434655,0.8927326,-0.29316092,-2.7991843,-0.72649765,0.4794426,-3.2600536,-1.9383788,-2.4290934,1.2724261,0.14265585,-1.9776301,0.5297203,0.24376345,0.76355696,2.4520965,2.7403002,3.0394788,-1.915256,1.1782284,1.1095414,-0.75744915,-3.8870373,-2.9554644,0.5350094,0.6626797,-3.1730976,0.8677392,-3.5995984,-3.5864325,-0.008627892,2.1514869,-0.09126186,3.5240712,2.2743664,-2.3117332,-1.0371056,1.6268334,1.2791672,1.4502592,0.9987135,-3.5409021,2.430727,-2.7093663,-1.9444771,-0.23876572,0.7439246,-1.0760283,-2.5291815,-0.8583455,-0.8937073,3.0299034,-2.124165,0.8595567,-2.9480548,2.3542085,-1.3414974,-3.6085372,3.563727,3.4806123,2.3552327,-2.3381739,1.0683951,-3.6334882,-3.0552597,1.5384359,1.886085,3.6877322,1.2147136,2.4774466,2.979947,1.7564898,2.8559604,-3.258185,-1.7922072,-0.2758913,-2.8590822,1.5522647,-1.5729003,-3.1991134,-0.8449383,-2.2472048,-3.113462,2.0308595,2.7688136,-0.8290105,-3.2340617,0.48452473,1.9406104,3.5835834,2.0399232,1.2385659,-1.6506615,3.7878304,-2.730013,3.0505877,-3.2884817,-2.549739,0.90230274,-0.29592514,-0.48413706,-1.8138189,-3.9359136,-3.991724,3.5003943,-2.388012,2.0900707,-1.6761785,3.3255033,0.20285559,2.4399981,-2.2915645,-0.8678427,-1.9465928,2.4571195,-2.0511713,0.9677377,-0.94066143,-3.3405147,-3.8490047,3.1430082,1.9034553,-2.5806046,3.4356523,3.1841726,2.7196202,3.246122,-1.4488311,-2.9850984,-2.8947644,0.14307928,-0.23355103,1.6048203,1.2395825,-1.3340769,-1.9350038,-0.21591043,-1.7175298,3.095203,-2.9644794,-3.655829,3.2242503,1.2849255,2.7572556,1.7916989,-1.142632,1.4175615,1.4862003,2.998642,-3.1233015,2.0938063,-3.011032,3.699284,-0.06256914,2.967956,1.2139568,-0.17509842,-2.226273,-3.424142,2.5841756,-2.2179947,0.789495,-0.46732664,-1.6507082,0.48019838,0.04885578,-3.71494,1.0092907,-3.0048566,-0.793838,-1.4054046,1.8646178,1.3363204,-3.960288,-3.4608483,1.1614308,-1.4900742,-2.63484,-0.19567728,-1.3680339,2.918375,-0.13216734,3.2806802,-3.0846024,-2.0935984,3.0500426,-3.5075622,1.7505741,-2.8063827,0.39543676,-3.7081852,-0.94447803,2.1564226,1.9701414,3.7661586,-2.5926085,-0.113820076,-2.3008633,2.3315344,0.78992224,1.7251053,-2.276998,-0.33691406,1.3652515,-0.029559135,-2.9480872,1.1115212,-3.736847,-1.4355531,3.4011202,-0.88323355,2.0108705,1.3576126,-0.4388728,2.1905441,3.3632684,-0.5319009,3.3672395,-3.5517879,3.0577426,-1.256197,0.6820774,2.017715,-3.536438,3.5703454,1.915472,-2.334187,-1.7960143,-0.28365326,-1.1449933,3.702232,-0.8128209,-0.9823394,1.2845182,-3.6844845,1.9912095,1.4962602,3.7125168,3.7645168,0.9636307,3.6115313,1.7375255,0.9051285,2.4114313,-2.4324512,3.0651116,-0.029120445,1.8580389,3.8885489,-3.0851402,0.3561039,1.1548529,1.8160429,3.3889976,-1.4955511,2.6598315,2.8057113,-1.6752858,-2.8587618,-0.96646976,-3.8381,-1.2186341,3.3885522,-0.053314686,-2.2014384,2.9028926,-3.7254462,-2.6657948,-0.18303967,-0.25199318,-1.5903721,-1.4397564,2.684692,-3.83252,-1.0290399,1.1900482,-1.8131871,-2.2657638,2.804234,-2.6067767,2.6363316,-3.2237387,-2.3471065,-2.3588161,-0.22501421,0.45655632,-3.2702608,-0.07790232,2.3461714,1.3338084,-3.2069807,-2.0999608,3.7815742,-3.2340674,-3.7854404,-3.8025122,-3.4131923,-3.4157667,-2.7302327,-3.2362428,-3.1123662,3.5417671,3.5640411,0.98995495,0.529613,1.6646376,3.2063813,-1.1460185,-0.6033864,3.9734817,-2.4372354,-2.3259845,-1.7126746,1.8833928,2.2560163,3.636106,-0.09684944,3.347992,-1.5323043,2.2233682,2.439517,-2.4736,0.019192696,-2.065557,-1.4822884,-1.5405931,1.0109854,0.76045036,-1.7946253,0.48359013,0.8679447,1.0404587,-3.0466743,1.6724124,0.30987692,0.47896624,3.6497383,-3.9730577,-3.6325183,-1.3584642,0.24264431,2.3310528,1.9844298,0.69241285,-3.9167209,-1.7577381,0.6595068,-1.024229,-1.7775688,1.6263466,-3.3433685,0.8198595,1.5669894,3.6010718,-2.8456936,-1.4205966,3.194222,2.9406428,3.3089666,-1.4945893,-3.5365787,-3.8596988,-0.16533136,0.24478006,-3.7759948,2.1631708,-3.8494935,2.598628,2.5595737,-2.1280127,3.5084386,0.15999603,3.6991062,1.5799909,-0.570415,-0.92886734,0.6647377,1.8629298,3.5611997,0.45987558,-0.26927662,3.7954955,0.8474598,2.473475,-0.21444559,-2.3051682,1.0556383,-3.319622,1.2890744,1.9475574,1.0803914,-1.2943587,-2.1058345,2.6042461,-1.267149,-3.478383,-1.7215681,-2.4413018,-2.9222279,0.7275977,0.7506237,0.28863,-1.6502161,-2.8275042,-3.6703658,-2.4517603,-1.9245586,0.23311281,3.9360723,1.9709492,-2.9788256,-0.5693183,-2.0920262,0.20896435,0.9276552,1.8226309,0.7138772,-0.8650403,-1.6108022,1.482935,-0.59532595,0.012420654,0.9979749,1.5759373,-2.591877,-2.3638892,0.5023389,-3.119244,-1.7995214,-3.9926295,3.724381,-0.07975435,-0.13496208,-3.8551512,0.8167653,-2.4226708,3.5646777,3.4094353,0.70731926,3.1638155,-2.6034603,0.04150629,-2.8485475,0.21554565,-1.1739035,-3.8448672,3.5760884,-2.20537,2.6275053,1.2144432,-3.51939,3.5363164,2.3383856,3.335434,-0.8688073,3.8725944,-1.253067,0.51950693,-1.87045,-3.379416,-3.7489905,3.2406812,-2.0941696,-0.24287605,-1.4200721,-0.85094166,-0.041769505,-3.5198588,-1.0667515,0.3906541,0.06570101,-1.5235944,-2.8613906,3.2619638,-3.6630526,-2.2020445,-0.94588566,-3.9013095,-2.0495863,-0.1706152,-1.4338899,3.2053123,-2.9962592,-2.4967456,0.99910116,0.5653858,-1.227303,0.8056488,-3.5608668,0.25520086,-2.470518,-0.71982527,-0.09096241,-2.28584,2.6140637,1.1468339,-2.7493176,3.9844694,1.6622486,-3.5473843,-3.3568735,-0.05912447,-2.3442497,1.5035448,-2.1683393,1.0382333,1.7416029,2.5394769,-0.84867096,-0.92165804,-2.4301162,3.215014,1.4142346,0.58603,-1.5738101,-1.1239662,-3.6667323,0.64182186,-2.7040157,-3.3005204,0.9293165,-2.6328034,1.0279942,-1.9512286,1.7159214,2.3789926,-0.39795542,2.1712627,-3.4604106,1.4804249,-3.7251315,2.5898876,1.8948646,-1.266088,2.129024,-1.3627868,2.1537595,-1.6414695,1.3847628,1.4505019,-3.8331704,3.7243667,-0.55171967,-3.236424,-2.0059023,2.506774,-0.70272017,2.9088964,3.0321608,1.6110563,-2.1985488,-3.2899227,2.7057548,-3.2171726,0.848753,-0.98131704,3.2050939,2.7052116,-0.23205471,3.8209143,-2.4344215,-0.04036951,3.4215088,-0.4321699,-3.271031,0.7145519,0.6630759,1.9553719,0.2822442,1.3872309,-2.3179026,-3.6767292,2.7514296,1.6507945,-1.7207737,-3.7919507,-1.6087055,-1.721684,-0.1435008,-0.4038353,3.9004931,-1.4455519,-0.9472356,1.2083621,-2.8108997,0.6328058,-1.1020823,-0.82966995,-1.3748493,-0.8123617,-2.7453098,-3.2263951,-3.6512852,-0.99081516,3.229784,-2.1440544,3.8491669,-1.7904592,0.5219455,2.3316345,0.83239317,0.23237514,-2.1214623,3.0350413,1.9183879,-1.0420766,-3.1407232,-2.6699257,0.81332254,0.2892561,-3.5016193,-0.7920656,2.7257762,0.7722783,-3.911553,0.7726884,2.1102223,-0.2924776,-1.7019811,-3.2937837,-2.5534177,-3.831936,3.559667,-3.8754354,3.7758212,1.0582137,-0.05667782,-2.368146,-2.166016,1.7432723,1.7738013,-0.13604975,1.2106099,0.65815353,0.068761826,-2.986802,3.7741199,2.2683735,-3.490056,-3.5434928,-2.6111112,-3.4204879,3.3827229,0.42232132,-3.8698254,1.8356857,-0.8393254,-2.3124151,1.9465108,-0.8452492,-3.4692183,-2.3337846,-1.8788404,1.1605625,-2.1507583,3.0985966,3.5513926,0.57963085,0.71980906,-3.7189856,0.27409315,1.638587,-0.06783199,-0.07153416,-3.940022,-1.2195277,0.54725647,-3.4429088,1.03016,0.97700834,0.37923002,-0.8228016,-1.6309109,1.0700512,2.7218938,-0.33708143,3.5276928,0.2229538,-3.6375709,1.5468612,1.5102758,-3.4983473,0.11119652,-1.4901567,-1.8883758,-0.89143133,0.40645075,0.1684823,-0.020905018,1.2741632,3.3383842,-2.0942154,0.35458422,-2.3979917,-2.6069226,3.2791142,3.9870687,1.7344708,-3.3300858,1.7571931,3.2963767,1.6166668,2.284288,3.6665268,1.2693748,-2.042696,-0.21764755,3.8628635,0.07650709,3.495109,-3.375547,-0.9416051,-3.2895722,1.0364356,0.7928419,-1.8017535,1.2935662,-3.1595669,-1.7165027,-3.587988,-0.609941,-3.549303,-2.6483274,0.12018108,-3.5063715,0.09408808,2.956181,2.7380905,-3.4300022,1.0148368,-1.3328557,-2.272357,-1.1189971,2.855485,-0.30592299,-0.5888181,-2.9710503,-3.286717,-2.7020216,-0.39593744,-2.0853348,-3.7617269,-2.8837285,1.8168621,3.2441483,-0.91233873,-2.4575515,2.3710876,-1.2883611,-1.5721183,2.6276693,3.63489,-1.3408909,0.7820306,-3.6392784,0.3747487,-3.2473936,0.40445852,1.9814105,0.9576373,-2.3522682,2.84166,3.7851548,-3.8367887,-0.9815011,-2.6083336,0.42857122,1.3441982,-1.5046101,-3.631701,0.6473336,-0.45645,2.4334707,-2.0819378,-2.9553633,-1.5050974,-1.577672,0.59939766,2.6177683,-1.9268279,1.0490217,1.334085,-2.886146,-3.7376351,0.4855423,-3.056717,-1.0154762,1.4697833,-1.9079123,2.8417158,-0.3659625,-2.379777,-3.109355,3.8348207,0.26860905,-0.23800945,3.762219,1.4834843,0.8823328,3.3852377,-3.8094845,-2.7185302,-3.872182,-3.0099397,-2.7127357,-0.09238148,-3.0102363,1.4104323,1.0428553,-3.7537813,0.74654865,3.1861763,-2.356144,-3.1264987,-1.9178057,2.9484925,-1.3559136,3.6425772,0.6669035,3.3375401,3.6472797,-3.220389,3.8752775,-0.5980334,1.6523261,-2.7640882,0.024229527,-3.9110827,0.14691925,0.03219366,3.8744726,-0.61287737,-2.6424947,2.193818,0.40801954,-0.29898882,-3.15702,2.8118181,-3.2900257,-2.70653,-0.94800663,3.633287,2.1954455,-1.0932693,-1.1307201,3.2366157,2.4751396
0.28738594,-3.7701411,-3.083446,1.3331423,-2.9425807,-0.6275034,-0.8540697,1.6483521,0.8354845,-1.4366531,1.3728461,-0.06833792,2.9162931,-2.0061846,1.562499,0.97726727,-2.0545397,-1.0078821,3.9405713,-3.3616304,0.8207922,0.34505892,-3.2192965,0.045065403,3.546019,3.5161233,1.2146468,-0.7616906,-0.73109436,2.4531016,-3.8471313,-3.3382149,-3.5676517,1.4765978,0.07102823,2.9599042,0.20917225,-0.26139307,1.6034212,-1.2442446,-3.7195935,3.008194,1.2523522,1.9105077,2.2794151,-3.7255006,-3.6386313,3.7032905,1.2119741,-1.8238807,1.7246137,3.0507889,-3.1482687,-3.984303,-3.6469007,3.0664763,1.1030879,-3.33038,-2.8442926,2.82342,0.8458886,3.7503495,1.4071093,-0.8603244,-2.3199506,1.7434535,1.2807269,-1.3156424,-3.2501469,1.4681349,-2.53867,3.9632053,2.5487628,3.169324,1.5829744,-1.8321748,2.0127316,0.036487103,0.2527938,-2.0295534,1.6547112,1.2795396,-3.3662992,0.7489104,-1.0480266,-3.479062,1.5084376,-1.8075457,-2.7275476,1.7555027,1.5976562,-1.3494964,2.5432372,2.181058,-3.5550961,-3.0480437,2.475072,0.6339059,-3.1744094,3.8741245,-1.0621009,-2.8811817,-3.5757375,-2.7635622,-3.8644047,3.0738726,-1.8810859,0.11698437,-3.7202697,2.7514772,-1.0983582,2.4478164,-3.136073,-0.25145054,2.1657805,3.8704534,-0.63115644,2.7264342,2.339819,-0.01595974,-2.1155672,1.2949967,2.811926,2.8779106,-1.0524373,2.5907884,-3.445126,-1.8842678,1.7108746,0.076524734,-0.7563443,-1.7372341,-1.1405602,2.4736624,-3.0039096,1.8788352,3.5769253,1.5819421,-2.1755662,-2.9797368,2.0592017,1.2346601,0.7523308,-1.7879844,-0.06790304,-2.893515,-2.759408,0.199471,3.427971,2.9771366,-1.3838053,3.3253999,-1.0855451,-1.0704775,1.7757378,0.98470116,1.5746703,-2.4797192,1.3263092,-1.704978,-0.43695307,-2.975566,-2.0524898,2.018384,3.2810798,3.36931,-2.8528137,-1.864811,1.6345663,2.4063716,3.404376,2.6902647,0.97458315,-1.0816002,-3.7648716,-2.8912349,-3.7597013,0.5439348,1.8942485,2.7505784,3.5891948,-2.9337163,2.77773,-3.2067966,1.1209879,0.8310962,-1.7192526,-1.512311,2.4020295,0.11975813,0.68359137,1.4279552,-0.7711921,2.9360232,2.9969993,-0.15652323,-0.091067314,1.8056583,2.6379104,-2.6732907,3.3871918,-0.08623409,-2.0090704,-0.77741575,1.5295558,-2.592832,-0.3713007,-0.35428572,3.1508327,-2.7099195,-1.8699341,-0.61556864,-1.0912776,1.4856496,2.5874147,2.5572634,-3.410263,-1.10602,3.1979327,2.6897292,3.8074942,3.3444839,1.576869,3.8852186,-2.4272385,2.0369115,0.0281806,-2.89396,3.0539026,-2.6632705,-3.0016527,0.5172825,-1.7723522,0.7067704,-2.0133505,-2.2402754,1.7498899,-3.6862783,1.5789065,-1.583487,-3.3938951,-0.23471832,3.925644,-3.545545,-0.092460155,-0.042965412,-0.56107664,2.8124185,3.1840796,-0.29241705,0.89874077,3.4592633,-1.0857258,-2.5684323,-0.6710186,2.1597552,0.6788955,-3.6368403,-3.6614723,-3.998077,-1.2967796,3.7427912,-2.8357096,-2.2890172,-2.2334833,-3.012405,2.0637217,-3.7137384,0.23153973,-2.6234622,-3.7261415,-0.94386625,-3.3662505,3.514916,0.39619493,0.4848218,-1.153934,3.2450137,-1.6792712,-3.2583303,-1.0982423,-0.68938875,1.8324776,-2.9588943,2.342156,1.6580248,1.6386309,-3.9122891,0.3088355,-2.414267,2.128387,-0.2515707,0.99822235,0.9837222,-1.2305188,3.5808325,-0.35806656,-0.2972083,0.3194828,-1.5447402,3.5949907,0.85849476,-0.724792,-1.2725563,3.7580075,-2.0755343,-3.8858752,-2.120318,-2.5949345,-1.749073,1.4364614,0.010561943,0.13781452,3.7264671,-2.7400484,0.8984885,-0.6350279,2.3800783,-2.760192,-0.3993702,3.2663455,1.6162152,-1.1013184,0.8091736,0.118388176,2.4336348,-0.90590715,-2.2711897,1.2356486,-0.53072214,-0.41181278,1.445941,2.3458538,-1.7731977,-3.994298,-1.8609724,-1.6826448,1.7158561,0.58486366,0.66363907,-0.2271967,-1.611875,1.481523,-1.2071781,-0.14621305,3.279902,-3.8566332,-0.41364956,1.4743237,1.3537202,1.2174654,-0.99109507,-2.3319187,-2.0062294,3.004867,-2.8498187,-2.4283786,1.3967419,-2.3305306,-2.5228887,3.2953434,3.2816124,-3.0909767,-3.1474032,-0.85828686,-2.8858156,0.8929796,3.0942597,-1.3116217,-0.7749572,-1.1210561,2.25348,-0.8615465,-0.7615371,2.5759444,-1.6727581,1.6531415,0.6949153,-3.8075356,1.6558795,-3.6504498,2.336515,-3.0205593,-1.1835275,-3.8794084,2.0533566,-3.632863,0.5272455,-3.1092172,0.9044781,2.5391078,3.1906571,-0.5368061,-0.99947786,1.1503835,-3.3952427,-2.534782,2.5613112,-0.8303795,3.5716262,-1.5840998,-2.5391488,3.4203324,-0.7388458,1.5917602,3.490046,0.8534999,2.0058131,1.7629676,0.97390413,-2.9330845,3.590301,-3.7660503,3.9706578,2.8846312,-0.933239,-0.19643116,1.8751869,0.33687592,0.8045287,1.7364745,2.7938662,-1.8241005,-3.869143,3.7106857,3.622676,2.7903795,-0.081394196,2.7034326,-1.4595213,-0.6705551,-1.663703,2.2493596,-0.054937363,2.9310088,3.328001,3.4289422,-0.8437791,0.70706797,-3.006887,2.9219136,-0.94193506,3.7349648,0.7719221,-3.2827497,2.9472804,3.5274167,-3.7801123,-0.5406461,0.015445232,0.719367,2.3044176,1.4060721,0.067138195,-0.94438696,0.8406143,-0.32032108,-0.66829014,-0.14638901,1.2796454,-0.36657,-2.2394562,0.24006176,-2.9170518,-2.9145641,-2.666247,-3.4682016,-1.0097709,-2.1351476,-0.92417717,-1.3097587,-1.6230621,0.17437887,1.2690434,-0.011677742,1.4804211,1.9243312,3.4520082,-2.3216648,3.5611062,1.2886853,2.0182476,-0.047254086,0.1886239,3.7490091,0.53260565,0.886631,0.060589314,-0.070278645,1.3305049,-3.9958172,3.456614,-1.6858625,3.7531023,-3.0883322,-3.8901653,-2.1830716,2.819881,-3.0005522,3.5756435,-0.84861183,1.6946669,3.0751896,3.8501887,-1.4290485,-3.4681644,0.113304615,-0.07761192,0.11019182,-3.108233,-1.1189952,-0.8594966,1.7527027,3.7088537,0.4432044,-3.129459,-0.51169014,-2.2732253,1.4959369,2.1767077,3.0916133,-2.545292,-1.2050266,-0.45334816,0.38443232,1.2399235,-3.0779037,3.5241122,-3.9121194,0.31712484,-0.8200402,1.1316261,0.10214567,-2.871705,-2.93323,-1.075994,2.7750978,1.3789363,-1.2817698,0.29211664,-2.3388257,3.9028382,0.70529795,-2.756054,3.2811995,-2.7318673,3.05645,-1.5411534,-2.0516295,-2.8822803,-0.6286473,1.1989207,-3.0727768,3.5675135,-1.9268489,0.051716805,1.767489,2.781629,3.498116,-2.0215907,-0.045041084,1.4249711,-2.4418306,2.3843627,3.0233316,-1.4940324,1.6728892,0.67215395,-1.4238963,-1.2642584,-1.2829394,-0.1363554,3.5024328,-1.3598323,-1.3432341,-0.60471916,2.8871217,0.088274,0.7654042,3.2323546,2.1889963,-2.4103003,-2.1399775,1.2712145,3.2955513,-1.2643175,0.5419431,-3.013751,3.7813725,3.7076273,1.2529788,0.9386506,0.45507956,-0.8249464,0.98357725,2.729322,0.050919056,-1.4040909,2.231114,0.006655693,2.3082623,-1.5128016,1.4692922,-0.8859544,-0.0883441,-0.65207815,0.74231243,-3.1102219,-2.312676,-1.5902491,3.454165,2.1461205,-0.45431852,-3.7909727,3.023151,-2.2871304,1.0250425,0.18682194,-3.5213485,-2.9839096,-3.3441143,1.3272934,-3.4197798,2.4831276,-2.9207158,-1.4412613,0.5524268,2.252985,2.8940563,-0.288198,-1.4084673,-1.5153227,-1.8236866,-0.17429447,3.0760999,2.8779693,-0.26096535,1.2112923,-1.3078823,-3.141169,3.3295684,1.7395334,1.8782053,3.368794,3.5761433,-3.7288089,3.146988,-1.409028,2.6921544,2.0479083,-1.3910775,-0.37135315,-0.54433537,2.422401,-3.2962914,0.63282204,-1.8471313,-0.16403484,-1.3539629,3.785821,-2.015274,0.90053034,-1.0441327,-0.35333633,-0.5128665,3.3802614,0.8327298,0.5334325,2.0334864,3.489555,-0.162189,3.8659024,1.3257775,-3.949449,2.7808337,-3.148777,-0.58689404,-1.3707805,-2.089933,2.8241715,1.3061686,-2.134935,-2.8627377,-3.6656938,0.40952444,-0.9791956,3.3839407,-1.7870221,0.12175894,2.625331,-0.87462044,0.98651886,-0.9663472,2.4111753,1.3728333,-1.1142778,-2.2123241,-2.8731313,-2.162859,1.2188606,2.0751233,-1.0696249,3.646896,1.0337234,3.2915373,-0.23759413,3.1658945,-1.0736933,-3.476667,-3.6966944,1.2066903,2.8176928,-1.0997443,2.904585,2.933806,2.899104,1.6460547,-3.5486302,1.2805948,1.2459235,-2.2548618,2.775433,2.6819124,0.45746517,0.99246025,-0.5547433,-1.1102471,-0.15174055,3.9091587,0.08018112,1.7548985,0.08137894,3.813973,1.4653659,-1.0865769,-1.2972622,-3.908153,2.5033345,3.726727,-3.0599008,0.8729124,0.37167215,-2.3733358,-0.37040615,1.0287914,0.23520803,-1.1226659,0.6086407,-3.664535,1.6801572,0.9713268,-1.124857,-2.8056774,2.0174527,3.3446565,1.89147,-0.577919,1.18823,-3.6395855,-2.6341372,0.91750526,-0.23359394,-2.2596836,-0.4436469,-1.2850494,-3.813108,1.6049161,2.6208014,3.8931236,-1.3465767,1.4313679,-2.085837,-1.5012145,-2.8573074,0.5912876,2.6682763,-2.8290806,-1.4083533,3.3545423,-1.4367557,2.237681,-0.07214832,-3.3731809,0.82060146,-3.9421082,2.3989954,-1.8564725,-3.7502513,-0.7325859,-0.8777709,2.909186,2.918438,-3.0299668,3.4774537,3.5138497,1.6781788,3.0090795,-0.39387083,1.3655419,1.6641297,-0.8785491,-0.33093214,-2.7359924,1.2391734,2.486535,0.6082587,0.14558601,1.9212451,3.0403666,-1.9806409,1.915556,-2.9956102,3.6566896,3.5684457,2.3420806,0.36531353,-1.7469392,-2.5008235,-2.0710835,1.971149,1.0382328,0.62005997,-3.948627,-3.371408,-1.9216061,-0.69366264,2.595737,-0.5776739,-2.6490397,2.1923695,-3.3244624,3.0894933,2.327084,-2.8113103,-0.877306,3.3997707,-0.6455846,-3.821598,-3.5931993,-3.2848802,0.80150604,3.3005762,-0.9143009,-0.32763624,-2.198864,1.3091702,3.1239948,2.873168,3.8433123,-3.5750375,3.347519,-0.7873702,0.39634418,3.8204455,-2.5301652,1.7872705,0.7777624,-1.0361748,-0.30410767,3.0786276,-3.1175075,-2.8064222,2.666884,-0.682333,-1.0447993,0.91969633,-0.12671041,-1.2693367,-1.156363,3.6971617,2.6691222,-2.9931083,-2.8083253,1.1615782,2.3335133,-0.8048196,-2.448832,3.6516757,0.5351186,3.8379989,1.7622685,-3.4112444,-2.0255852,-1.8790102,-2.8510046,-2.2154794,0.44784117,-2.0893607,0.7022772,-1.623661,2.2600503,1.6558208,-0.29715395,3.7381988,3.5952263,-1.7518749,-2.977098,3.306694,-1.4403248,-3.7960157,-0.88510084,-0.26029778,-1.8353219,1.2064342,3.5497336,1.2612171,-1.8049774,3.5087476,2.6315322,-3.3655343,-3.0062675,0.46390867,1.4438229,-2.7327662,2.601399,-2.8641558,1.6485329,-0.06642628,0.95818615,-3.67178,-2.9332733,-3.9348936,-3.8278437,-0.6826625,1.7446809,0.21821451,-2.0319471,1.104991,-2.297535,2.9809537,-3.2297955,0.24789047,-0.6488266,-0.8093138,2.4807692,2.5302658,-2.2491145,0.9606943,-3.445746,3.3082833,-0.8090806,-0.14342356,2.7301369,0.7768407,3.3585124,1.9414368,2.681561,3.3238568,2.598311,-1.231956,0.40854883,2.302277,-2.945506,1.3065581,-0.3869915,2.8483481,2.0566182,3.9534492,-3.670885,3.8142323,2.8108459,2.9911203,-1.8395886,-0.4035802,-0.23326445,-3.89611,3.6333556,3.8865542,0.04773903,-2.1254144,3.0800028,-3.469019,-0.21243906,0.7825098,-2.6007977,2.2673993,0.4561491,-2.5818934,0.93011665,-1.2557845,-3.7351503,-2.1322374,0.04310417,3.6784496,0.111741066,-3.9260168,-0.9248462,-3.8459516,2.49196,-2.862873,-0.3008976,1.9121099,-0.79456997,3.8151784,-0.8680377,0.17059326,1.0224514,-0.15692663,-0.20320654,-2.708619,2.8176212,-1.7968845,3.81885,1.869926,-0.21892643,1.3284135,2.3491693,0.06492472,-1.4853063,1.7322731,-0.9185147,0.8453617,1.0962424,-2.8265505,-0.99961376,-1.9323611,-1.8521485,-1.2395759,3.5340261,1.7892046,-2.1963372,-0.93732214,2.6725678,2.9848742,-3.9139647,3.1536627,-1.3321371,1.990768,-0.9526925,2.5041013,-1.3101797,-0.18375015,-1.7838564,0.8456836,-2.0555673,1.3192611,-1.8694439,-3.270485,3.5466948,-3.357185,3.3953834,0.83109236,0.8026223,-3.1070309,-2.2531843,3.5494556,0.027395725,-1.4408607,3.642119,1.6828318,-3.224657,1.5189409,0.14555359,0.63179636,1.1710982,2.6397119,-0.79683685,-1.4958768,-0.6760869,-3.8797593,3.2661963,1.61831,2.617793,-1.9331551,3.7370162,1.29564,2.6629581,-0.24939585,-1.4010658,2.6888018,1.1581535,1.0550957,3.2041101,2.0389352,-0.23740196,-3.5708275,-1.4919648,2.6277575,2.8499665,-2.0349722,-2.3433142,2.3674617,-0.121254444,-0.08921623,-2.020194,-2.8562546,0.8527417,0.0069446564,-2.0274982,-3.4831638,3.376411,1.6401033,2.2339463,2.1371279,-0.8288274,-2.8069582,1.678113,3.316311,2.2749743,-2.479289,3.3635578,-1.193049,-2.2128158,-2.295755,-2.640955,0.30372524,-3.1415715,-2.2369547,2.1456647,-0.06679773,-2.8006287,-0.40420485,1.755734,-3.383472,-0.14230919,2.9579492,-2.6093435,3.3659148,-1.8223205,0.77347517,1.495676,1.1317682,0.12611008,2.655344,0.67561007,1.6979437,1.5802612,2.4301686,-3.4862165,2.3982725,-2.606615,0.11039448,3.0330434,0.29351616,1.3684921,0.64026546,-3.435482,-2.775474,2.5971546,0.49232864,-1.8568234,-0.70999956,-0.50481176,-1.4327679,-2.1690755,1.356102,-3.5444026,3.7338877,-2.195623,-1.1143737,2.1301498,3.7474852,-0.51274824,0.49678946,-3.6415777,-2.667799,3.9329934,3.171226,-1.2738109,1.1715131,2.17342,0.99787855,-1.682281,-3.2053103,-0.92962646,-2.040646,-1.2821074,-2.6089954,-2.3088565,-3.1396217,-3.3658266,-3.9435897,0.35140657,2.5094714,1.1844087,-2.3614364,3.8330846,-0.7347379,3.0982337,3.078072,2.1154962,-0.25680733,-3.403377,-1.0456176,-3.892014,-3.3328648,-2.0401263,2.9667678,1.8174386,2.4888935,2.8081493,-2.427917,3.226272,3.5570335,-1.4353523,0.3442688,-1.3777599,2.4903078,-0.26138496,2.3237295,1.5621967,-1.6796103,0.46781635,-3.6794481,2.0444636,2.359037,0.73679876,-2.4181652,-2.5898495,1.1864967,-1.9976349,-2.6869588,1.2192683,-3.653778,-0.59977627,-2.736002,0.7043295,2.0861192,2.6908102,-2.9151545,3.8688612,3.753932,-1.3331146,-0.31638098,-2.027491,3.3042197,-3.4452486,-0.24189186,1.7546415,-2.99786,-3.7161512,-0.46205282,-2.3537579,-2.8649278,3.290182,0.19136953,0.38188887,-3.1875353,3.296513,-1.9174562,3.451354,-1.6826487,-2.5593581,0.9926877,0.950397,1.665175,-2.008595,-0.45096684,3.4541788,-1.1529026,0.11435127,-1.4269538,2.0210295,1.6312647,-1.2355728,3.1208491,-0.55946445,-3.1632276,-2.5444622,-1.9725962,1.0947266,1.8767123,-0.32445717,3.2894778,-0.3439908,-0.5910711,0.99421406,-1.7364407,-1.722939,-3.4186368,-0.010045528,-2.8284717,-2.4623365,0.18333101,-0.83725405,-3.3181968,-0.5719986,-2.2898269,-2.2051253,-2.6252422,3.9188786,0.73668003,-1.3184028,-3.1588535,0.67309904,-0.9801283,-0.17992258,-0.74099684,-1.709444,-1.5155954,-0.81929064,2.9307384,-2.121108,-0.12058163,0.8794546,-0.054223537,0.05351925,-3.2457075,0.3370309,3.49788,3.6718593,-2.0720735,2.889884,1.1880989,-2.7015266,2.3920503,-0.027219772,-0.23313522,-1.1931591,0.2890525,3.2127643,1.2199554,0.501472,-1.9408059,3.973082,-2.9843087,-1.8326035,0.006158352,-2.8973527,3.9625697,3.6243892,2.4539819,-1.454318,-1.139504,-1.5928721,-2.4421353,1.3364482,-0.5274935,-0.5385356,2.006413,0.2595086,-0.06962347,-1.782434,-3.2410736,3.635785,1.2744255,1.6745429,0.16863346,3.462914,2.2980795,-0.5652151,-1.9533272,-0.7159424,-3.770876,0.8112049,-2.7576022,0.096479416,1.1648474,3.6734529,-1.9014249,-3.6210556,-1.1546922,-2.298468,0.7555499,-2.42065,-0.31947136,2.9036117,2.921803,-1.5499554,0.45136023,2.9808316,-2.2802033,2.3621082,-2.5871367,-0.63797045,9.584427E-4,3.7104726,0.40117025,-1.9128141,3.6723652,-2.096727,-0.13732624,-3.583468,1.7854733,2.0002627,-2.5040808,0.9342756,-0.775558,2.2405581,1.5545073,-2.5217156,3.743486,3.5185075,-2.9384952,0.5614753,-3.090392,-2.0078936,2.6150727,-1.216444,3.4043117,1.7302194,0.6291318,3.4147816,1.4457927,-1.4630427,-3.6153512,3.84307,-1.7430644,0.3729558,-1.0756264,1.51371,3.0945907,-3.711917,1.4894357,-1.4164176,0.06727886,-2.7226658,0.87785435,1.6108394,0.6220832,0.38538647,-2.0643578,-1.3170714,3.1222887,3.7545934,-2.371512,0.5522666,3.4356341,3.800109,-0.8310857,2.326304,-3.8957734,3.5934505,0.99804115,3.3987756,3.791431,3.7561784,2.675517,0.58813715,-0.25616837,-3.7524514,-1.3264112,1.4691067,-0.4621334,-1.4619365,2.5845032,1.8704572,1.0963569,-3.41615,1.342247,1.3182573,-2.3198519,-1.8312125,2.862905,-3.6947737,-3.7702184,-1.3985872,0.28038168,2.7653255,3.121863,-3.8942018,-0.92119503,0.754673,2.3098235,-3.1809793,-0.59269714,0.43695164,-0.74048805,2.0164714,0.33995438,1.0202208,1.5116763,-3.43077,-2.4287338,-3.10601,1.6763597,-0.1409316,-3.1015916,1.0971704,-3.1162748,-2.7745671,2.8434167,2.2606006,-2.9977565,-1.0909553,-0.9555154,3.7888546,-1.7662134,0.42761755,-3.1468787,-0.62349176,-1.9236922,-3.965335,-0.7038703,-1.2794471,-1.69625,2.6615624,1.7059517,2.8447514,1.8699412,1.4399424,-1.4773717,2.7700067,-2.0562015,-1.9147406,2.7833881,2.9487872,0.19750023,1.25698,-0.47563267,-3.8420515,-2.3072934,3.2854252,-0.26886988,1.2644014,-2.9372778,-1.2161436,-3.2767897,0.91861105,0.11601448,-3.3139634,-0.7992921,1.8934226,-1.4409604,3.828268,-1.9991794,-2.8032494,-1.5507932,1.6198592,-1.5830879,0.5977988,1.5623207,2.5311832,-3.6448832,2.7942867,-1.461678,-2.3869681,2.4013543,1.7141767,-3.97512,2.20885,-3.0721798,-3.3837972,-3.2342634,-0.7781868,-2.309699,1.5806565,0.49989414,-0.8344588,3.0889025,-0.8580551,-3.4058146,-0.20033741,3.642723,3.30899,3.5957084,2.093502,1.646524,-3.224914,-1.4426217,2.8618922,-1.0576763,-0.9129753,1.3797851,3.5906029,-2.1161146,-0.09938526,2.9709063,0.25419474,3.6551166,0.79777765,-1.677598,3.490294,-3.9927769,-3.294252,-2.6675797,0.12039995,-1.7880635,1.5930758,-2.8095102,2.1124926,3.7219796,2.296743,-2.6746006,2.7038865,-0.05691576,2.161263,1.3723221,3.2081132,-2.962984,-2.6292634,-0.46388292,0.30614185,-0.69989014,-0.21995497,3.4340882,-0.71599436,1.0295177,-1.3217831,1.438745,-0.734993,-2.3424387,3.8470917,-3.7203155,0.15913296,0.18608904,-3.261726,1.898839,-1.3957715,-1.4046664,-3.5674129,2.105373,1.0168848,0.06830931,2.74536,1.3907542,-3.9550128,-3.1799421,-3.5005121,1.4112701,0.8824706,-3.566131,-1.6671648,3.3198714,3.3591347,-0.6081972,3.7887883,3.6519442,0.36842346,-3.4228086,2.8351493,-3.7141924,3.5829492,-1.3198509,0.96868896,-3.321292,0.69528675,-3.4637208,2.9170675,-0.18189478,-3.6007414,3.4815273,-3.5019112,-0.05349636,2.4086266,2.945313,0.9149051,3.0612135,3.034864,3.9875174,-0.24358034,-1.4714012,-2.1224208,-0.3046322,2.9613137,1.0808711,2.3092422,1.8016152,2.343371,-0.6973872,-1.4258051,-2.801591,1.9417057,0.90933275,-2.9904127,1.959794,-0.9463501,3.241716,-3.7030854,-2.0674567,1.5569801,-2.8578277,-3.4437122,3.9179873,2.883449,0.5651512,2.9155684,2.0793176,-3.7562284,0.844728,-0.03797388,-1.2725477,2.526887,0.5725384,1.8793516,-2.5533247,-0.5699992,-2.2784433,0.3767314,-3.8732386,-1.827774,-2.6932616,0.64329433,-3.4960246,3.5800757,3.9475756,1.0496826,0.03700161,0.009253979,-2.2396326,-3.6671906,0.23831081,-0.28934765,-3.2451115,0.32912493,-0.04543352,-0.2892418,1.1613574,-2.6200447,3.6741624,1.5344224,-2.1853962,-1.6411724,0.993731,-3.747395,3.943276,1.5291228,3.2812486,2.115965,-3.3517394,-3.5799384,-3.1609697,-2.2115207,3.326438,-0.4760852,-1.8717737,2.9002538,-1.2512026,-2.5934472,-2.3747458,2.8969202,-0.99386454,-2.0489588,2.5227323,0.20098162,-3.2136955,-3.2909832,-1.2293043,-0.63016605,3.2646475,-1.8688674,-3.9889503,-3.2875772,-2.780879,-3.175047,-2.9528933,-1.186758,0.89398193,-1.3895812,-1.006496,-2.6648865,-3.1738591,2.2984338,2.6776085,2.6825752,3.6366372,-1.2787061,-1.1554937,-2.4178038,2.1215138,2.1336846,-2.9883575,1.9763937,3.4219575,-2.1561532,-1.6910295,3.0598445,3.3082304,-3.3846803,0.33383465,0.66396856,0.495996,-2.5854974,-0.92035055,1.9917235,-2.6275964,-1.4928441,3.6214805,-1.9762678,-1.3869128,-3.6080256,-3.1572647,-2.5159655,-1.8846378,2.8905907,1.5731516,3.4211564,-0.2223382,-2.1952024,1.7118983,-3.7957687,2.3659878,-0.5574064,-2.0112462,0.6561885,3.5951371,2.168775,-2.1462588,-2.6269336,-2.6889577,3.742424,-1.4108343,-0.13806581,-2.8889618,-3.0232725,2.2404528,2.4461927,-2.173462,2.2352424,-3.3785915,1.0378408,-1.9121947,-3.8729997,-1.1517224,-0.41190386,2.888525,-1.2301369,1.103106,-3.3478122,3.9890714,-0.928751,-0.7467971,0.017714977,0.58697176,3.1669369,0.31780434,-2.649725,0.5114927,-1.3739214,-2.5418973,3.5316439,3.961738,-1.9370728,2.1805425,2.6562347,-2.6754684,-3.1928144,1.918375,-0.012598038,-3.175057,3.3143096,-3.6491365,1.6579785,0.74890995,-2.2912989,1.1159248,-3.7442098,1.9293518,-0.4645276,0.47828197,-2.9836645,-0.5752487,-0.6354923,2.6641645,2.1279407,-2.712295,1.882873,-3.2769747,3.2410202,-2.4092402,-1.3076448,3.8095007,1.8892131,-3.8567553,-0.012940407,-1.2973123,1.0276055,1.4160719,3.0356755,-0.67239094,-3.2513433,0.03698826,-0.026768208,1.2732444,-2.4487343,-1.1032405,0.4820423,-0.8044052,3.0393276,-3.3873858,3.8000755,-3.9393234,-0.035406113,-2.8507524,3.0513005,1.0539508,0.0812974,0.24515438,-0.31432533,0.4172969,-0.051622868,-3.4967604,2.0104427,-2.6449456,-0.17422819,-3.7250242,3.1783562,2.4846406,-0.9842324,-3.3829465,2.9863725,2.2277308,1.8752818,-3.4261374,1.4693952,-1.6973662,-2.6281524,1.9085746,0.21176815,-1.5297551,2.2014866,-2.6346831,1.8335662,0.41254473,3.48216,1.9153552,-3.8466978,-1.2831182,1.8586779,1.6665115,-3.377411,-0.84096575,1.1053233,-1.2322998,-1.0644407,-1.2938986,1.2176504,-3.5853639,-3.974419,-2.0955482,3.3964276,2.778882,-0.6119671,2.71105,1.7211518,2.2856956,1.8496852,-2.3736877,-2.2105422,-1.7730412,2.2066698,1.5760403,-1.1112952,2.4091306,-3.136877,-1.1232786,-3.2814355,2.722958,-2.3645353,-1.5645905,-2.7248635,0.6269355,0.78195,-0.15967894,-2.160448,1.1305275,-0.7623024,2.0739875,2.3137321,-3.3587208,3.7709012,-1.7648659,-0.7354684,0.82244015,3.740449,-0.97878504,1.451477,-1.6600757,3.3677244,0.058512688,-1.5757675,1.1296787,-1.399898,0.8537669,1.7104278,0.78406954,1.0295076,-0.31180525,-0.47595596,0.15911436,-0.14940357,-1.1856575,2.785797,2.7885466,-3.9614615,-0.39370632,0.16140985,-3.2738757,2.9602666,3.7371063,2.0179234,-2.280384,3.294312,0.021856785,2.523767,3.9687972,0.8371539,1.4030671,-1.948164,1.080914,-2.4426441,-3.074565,2.687777,-1.7193122,1.7867508,3.8315005,3.7247038,3.6534276,1.9996157,-2.383072,-3.1078272,2.5193963,2.1401944,1.6463294,-0.30198812,1.4006715,-2.5448055,-0.4942212,2.258088,2.0185623,-2.5650153,1.5391932,-1.4221249,0.045567036,2.5543075,-3.009605,1.2823119,3.7511744,0.4443779,1.9837422,0.74345684,3.1708255,3.962381,-1.518498,0.53047705,1.0624003,2.0156527,-0.2614808
-0.043436527,-0.3353033,2.9278808,-2.059143,-1.0473971,-3.49437,2.521142,3.9812841,-1.3618255,3.1408439,-3.9636526,2.7879133,-1.0230064,0.22784853,-1.8777652,2.115765,-3.8315315,-2.2389035,0.022871017,-3.1002216,3.2684789,-3.6819506,-3.2086139,3.952012,-1.0898962,1.1330857,3.9153638,2.968728,-2.3523316,0.36289263,-1.401556,1.7405653,-0.39839602,-0.9640322,2.1502342,1.3691645,-3.9655142,-1.6309166,2.415606,-1.4712954,-0.051968098,-2.5780768,2.0187798,3.0554576,3.857543,2.8929114,2.1785316,-1.0152178,2.61411,0.8048568,-1.4658103,0.29740047,-3.0692124,1.2181525,-0.3919716,2.1538548,-1.4991612,-0.58239603,0.42064953,1.8905439,1.3627839,2.742847,3.958356,0.37918139,0.67700624,-2.6941538,-2.0652342,0.49508238,-2.8540244,-1.9926887,-1.4651232,0.34333897,3.9775171,-2.1527286,-1.8564315,-0.5793762,1.5346203,3.2197075,-0.30504608,-2.9931273,-3.762453,3.754807,3.447424,-3.90831,-3.8889465,2.9624038,1.6886873,1.8615327,2.4529462,-1.9470344,2.5502543,-2.97787,1.9165106,-1.2601261,2.5392218,-1.1559668,-2.0498633,0.70758724,-0.25648642,-1.1364584,-3.250721,2.786251,-3.8262782,1.7641077,-1.9996715,-2.0137162,-3.71556,0.41687965,3.7095332,2.482668,-0.09047699,-2.1415753,-0.085579395,1.043787,0.8131685,-3.1040368,0.29676056,-0.21692657,-3.2769637,3.0897484,-0.49346447,-2.0770235,0.16733646,-3.4872837,0.6824794,-3.4985547,0.6621218,-1.9314542,2.9156818,-0.98797417,-0.38310194,-1.3207488,-1.0711522,-2.1799822,3.7465472,-1.0179529,-0.8733859,-2.7085724,-1.5440912,-1.5267615,-0.7187238,3.8234582,-3.1494765,1.6735811,0.13251734,-0.49269676,-0.94788647,0.42866993,-2.1538167,-3.440765,-0.9238229,3.0228243,0.14237833,2.6584463,-1.1307764,-2.409923,-0.7611275,-3.9302664,-1.133317,-1.190577,-3.5319428,-0.8063288,1.640852,2.4881344,-3.5161843,1.0369902,-0.9030771,1.5581274,-2.8793998,1.356585,-2.2108936,-3.3508816,3.9075031,0.126225,1.9206004,-3.7061152,-3.3390398,2.200179,-2.6550627,-3.1133137,-3.5122905,3.9743257,0.9825487,-0.20185089,2.30927,-2.3331208,2.1460176,-2.1256366,-3.4389606,1.397481,-2.9544601,0.39673233,3.3324523,-2.2753644,-0.4036088,-2.9618773,-1.8731842,-0.80208683,0.53149605,-0.5276718,2.3859458,-0.6153674,-3.3361387,1.7695432,1.1288671,3.174086,3.5681252,3.325162,-3.8743534,-2.0055456,-0.38471556,-0.65014505,-0.3289461,-0.8398113,2.7167134,3.8208733,2.187807,-2.8592215,2.067563,1.0135508,0.8156996,3.6451187,-2.1494246,-1.6252737,1.0933962,-3.5234952,-1.3238907,3.5374184,1.2251024,-1.6730533,-9.536743E-7,3.70396,1.4365969,2.983591,-2.0029707,3.4995327,-0.49318552,-1.9131212,-1.0239081,-1.2743416,-2.5171428,0.95853615,-1.1862121,-2.7832217,0.037247658,3.1886501,-0.44261932,-3.390141,-3.9199066,-0.53075504,-0.30362797,0.41958094,-3.835112,3.7591372,0.9201608,0.7247591,3.1295705,-3.8907657,3.5802426,3.9587202,-1.313365,-1.2646542,-3.4691558,-3.656765,-2.940064,2.8001986,-2.3129263,3.0452147,-3.511108,-0.6007142,-3.9323192,-0.0745759,0.8066921,-0.48240137,3.0829635,-3.328145,-1.486423,-3.2204137,1.0306673,-1.8665867,2.8949142,1.6742821,-1.4361396,-0.66032124,-2.0652404,-1.6682959,-1.9402175,0.4017167,-0.5451255,1.3345451,1.1378889,1.5954838,-0.15127516,-1.6736054,-2.94458,2.2340913,-2.137107,-2.8757353,-3.8504791,0.91075706,-2.4977026,-1.734592,-0.38995028,3.4769459,3.707006,-1.7892232,-1.7728,0.18357658,0.18983507,-0.31092548,-2.3933568,1.3017778,0.25368643,1.8788443,3.518165,-0.76147985,-2.969131,2.3021393,2.1229582,2.1949258,-0.5342598,0.0061273575,-2.4780293,-1.1008925,-2.2226171,-3.8184147,-3.2469478,-1.8517365,0.97287226,-2.6437545,-0.5990858,-3.6621637,-1.4261737,2.1775427,0.86571217,1.2370353,-2.1665707,0.33635664,0.079194546,1.0340643,3.8195257,2.9301848,3.105051,-3.89145,0.15083027,-3.5720997,-1.7734356,-3.5639153,3.7597055,1.5760059,2.1630569,-0.93366814,-3.4053054,2.4752364,2.246097,-2.665844,-2.8420877,0.42805195,-1.7230172,-0.5093932,1.2461457,3.7775865,2.3183951,2.6481347,-0.6208215,-2.2921157,3.7141938,1.7568579,1.240869,-3.300992,0.5503912,-3.1201396,0.43983984,2.6501975,-0.3137021,2.7835603,0.73110294,2.0931454,-2.7645917,2.709353,3.0564766,-3.665464,-1.0513859,-1.4488764,2.8701777,-1.626996,2.1374373,-2.665338,-2.9756656,0.9687147,1.6754827,0.5356674,0.044036865,-3.601489,1.1230636,-2.9126377,1.6615405,-0.39241076,-3.1051464,-0.9636307,3.2770987,3.301444,-1.8166165,2.3439727,-2.7208767,3.4912653,-3.1370144,-0.6795492,1.8158121,2.1123471,2.6005445,-0.7328367,1.1191387,-3.581325,-2.7224727,1.0008483,-2.6173964,-0.3321805,-0.37149096,0.53190565,0.92259884,-0.9951091,1.6294017,-3.804494,2.5479622,2.2043562,3.478778,-3.223567,-2.4498115,2.1134863,2.8915982,-3.3896337,0.31954336,-1.6345716,-0.97510767,0.6391611,-3.929399,0.37384033,3.6451602,-0.5647621,-1.7524629,2.9678931,-1.4585786,-0.2734542,-0.55131674,3.3705711,-2.2748604,-3.0408502,0.6566777,-0.7916937,3.3026047,-1.4945688,3.640696,1.5621204,-0.6540351,1.3187695,2.7333078,-0.8168373,-2.4600787,0.52165985,-3.590993,3.5842724,-2.61874,2.969252,2.2645602,-1.5125155,0.42191315,-1.7775187,1.7723436,-2.7541113,3.2622385,-0.723691,2.094401,-3.498559,-0.8663449,3.298911,-3.7043314,-1.5250964,2.997837,-3.434679,-1.0700421,-3.1238532,2.79733,0.90647125,2.9184866,0.66795206,1.1088238,1.8816323,-0.7504411,-2.865488,-3.1105795,-3.0593605,3.9022093,1.3423128,-3.9053612,3.9369817,0.87505054,3.6914334,0.9741039,2.4810753,1.6934915,-0.32180977,-3.458818,1.910223,0.9713416,2.433282,-3.888649,0.31458426,-0.20941353,-0.46756268,-1.934619,1.3855171,2.3376722,-3.351293,-3.0365987,1.8707752,-2.8663187,-2.4670506,-0.37687492,1.5462756,-1.7933278,3.2596135,0.033480644,0.4109807,3.1290417,-2.3573608,-3.7426167,1.7760854,-2.631166,1.8258204,0.6424303,-1.5507879,0.45965576,-1.1407337,-2.0590825,1.169199,2.291597,2.453741,-2.5967011,3.8523364,2.814979,0.53548384,-3.5156026,0.920804,1.0037823,-3.2094703,2.6257567,-1.4499822,1.9661083,3.5241556,-2.8157954,1.159894,-1.1322937,-3.4673567,2.4923863,-2.4814672,2.7436848,2.9231925,-2.0604706,0.1833024,2.9628415,-0.3938179,3.0140586,0.55657864,0.7869792,0.7312279,-3.7569842,-1.4107256,-0.3435359,1.65062,3.1879888,-1.7423687,-2.5574455,1.3611183,0.37810898,-1.3747196,-0.96170425,-3.5595737,1.4265747,-1.1456838,3.0395603,-1.998723,-2.415904,0.5725846,-1.7523017,2.853331,-3.192421,-2.861917,2.0532017,-2.9533386,2.5407195,-0.2521181,-0.6764488,-0.26267147,-0.27650404,-0.59217834,2.2585692,1.5262928,3.89861,3.7101436,-1.9414988,3.6565366,3.342986,-1.20123,3.2348876,1.8276381,-1.9276748,-0.48137856,2.440835,0.9653692,-1.1754584,-0.1052413,-3.0301108,2.4341145,-2.101129,-2.6042395,2.6187897,-1.4597716,1.7049899,0.42454147,-1.4332385,3.5614996,1.9323621,-0.09339285,-1.0763197,-3.908605,-2.970015,-0.40666246,1.235692,-2.505015,-0.9684253,2.7740808,-3.6602225,0.47338963,1.0851197,-1.3715181,-0.8928795,-3.7364063,3.219841,-3.2926803,-3.0895534,3.1148987,-0.7496333,1.6075687,-3.1806479,2.8012433,-2.9862099,-0.72351885,1.9216042,-2.751349,-3.585383,2.5221705,-0.23601389,0.5514035,-2.6910682,-3.5618162,1.3051233,-0.23477125,0.5511465,0.5313134,-1.798687,-3.3698492,-3.9020534,2.962082,-1.4436231,1.0780702,2.0828876,1.2551799,0.9344106,0.4345765,-3.4118981,-0.9137993,-0.43833017,2.9423337,-2.5814462,0.04479742,-2.042791,-2.7640314,-2.0279164,3.1733913,-0.91712713,-0.938694,-3.853642,-3.6949391,0.46838427,-1.1676383,0.10899067,-2.511128,1.2481413,2.3829389,2.1528707,-3.65898,-3.1305227,2.5938349,1.2015986,3.2575717,2.2491493,1.8892837,-1.6723094,2.7990656,-1.1577854,0.5206547,2.9855833,3.6786885,-3.4531512,3.113011,-2.2045846,3.854762,-3.6734352,-1.8426023,2.3233447,-2.6355782,2.2393146,0.5264859,-0.22912598,-1.8511381,2.1976233,-3.2458382,1.3932528,-1.8706269,-3.1531968,3.7247396,-3.00454,-1.2526493,-1.3340158,-3.8935552,0.06616402,1.1005859,-0.3792882,-0.31256533,-0.8935385,-1.7205186,1.9028225,-3.0865088,-1.399332,3.179893,2.5846977,3.392807,2.223343,-3.8026023,-0.8825326,-1.8747063,-0.09939957,-3.8309603,-0.1322403,-1.2604246,-3.6360073,3.7337604,-0.708189,1.7614884,-2.99016,-2.5570369,1.4906726,-3.4851546,2.7360225,1.1916342,3.0024667,1.0424509,-1.3367882,-2.1530285,3.618703,0.60784817,-3.2717452,-0.06648493,2.23814,-0.705286,1.0820332,1.4723797,-1.6048846,-2.1258278,1.7013216,3.7198157,0.77592707,-1.0574856,-0.9233494,-0.949687,2.821528,1.1726608,-1.360856,3.3793254,0.47035933,-3.9809155,3.9057322,-0.16626406,-0.24725103,3.751688,-3.112886,-1.4819837,-3.9411373,3.9883704,0.4966674,2.301629,-1.0747185,2.5825543,2.7568517,-0.4341483,-1.4712777,0.9955349,1.6906662,2.177227,0.89251757,2.2458806,2.3743958,-0.6453376,1.8411422,1.8121052,-2.939763,-1.1392527,-2.7269435,-3.2530808,-3.4396658,3.2872524,2.2893848,-0.15251303,0.37200356,0.73294926,3.1836572,-3.0188384,0.33163118,0.7497268,-0.015335083,1.63339,2.4224763,-0.8295903,-2.1471186,-0.055854797,2.875887,-1.0701208,2.9290552,3.9580693,0.4575019,-2.340794,2.171812,-2.8121476,3.3632097,3.1652045,-1.8659158,-3.0645952,3.2286696,-3.6093369,-3.4372244,2.009678,1.843154,2.0425053,1.7696285,3.0454397,-3.620378,-3.830514,2.0120854,-3.896274,-1.0060477,-1.6871152,-0.2964282,-3.6228304,3.8505917,-2.5275865,1.610671,3.3826613,3.6237397,1.1967497,3.3890924,3.055203,-3.7794075,0.75333834,1.1846404,-3.5778666,0.8472128,1.2004466,-0.24114466,-3.3594942,-1.1925697,2.5986567,3.9542365,3.9524221,-0.6806774,-3.6613584,1.4116025,-3.5869713,-2.1471763,1.0944133,0.75147724,-0.13828516,3.6673322,3.0279174,2.6783743,0.5759034,-3.2119823,0.7746353,-0.3094921,-0.108318806,3.485303,-2.5212512,-2.6179657,-2.455688,1.6142974,-1.2219529,0.27651644,-1.1110587,-0.59171057,-3.048356,-3.5445995,-0.9212723,-3.2781048,3.3481722,2.5900364,3.0305767,2.506269,1.6366076,-0.73680973,2.7802505,-1.9901586,3.569654,-2.2870326,2.6247382,3.9975438,1.743557,1.916379,2.786941,-1.0416346,-2.3373442,3.7304096,1.6014423,1.3796229,1.0546851,-2.961636,-0.8818569,1.3445258,0.33890915,-1.585772,2.9664407,-0.074121,3.0798712,-2.2195668,-2.8454466,1.5808015,-2.324676,-1.4133005,-3.1995487,2.3329606,3.0563593,-0.40382814,-2.3549967,0.9813485,-0.64523363,0.42457485,-3.0436678,-1.3938637,1.1419907,0.8731575,-2.508247,0.68270206,-1.8320704,1.3688502,-3.5728984,2.6234217,-2.6798596,1.6861296,-0.26859426,-2.843514,-3.098806,-2.7941155,-0.5719857,1.17242,-2.255012,-1.375721,3.7368045,0.07004213,1.5879693,-0.54595137,0.55622244,-2.9780154,0.5182395,3.4689965,-3.435988,-2.8248792,2.7138247,0.9566407,-2.4444866,3.4697475,-1.6592083,1.2684956,-1.742877,-2.105834,2.044797,-2.962225,0.2846861,-1.7077665,0.084619045,-1.3757973,1.8689694,-0.29614925,1.2998176,3.67948,-3.8192096,-2.7774425,0.5377946,1.1339712,1.1510792,2.0027184,-2.6039696,1.5298362,0.5840745,3.1278763,-3.2040439,-0.94292307,-0.6884227,1.4175782,3.753559,3.1535172,-2.5823445,-3.793841,2.133872,-3.0534892,-1.0020094,0.08187294,2.1541166,1.2519488,0.29055738,3.3828402,3.6812778,-1.658565,2.1034694,2.9996347,-3.0943432,-1.03229,-1.2145824,-0.823328,0.2494235,1.0425973,2.9534297,0.025436878,0.5730672,0.7388706,0.26322508,3.7317023,-0.3991909,-0.66158056,0.34857178,-0.29667425,-3.7072644,-3.4584765,2.8349123,-1.1771073,-0.5805454,2.4019032,0.04349327,1.2130194,-0.30337715,-2.4510288,0.742126,-2.44812,0.42218828,-2.4570546,-2.3409243,-2.0439591,3.7292829,1.7280006,-1.2429085,-3.6523528,-3.735876,-1.5951056,-0.014704704,3.9808578,0.14909697,0.49109125,-1.0627337,-2.2081141,1.6971722,-0.42635965,-3.4273171,3.792204,0.2627945,-2.476945,3.3839517,0.5308471,-2.270846,0.971786,-2.246665,3.073471,3.9711685,3.6733413,-1.0114498,-1.1859341,-3.5574393,-2.951851,2.3023667,0.5060153,3.415998,-1.0546227,-2.6522079,1.603888,3.5029445,-3.2609057,2.7096844,1.9264956,0.6346712,-1.219553,-0.43325043,2.6512928,-0.95078135,3.8747873,-3.6500921,1.6421618,2.6397333,2.8151011,0.9018655,-1.5817494,3.481989,2.9300342,1.1055222,3.2812848,-3.04073,2.9857764,-2.5697432,-2.341292,-3.6865306,3.4959168,1.5144453,0.2108717,0.33073282,-0.9659982,-1.0900102,0.8685889,-0.96086884,2.5750198,-0.17139482,3.8097663,1.4761944,-0.55380154,1.1630244,-2.2994447,2.998901,-1.2204151,1.0813694,1.0534363,-3.0927587,2.6661887,3.611928,2.7918773,-3.1920633,0.73850584,-2.2001915,-1.3442006,2.2563624,1.7428055,-3.069209,1.9200463,2.5052266,1.4956355,2.9443078,-0.8086033,1.012032,-0.9400215,3.5410628,2.775249,0.26442623,-2.5915685,1.6115208,3.7992878,3.2198143,2.8034182,-3.9966712,-2.802342,-0.51901484,2.032547,0.52695084,0.07094288,-0.6356678,1.3485699,-3.848473,-3.7212234,2.387423,0.2826562,-3.482862,2.1492972,3.1136894,-3.5029974,-1.1648574,-3.1582718,-0.950953,2.0112371,2.1434655,0.74190235,-0.29316092,-2.7991843,-0.72649765,0.4794426,0.678761,-1.9383788,-3.0735822,1.2724261,-3.1316514,-1.9776301,-0.37287807,0.24376345,0.23449898,2.4520965,2.2212567,3.0394788,-1.915256,1.1782284,1.1095414,-0.75744915,1.8246112,-2.9554644,0.5350094,0.6626797,-3.1730976,0.8677392,2.0912833,-2.1840796,-0.008627892,2.1514869,-2.0040164,3.5240712,2.2743664,-2.3117332,-1.0371056,1.6268334,1.2791672,1.4502592,1.4207358,-3.5409021,2.502491,1.2614894,2.8120995,-0.23876572,-0.86747885,-1.0760283,-2.9106083,-0.1995058,-0.8937073,3.0299034,-2.124165,0.16231966,-2.9480548,2.3542085,-1.3414974,1.5173888,0.24996996,2.5318642,2.3552327,-3.8699193,1.0683951,-3.6334882,-0.61168957,-0.66251564,1.3053341,3.6877322,1.2147136,2.4774466,2.979947,1.7564898,2.8559604,-3.258185,-1.7922072,-0.2758913,-2.8590822,1.5522647,-1.5729003,-3.1991134,-0.8449383,-2.2472048,-3.113462,2.0308595,2.7688136,-2.2480402,-3.2340617,0.48452473,1.9406104,3.5835834,2.0399232,1.2385659,-1.6506615,3.7878304,-1.1688008,3.0505877,-3.2884817,-2.363233,-0.6205158,-2.392325,-0.48413706,-1.8138189,-3.9359136,-1.4353113,3.5003943,-2.388012,2.0900707,-1.3527851,3.3255033,0.20285559,-1.8983817,-2.2915645,3.005498,-1.9465928,1.9884033,-2.0511713,-0.6783762,0.24214697,1.8942161,3.824315,1.3465428,-1.225018,1.2364521,3.4356523,-3.5483437,0.116830826,3.246122,-1.05443,-2.9850984,-2.8947644,0.14307928,-0.23355103,2.5722675,1.588007,-1.3340769,-1.9350038,-0.21591043,-1.7175298,3.095203,-2.9644794,-3.655829,3.2242503,1.2849255,2.7572556,1.7916989,-1.142632,1.4175615,1.4862003,2.998642,-3.1233015,2.0938063,-3.011032,3.699284,-0.06256914,2.967956,-0.4714737,-0.17509842,2.9207377,-3.424142,2.5841756,-2.2179947,0.789495,-0.46732664,2.4880872,2.0400858,0.04885578,-3.71494,1.0092907,-3.0048566,-1.8956223,-1.4054046,1.8646178,1.3363204,-0.21723747,-3.4608483,1.1614308,-1.4900742,3.970827,-0.19567728,0.48045778,-1.8160987,1.181961,3.2806802,-1.1319385,-2.0935984,3.0500426,-3.5075622,1.7505741,-2.8063827,0.39543676,-3.7081852,-1.2269073,2.1564226,0.0049085617,3.774403,-3.4038944,-3.6862879,-2.3008633,2.3315344,-3.5889997,1.7251053,-1.2479515,3.4407086,1.3652515,-0.91214705,3.904585,-1.6033998,-3.736847,-1.4355531,3.4011202,-0.88323355,2.0108705,1.3576126,1.6471281,2.1905441,3.3632684,-0.5319009,-0.12584591,0.71040726,3.0577426,2.282597,3.649704,-2.2776628,-3.536438,-1.2895093,1.915472,-2.334187,-1.7960143,2.3232179,-1.1449933,3.702232,3.2022877,-0.9823394,1.2845182,-3.6844845,1.1846948,1.4962602,3.7125168,3.352244,-0.25560236,3.6115313,1.7375255,-3.188931,2.4114313,3.0368242,3.0651116,-3.3243923,-0.33750963,1.2665257,-3.0851402,-3.814653,0.98294926,3.9936419,0.36885786,-1.4955511,2.6598315,1.8854303,-1.6752858,-2.8587618,-0.96646976,-3.8381,-1.3787785,3.3885522,-0.07473612,-2.2014384,2.9028926,2.9879827,3.2393422,-0.18303967,2.8411193,2.4264627,-1.4397564,2.684692,-3.83252,3.0774336,1.1900482,-1.8131871,-2.2657638,2.804234,-0.9508791,2.6363316,-3.2237387,-2.3471065,-2.042719,-0.22501421,0.45655632,-1.1589599,-2.3640924,2.8302026,1.3338084,-0.7423105,-2.0999608,1.3475423,-2.312645,-3.7854404,-3.8025122,-3.4131923,-3.4157667,-2.7302327,-3.2362428,-2.3091135,3.5417671,3.5640411,0.98995495,1.03437,1.6646376,3.2063813,3.2962031,-0.6033864,3.9734817,-2.4372354,-2.3259845,0.716475,0.33643866,2.2560163,3.636106,-1.0724406,3.347992,-1.5323043,2.2233682,2.439517,-2.4736,1.045052,-2.065557,2.289506,-0.9154558,1.0109854,-0.74992514,1.4870806,0.16906357,0.8679447,0.5910845,-3.0466743,1.6724124,0.30987692,0.47896624,-3.233437,-3.9730577,-3.6325183,-1.3584642,2.4390364,2.3310528,2.4940248,0.69241285,-2.8718266,-1.139605,0.6595068,-1.024229,-3.0596867,1.6263466,-3.706984,0.8198595,1.9988112,3.6010718,-1.1711702,-1.4205966,3.194222,2.9406428,3.3089666,0.0610466,-3.5365787,-3.8596988,-0.16533136,3.3366385,-0.47458172,3.6083674,-3.6681547,2.598628,2.5595737,-2.1280127,3.5084386,0.15999603,3.6991062,-3.306974,-3.0619912,-0.92886734,-2.7440348,-0.43506098,3.5611997,0.45987558,-3.4447708,3.7954955,2.8595552,2.473475,-0.21444559,-2.3051682,-3.007462,1.8628783,1.4909234,1.9475574,1.0803914,-1.2943587,-2.1058345,-2.659461,-0.9728637,-3.478383,-1.7215681,-3.2349014,2.4485478,0.7275977,0.7506237,-1.4959598,-1.6502161,-3.070179,-3.6703658,-2.4517603,-1.9245586,-0.7967143,3.9360723,1.1192842,-2.9788256,-0.5693183,-2.0920262,0.20896435,0.9276552,1.548037,2.1984901,-3.6371498,-1.6108022,1.482935,-0.59532595,0.012420654,0.9979749,1.5759373,-2.591877,-0.13210869,1.8182335,-2.885663,-1.7995214,3.4801898,-0.72395515,-0.07975435,-0.13496208,-3.8551512,0.8167653,-2.1649203,0.26019716,3.4094353,0.70731926,-1.373488,-0.91736174,0.04150629,3.511907,-1.1765466,0.19452238,-3.8448672,3.5760884,-2.20537,2.6275053,1.110465,-3.51939,3.5363164,2.3383856,2.5249786,-0.8688073,3.8725944,-2.9979897,0.51950693,-1.948144,-3.379416,-3.6837764,3.2406812,-2.0941696,-1.8186836,-1.4200721,3.051859,-2.9975228,-3.5198588,-2.798997,0.3906541,-0.878005,-1.5235944,-2.6725125,1.2213802,-3.6630526,0.8195286,-0.94588566,-3.9013095,2.252509,-0.1706152,-1.4338899,3.2053123,-2.9962592,-2.4967456,0.99910116,0.5653858,-1.227303,-0.16262674,-3.5608668,0.25520086,-2.470518,-0.71982527,-0.09096241,-2.28584,2.6140637,1.1468339,-3.2986422,3.9844694,1.6622486,-3.5473843,-3.3568735,-0.9732046,-2.3442497,1.5035448,-2.1683393,1.0382333,-3.0123415,-3.6357188,-0.84867096,-0.92165804,-2.4301162,0.017509937,1.457705,0.58603,-1.5738101,-1.1239662,-3.6667323,-0.8885789,-2.7040157,2.17635,0.9293165,-1.8286729,1.0279942,-1.9512286,1.7159214,2.3789926,-0.39795542,-2.4637055,-3.4604106,-0.44230223,3.239276,0.49254227,-0.14729548,3.0177631,2.129024,2.8587961,2.1537595,-0.665535,0.8221197,1.4505019,-3.8331704,1.2607603,-0.55171967,-3.236424,-0.21626472,2.506774,-3.1325321,2.5988088,3.0321608,1.6110563,2.0443087,-3.2899227,-2.9099145,-3.2171726,0.848753,-3.0103326,2.9165187,2.7052116,-0.23205471,3.8209143,1.2032499,-0.04036951,3.4215088,-0.4321699,-3.7087078,0.7145519,-2.811984,1.9553719,0.2822442,2.672977,-2.3179026,-3.6327453,1.1410975,1.6507945,2.4022183,-3.7919507,3.3473258,-1.721684,-0.1435008,-0.4038353,-2.97959,-1.4455519,-0.7491498,-2.6436577,-2.8108997,-1.7042632,-1.1020823,-0.82966995,-1.365169,-0.8123617,3.5097866,-3.2263951,1.0689621,0.54053354,3.229784,-2.1440544,-0.16621637,1.30095,0.5219455,0.06087637,-1.0992317,-1.2378845,-2.1214623,3.0350413,1.9183879,3.9311562,-1.3297157,-2.6699257,-1.8472252,0.2892561,-3.5016193,-0.7920656,2.7257762,-2.9350886,-0.009870529,0.7726884,3.6678352,-0.2924776,3.2232924,-3.1588187,3.8935523,2.4888902,3.559667,-3.8754354,3.7758212,1.0582137,3.6372123,-2.368146,-2.8389387,1.7432723,1.7738013,-0.13604975,-3.0834284,0.65815353,0.068761826,-0.9022474,3.7741199,-0.3810401,-3.490056,-3.5434928,1.3364024,-3.4204879,2.8593926,-2.4697375,-3.8698254,1.8356857,-0.8393254,-0.96123743,1.9465108,-2.064536,-3.4692183,-2.3337846,-1.8788404,1.1605625,-2.1507583,3.0985966,3.5513926,0.57963085,0.71980906,-3.9377928,0.27409315,1.638587,2.7933064,-3.4239674,-3.940022,-0.3629737,0.54725647,0.9936147,-2.8383417,0.97700834,-2.311276,-0.8228016,-3.9679189,1.0700512,-0.1167407,-0.33708143,3.6019511,0.2229538,3.4989357,1.5468612,1.5102758,-2.4636912,0.11119652,0.9958916,-1.8883758,-0.89143133,-1.7894197,0.1684823,-0.020905018,1.2741632,3.3383842,-2.0942154,0.35458422,-2.3979917,-2.6069226,3.2791142,-2.3017635,1.7344708,-3.8926287,1.7571931,1.2061987,1.6166668,2.786487,3.6665268,1.2693748,-2.5511189,-0.16134214,3.8628635,1.7210035,1.1512666,-3.375547,3.8372345,1.2766385,1.0364356,0.7928419,1.1111588,-2.5031743,3.7982092,1.5322666,0.9492078,-0.97549486,-3.549303,-2.6483274,0.12018108,-3.5063715,0.09408808,2.956181,1.9782248,-3.4300022,1.0148368,-2.121737,-2.272357,2.1554327,2.855485,-0.30592299,-0.5888181,-2.9710503,-0.7126918,-2.7020216,-0.39593744,-2.3844194,0.20491552,-2.8837285,3.7906547,3.9775925,-0.17198801,-2.6955414,-1.6966128,-1.2883611,3.9393673,2.5160766,3.63489,-1.3408909,0.7820306,-3.6392784,0.3747487,-3.2473936,0.40445852,1.9814105,0.9576373,-2.3522682,2.84166,0.92403984,-3.8367887,-0.9815011,-2.6083336,-2.7228398,1.3441982,-1.5046101,-3.631701,0.6473336,-0.45645,-0.74574184,-2.0819378,0.3655548,-1.2258663,-1.577672,3.050396,2.6177683,-1.9268279,-2.259728,1.334085,-2.886146,-3.7376351,0.4855423,-0.180799,-1.0154762,1.4697833,-1.9079123,3.791726,-0.5200429,-2.379777,-3.109355,-1.9907193,0.26860905,-0.23800945,3.762219,-1.7918983,0.8823328,3.3852377,-3.8094845,-2.7185302,-3.872182,-2.606256,-2.7127357,-0.09238148,3.1912608,1.4104323,1.0428553,-0.5686774,0.74654865,3.1861763,-2.356144,-3.1264987,-1.6370807,-0.7026181,-1.3559136,3.6425772,0.6669035,-0.33803415,-1.3502607,0.918448,3.8752775,0.90229464,-0.27713966,-2.7640882,-3.4257069,-3.9110827,0.14691925,0.03219366,3.8744726,-0.61287737,-2.6424947,2.193818,0.40801954,-0.29898882,-3.15702,2.8118181,-3.2900257,-2.70653,-0.94800663,3.633287,1.0769548,-1.0932693,-1.1660342,1.9304981,2.4751396
