-0.043436527,-2.051909,3.5832405,-2.059143,2.4004278,-3.49437,2.521142,3.9812841,-1.3618255,3.1408439,-3.9636526,-3.9881897,-1.0230064,0.22784853,-1.8777652,-0.16022635,-3.8315315,-2.2389035,0.022871017,-3.1002216,2.7040777,-3.6819506,0.108192444,3.952012,-1.0898962,1.1330857,3.9153638,2.968728,-2.3523316,0.36289263,-1.401556,-3.9305182,-1.0896645,-0.9640322,2.1502342,1.3691645,-3.9655142,-1.6309166,2.415606,-1.4712954,-0.051968098,-2.5780768,2.0187798,-3.7207332,3.857543,2.8929114,1.4170346,-1.0152178,2.61411,0.8048568,-1.4658103,0.29740047,-3.0692124,-0.4163165,-0.3919716,2.1538548,-1.4991612,-0.58239603,0.42064953,1.8905439,1.3627839,2.742847,-2.9913893,0.37918139,0.67700624,-2.6941538,-2.0652342,-2.8140125,-2.8540244,1.6959267,-1.4651232,0.34333897,3.9775171,-2.1527286,-1.8564315,0.026462555,1.5346203,3.2197075,-0.30504608,-2.9931273,-3.762453,3.754807,3.447424,-3.90831,-3.8889465,2.9624038,1.6886873,1.8615327,2.4529462,-2.5569172,2.5502543,-2.97787,1.9165106,-1.2601261,2.5392218,-1.1559668,-2.0498633,0.70758724,-0.25648642,-1.1364584,-3.250721,2.786251,-3.8262782,1.7641077,-1.9996715,-2.0137162,-3.71556,3.7837658,3.7095332,2.482668,-0.09047699,-2.1415753,-0.085579395,1.043787,0.8131685,-3.1040368,0.29676056,-0.21692657,-1.4089227,3.0897484,-0.49346447,2.73849,0.16733646,1.1553454,-1.157754,-3.4985547,0.6621218,-1.9314542,2.9156818,-2.3966398,-0.38310194,-1.3207488,3.7856503,-2.1799822,3.7465472,-1.0179529,-0.8733859,-2.7085724,-1.5440912,-1.5267615,-0.7187238,3.8234582,-3.1494765,1.6735811,0.13251734,-0.49269676,-0.94788647,0.42866993,-2.1538167,-3.440765,-0.9125109,3.0228243,-1.466299,3.8663788,-1.1307764,-2.409923,-0.7611275,-3.9302664,-1.133317,0.03540516,-3.5319428,-0.8063288,1.640852,1.0734153,-3.5161843,1.0369902,0.77494574,1.5581274,-2.8793998,-1.905416,-2.2108936,-3.3508816,2.9336896,0.126225,1.9206004,-3.7061152,-3.3390398,2.200179,-2.6550627,-3.1133137,-3.5122905,-1.1903334,-2.7027316,-0.20185089,2.30927,-2.690147,-0.95862913,1.8903432,-3.4389606,1.397481,-1.2354608,0.39673233,3.3324523,-2.2753644,-1.0851636,-2.9618773,-1.8731842,-0.80208683,0.53149605,-0.5276718,-3.8755326,-0.6153674,-3.3361387,1.7695432,1.1288671,3.174086,3.5681252,3.325162,-3.8743534,-2.0055456,0.17845154,-0.65014505,-3.2101932,-0.8398113,-1.8412609,3.8208733,2.187807,-2.8592215,2.067563,3.671647,0.8156996,3.6451187,-2.1494246,3.2965932,1.0933962,-3.5234952,-1.3238907,3.5374184,1.2251024,-1.6730533,3.3398132,3.70396,-0.7115226,-0.6337104,-2.0029707,3.4995327,-0.49318552,-1.9131212,-0.62369585,-1.2743416,1.4909391,0.95853615,2.0479894,-2.7832217,0.037247658,3.7267203,-0.44261932,-3.390141,-2.3131337,-0.53075504,-0.30362797,0.41958094,-3.835112,3.7591372,0.9201608,0.7247591,3.1295705,3.5334415,3.5802426,3.9587202,0.0958848,-1.2646542,-3.4691558,-3.656765,-3.6926494,2.8001986,-2.3129263,3.0452147,-0.30864334,3.0401516,-0.1914587,-0.0745759,1.4476056,-0.48240137,2.3160524,-3.328145,-1.486423,-3.2204137,-0.88975334,1.1748753,-3.0235085,1.6742821,-1.4361396,-0.66032124,-2.0652404,-1.6682959,-2.8573637,0.4017167,-0.5451255,1.3345451,1.1378889,1.5954838,-0.15127516,-1.6736054,-2.94458,2.2340913,-2.137107,-2.8757353,-1.7851043,0.5193052,-2.4977026,-1.734592,-0.38995028,3.4769459,3.707006,3.395235,-1.7728,0.18357658,0.18983507,-0.31092548,-2.3933568,3.925047,2.274969,0.41581964,3.872538,-0.76147985,-2.969131,-3.2584662,2.7910523,2.1949258,-0.5342598,0.0061273575,-2.6921997,-1.838881,-2.2226171,-3.8184147,-3.2469478,-1.8517365,0.97287226,-2.6437545,-0.5990858,-3.6621637,-1.4261737,0.33160305,0.86571217,1.2370353,-3.7984662,0.33635664,0.079194546,1.0340643,3.8195257,-3.8477592,3.105051,-3.89145,0.15083027,-3.5720997,-1.7734356,-3.5639153,3.7597055,1.5760059,-2.3718467,-0.93366814,-3.4053054,2.4752364,2.246097,-2.665844,-2.8420877,0.42805195,-1.7230172,-0.5093932,1.2461457,3.7775865,2.3183951,2.6481347,-0.6208215,-2.2921157,3.7141938,-0.9200387,0.19130516,2.6113434,0.5503912,-3.1201396,0.43983984,-0.29903364,-0.3137021,2.7835603,0.73110294,2.0931454,-0.3767929,2.709353,3.0564766,-3.665464,-1.0513859,-1.4488764,2.8701777,-2.6355662,-3.7882185,-2.665338,1.4530082,-3.6127496,1.6754827,0.5356674,0.044036865,-3.601489,-1.6369672,-3.2119503,1.6615405,-0.39241076,0.7183018,2.1418352,3.2770987,3.301444,-1.8166165,2.3439727,-2.7208767,3.4912653,-3.1370144,-0.6795492,1.8158121,-0.20153522,2.6005445,-0.7328367,1.1191387,0.4131937,-2.7224727,-3.232256,-2.6173964,-0.3321805,-0.37149096,0.53190565,0.92259884,-0.9951091,1.6294017,-3.804494,2.5479622,2.2043562,3.478778,-3.223567,0.27121067,2.1134863,2.8915982,2.5962462,0.31954336,-1.6345716,-0.97510767,0.6391611,-3.929399,0.37384033,3.6451602,-0.5647621,1.8987355,-0.92797947,-1.4585786,-1.2436876,-0.55131674,3.3705711,-2.2748604,-3.0408502,0.6566777,-0.7916937,3.3026047,-3.9167252,3.640696,1.5621204,-0.6540351,1.3187695,2.7333078,-0.8168373,-2.4600787,-1.165134,-3.590993,3.5842724,-2.61874,-2.0388546,2.2645602,-1.5125155,0.42191315,-1.7775187,1.7723436,-2.7541113,3.2622385,-1.2457204,2.094401,-3.498559,-0.8663449,3.298911,-3.7043314,-1.5250964,2.997837,-3.434679,-1.0700421,-3.1238532,2.79733,-0.3955593,2.9184866,0.66795206,1.1088238,-0.47898626,-0.7504411,-2.865488,-3.1105795,-3.0593605,0.27592373,1.3423128,0.8071909,3.9369817,0.87505054,2.7063718,0.9741039,2.4810753,1.6934915,3.6841612,-3.458818,1.910223,0.9713416,2.433282,2.9864893,-1.4390135,3.5130033,-0.46756268,-1.934619,2.8270202,2.3376722,-3.351293,-3.0365987,1.8707752,-2.8663187,-2.4670506,-0.515646,1.5462756,-1.7933278,3.2596135,0.033480644,0.4109807,3.1290417,-2.3573608,-3.7426167,1.7760854,-2.631166,1.8258204,0.6424303,-1.5507879,-0.9732766,-1.1407337,-2.0590825,1.169199,2.291597,2.453741,-2.5967011,3.8523364,2.814979,-3.0029502,-3.5156026,0.920804,1.0037823,-2.6085072,2.6257567,-1.4499822,1.9661083,3.5241556,-2.8157954,1.159894,-1.1322937,-3.4673567,2.4923863,-2.4814672,2.7436848,2.9231925,-2.0604706,0.1833024,2.9628415,-0.3938179,3.0140586,0.55657864,0.7869792,0.7312279,-3.7569842,-1.4107256,-0.3435359,1.65062,-0.6894536,-1.7423687,-2.5574455,1.3611183,0.37810898,-1.3747196,-0.96170425,-3.5595737,1.4265747,0.9661894,3.0395603,-1.998723,-2.415904,0.5725846,-1.7523017,2.853331,-3.192421,-2.861917,-1.7181706,0.33631563,-0.51111937,-0.2521181,-0.6764488,-0.26267147,-0.27650404,-0.59217834,-3.8435717,1.5262928,3.89861,3.7101436,-1.9414988,3.6565366,3.342986,-1.20123,3.2348876,1.8276381,-1.9276748,-0.48137856,2.440835,0.9653692,-1.1754584,-0.1052413,-3.0301108,2.4341145,-2.101129,-2.6042395,2.6187897,2.9807992,1.7049899,0.42454147,-1.4332385,3.5614996,1.9323621,-0.09339285,-1.0763197,2.592805,-2.970015,-0.40666246,1.235692,-2.505015,-0.9684253,2.7740808,-3.6602225,0.47338963,1.0851197,-1.3715181,-0.8928795,-3.7364063,3.3876767,-3.2926803,-3.0895534,3.1148987,-0.7496333,-1.61094,-3.1806479,2.8012433,-2.9862099,1.1281047,1.9216042,-2.751349,-3.585383,2.5221705,-0.23601389,3.8993769,-2.6910682,-3.5618162,1.3051233,-0.23477125,0.5511465,0.5313134,-1.798687,-3.048585,-3.9020534,-0.5218668,-1.4436231,1.0780702,3.4689012,1.2551799,0.9344106,0.4345765,-3.4118981,-0.9137993,-0.43833017,2.9423337,-2.5814462,-2.3620424,-2.042791,-3.730053,-2.0279164,3.1733913,-0.91712713,-0.938694,-3.853642,-3.6949391,0.46838427,2.646965,-0.053807735,-2.511128,1.2481413,2.3829389,2.1528707,-3.65898,-3.1305227,2.5938349,1.2015986,3.2575717,2.2491493,-1.1905756,-1.6723094,2.7990656,-1.1577854,0.5206547,2.9855833,-1.8703184,-3.4531512,3.113011,-2.2045846,3.854762,-3.6734352,-1.8426023,1.1187496,0.38956118,2.2393146,1.1715908,0.72208834,-1.8511381,2.1976233,-3.2458382,1.3932528,-1.8706269,-3.1531968,3.207899,-3.00454,-1.2526493,-1.3340158,-3.8935552,0.06616402,1.1005859,-0.3792882,1.536468,-0.8935385,-1.7205186,1.9028225,-3.0865088,1.2011337,-0.78571844,2.5846977,3.392807,2.223343,-3.8026023,-0.8825326,-2.8269114,-0.09939957,-3.8309603,-0.1322403,-1.2604246,-3.6360073,3.7337604,-0.708189,1.7614884,-2.99016,-2.5570369,1.4906726,-3.4851546,2.7360225,-0.9833875,3.0024667,1.0424509,-1.3367882,-3.1057687,3.618703,0.60784817,-3.2717452,-0.06648493,2.23814,-0.705286,1.0820332,1.4723797,-1.6048846,-1.0820823,1.7013216,3.7198157,-0.15374708,-1.0574856,-0.67743444,-0.949687,2.821528,1.1726608,-1.360856,-2.121292,2.219408,-3.9809155,0.21165848,-1.8551216,-0.24725103,3.751688,-3.112886,0.92356825,-3.9411373,3.9883704,0.4966674,2.301629,-1.0747185,2.5825543,2.6168828,-0.4341483,-1.4712777,0.9955349,-0.7246847,2.177227,-1.9597502,2.2458806,0.32170105,-0.6453376,1.8411422,1.8121052,-2.939763,-1.1392527,-2.7269435,-3.2530808,-3.4396658,-1.5930996,2.2893848,-1.8130488,0.37200356,0.73294926,3.1836572,-3.0188384,0.33163118,0.7497268,-2.027863,2.0095897,-3.456511,-0.8295903,-2.1471186,-0.25811386,2.875887,-1.0701208,2.9290552,0.637619,0.4575019,-2.340794,2.171812,-2.8121476,3.3632097,-1.0728054,-1.8659158,-3.0645952,3.2286696,-3.6093369,-3.4372244,2.009678,1.843154,2.0425053,1.7696285,2.0164466,-3.620378,-3.830514,2.0120854,-3.896274,-1.0060477,-1.6871152,-3.5687513,-3.6228304,3.8505917,-2.5275865,-2.8537889,3.3826613,3.6237397,0.14004087,3.3890924,3.055203,-3.7794075,0.75333834,1.1846404,-3.5778666,-2.459775,1.2004466,-0.24114466,-3.3594942,-1.1925697,2.5986567,3.9542365,-0.036638737,-0.6806774,-3.6613584,1.4116025,-3.5869713,-2.1471763,1.0944133,0.75147724,-0.13828516,3.6673322,3.0279174,2.6783743,0.5759034,-3.2119823,0.7746353,-0.3094921,-0.108318806,3.485303,0.115437984,-2.6179657,3.4984646,1.6142974,-1.2219529,0.27651644,-1.1110587,-0.59171057,-3.048356,-3.5445995,-0.9212723,-3.2781048,3.3481722,2.2954865,3.0305767,2.506269,1.6366076,-2.6187463,2.7802505,-1.9901586,3.569654,-2.2870326,2.6247382,3.9975438,-1.0011826,1.916379,2.5936222,-1.0416346,3.2414246,1.1260381,1.6014423,1.2395296,1.0546851,-2.961636,-0.8818569,1.3445258,0.045164585,-1.585772,2.9664407,-0.074121,3.0798712,-2.2195668,-2.8454466,1.5808015,-2.324676,-1.4133005,-3.1995487,2.3329606,3.0563593,-0.40382814,-2.3549967,2.1954446,-0.64523363,0.42457485,-3.0436678,-3.3772302,1.1419907,2.1225357,-2.508247,3.7624593,-1.8320704,1.3688502,-3.5728984,2.6234217,0.94201183,1.6861296,-0.26859426,1.6281219,-3.098806,-2.7941155,-0.5719857,1.17242,-2.255012,-1.375721,3.7368045,0.07004213,1.5879693,-0.54595137,0.55622244,-2.9780154,0.5182395,3.4689965,-3.435988,-3.936201,2.7138247,0.9566407,-2.0381417,3.4697475,-1.6592083,1.2684956,-1.742877,-0.378726,2.044797,-2.962225,0.2846861,-1.7077665,0.084619045,-2.2025228,1.8689694,-0.29614925,1.2998176,3.67948,-3.8192096,-2.7774425,0.5377946,1.1339712,1.1510792,2.0027184,-2.6039696,1.5298362,0.5840745,3.1278763,-3.2040439,-0.94292307,-0.6884227,1.4175782,3.753559,3.1535172,-2.5823445,-3.793841,3.631319,-3.0534892,-3.0649805,-0.14588928,2.1541166,-1.2123194,0.29055738,-3.0640721,3.6812778,-1.658565,2.1034694,2.9996347,-3.0943432,-1.03229,-1.2145824,-0.823328,-2.3185534,1.0425973,2.9534297,0.025436878,0.5730672,0.7388706,0.26322508,3.7317023,-0.3991909,-2.3816218,0.34857178,-0.29667425,-3.7072644,1.7715073,3.681439,2.849275,-0.5805454,2.4019032,0.04349327,1.2130194,-0.30337715,-2.4510288,0.742126,-2.44812,0.42218828,-2.4570546,-2.3409243,-2.0439591,3.7292829,-3.100967,-1.2429085,-3.6523528,-3.735876,-1.5951056,-0.014704704,3.9808578,0.14909697,0.49109125,-1.0627337,-2.2081141,1.6971722,-0.42635965,-3.4273171,-0.83693504,0.2627945,-2.476945,3.3839517,0.5308471,-2.270846,0.971786,-1.731082,3.073471,0.45013762,3.6733413,-0.12018871,0.8738346,1.120079,-2.951851,2.3023667,0.5060153,3.2934752,-3.505012,-2.3521724,1.603888,3.5029445,-3.2609057,2.7096844,1.9264956,0.6346712,-1.219553,-0.43325043,2.6512928,-0.95078135,3.8747873,-3.6500921,1.6421618,2.6397333,-3.9728155,0.9018655,-1.5817494,3.481989,2.9300342,2.4427943,3.2812848,-3.04073,2.9857764,-2.5697432,-0.04289198,-2.627437,3.4959168,1.5144453,0.2108717,0.33073282,0.3737564,-1.0900102,0.8685889,-0.96086884,2.5750198,-0.17139482,3.8097663,1.4761944,-1.8099766,1.1630244,-2.2994447,2.998901,-1.2204151,1.8272977,1.0534363,-3.0927587,2.6661887,3.611928,2.7918773,-3.1920633,0.73850584,-2.2001915,-1.3442006,2.2563624,1.7428055,-3.069209,1.9200463,-3.7442613,1.4956355,2.9443078,2.0525255,1.012032,-0.9400215,3.5410628,2.775249,0.26442623,-2.5915685,-2.8182516,3.7992878,-1.9575038,2.8034182,-3.9966712,-2.802342,2.4751792,2.032547,0.52695084,1.4975219,-2.948915,1.3485699,-3.0736322,-3.7212234,2.387423,2.7045112,-3.482862,2.1492972,3.1136894,-3.5029974,-1.1648574,-3.1582718,-0.950953,2.0112371,2.1434655,1.8819818,-0.29316092,-2.7991843,-2.4903212,0.4794426,0.678761,-1.9383788,-3.0735822,1.2724261,0.14265585,-1.9776301,-0.37287807,0.24376345,0.23449898,2.4520965,2.2212567,3.0394788,-1.915256,1.1782284,1.1095414,-0.75744915,1.8246112,-2.9554644,0.5350094,0.6626797,-3.1730976,0.8677392,-3.5995984,-2.1840796,-0.008627892,2.1514869,3.5818114,3.5240712,2.2743664,-2.3117332,-1.0371056,1.6268334,1.2791672,1.4502592,0.9987135,-3.5409021,0.075074196,-2.7093663,-2.3863225,-2.0847049,-0.86747885,-1.0760283,-2.9106083,-0.8583455,-0.8937073,3.0299034,-2.124165,1.3294945,-2.9480548,2.3542085,-1.3414974,1.5173888,3.5297303,-2.7818136,2.3552327,-3.8387156,1.0683951,-3.6334882,-3.0552597,1.5384359,1.886085,3.6877322,1.2147136,2.4774466,2.979947,1.7564898,2.8559604,-3.258185,-1.7922072,-0.2758913,-2.8590822,1.5522647,-1.5729003,-3.1991134,-0.8449383,-2.2472048,-3.113462,2.0308595,2.7688136,-0.8290105,-3.2340617,0.48452473,1.9406104,3.5835834,2.0399232,1.2385659,-1.6506615,3.7878304,-1.1688008,3.0505877,-3.2884817,-2.363233,-0.6205158,2.5728278,-0.48413706,-1.8138189,-3.9359136,-3.991724,3.5003943,-2.388012,2.0900707,-1.3527851,3.3255033,0.20285559,-3.8874907,-2.2915645,3.005498,-1.9465928,1.9884033,-2.0511713,-0.6783762,0.24214697,1.8942161,3.824315,1.3465428,1.0645604,1.2364521,3.4356523,3.1841726,2.7196202,3.246122,-1.4488311,-2.9850984,-1.243712,0.14307928,-0.23355103,1.6048203,1.2395825,-1.3340769,-1.9350038,-0.21591043,-1.7175298,3.095203,-2.9644794,-3.655829,3.2242503,1.2849255,2.7572556,1.7916989,-1.142632,1.4175615,1.4862003,2.998642,-3.1233015,2.0938063,-3.011032,3.699284,-0.06256914,2.967956,-0.4714737,-0.17509842,-2.226273,-3.424142,2.5841756,-2.2179947,0.789495,-0.46732664,2.4880872,2.0400858,0.04885578,-3.71494,1.0092907,-3.0048566,-0.043640137,-1.4054046,1.8646178,1.3363204,-3.960288,-3.4608483,1.1614308,-1.4900742,2.6697874,-0.19567728,0.48045778,2.918375,2.4381413,3.2806802,-3.0846024,-2.0935984,3.0500426,-3.5075622,1.7505741,-2.8063827,0.39543676,-3.7081852,-0.94447803,2.1564226,1.9701414,0.8188658,-2.5926085,-3.6862879,-2.3008633,2.3315344,3.9451551,1.7251053,-1.2479515,-0.33691406,1.3652515,-0.91214705,-2.9480872,-1.6033998,-3.736847,-1.4355531,3.4011202,-0.88323355,2.0108705,1.3576126,1.6471281,2.1905441,3.3632684,-0.5319009,-0.12584591,-3.5517879,3.0577426,-1.256197,3.649704,2.017715,0.28890467,-2.7984047,1.915472,-2.334187,-1.7960143,-1.2539258,-1.1449933,3.702232,3.2022877,-0.9823394,1.2845182,-3.6844845,1.1846948,1.4962602,3.7125168,3.7645168,0.9636307,3.6115313,1.7375255,0.9051285,2.4114313,3.0368242,3.0651116,-0.029120445,3.8224616,1.2665257,-3.0851402,0.3561039,2.2430382,1.8160429,0.36885786,-1.4955511,2.6598315,1.8854303,-1.6752858,-2.8587618,-0.96646976,-3.8381,-3.1777372,3.3885522,-0.053314686,-2.2014384,2.9028926,-3.7254462,3.4543762,-0.18303967,-0.25199318,2.4264627,-1.4397564,2.684692,-3.83252,3.0774336,1.1900482,-1.8131871,-2.2657638,2.804234,-3.1731997,2.6363316,-3.2237387,-2.3471065,-2.042719,-0.22501421,0.45655632,2.6361794,-2.3640924,2.3461714,1.3338084,-0.7423105,-2.0999608,1.3475423,-3.2340674,-3.8846726,-3.8025122,-3.4131923,-3.4157667,-2.7302327,-3.2362428,-2.3091135,3.5417671,3.5640411,0.98995495,-3.3988175,1.6646376,3.2063813,-1.1460185,-0.6033864,3.9734817,-2.4372354,-2.3259845,0.716475,1.8833928,2.2560163,3.636106,-1.0724406,3.347992,-1.5323043,2.2233682,2.439517,-2.4736,1.045052,-2.065557,2.289506,-0.9154558,1.0109854,-0.74992514,1.4870806,0.48359013,0.8679447,1.0404587,-3.0466743,1.6724124,0.30987692,0.47896624,3.6497383,-3.9730577,-3.6325183,-1.3584642,0.24264431,2.3310528,2.4940248,-1.4480286,-3.9167209,-1.139605,0.6595068,-0.6667862,-1.7775688,1.6263466,-3.706984,0.8198595,1.5669894,3.6010718,-2.8456936,-1.4205966,3.194222,2.9406428,3.3089666,-1.4945893,-3.5365787,-3.8596988,-0.16533136,3.3366385,-3.7759948,3.6083674,-3.6681547,2.598628,2.5595737,-2.1280127,3.5084386,0.15999603,3.6991062,-3.306974,-3.0619912,-0.92886734,0.6647377,-0.43506098,3.5611997,0.45987558,-0.26927662,3.7954955,3.7452402,2.473475,-0.21444559,-2.3051682,-3.007462,-3.319622,1.2890744,1.9475574,1.0803914,-1.2943587,-2.1058345,-2.659461,-0.9728637,-3.478383,-1.7215681,-2.4413018,2.4485478,0.7275977,0.7506237,0.28863,-1.6502161,-3.070179,-3.6703658,-2.4517603,-1.9245586,-0.7967143,3.9360723,-1.2211003,-2.9788256,-0.5693183,-2.0920262,0.20896435,0.9276552,1.548037,2.1984901,-3.6371498,-1.6108022,1.482935,-0.59532595,0.012420654,0.9979749,1.5759373,-2.591877,-2.3638892,1.8182335,-3.119244,-1.7995214,3.4801898,-0.72395515,-0.07975435,-0.13496208,-3.8551512,0.8167653,-2.1649203,0.26019716,3.4094353,0.70731926,-1.373488,-2.6034603,-3.4447212,-2.8485475,0.21554565,-0.36264896,-3.8448672,3.5760884,-2.20537,2.6275053,1.2144432,1.793612,3.5363164,2.3383856,3.335434,-0.8688073,3.8725944,-2.9979897,0.51950693,-1.948144,-3.379416,-3.6837764,3.2406812,-2.0941696,-1.8186836,-1.4200721,3.051859,-2.9975228,-3.5198588,-1.0667515,0.3906541,0.06570101,-1.5235944,-2.6725125,1.2213802,-3.6630526,-2.2020445,-0.94588566,-3.9013095,2.252509,-0.1706152,-1.4338899,3.2053123,-2.9962592,-2.4967456,0.99910116,0.5653858,-1.227303,-0.16262674,-3.5608668,0.25520086,-2.470518,-0.71982527,-0.09096241,-0.061361313,2.6140637,1.1468339,-3.2986422,3.9844694,1.6622486,-3.5473843,-3.3568735,-0.05912447,-2.3442497,1.5035448,-2.1683393,1.0382333,-3.0123415,2.5394769,-0.84867096,-0.92165804,-2.4301162,0.017509937,1.4142346,0.58603,-1.5738101,-1.1239662,-3.6667323,-0.8885789,-2.7040157,0.058100224,0.9293165,-2.6328034,1.0279942,-1.9512286,1.7159214,2.3789926,-0.39795542,2.1712627,-3.4604106,-0.44230223,3.239276,0.49254227,-0.14729548,-1.266088,2.129024,-1.3627868,2.1537595,-3.4837337,0.8221197,1.4505019,-3.8331704,1.2607603,-0.55171967,-3.236424,-2.0059023,2.506774,-3.1325321,2.5988088,3.0321608,1.6110563,2.0443087,-1.2644901,-2.9099145,-3.2171726,0.848753,-3.0103326,3.2050939,2.7052116,-0.23205471,3.8209143,-2.4344215,-0.04036951,3.4215088,-0.4321699,-3.7087078,0.7145519,-2.811984,1.9553719,0.2822442,1.3872309,-2.3179026,-3.6327453,2.7514296,1.6507945,2.4022183,-3.7919507,3.3473258,-1.721684,-0.1435008,-0.4038353,-2.97959,-1.4455519,-0.7491498,-2.6436577,-2.8108997,0.6328058,-1.1020823,-0.82966995,-1.365169,-0.8123617,3.5097866,-3.2263951,-3.6512852,0.54053354,3.229784,-2.1440544,-0.16621637,1.30095,0.5219455,0.06087637,0.83239317,0.23237514,-2.1214623,3.0350413,1.9183879,-1.0420766,-3.1407232,-2.6699257,0.81332254,0.2892561,-3.5016193,-0.7920656,2.7257762,-2.9350886,-0.009870529,0.7726884,3.6678352,-0.2924776,-1.7019811,-2.30122,3.8935523,-3.831936,3.559667,-3.8754354,3.7758212,1.0582137,3.6372123,-2.368146,-2.8389387,1.7432723,1.7738013,-0.13604975,1.2106099,2.7668676,0.068761826,-0.9022474,3.7741199,-0.3810401,-3.490056,-3.5434928,-2.6111112,-3.4204879,2.8593926,-2.4697375,-3.8698254,1.8356857,-0.8393254,-2.3124151,1.9465108,-0.43040705,-3.4692183,-2.3337846,-1.8788404,1.1605625,-2.1507583,3.0985966,3.5513926,0.57963085,0.71980906,-3.9377928,0.20164299,1.638587,-0.46137,-1.2290936,-3.940022,-1.2195277,2.664915,0.9936147,1.03016,0.97700834,-2.311276,-0.8228016,-1.6309109,1.0700512,-0.1167407,-0.33708143,3.6019511,0.2229538,3.4989357,1.5468612,1.5102758,-2.677341,0.11119652,0.9958916,-1.8883758,-0.89143133,0.40645075,0.1684823,-0.020905018,-3.9612408,3.3383842,-2.0942154,0.35458422,-2.3979917,-2.6069226,3.2791142,3.9870687,1.7344708,-1.2263355,1.7571931,3.2963767,1.6166668,2.786487,3.6665268,1.2693748,-2.5511189,-0.16134214,3.8628635,0.5094085,3.495109,-3.375547,3.8372345,1.2766385,1.0364356,0.7928419,-1.8017535,-2.5031743,3.7982092,-1.7165027,-0.42035627,-0.97549486,-3.549303,-2.6483274,0.12018108,-3.5063715,0.09408808,2.956181,1.9782248,-3.4300022,1.0148368,-1.3328557,-2.272357,2.1554327,2.855485,-0.30592299,-0.5888181,-2.9710503,-3.286717,-2.7020216,-0.39593744,-2.3844194,-3.7617269,-2.8837285,3.7906547,3.2441483,-0.17198801,-2.6955414,3.0322785,-1.2883611,-1.5721183,2.5160766,-2.7189531,-1.3408909,0.7820306,-3.6392784,0.3747487,-3.2473936,0.40445852,1.9814105,0.9576373,-2.3522682,2.84166,3.7851548,-3.8367887,-0.9815011,-2.6083336,-2.7228398,1.3441982,-1.5046101,-3.631701,0.6473336,-0.45645,-0.74574184,-2.0819378,-2.3793926,-1.5050974,-1.577672,0.59939766,2.6177683,-1.9268279,-2.259728,1.334085,-2.886146,-3.7376351,0.4855423,-0.5225568,-1.0154762,1.4697833,-1.9079123,3.791726,-0.5200429,-2.379777,-3.109355,3.8348207,0.26860905,-0.23800945,3.762219,-2.891974,0.8823328,3.3852377,-3.8094845,-2.7185302,-3.872182,-2.606256,-2.7127357,0.59760714,-3.0102363,1.4104323,1.0428553,-0.5686774,0.74654865,3.1861763,-2.356144,-3.1264987,-1.9178057,-0.7026181,-1.3559136,3.6425772,0.6669035,-0.33803415,3.6472797,-3.220389,3.8752775,0.90229464,1.6523261,-2.7640882,0.024229527,-3.9110827,0.14691925,0.03219366,3.8744726,-0.61287737,-2.6424947,2.193818,0.40801954,-0.29898882,-3.15702,2.8118181,1.4522967,-2.70653,-0.94800663,3.633287,1.0769548,-1.0932693,-1.1307201,-0.5386777,2.4751396
-0.043436527,1.7779493,3.5832405,-2.059143,-1.0473971,-3.49437,2.521142,3.9812841,-1.3618255,3.1408439,-3.9636526,-3.9881897,-1.0230064,0.22784853,-1.8777652,-0.16022635,-3.8315315,-2.2389035,0.022871017,-3.1002216,2.7040777,0.294065,-2.4728694,3.952012,-1.0898962,1.1330857,3.9153638,2.968728,-2.3523316,0.36289263,-1.401556,-3.9305182,-1.0896645,-0.9640322,2.1502342,1.3691645,-3.9655142,-1.6309166,2.415606,-1.4712954,-0.051968098,-2.5780768,2.0187798,-3.7207332,3.857543,2.8929114,1.4170346,-1.0152178,2.61411,0.8048568,-1.4658103,0.29740047,-1.3252258,-0.4163165,-0.3919716,2.1538548,-1.4991612,-2.692832,0.42064953,1.8905439,1.3627839,2.742847,-2.9913893,0.37918139,0.67700624,-2.6941538,-2.0652342,-2.8140125,-2.8540244,-1.9926887,-1.4651232,0.34333897,3.9775171,-2.1527286,-1.8564315,0.026462555,1.5346203,3.2197075,-0.30504608,-2.9931273,-3.762453,-3.7280045,3.447424,-3.90831,-3.8889465,2.9624038,1.6886873,1.8615327,2.4529462,-2.5569172,2.5502543,-2.97787,1.9165106,-1.2601261,2.5392218,-1.1559668,-2.0498633,0.70758724,-0.25648642,-1.1364584,-3.250721,2.786251,-3.8262782,1.7641077,-1.9996715,-2.0137162,-3.71556,3.7837658,3.7095332,2.482668,-0.09047699,-3.8743005,-0.085579395,1.043787,0.8131685,-3.1040368,0.29676056,-1.5332179,-3.2769637,3.0897484,-0.49346447,-2.0770235,0.16733646,-3.4872837,0.6824794,-3.4985547,1.0788689,-1.9314542,2.9156818,-2.3966398,-0.38310194,-1.3207488,3.7856503,-2.1799822,3.7465472,-0.6924238,-0.8733859,-2.7085724,-1.5440912,-1.5267615,-0.7187238,3.8234582,-3.1494765,1.6735811,0.13251734,-0.49269676,-0.94788647,0.42866993,-2.1538167,-3.440765,-0.9125109,3.1126165,0.14237833,-1.3971443,-1.1307764,-2.409923,-0.7611275,-3.9302664,-1.133317,0.03540516,-3.5319428,-0.8063288,1.640852,2.4881344,-3.5161843,1.0369902,0.77494574,1.5581274,-2.8793998,-1.905416,-2.2108936,-3.3508816,2.9336896,0.126225,1.9206004,-3.7061152,-3.3390398,2.200179,-2.6550627,-3.1133137,-3.5122905,-1.1903334,0.9825487,-0.20185089,2.30927,-2.690147,2.1460176,1.8903432,-3.4389606,1.397481,-1.2354608,0.39673233,3.3324523,-2.2753644,-0.4036088,-2.9618773,-1.8731842,-0.80208683,0.53149605,-0.5276718,-3.8755326,-0.6153674,1.0337315,1.7695432,1.1288671,-0.28223085,3.5681252,3.325162,-3.8743534,-2.0055456,-0.38471556,-0.65014505,-3.2101932,-0.8398113,-1.8412609,3.8208733,2.187807,-2.8592215,2.067563,3.671647,0.8156996,3.6451187,-2.1494246,3.2965932,1.0933962,-3.5234952,-1.3238907,3.5374184,1.2251024,-1.6730533,3.3398132,3.70396,-0.7115226,2.983591,-2.0029707,3.4995327,-0.49318552,-1.9131212,-1.0239081,-1.2743416,1.4909391,0.95853615,2.0479894,-2.7832217,0.037247658,3.1886501,-0.44261932,-3.390141,-2.3131337,-0.53075504,-0.30362797,0.41958094,-3.835112,3.7591372,0.9201608,0.7247591,3.1295705,-3.8907657,1.9548202,3.9587202,-1.313365,-1.2646542,-3.4691558,-3.656765,-3.6926494,2.8001986,-2.3129263,3.0452147,-0.30864334,3.0401516,-3.9323192,-0.0745759,1.4476056,-0.48240137,2.3160524,-3.328145,-1.486423,-3.2204137,1.0306673,1.1748753,-3.0235085,1.6742821,-1.4361396,-0.66032124,-2.0652404,-1.6682959,-2.8573637,0.4017167,-0.5451255,1.3345451,1.1378889,1.5954838,-0.15127516,-1.6736054,-2.94458,2.2340913,-2.100163,-2.8757353,-1.7851043,0.5193052,-2.4977026,-1.734592,-0.38995028,3.4769459,3.707006,-1.7892232,-1.7728,0.18357658,1.9256167,-0.31092548,-2.3933568,3.925047,3.0821228,1.8788443,3.872538,-0.76147985,-2.969131,2.3021393,2.1229582,2.1949258,-0.5342598,0.0061273575,-2.6921997,-1.838881,-2.2226171,-3.8184147,-3.2469478,-1.8517365,0.97287226,-2.6437545,-0.5990858,-3.6621637,-1.4261737,0.33160305,0.86571217,1.2370353,-3.7984662,0.33635664,0.079194546,1.0340643,3.8195257,-3.8477592,3.105051,-3.89145,0.15083027,-3.5720997,-1.7734356,-3.5639153,3.7597055,1.5760059,-2.3718467,-0.93366814,-3.4053054,2.4752364,2.246097,-2.665844,-2.8420877,0.42805195,-1.7230172,-0.5093932,1.2461457,3.7775865,2.3183951,2.6481347,-0.6208215,-2.2921157,3.7141938,-0.9200387,0.19130516,2.6113434,0.5503912,-3.1201396,0.43983984,-0.29903364,-0.3137021,2.7835603,0.73110294,2.0931454,-2.7645917,2.709353,3.0564766,-3.665464,-1.0513859,-1.4488764,2.8701777,2.0269432,-3.7882185,-2.665338,-2.9756656,-3.6127496,1.6754827,0.5356674,0.044036865,-3.601489,-3.5262318,-3.2119503,1.6615405,-2.6709852,-3.1051464,2.1418352,3.2770987,3.301444,-1.8166165,2.3439727,-2.7208767,3.4912653,-3.1370144,-0.6795492,1.8158121,2.1123471,2.6005445,-0.7328367,1.1191387,0.4131937,-2.7224727,-3.232256,-2.6173964,-0.3321805,-0.37149096,0.53190565,0.92259884,-0.9951091,1.6294017,-3.804494,2.5479622,2.2043562,3.478778,-3.223567,0.27121067,2.1134863,2.8915982,2.5962462,0.31954336,-1.6345716,3.2129922,0.6391611,-3.929399,0.37384033,3.6451602,-0.5647621,1.8987355,-0.92797947,-1.4585786,-0.2734542,-0.55131674,3.3705711,-2.2748604,-3.0408502,0.6566777,2.9569535,3.3026047,-3.9167252,3.640696,1.5621204,-0.6540351,1.3187695,2.7333078,-0.8168373,-2.4600787,-1.165134,-3.590993,3.5842724,-2.61874,-2.0388546,2.2645602,-1.5125155,0.42191315,-1.7775187,1.7723436,-2.7541113,3.2622385,-1.2457204,2.094401,-3.498559,-0.8663449,3.298911,-3.7043314,-1.5250964,2.997837,-3.434679,-1.0700421,1.4748812,2.79733,1.3326416,2.9184866,0.66795206,1.1088238,1.8816323,-0.7504411,-2.865488,-3.1105795,-3.0593605,3.9022093,1.3423128,-2.9751606,3.9369817,0.87505054,2.7063718,0.9741039,2.4810753,1.6934915,3.6841612,-3.458818,1.910223,0.9713416,2.433282,2.9864893,-1.4390135,-0.20941353,-0.46756268,-1.934619,2.8270202,2.3376722,-3.351293,-3.0365987,1.8707752,-2.8663187,-2.4670506,-0.515646,1.5462756,-1.7933278,3.2596135,0.033480644,0.4109807,3.1290417,-2.3573608,-3.7426167,1.7760854,-2.631166,1.8258204,0.6424303,-1.5507879,0.45965576,-1.1407337,-2.0590825,1.169199,2.291597,2.453741,1.8133054,3.8523364,2.814979,-3.0029502,-3.5156026,0.21990108,1.0037823,-2.6085072,2.6257567,-1.4499822,-0.53025246,3.5241556,-2.8157954,1.3676248,-1.1322937,-3.4673567,2.4923863,-2.4814672,2.7436848,2.9231925,-2.2807016,0.1833024,2.9628415,-0.3938179,3.0140586,0.55657864,0.7869792,0.7312279,-3.7569842,-1.4107256,-0.3435359,1.65062,-0.6894536,-1.7423687,-2.5574455,1.3611183,0.37810898,1.6241994,-0.96170425,-3.5595737,1.4265747,0.9661894,3.0395603,-1.998723,-2.415904,0.5725846,2.7518964,2.853331,-3.192421,-2.861917,-1.7181706,-2.9533386,-0.51111937,-0.2521181,-0.6764488,-0.26267147,-0.27650404,-0.59217834,2.2585692,1.5262928,3.89861,3.7101436,-1.9414988,3.6565366,3.342986,-1.20123,-2.389349,1.8276381,-1.9276748,-0.48137856,2.440835,0.9653692,-1.1754584,-0.1052413,-3.0301108,-3.4487987,-2.101129,-2.0470247,2.6187897,2.9807992,1.7049899,-1.0294409,-1.4332385,3.5614996,1.9323621,-0.09339285,-1.0763197,2.592805,-2.970015,-0.40666246,1.235692,-2.505015,-0.9684253,2.7740808,-3.6602225,0.47338963,1.0851197,-1.3715181,-0.8928795,-3.7364063,3.219841,-3.2926803,-3.0895534,3.1148987,-0.7496333,-1.61094,-3.1806479,2.8012433,-2.9862099,1.1281047,1.9216042,-1.868959,-3.585383,2.5221705,-0.23601389,3.8993769,2.3800793,-3.5618162,1.3051233,-0.23477125,0.5511465,0.5313134,-1.798687,-3.048585,-3.9020534,-0.5218668,-1.4436231,1.0780702,3.4689012,1.2551799,0.9344106,0.4345765,-3.4118981,-0.9137993,-0.43833017,2.9423337,-2.5814462,-2.3620424,-2.042791,-3.730053,-2.0279164,3.1733913,-1.93465,-0.938694,-3.853642,-3.6949391,0.46838427,-1.1676383,0.10899067,-2.511128,1.2481413,2.3829389,2.1528707,-3.65898,-3.1305227,2.5938349,1.2015986,3.2575717,2.2491493,-1.1905756,-1.6723094,2.7990656,-1.1577854,0.5206547,2.9855833,-1.8703184,-3.4531512,3.113011,-2.2045846,3.854762,-3.6734352,-1.8426023,2.3233447,-2.6355782,2.2393146,1.1715908,0.72208834,-1.8511381,2.1976233,-3.2458382,1.3932528,-1.8706269,-3.1531968,3.7247396,-3.00454,-1.2526493,-1.3340158,3.1699944,0.18832493,1.1005859,-1.0418577,-0.31256533,-0.8935385,-1.7205186,1.9028225,-3.0865088,1.2011337,3.179893,2.5846977,3.392807,2.223343,-3.8026023,-0.8825326,-2.8269114,-0.09939957,-3.8309603,-0.1322403,-1.2604246,-3.6360073,3.7337604,-0.708189,1.7614884,-2.99016,-2.5570369,1.4906726,-3.4851546,2.7360225,-0.9833875,3.0024667,1.0424509,-1.2539177,2.966411,3.618703,0.60784817,-3.2717452,-0.06648493,2.23814,-0.705286,1.0820332,1.4723797,-1.6048846,-1.0820823,1.7013216,3.7198157,-0.15374708,-1.0574856,-0.67743444,-0.949687,2.821528,1.1726608,-1.360856,-2.121292,2.219408,-3.9809155,0.21165848,-1.8551216,-0.24725103,3.751688,-3.112886,0.92356825,-3.9411373,3.9883704,0.4966674,-2.2475014,-1.0747185,2.5825543,-2.9007592,-0.4341483,-1.4712777,0.9955349,-0.7246847,2.177227,-1.9597502,2.2458806,0.32170105,-0.6453376,1.8411422,1.8121052,-2.939763,-1.1392527,-2.7269435,-3.2530808,-3.4396658,-1.5930996,2.2893848,-1.8130488,0.37200356,0.73294926,3.1836572,-3.0188384,0.33163118,0.7497268,-2.027863,2.0095897,-3.456511,-0.8295903,-2.1471186,-0.055854797,2.875887,-1.0701208,2.9290552,3.9580693,0.4575019,-2.340794,2.171812,-2.8121476,3.3632097,-1.0728054,-1.8659158,-3.0645952,3.2286696,-3.6093369,-3.4372244,2.009678,1.843154,2.0425053,1.7696285,3.0454397,-3.620378,-3.830514,2.0120854,-3.896274,-1.0060477,-1.6871152,-0.2964282,-3.6228304,3.8505917,-2.5275865,-2.8537889,3.3826613,3.6237397,0.14004087,3.3890924,3.055203,-3.7794075,0.75333834,1.1846404,-3.5778666,0.8472128,1.2004466,-0.24114466,-3.3594942,-1.1925697,2.5986567,3.9542365,-0.036638737,-0.6806774,-3.6613584,1.4116025,-3.5869713,-2.1471763,1.0944133,0.75147724,-0.13828516,3.6673322,3.0279174,2.6783743,0.5759034,-3.2119823,0.7746353,-0.3094921,-0.108318806,3.485303,-2.5212512,-2.6179657,3.4984646,1.6142974,-1.2219529,0.27651644,-1.1110587,-0.59171057,-3.048356,-3.5445995,-0.9212723,-3.2781048,3.3481722,-2.5898108,3.0305767,-0.2540536,1.6366076,-2.6187463,2.7802505,-1.9901586,3.569654,-2.2870326,2.6247382,3.9975438,-1.0011826,1.916379,2.5936222,-1.0416346,-2.3373442,-3.0580359,1.6014423,1.2395296,1.0546851,-2.961636,-0.8818569,1.3445258,0.33890915,-1.585772,2.9664407,-0.074121,3.0798712,-2.2195668,1.7208672,1.5808015,-2.324676,-1.4133005,-3.1995487,2.3329606,3.0563593,-0.40382814,-2.3549967,2.1954446,-0.64523363,0.42457485,-3.0436678,-3.3772302,1.1419907,2.1225357,-2.508247,3.7624593,-1.8320704,1.3688502,-3.5728984,2.6234217,-0.4000883,1.6861296,-0.26859426,1.6281219,-3.098806,-2.7941155,-0.5719857,1.17242,-2.255012,-1.375721,3.7368045,0.07004213,1.5879693,-0.54595137,0.55622244,-2.9780154,0.5182395,3.4689965,-3.435988,-3.936201,2.7138247,0.9566407,-2.4444866,3.4697475,-1.6592083,1.2684956,-1.742877,-3.1960201,2.044797,-2.962225,-1.4817781,-1.7077665,0.084619045,-2.2025228,1.8689694,-0.29614925,1.2998176,3.67948,-3.8192096,-2.7774425,0.5377946,1.1339712,1.1510792,2.0027184,-2.6039696,1.5298362,0.5840745,3.1278763,-3.2040439,-0.94292307,-0.6884227,1.4175782,3.753559,3.1535172,-2.5823445,-3.793841,3.631319,-3.0534892,-3.0649805,-0.14588928,2.1541166,2.547069,0.29055738,-3.0640721,3.6812778,-1.658565,2.1034694,2.9996347,-3.0943432,-1.03229,-1.2145824,-0.823328,-2.3185534,1.0425973,2.9534297,0.025436878,0.5730672,0.7388706,0.26322508,3.7317023,-0.3991909,-2.3816218,0.34857178,-0.29667425,-3.7072644,1.7715073,-3.8983212,2.849275,-0.5805454,2.4019032,0.04349327,1.2130194,-0.30337715,-2.4510288,0.742126,-2.44812,0.42218828,-2.4570546,-2.3409243,-2.0439591,3.7292829,1.7280006,2.6291795,-3.6523528,-3.735876,-1.5951056,-0.014704704,3.9808578,-1.4747839,0.49109125,-1.0627337,-2.2081141,1.6971722,-0.42635965,-3.4273171,-0.83693504,0.2627945,-2.476945,3.3839517,0.5308471,-2.270846,0.971786,-2.246665,3.073471,3.9711685,3.6733413,-0.12018871,0.8738346,1.120079,-2.951851,2.3023667,0.5060153,3.2934752,-3.505012,-2.3521724,1.603888,3.5029445,0.7045126,2.7096844,1.9264956,0.6346712,-1.219553,-0.43325043,2.6512928,-0.95078135,3.8747873,-3.6500921,1.6421618,2.6397333,-3.9728155,0.9018655,-1.5817494,3.481989,2.9300342,1.1055222,3.59967,-3.04073,2.9857764,-2.5697432,-0.04289198,-3.6865306,3.4959168,1.5144453,0.2108717,0.33073282,0.3737564,-0.38508892,0.8685889,-0.96086884,2.5750198,-0.17139482,3.8097663,1.4761944,-2.6912303,1.1630244,-2.2994447,2.998901,-1.2204151,1.8272977,1.0534363,-3.0927587,2.6661887,3.611928,2.7918773,-3.1920633,0.73850584,-2.2001915,-1.3442006,2.2563624,1.7428055,-3.069209,1.9200463,-3.7442613,1.4956355,2.9443078,2.0525255,1.012032,-0.9400215,3.5410628,2.775249,-3.8206897,-2.5915685,-2.8182516,3.7992878,-1.9575038,2.8034182,-3.9966712,-2.802342,2.4751792,2.032547,0.52695084,1.4975219,-2.948915,1.3485699,-3.0736322,-3.7212234,2.387423,2.7045112,-3.482862,2.1492972,3.1136894,-3.5029974,3.5272303,-3.1582718,-0.950953,2.0112371,2.1434655,1.8819818,-0.29316092,-2.7991843,-0.72649765,0.4794426,0.678761,-1.9383788,-3.0735822,1.2724261,-3.1316514,-1.9776301,-0.37287807,0.24376345,0.23449898,2.4520965,2.2212567,3.0394788,-1.915256,1.1782284,1.1095414,-0.75744915,1.8246112,-2.9554644,0.5350094,0.6626797,-3.1730976,0.8677392,-3.5995984,-2.1840796,-0.008627892,2.1514869,3.5818114,3.5240712,2.2743664,-2.3117332,-1.0371056,1.6268334,1.2791672,1.4502592,0.9987135,-3.5409021,0.075074196,-2.7093663,-2.3863225,-0.23876572,-0.86747885,-1.0760283,-2.9106083,-0.8583455,-0.8937073,3.0299034,-2.124165,1.3294945,-2.9480548,2.3542085,-1.3414974,1.5173888,-1.1591382,2.3742638,2.3552327,-3.8387156,1.0683951,-3.6334882,-3.0552597,1.5384359,1.886085,3.6877322,1.2147136,2.4774466,2.979947,1.7564898,2.8559604,-3.258185,-1.7922072,-0.2758913,-2.8590822,1.5522647,-1.5729003,-3.1991134,-0.8449383,-2.2472048,-3.113462,2.0308595,2.7688136,-0.8290105,-3.2340617,0.48452473,1.9406104,3.5835834,2.0399232,1.2385659,-1.6506615,3.7878304,-1.1688008,3.0505877,-3.2884817,-1.8054132,-0.6205158,2.5728278,-0.48413706,-1.8138189,-3.9359136,-3.991724,3.5003943,-2.388012,2.0900707,-1.6761785,3.3255033,0.20285559,-3.8874907,-2.2915645,3.005498,-1.9465928,1.9884033,-2.0511713,-0.6783762,0.24214697,1.8942161,3.824315,1.3465428,-1.225018,1.2364521,3.4356523,3.1841726,2.7196202,3.246122,-1.4488311,-2.9850984,-2.8947644,0.14307928,-0.23355103,1.6048203,1.2395825,-1.3340769,-1.9350038,-0.21591043,-1.7175298,3.095203,-2.9644794,-3.655829,3.2242503,1.2849255,2.7572556,1.7916989,-1.142632,1.4175615,1.4862003,2.998642,-3.1233015,2.0938063,-3.011032,3.699284,-0.06256914,2.967956,-0.4714737,-0.17509842,-2.226273,-3.424142,2.5841756,-2.2179947,0.789495,-0.46732664,2.4880872,2.0400858,0.04885578,-3.71494,1.0092907,-3.0048566,-0.043640137,-1.4054046,1.8646178,1.3363204,-3.960288,-3.4608483,1.1614308,-1.4900742,-2.63484,-0.19567728,0.48045778,2.918375,-0.13216734,3.2806802,-3.0846024,-2.0935984,3.0500426,-3.5075622,1.7505741,-2.8063827,0.39543676,-3.7081852,-0.94447803,2.1564226,1.9701414,0.8188658,-3.4038944,-3.6862879,-2.3008633,2.3315344,3.9451551,1.7251053,-2.276998,-0.33691406,1.3652515,-0.91214705,-2.9480872,-1.6033998,-3.736847,-1.4355531,3.4011202,-0.88323355,2.0108705,1.3576126,1.6471281,2.1905441,3.3632684,-0.5319009,-0.12584591,-3.5517879,3.0577426,-1.256197,3.649704,2.017715,-3.536438,-2.7984047,1.915472,-2.334187,-1.7960143,-0.28365326,-1.1449933,3.702232,3.2022877,-0.9823394,1.2845182,-3.6844845,1.9912095,1.4962602,3.7125168,3.7645168,0.9636307,3.6115313,1.7375255,0.9051285,2.4114313,3.0368242,3.0651116,-0.029120445,3.8224616,1.2665257,-3.0851402,-3.814653,2.2430382,3.9936419,0.36885786,-1.4955511,2.6598315,1.8854303,-1.6752858,-2.8587618,-0.96646976,-3.8381,-3.1777372,3.3885522,-0.07473612,-2.2014384,2.9028926,-3.7254462,3.4543762,-0.18303967,-0.25199318,2.4264627,-1.4397564,2.684692,-3.83252,3.0774336,1.1900482,-1.8131871,-2.2657638,2.804234,-3.1731997,2.6363316,-3.2237387,-2.3471065,-2.042719,-0.22501421,0.45655632,-1.1589599,-2.3640924,2.3461714,1.3338084,-0.7423105,-2.0999608,1.3475423,-3.2340674,-3.7854404,-3.8025122,-3.4131923,-3.4157667,-2.7302327,-3.2362428,-2.3091135,3.5417671,3.5640411,0.98995495,-3.3988175,1.6646376,3.2063813,-1.1460185,-0.6033864,3.9734817,-2.4372354,-2.3259845,0.716475,1.8833928,2.2560163,3.636106,-0.09684944,3.347992,-1.5323043,2.2233682,2.439517,-2.4736,1.045052,-2.065557,2.289506,-0.9154558,1.0109854,-0.74992514,1.4870806,0.48359013,0.8679447,1.0404587,-3.0466743,1.6724124,0.30987692,0.47896624,3.6497383,-3.9730577,-3.6325183,-1.3584642,2.4390364,2.3310528,2.4940248,0.69241285,-3.9167209,-1.139605,0.6595068,-1.024229,-1.7775688,1.6263466,-3.706984,0.8198595,1.5669894,3.6010718,-1.1711702,-1.4205966,3.194222,2.9406428,3.3089666,-1.4945893,-3.5365787,-3.8596988,-0.16533136,3.3366385,-3.7759948,3.6083674,-3.6681547,2.598628,2.5595737,-2.1280127,3.5084386,0.15999603,3.6991062,-3.306974,-3.0619912,-0.92886734,-2.7440348,1.8629298,3.5611997,0.45987558,-0.26927662,3.7954955,3.7452402,2.473475,-0.21444559,-2.3051682,-3.007462,-3.319622,1.2890744,1.9475574,1.0803914,-1.2943587,-2.1058345,-2.659461,-0.9728637,-3.478383,-1.7215681,-3.2349014,2.4485478,0.7275977,0.7506237,0.28863,-1.6502161,-3.070179,-3.6703658,-2.4517603,-1.9245586,-0.7967143,3.9360723,-1.2211003,-2.9788256,-0.5693183,-2.0920262,0.20896435,0.9276552,1.548037,2.1984901,-3.6371498,-1.6108022,1.482935,-0.59532595,0.012420654,0.9979749,1.5759373,-2.591877,-2.3638892,1.8182335,-3.119244,-1.7995214,3.4801898,-0.72395515,-0.07975435,-0.13496208,-3.8551512,0.8167653,-2.1649203,0.26019716,3.4094353,0.70731926,-1.373488,-2.6034603,0.04150629,-2.8485475,0.21554565,-0.36264896,-3.8448672,3.5760884,-2.20537,2.6275053,1.2144432,-3.51939,3.5363164,2.3383856,2.5249786,-0.8688073,3.8725944,-1.253067,0.51950693,-1.948144,-3.379416,-3.6837764,3.2406812,-2.0941696,-1.8186836,-1.4200721,3.051859,-2.9975228,-3.5198588,-1.0667515,0.3906541,0.06570101,-1.5235944,-2.6725125,1.2213802,-3.6630526,-2.2020445,-0.94588566,-3.9013095,2.252509,-0.1706152,-1.4338899,3.2053123,-2.9962592,-2.4967456,0.99910116,0.5653858,-1.227303,-0.16262674,-3.5608668,0.25520086,-2.470518,-0.71982527,-0.09096241,-2.28584,2.6140637,1.1468339,-3.2986422,3.9844694,1.6622486,-3.5473843,-3.3568735,-0.05912447,-2.3442497,1.5035448,-2.1683393,1.0382333,-3.0123415,2.5394769,-0.84867096,-0.92165804,-2.4301162,0.017509937,1.4142346,0.58603,-1.5738101,-1.1239662,-3.6667323,-0.8885789,-2.7040157,0.058100224,0.9293165,-1.8286729,1.0279942,-1.9512286,1.7159214,2.3789926,-0.39795542,-2.4637055,-3.4604106,-0.44230223,3.239276,0.49254227,-0.14729548,-1.266088,2.129024,-1.3627868,2.1537595,-3.4837337,0.8221197,1.4505019,-3.8331704,1.2607603,-0.55171967,-3.236424,-2.0059023,2.506774,-3.1325321,2.5988088,3.0321608,1.6110563,2.0443087,-3.2899227,-2.9099145,-3.2171726,0.848753,-0.98131704,3.2050939,2.7052116,-0.23205471,3.8209143,1.2032499,-0.04036951,3.4215088,-0.4321699,-3.271031,0.7145519,-2.811984,1.9553719,0.2822442,2.672977,-2.3179026,1.260716,2.7514296,1.6507945,2.4022183,-3.7919507,3.3473258,-1.721684,-0.1435008,-0.4038353,-2.97959,-1.4455519,-0.7491498,-2.6436577,-2.8108997,0.6328058,-1.1020823,-0.82966995,-1.365169,-0.8123617,3.5097866,-3.2263951,-3.6512852,0.54053354,3.229784,-2.1440544,-0.16621637,-3.0889726,0.5219455,0.06087637,0.83239317,0.23237514,-2.1214623,-2.3324976,1.9183879,-1.0420766,-3.1407232,-2.6699257,0.81332254,0.2892561,-3.5016193,-0.7920656,2.7257762,0.7722783,-3.911553,0.7726884,3.6678352,-0.2924776,3.3087087,-3.1588187,3.8935523,-3.831936,3.559667,-3.8754354,3.7758212,1.0582137,3.6372123,-2.368146,-2.166016,1.7432723,1.7738013,-0.13604975,1.2106099,0.65815353,0.068761826,-0.9022474,3.7741199,2.2683735,-3.490056,-3.5434928,1.3364024,-3.4204879,2.8593926,0.42232132,-3.8698254,1.8356857,-0.8393254,-2.3124151,1.9465108,-2.064536,-3.4692183,-2.3337846,-1.8788404,1.1605625,-2.1507583,3.0985966,3.5513926,0.57963085,0.71980906,-3.9377928,0.27409315,1.638587,-0.46137,-1.2290936,-3.6786723,-1.2195277,0.54725647,0.9936147,1.03016,0.97700834,-2.311276,-0.8228016,-1.6309109,1.0700512,-0.1167407,-0.33708143,3.6019511,0.2229538,-3.6375709,1.5468612,1.5102758,-3.4983473,0.11119652,0.9958916,-1.8883758,-0.89143133,0.40645075,0.1684823,-0.020905018,1.2741632,3.3383842,-2.0942154,0.35458422,-2.3979917,-2.6069226,3.2791142,-2.3017635,1.7344708,-1.2263355,1.7571931,3.2963767,1.6166668,2.284288,3.6665268,1.2693748,-2.042696,-0.21764755,3.8628635,0.07650709,3.495109,-3.375547,3.8372345,1.2766385,1.0364356,0.7928419,-1.8017535,-2.5031743,3.7982092,-1.7165027,-0.42035627,-0.97549486,-3.549303,-2.6483274,0.12018108,-3.5063715,0.09408808,2.956181,1.9782248,-3.4300022,1.0148368,-1.3328557,-2.272357,-1.1189971,2.855485,-0.30592299,-0.5888181,-2.9710503,-3.286717,-2.7020216,-0.39593744,-2.3844194,-3.7617269,-2.8837285,3.7906547,3.2441483,-0.17198801,-2.6955414,2.3710876,-1.2883611,-1.5721183,2.5160766,3.63489,-1.3408909,0.7820306,-3.6392784,0.3747487,-3.2473936,0.40445852,1.9814105,0.9576373,-2.3522682,2.84166,3.7851548,-3.8367887,-0.9815011,-2.6083336,-2.7228398,1.3441982,-1.5046101,-3.631701,0.6473336,-0.45645,-0.74574184,-2.0819378,-2.3793926,-1.5050974,-1.577672,0.59939766,2.6177683,-1.9268279,-2.259728,1.334085,-2.886146,-3.7376351,0.4855423,-0.180799,-1.0154762,1.4697833,-1.9079123,3.791726,-0.5200429,-2.379777,-3.109355,3.8348207,0.26860905,-0.23800945,3.762219,-2.891974,0.8823328,3.3852377,-3.8094845,-2.7185302,-1.4300737,-2.606256,-2.7127357,-0.09238148,3.6814113,1.4104323,1.0428553,-0.5686774,0.74654865,3.1861763,-2.356144,-3.1264987,-1.9178057,-0.7026181,-1.3559136,3.6425772,0.6669035,-0.33803415,3.6472797,0.1726489,3.8752775,0.90229464,1.6523261,-2.7640882,0.024229527,-3.9110827,0.14691925,0.03219366,-1.7458005,-0.61287737,-2.6424947,2.193818,0.40801954,-0.29898882,-3.15702,2.8118181,-3.2900257,-2.70653,-0.94800663,3.633287,2.1954455,-1.0932693,-1.1307201,-0.5386777,2.4751396
-2.0164938,-2.051909,3.5832405,-3.9777026,2.4004278,2.253099,2.521142,-2.667375,-1.3618255,-1.25174,-0.84261847,-3.9881897,3.7438025,0.22784853,-0.046236992,0.9751048,-3.8315315,-2.2389035,0.022871017,-3.1002216,2.7040777,0.4402914,-0.57007885,3.952012,3.0223532,1.1330857,3.9153638,-3.1551032,-2.3523316,-1.0903387,-2.4147701,-3.9305182,-1.0896645,-2.5164156,2.1502342,1.3691645,-3.9655142,1.7663875,-2.4990172,-1.2445626,-0.19244385,0.23659515,-2.4207,-3.7207332,3.857543,2.8929114,1.4170346,-0.02870655,3.8789372,-1.8594136,3.6640882,-3.6429458,-3.0692124,-0.4163165,-0.3919716,3.6266532,-1.4991612,-2.9929452,2.186769,1.239491,-0.7878456,-1.215723,-2.9913893,0.37918139,-1.8059602,-2.6941538,-2.0652342,-2.8140125,-2.8540244,1.6959267,-1.4651232,0.34333897,3.0438886,-2.7899404,3.1445842,0.026462555,1.5346203,-0.018871784,-0.30504608,1.5545535,-3.762453,3.754807,0.7436323,-3.90831,-3.8889465,2.9624038,1.6886873,2.951758,0.04531002,-2.5853124,1.0932388,-3.2778106,1.9165106,-1.2601261,2.5392218,-1.1559668,-0.3692155,0.70758724,-0.25648642,2.6998324,1.099699,3.5304985,3.0111384,-1.1288562,-2.5377316,-2.0137162,-3.71556,3.7837658,-1.4202495,-2.2665038,0.39535475,-2.1415753,-0.085579395,1.043787,0.6919122,-1.6290493,0.29676056,-0.21692657,0.06729174,3.0897484,0.886436,2.73849,0.16733646,1.1553454,-1.157754,-3.4985547,0.6621218,2.7527037,-2.1739688,0.5958214,-0.60424614,-3.7842727,-1.1804862,-2.1799822,-1.7357335,-1.3718042,-0.8733859,1.0691314,-1.5440912,-2.671741,0.6131458,3.0096245,-3.1494765,3.9496841,0.13251734,-0.49269676,1.068974,1.7706218,-2.2748518,-0.8841443,-0.9125109,-0.15693092,-1.5686798,3.8663788,-0.7745986,-1.2577415,-0.21012211,-3.9302664,-1.133317,0.03540516,-3.5319428,-0.8063288,1.640852,1.0734153,-3.5161843,-2.0802832,-3.3038006,1.5581274,-2.8793998,-2.6033254,0.39440918,-3.3508816,2.9336896,0.126225,1.9206004,-0.43520784,-3.3390398,2.200179,-2.6550627,1.4634986,3.679943,0.27904844,2.4211273,-0.277812,-1.9552336,2.064258,-0.95862913,1.8903432,-3.4389606,1.397481,1.2757468,-1.2816882,0.2627492,-0.5094447,-1.6542978,-0.9044895,3.2364073,-0.80208683,0.53149605,2.1494865,-3.8755326,-0.6153674,-0.12586164,1.7695432,1.1288671,3.174086,1.1103215,3.325162,-3.8743534,-2.0055456,0.17845154,-3.5985756,0.36091614,-1.7615666,-3.898612,2.9239974,1.6913652,-2.8592215,2.067563,3.671647,-3.1173706,-1.1819534,-2.3209834,3.2965932,1.0933962,-3.5234952,-3.1231265,3.5374184,1.2251024,-1.6730533,2.0642772,-0.3565178,-0.41805315,-0.6337104,-2.0029707,3.4995327,-0.49318552,-1.9131212,-0.62369585,-1.2743416,-3.728736,0.95853615,2.0479894,-2.7832217,1.9533887,1.7926164,0.07308388,-3.390141,-2.3131337,-2.9543357,3.968865,0.41958094,-3.835112,3.7591372,-3.4959164,1.4293051,3.1295705,-0.3167901,0.19545078,-2.664771,3.8691583,-1.2646542,3.7861795,-3.2381568,3.6306176,2.8001986,-2.3129263,3.0452147,-0.30864334,3.0401516,-0.1914587,-0.0745759,1.4476056,-0.48240137,2.3160524,-3.328145,-1.486423,-3.2204137,0.81455135,1.1748753,-3.0235085,-0.6485295,1.4015613,-2.66649,-2.0652404,-2.3372803,-2.8573637,-2.383029,1.669344,1.3345451,1.1378889,1.8958526,-0.018583775,2.7501264,2.4600616,2.2340913,-2.137107,-2.8757353,-1.7851043,-0.5539689,0.65144825,-1.4231625,-0.38995028,2.1052842,1.5334239,3.395235,-1.7728,2.1462917,2.2577925,-0.31092548,-2.3933568,3.925047,2.274969,0.41581964,2.3965998,-0.76147985,2.4298658,3.629085,2.7910523,-1.9290242,2.8290768,0.0061273575,-2.6921997,-0.51112556,-2.7313519,-3.8184147,0.7578325,2.571827,2.336954,-2.6437545,-0.5990858,0.9636178,-1.4261737,0.33160305,0.86571217,1.2370353,3.074265,1.7789445,1.6599388,1.0340643,3.8195257,-3.8477592,3.865446,-3.89145,0.15083027,1.4777331,-1.7734356,-3.5639153,-1.1960835,1.5760059,-2.3718467,-2.960462,-3.4053054,-2.100069,3.5959973,2.7621922,-0.049955368,-1.308537,0.29138374,-0.5093932,-2.2395139,-1.2545972,-2.7071104,2.9557114,-0.6208215,-2.2921157,0.07603264,1.9808707,0.19130516,2.6688867,0.5503912,-3.1201396,0.43983984,-2.740106,3.3730812,2.7835603,0.73110294,2.0931454,-3.8249373,2.709353,3.0564766,-3.665464,-1.0316133,-1.1532865,3.0880475,-2.6355662,-3.7882185,-2.4647245,3.5896702,-3.446876,1.6754827,1.900384,-1.8734746,-0.014910698,-2.987721,2.3921952,1.6615405,-0.39241076,0.7183018,-0.93097496,-0.020508766,3.0164495,-1.8166165,2.3439727,1.1138024,1.6713295,-3.1370144,-0.6795492,0.25871658,-0.6156826,2.6005445,1.1731191,2.302414,1.0682335,-1.0044079,-3.232256,-2.6173964,-0.3321805,-0.37149096,-3.167388,0.92259884,0.023822784,1.6294017,-3.804494,2.5479622,2.3286076,-2.7701445,-0.27315807,-0.30771208,-3.7047925,2.6460052,2.9882555,-0.5245762,2.377071,-2.6299272,3.0952473,-3.8598251,0.37384033,3.6451602,1.9021635,1.8987355,-0.92797947,-1.4585786,-3.8375673,2.316174,-1.5417943,1.7346377,-3.0408502,0.6566777,-0.7916937,3.3026047,-3.9167252,3.640696,1.5621204,-1.2790942,1.3187695,2.7333078,2.619266,2.6474895,-0.030179024,-0.2620163,-1.7404265,-2.61874,-2.0388546,2.2645602,-1.5125155,0.42191315,1.5609684,-3.1992083,-2.7541113,3.2622385,-1.2457204,3.3924117,-3.498559,-0.8663449,3.298911,-3.7043314,-1.1435537,-0.36191225,2.9859161,3.2817535,3.5558615,-2.4295697,-0.3955593,2.9184866,0.66795206,1.1088238,-0.47898626,-0.7504411,-2.865488,0.5273013,-3.0593605,3.3545408,-1.022172,0.6405153,3.9369817,-0.1527071,2.7063718,0.9741039,-1.7979918,-0.9287882,-3.754682,-3.458818,-0.07224655,0.9713416,2.433282,2.9864893,-1.4390135,3.5130033,-0.46756268,-1.934619,2.8270202,2.3376722,-0.5126023,-3.0365987,1.767704,-2.8663187,-2.4670506,-0.515646,1.5462756,-1.7933278,3.2596135,0.033480644,0.4109807,3.1290417,-2.3573608,-3.7426167,1.7760854,-2.631166,0.19864798,0.6424303,-1.5507879,-0.9732766,-3.6982098,0.51413774,-2.2609048,1.4351201,2.453741,-2.5967011,3.8523364,2.814979,-3.0029502,-3.5156026,-1.7279034,-3.471887,3.963735,-2.5441651,-1.4499822,3.784359,3.5241556,-3.8181891,1.159894,2.9687233,-2.618073,-0.8796344,-2.4814672,2.7436848,0.44779968,3.49021,0.1833024,2.9628415,-0.3938179,-2.2190566,-0.35870934,0.7869792,-0.18126822,-1.4500556,2.2019534,-0.3435359,-1.9187427,-0.056210518,-1.7423687,-2.5574455,1.3611183,0.37810898,-1.3747196,-0.96170425,3.4151006,-3.7152376,0.9661894,3.0395603,0.3082404,0.85027885,-3.9756804,-0.95802546,-0.3262539,-3.192421,-2.861917,-1.7181706,0.33631563,-0.51111937,3.9784856,-0.30964947,-0.26267147,-0.6432247,-1.0276451,3.1710243,1.1713524,3.89861,3.7101436,-0.6867118,0.24431181,3.342986,-1.20123,-1.7208242,1.8276381,-1.9276748,0.52279377,2.5262232,0.9653692,-1.1754584,-0.1052413,-3.0301108,2.4341145,-1.9739032,3.3817286,-1.0514765,2.9807992,1.7049899,1.8122864,-1.4332385,-1.740984,3.7015715,3.7447104,-1.0763197,-0.6289797,0.907742,-0.40666246,1.235692,-2.505015,-2.4352741,2.807909,-3.6602225,-0.17114925,-2.450377,0.84493065,0.317163,0.5037656,2.2428784,-2.070991,2.566547,-0.4536085,-0.7496333,-1.61094,-3.1806479,-3.7587352,-3.8222828,1.1281047,-2.6665754,3.7361355,-1.8648844,2.5221705,-0.23601389,3.8993769,-2.6910682,3.1107688,1.6142764,-0.4749174,0.5511465,0.5313134,-1.798687,-3.048585,-3.9020534,-0.5218668,-1.465673,-3.1445975,3.4689012,3.411468,-1.0813565,0.4345765,-1.2127204,2.6585755,-0.43833017,2.9423337,-0.057761192,-2.3620424,2.0822825,-3.730053,-3.7781248,0.9304967,-0.91712713,-0.938694,-3.8866248,-0.82352686,-2.7946253,-0.37517452,3.3334813,0.7800827,1.2481413,2.3829389,2.1528707,-3.9935389,-3.1305227,2.5938349,1.2015986,-2.3416128,-2.8868456,-1.1905756,-1.6723094,2.7990656,-1.8199954,0.5206547,2.9855833,-1.8703184,-3.4531512,3.113011,2.326096,3.854762,-3.6734352,3.823577,-1.7662072,1.1713109,2.2393146,1.1715908,-3.0639567,-3.5017242,-1.2717528,-3.2458382,1.3932528,-1.8706269,-3.738769,3.5485268,-2.9784641,-1.2526493,-1.5400181,3.6446328,0.06616402,1.1005859,1.4756732,1.536468,-0.8935385,-1.7205186,-2.3349948,2.2171416,1.2011337,-0.78571844,-3.156909,-3.9628348,3.363336,-3.5163836,-0.8825326,-3.7009401,-0.6863651,-3.8309603,-0.1322403,-1.2604246,-3.6360073,3.7337604,-0.708189,-0.44915628,-2.99016,2.0635262,3.7823615,2.5046058,2.7360225,3.7379813,3.0024667,1.0424509,-1.3367882,-3.1057687,3.618703,0.60784817,-3.2717452,-0.9256487,2.2927132,-1.6311369,1.0820332,-1.7946978,1.0335579,3.3595028,1.7013216,3.7198157,-0.15374708,-1.0574856,2.6092129,-0.949687,2.821528,1.1726608,-1.360856,0.49103737,2.219408,-3.9809155,0.21165848,-1.8551216,-2.037877,-3.3797188,1.2457371,-0.05730343,-3.9411373,3.9883704,0.4966674,2.301629,-1.0747185,2.7576013,-2.0952382,-0.4341483,-1.4712777,2.5621042,-0.7246847,2.177227,-1.9597502,2.2458806,-1.0063629,1.9047709,1.8411422,1.8121052,-2.939763,-1.1392527,-2.7269435,-3.2530808,2.329762,-0.54711485,2.2893848,0.96776533,-2.2841597,0.73294926,3.1836572,-2.86411,0.34828138,-0.4460883,-2.027863,-3.4443088,2.7952967,-1.9360456,-2.1471186,-0.25811386,1.3310013,-1.0701208,-3.8995314,0.4501319,1.984045,0.65017366,-0.4774952,-2.2930384,-1.3437762,-0.22149038,1.2608404,3.2197104,-1.0929556,-3.064683,2.393486,2.009678,1.843154,2.0425053,-1.0024533,2.0164466,1.2046351,-3.830514,2.0120854,-3.896274,-2.7103157,2.6902566,2.52387,-1.7300801,3.8505917,-2.5275865,-2.8537889,0.5214386,-1.7848334,0.91250706,-2.4258394,3.055203,-3.7794075,0.75333834,1.1846404,-3.5778666,-3.0386553,1.2004466,-0.24114466,-3.3594942,1.8350053,0.5643196,1.6017361,-0.036638737,-0.6806774,2.8748364,1.4116025,-3.5869713,-1.364892,1.0944133,-3.6820493,-0.13828516,-1.6381001,0.23458576,2.6783743,3.2182546,3.2253318,0.35049057,-0.3094921,-0.108318806,3.485303,0.115437984,-2.6179657,3.4984646,1.6142974,-1.2219529,-2.2473435,-1.1110587,-1.9733887,-2.611906,-3.5445995,-0.9212723,-3.2781048,3.1459937,2.2954865,3.0305767,2.506269,1.8087015,-2.6187463,2.7802505,-1.9901586,3.569654,-2.2870326,2.6247382,-2.6628838,2.101797,2.5585842,-3.0503387,-2.4452724,-1.9184046,1.1260381,1.6014423,1.2395296,1.0546851,-2.961636,-0.8818569,1.3445258,0.045164585,-1.585772,1.2244091,-1.4352622,3.0798712,1.5936766,-2.8454466,1.5808015,-1.3101616,-1.4133005,0.9301863,2.3329606,3.0563593,-0.40382814,-2.3549967,2.1954446,-0.64523363,2.1016026,-3.0436678,-3.3772302,1.1419907,3.2424693,3.9415917,3.7624593,-1.8320704,-2.8851566,-3.6183963,2.6234217,3.736487,0.7410469,0.14635229,1.6281219,-3.098806,-2.7941155,3.4920769,1.17242,1.9190288,1.5737796,3.7368045,0.07004213,1.5879693,-2.428081,-1.4829993,-2.9780154,0.5182395,2.027389,-3.435988,3.231924,-2.3644366,1.7840228,3.450439,3.4697475,-1.6592083,1.2684956,-1.742877,-0.378726,1.2739501,-2.962225,0.2846861,-1.7077665,-3.2126846,-1.8974977,-2.6286688,-0.29614925,1.2998176,3.67948,-3.8192096,3.8737326,-2.318523,1.1339712,1.1510792,2.0027184,-2.6039696,1.5298362,0.5840745,3.1278763,-3.2040439,3.1352248,1.1361499,1.5768881,0.6038928,-2.9270315,-3.5299258,-3.793841,3.631319,-3.0534892,-3.0649805,-0.14588928,-0.79175425,-1.2123194,0.29055738,-3.0640721,3.6812778,-3.6343727,-0.85528755,-3.5278783,-1.8216724,-1.03229,-1.2145824,1.3241043,-2.3185534,1.0425973,2.9534297,-3.691115,-1.3825779,3.5523887,-2.9431539,1.9827771,2.872829,3.9166975,-3.6451058,3.5366802,0.9565816,1.7715073,3.681439,2.849275,-0.5805454,2.4019032,0.13663578,0.10857391,-0.30337715,0.5209484,3.6780157,-2.44812,0.42218828,-2.4570546,-2.3409243,-0.044525146,0.10297394,-3.100967,-1.2429085,-2.6685572,1.045433,1.3814979,-0.014704704,3.9808578,0.14909697,0.49109125,-1.0627337,-0.21224117,-0.24345732,3.6222272,-3.0263433,-0.050201416,3.7133603,-2.476945,3.3839517,0.5308471,-2.270846,0.971786,-0.26957655,-3.742268,-3.237928,-1.7245517,2.8842316,-1.6500401,1.120079,1.0968928,0.9136901,3.7653437,0.7860246,-2.4485683,1.7789392,1.603888,2.8206897,-3.2609057,2.7096844,1.9264956,3.1549854,1.8525858,-0.43325043,-2.6239872,-0.95078135,3.8747873,3.689796,-2.2435956,-1.5725613,1.3549318,0.22625494,-1.5817494,3.481989,2.9300342,-1.9476757,-1.5847845,1.332016,2.9857764,-2.5697432,-0.04289198,-2.627437,3.4959168,2.6526961,-3.0274744,3.5741315,1.5507298,-1.0900102,0.8685889,-3.4614844,2.5750198,-2.7124863,3.8097663,1.4761944,-0.4779582,1.1630244,-2.2994447,2.998901,-1.2204151,-3.5198326,1.0534363,-3.0927587,-2.6285605,1.7700067,2.7918773,-3.1920633,-2.1103635,-2.0199609,3.6020694,-0.41459274,1.7428055,-3.069209,1.9200463,-3.7442613,-2.2342043,2.9443078,-2.9586492,1.4737701,-0.8859334,3.5410628,2.775249,0.26442623,-2.5915685,0.649209,3.7992878,0.8783417,-2.0759635,2.1258473,-2.802342,-2.8471355,2.032547,0.0271492,1.4975219,1.5974793,-1.4891033,-3.0736322,-3.7212234,2.7663097,2.7045112,-3.482862,-1.770607,-3.8757267,-3.5029974,3.1084342,2.7685452,-3.8995414,1.4750319,1.2003202,-2.780424,-0.4754715,2.7317305,3.2550745,-0.05915737,0.678761,-1.9383788,3.873746,-0.8193369,3.6245766,-1.9776301,-0.37287807,0.24376345,0.23449898,2.4520965,2.2212567,3.0394788,2.9212542,1.1782284,3.0765386,-0.75744915,1.8246112,-0.015782356,-0.575706,0.6626797,1.2592301,2.0371337,-3.5995984,2.2274861,-0.008627892,2.1514869,-3.6160793,3.5240712,-3.7963495,-2.3117332,-1.0371056,1.6268334,1.2791672,1.4502592,2.6261907,3.4874911,-3.8311076,-3.108975,-1.4118338,-2.0847049,-0.86747885,-1.0760283,-2.9106083,-0.8583455,1.7470355,3.0299034,-2.124165,3.107129,-0.19096851,2.3542085,-1.3414974,1.5173888,1.3124633,0.2758088,2.3552327,-3.8387156,1.0683951,-3.6334882,-3.0552597,-2.7545109,1.886085,3.6877322,1.2147136,2.4774466,-0.07634449,-0.94207335,2.8559604,-3.258185,-1.7922072,-0.2758913,-1.258421,-1.9195814,-1.5729003,-3.1991134,0.43590307,3.434063,-3.1833282,2.0308595,2.7688136,-0.8290105,1.2100797,0.48452473,-3.5178928,3.5835834,2.0399232,-0.22132015,3.6240153,3.7878304,-3.741126,2.2510962,-3.2884817,-2.363233,-3.8097754,-0.0075592995,3.009159,-1.8138189,-3.3870883,-1.4719429,3.5003943,-2.388012,-0.64319944,3.3396602,0.69931173,0.20285559,-0.19375849,-3.7555609,3.005498,-1.9465928,1.9884033,-3.9859872,3.6221452,0.43314314,-1.9441113,-1.839253,2.607193,1.0645604,1.2364521,3.4356523,3.1841726,2.7196202,3.246122,-1.4488311,-3.872826,3.3605127,-1.2811952,0.3315034,-0.42669058,1.2395825,-1.6730437,-1.2295036,0.198349,-1.7175298,3.095203,-2.9644794,-3.655829,3.2242503,1.2849255,2.7572556,1.7916989,-1.142632,1.4175615,1.4862003,2.998642,-3.1233015,2.0938063,-3.011032,3.699284,-0.06256914,2.967956,-0.4714737,-3.6553893,0.08145285,1.3169403,2.5841756,-2.7286606,-3.7980123,2.3458357,0.3097949,-1.7482319,3.9764342,0.5541396,-2.0610814,-1.030467,-0.043640137,-1.4054046,1.8646178,1.3363204,-3.960288,-3.4608483,-3.9614377,-1.4900742,2.6697874,-0.19567728,2.3554087,2.918375,2.881208,3.3328547,-3.0846024,0.46412992,-1.4916444,1.1485286,1.7505741,-1.188045,0.424479,-1.1188407,-3.3091574,2.1564226,1.9701414,0.8188658,-0.507967,2.8580942,-2.3008633,1.0224977,-3.4185662,1.7251053,-1.2479515,-0.33691406,3.7379217,-1.0908027,-2.9480872,-1.6033998,-3.736847,-3.7806997,-3.0509691,0.0071315765,2.0108705,1.3576126,1.6471281,2.1905441,0.2969408,0.5959263,0.6061702,-3.8232098,0.44560242,-0.367589,-2.954049,2.7843094,-2.6908875,-2.7984047,3.3667994,-2.334187,-1.7960143,-1.2539258,-1.1449933,3.201952,3.2022877,-0.9823394,-1.6939449,-1.3389769,1.1846948,1.4962602,3.7125168,1.9283824,-3.0047693,-3.6141534,-0.44580173,-1.3075132,2.4114313,3.0368242,3.0651116,2.7208152,1.3935847,1.9528503,0.13733006,1.2036629,2.2430382,2.1880035,0.73451614,-1.4955511,2.6598315,1.8854303,-1.6752858,-2.8587618,-1.6985931,-2.489263,-3.3679461,3.3885522,-0.053314686,-2.2014384,2.9028926,-3.7254462,3.4543762,-0.18303967,-0.25199318,-3.4533138,-1.4397564,2.684692,-0.19879675,2.3288403,-0.6330323,1.1408081,2.2220063,2.804234,1.0887613,1.120049,-3.2237387,-2.3471065,2.4949307,-0.22501421,-1.939126,2.6361794,-0.20035315,3.6227612,1.3338084,-0.7423105,-0.020421028,-0.920753,-3.2340674,1.0151873,-1.5005732,-3.4131923,-3.4157667,-2.7302327,-3.2362428,2.1573787,3.5417671,3.5640411,2.047577,-2.258668,1.6646376,-2.7308912,-1.1460185,-2.6188307,-1.120429,-2.4372354,-2.3259845,0.716475,2.7025743,2.8598738,2.5525737,-1.0724406,-0.28311014,-1.6227393,-2.156011,2.439517,-0.72872686,-0.5357876,-1.1900382,2.289506,3.214872,1.255507,-0.74992514,1.4870806,0.48359013,0.8679447,-3.23026,-3.0466743,-1.7461557,0.30987692,-3.2833433,3.6497383,0.9435997,2.0805945,0.08960152,-0.6998787,1.7648902,2.4940248,-1.4480286,-1.040411,-1.139605,0.6595068,-0.6667862,-1.7775688,1.6263466,-3.706984,0.8198595,1.5669894,3.6010718,-0.23134899,2.8174486,3.194222,2.6994023,0.14314461,-2.7481575,-3.5365787,-3.7213116,-0.16533136,3.3366385,-3.7759948,3.6083674,-3.1973033,2.598628,2.6592054,-2.1280127,0.2776556,0.15999603,3.6991062,-3.306974,-3.0619912,-2.3463626,0.6647377,-0.43506098,2.471013,0.45987558,-0.26927662,3.7954955,-2.334293,2.473475,3.9135098,-2.3051682,-3.007462,-3.319622,-1.788034,1.9475574,1.0803914,-1.2943587,-1.4970317,3.7306943,3.694049,3.0653677,-1.7215681,-2.4413018,2.4485478,-1.3997326,0.7506237,0.28863,-1.914382,-3.070179,-0.6683426,-2.4517603,2.783298,2.2899103,-0.53938055,-2.5212202,-2.9788256,-0.5693183,-0.4794693,0.20896435,0.9276552,-3.092461,2.1984901,-3.6371498,3.2654672,-3.7757316,-0.59532595,0.012420654,3.9958954,2.8133368,-0.9582124,-3.5585995,3.335062,0.07075405,-1.4510565,3.4801898,-0.72395515,-0.07975435,3.4647083,-3.2092729,0.8167653,3.2302675,-2.022273,-3.353778,2.6597877,-1.9469161,-0.47878647,-2.9056368,0.8025861,-4.1341782E-4,-0.36264896,-3.8448672,-1.2544575,1.9252138,1.2577815,-1.5253816,3.3148746,-2.1244922,2.3383856,3.335434,-0.8688073,-1.2142568,-2.0923285,0.51950693,-1.948144,-3.379416,-3.6837764,3.2406812,-2.0941696,-1.8186836,-1.4200721,3.051859,0.79265404,-0.35215902,-1.0667515,0.4703989,3.9250631,-1.4646692,-1.0969172,1.2213802,-3.6630526,-2.2020445,-0.94588566,2.17912,-1.2676864,-0.1706152,-1.4338899,3.2053123,-2.9962592,-2.4967456,0.99910116,3.9462333,-1.227303,3.8700752,-3.5608668,0.25520086,-2.470518,-0.71982527,-0.09096241,-0.061361313,-1.8494172,0.054437637,-3.2986422,-0.5165658,2.0099754,-3.5473843,-3.3568735,-0.05912447,-1.1402087,1.5035448,3.9280672,-0.500659,0.22705984,-3.813426,0.09354496,1.2304645,-2.4301162,0.017509937,-3.7864547,-2.6761827,0.79504395,1.8999033,2.7869363,-0.8885789,-2.7040157,0.058100224,0.9293165,-2.6328034,-2.590814,0.6582432,1.7159214,1.3591704,-0.39795542,3.8279757,2.164895,-3.5918689,3.239276,-2.7615972,-0.14729548,1.0920529,2.129024,-3.140151,2.8836007,-2.0961175,0.8221197,2.8297043,2.0883613,1.2607603,1.65307,-2.4014502,-2.9325285,-2.0305276,-1.939919,2.5988088,-2.5211473,1.6110563,2.0443087,-1.2644901,-2.9099145,-3.2171726,1.0060606,0.72886086,-3.3438363,-3.3040705,1.7135258,1.645164,2.5126204,-0.65528154,3.7592254,3.490223,-0.37100267,0.7145519,-2.811984,-0.70154285,-3.9184532,-0.5494199,3.919179,-3.668665,1.1751175,2.5418243,2.686223,-3.0877857,1.1115441,-1.721684,-0.5657549,-0.36358547,-1.2927752,-1.4455519,3.4802017,-3.4205303,2.83386,-2.7656422,-1.3322468,-2.2720132,-1.365169,0.07125425,3.5097866,-3.2263951,-2.9110637,-1.5821471,3.229784,-2.1440544,2.7450385,-2.4465861,-2.7416725,-1.1846843,-1.3017106,0.23237514,3.9239798,-0.21684408,-0.58272886,1.7446299,-0.7261729,-0.9376092,-3.1892986,0.2892561,-3.5016193,-0.7920656,-1.5113153,3.5773568,-0.10822487,0.7726884,1.2893724,0.43866634,-1.4368534,-2.30122,3.8935523,-3.831936,2.3814278,-3.8754354,3.7758212,1.0582137,3.6372123,-2.368146,-2.8389387,1.7432723,3.746913,-0.08590031,-3.603931,3.859017,1.0512781,3.8283043,3.7741199,3.6830173,-3.490056,-3.5434928,-2.6111112,-3.4204879,-0.80245876,1.7364831,-3.4390793,-3.2401109,2.0096388,-3.271922,2.6064053,-1.0222692,-1.8854876,1.3336468,3.024352,1.1605625,-2.8030996,3.0985966,2.5807867,-0.35058737,-1.152389,-3.5796742,0.20164299,1.638587,-0.46137,-1.2290936,-3.940022,-1.2195277,2.664915,-0.22022676,2.413342,-3.5494938,-0.06486702,-1.6253309,1.1669879,1.128622,-0.1167407,-0.33708143,1.1094842,0.40735435,-1.0791941,0.59615755,1.5102758,-2.677341,0.11119652,0.9958916,-1.8883758,-3.75426,3.3071008,2.66264,-0.020905018,1.6694746,3.3383842,1.6469045,2.6179566,-2.3979917,-2.6069226,3.2791142,-0.6902361,0.39208746,1.9885926,2.1450677,2.7116485,1.5186167,2.786487,3.6665268,1.2693748,1.3169966,-0.16134214,3.8628635,3.7758446,3.495109,-3.375547,-3.0903096,2.9672766,1.0364356,0.7928419,-1.8017535,-0.7502122,1.6822762,-1.7165027,-0.42035627,-0.97549486,-3.549303,-2.6483274,0.12018108,-3.5063715,0.09408808,-1.8637581,1.9782248,-3.4300022,1.0148368,3.9995437,0.5571151,2.1554327,2.855485,2.5342078,-0.5888181,1.977037,3.229259,-0.58990765,-0.4245715,-2.3844194,-3.7617269,3.597515,-1.0590386,-1.0441227,1.6737657,-2.6955414,3.0322785,3.1152482,-1.4014888,-1.1573935,1.2606177,-1.3408909,0.7820306,-3.6392784,0.3747487,-3.2473936,0.40445852,1.3355274,-3.9590163,-1.3327146,0.20029068,3.4845715,-2.8885775,3.96215,-3.7887983,3.7065969,-0.35386753,-1.5046101,2.1331701,1.5666809,0.8591676,-0.74574184,-2.0819378,3.2013392,1.073976,-1.8118024,0.59939766,2.6177683,-1.9268279,-2.259728,1.8105922,-0.5426254,-3.7376351,0.4855423,-0.5225568,-1.0154762,-2.1783714,0.25703,3.791726,-0.5200429,-0.29720688,3.6400056,3.9463472,0.26860905,-2.8905149,1.8386598,-3.2167816,0.8823328,3.3852377,-3.8094845,-2.7185302,-0.6540437,-2.606256,-0.22060966,0.59760714,3.8731737,-1.7685404,1.0428553,-0.5686774,0.8092418,3.5291605,-2.356144,-3.1264987,-1.6404324,-0.7026181,3.859889,3.6425772,-0.09236002,-0.33803415,1.7866611,-3.220389,3.8752775,2.6993208,1.6523261,2.6437507,3.8761911,-2.7915564,0.14691925,0.03219366,2.8068495,-0.61287737,-2.6424947,2.193818,0.40801954,-0.29898882,-3.15702,2.8118181,-3.841279,-1.7918892,-0.94800663,3.633287,-3.7520013,-1.0932693,2.6126227,1.4059157,2.4751396
-3.5367012,1.3711171,-2.7019353,-1.0523906,1.067277,-3.6480455,-0.32412672,-1.9481955,0.7130761,-1.379015,-3.5467615,2.4233928,0.58166456,2.6002522,3.6149507,-2.3441463,3.6757522,-0.74619055,1.618506,1.8836341,2.3677592,-3.756607,3.578651,-2.7660608,0.19523287,-3.930223,0.41509676,-2.8354049,1.1306515,3.393622,1.3798242,0.123009205,3.9498878,-1.9801373,-2.0764742,0.14814138,0.30223083,-3.2239847,1.8047242,-2.58505,-3.3076086,-0.7869096,-3.520947,-2.1929393,3.200863,1.3331914,-3.4558654,1.7763672,-0.63936186,-0.4820671,-3.603506,3.2341485,3.3909192,-0.6189575,-0.054911137,0.18685532,2.8517866,-0.98759174,0.5103822,0.10258293,-3.9039493,2.9981365,0.83244944,3.0931706,2.0295496,3.2883754,0.9555254,-0.23710155,-3.5544477,-1.0344076,2.6564736,2.6546788,-1.0448356,-2.732705,1.4020629,2.1897006,0.18965912,-2.7384005,2.8942327,2.1432266,0.683321,-0.3617959,1.9982095,-1.7509322,2.0476246,-0.8149748,-1.1051111,-3.1353416,-0.20886278,-0.49018002,3.562911,-0.7346029,-1.8061957,-1.497098,0.076775074,1.7038426,3.5024729,-0.10768223,0.10971594,-1.3757286,-2.9022865,2.7359276,2.5434299,-2.7511845,-0.98875046,-3.969502,0.57222366,2.9016843,3.8982477,-1.6760135,-2.5963159,3.5860682,3.804494,-2.647749,-0.35946846,3.3001208,-0.9625201,-2.3424063,-2.6569777,2.104867,0.45890903,-3.4830508,-0.09282923,0.56661415,1.020946,3.9343085,-3.8348045,2.3770957,-2.7822967,2.4936886,1.0600739,2.5520806,3.4552178,-1.1965704,-1.9700809,-2.7733908,-2.0472093,0.29463196,-3.3508067,-2.2039156,-2.9675598,-3.7645588,-3.4734545,0.9055419,-2.9979067,1.9340043,-1.0075645,-0.9946232,-0.101567745,3.5900955,2.3876672,-1.9104748,-0.57777834,3.378611,-3.2575064,-2.3108387,1.360827,2.6366334,0.56066704,-0.29278755,-3.8266115,-3.2989335,2.8405075,2.4521875,-0.83938026,3.2178884,-1.4807,0.6670232,-2.0200458,-2.6577845,0.44469976,-3.3832998,0.04941368,1.6325774,-3.888556,0.7726083,3.0865817,-2.6654348,2.9047298,-3.3544955,3.754086,3.6850939,2.903225,3.3644013,-1.1434693,-1.466157,2.0676699,3.259388,3.3557448,2.1746306,-0.106211185,3.857418,-0.8648114,-0.64889336,-1.0972781,-1.7415133,-3.2749524,-1.4051876,1.3189816,0.22827864,2.5284948,-3.8268394,2.0109897,2.9781766,-0.5402837,2.8667483,0.23678303,-0.3627491,-2.7775197,-3.3956723,1.7960424,1.1112814,1.967267,0.31767988,-2.710411,3.7539139,-0.30329704,-2.1420531,-2.7256308,1.5523877,2.067998,2.0173688,1.8761334,-2.012144,-1.7348757,-3.928718,1.830328,0.12583065,-0.80952215,-0.63513994,1.7253513,-1.291359,3.7709794,1.0128307,3.410956,0.06674242,-2.9644823,-0.42149067,1.2021976,3.672081,0.1561532,-0.40365648,1.6950579,2.3823552,-1.3001623,-2.7343292,1.3776622,-3.7473354,-3.4826279,2.9486737,-0.9399357,2.7285714,0.85049105,-1.9966822,2.3698244,-2.285182,0.5315275,0.12387991,-0.2907958,3.194621,-0.85732603,3.796855,1.3067694,-0.36153316,0.5242553,3.1013455,3.656187,1.3964462,-0.07489014,3.05333,2.67626,0.74719095,-1.1501603,1.9509454,1.9390025,-0.46274853,1.3787599,-0.7001591,0.49112415,-1.2299161,-1.8564701,-3.131349,-3.7396579,2.601489,-3.4138222,3.5866866,-2.3866296,0.60122395,-0.41188383,-3.4687552,0.15410852,3.6063433,-2.3696232,0.6310806,-3.2558913,0.9034896,2.5631723,2.7641397,0.053214073,-3.1573935,3.6736612,-0.64144325,2.0004325,0.43625784,2.5219388,3.3616133,1.1251497,-2.7053652,1.0684114,0.591979,1.6644492,2.7693453,-3.3326235,-3.7684293,3.7730021,3.9369016,1.903398,2.7399426,-2.3962593,-2.321653,0.9754858,-0.51772785,-2.00846,2.3624697,-1.0092587,1.7938933,-2.9734235,3.3993635,1.3405523,1.7637672,2.9795504,2.2065086,-3.8497834,-0.7383728,-0.35072374,2.0538979,-1.9064593,3.122095,1.1379623,3.0858178,2.7491488,-0.26087475,-1.9828267,-1.062468,0.87141275,0.81961536,-2.2861733,-0.7168951,-3.192285,-1.6119976,-3.3653007,2.998795,-2.208274,3.020154,-1.4011517,-3.8374066,1.5810289,-0.8398409,-1.2758322,2.9948177,-0.88658714,1.9329596,-2.1939473,0.31134987,2.380951,2.9295325,-0.15309763,-1.275733,1.0412107,2.9547749,3.784019,-3.3414779,-2.4978766,3.7617364,1.9484882,-0.11294842,2.057787,-0.4553585,-3.98284,-0.66750145,-2.5317087,0.7476082,0.9913826,1.2207379,0.14413738,-2.9886284,-3.1004028,-1.2261848,-3.5834541,-1.101264,-3.9036899,3.8618793,-3.5245676,-1.9110675,0.6592512,1.6294398,-1.7113295,3.4095297,-1.6603208,-2.5190816,-2.3439765,-2.8797073,1.147809,-3.7881136,0.60034275,0.7090349,-3.2311945,-0.11169529,1.4154229,-0.90573454,3.601315,-1.1855874,3.9105134,-1.0506201,-1.7327423,1.2233863,-1.3886123,-3.6040587,-3.9848256,0.9313774,1.7148328,1.2688289,1.3567562,2.9977999,-1.7043228,1.228941,1.566443,-3.5593543,1.3385634,3.591085,1.3251882,-3.1921124,-1.2911558,1.8084135,-1.4446845,1.0627275,-0.49401093,-2.7587175,-2.9115462,3.6335979,-2.4416547,3.6247768,-1.3731966,2.9008136,-1.3851266,0.5650449,-2.959436,-0.24627972,1.1119237,-0.28109407,-2.4273462,0.7705488,1.3461032,0.6101384,3.3498697,0.23096085,2.0635676,0.0070877075,-0.19738436,2.522089,-1.9097953,-0.4963088,-0.462574,3.7521238,0.5218644,-0.18985462,3.6132302,-3.246633,-0.22601795,-0.0066928864,0.6739378,0.032311916,-3.8816018,3.7035155,-0.32861853,-2.7465596,0.022090912,-0.8627672,-1.3010788,3.104467,3.1786265,0.94308233,-0.3310938,-3.2102408,-0.81006527,-1.6888428,-1.1477008,3.4184818,-3.359899,0.4923787,3.8936195,-3.6309042,0.6558056,0.3686037,-2.5117378,-3.78306,1.4463816,-3.5288897,3.501193,1.2288041,-3.1382089,0.7192769,-3.4199,-2.9626832,-0.574337,1.7289672,3.5613518,-3.6732464,-1.0555058,-1.4598632,1.0976305,-1.1766696,-0.36028004,2.5430517,-1.5090394,2.755375,1.3982067,2.6962233,-2.1419425,-0.9891,-0.5846791,-3.7919688,0.2755947,3.9473906,-3.9352841,-1.5194616,-2.1348557,1.0870194,-2.1705375,-1.0738373,3.9202757,1.7701135,-2.1544971,1.2187271,-1.1843352,1.5026379,-3.4055529,-1.8619347,-2.140892,1.5693803,-2.116356,-2.8152943,1.7572975,1.4534693,-1.9946752,1.8804088,-2.4073834,-3.3246212,-1.633493,-3.845613,1.9169784,1.9254584,-0.12796068,0.4520278,-1.3893585,2.9765449,0.5341773,-1.1041594,1.0850511,-2.4655557,2.8910928,2.6152582,-2.30228,0.83146,1.0421352,2.0438342,-1.2999048,1.8111038,0.88367176,3.7546148,-3.993061,-2.118626,-2.7457876,-0.41262293,3.0740218,0.30522585,-0.53610516,2.8602495,-3.1726956,3.460166,3.798493,-1.0766296,-3.5434241,0.45064926,-2.4441934,2.6115527,-2.2412539,0.74467516,0.54939127,-1.0194855,0.0046982765,3.896061,-1.7530274,-2.9194274,3.047923,-3.276843,1.5381999,-1.0120587,-1.7429442,-2.8991456,-0.5321541,-0.27622128,3.1270719,-2.2871003,-3.4858909,3.7833438,2.0192504,-0.39865065,1.775816,0.86892176,-3.0628037,-0.09323311,2.7097344,-1.2595572,-0.27070427,0.18200302,2.4511318,0.48291302,-2.10947,3.45439,3.4314356,0.2979145,-2.2130046,1.9920874,3.1850395,3.0448713,-0.51032686,1.318872,2.6245184,-0.64466524,3.9949317,-2.3959274,-3.3787045,-1.5026546,-3.5220237,1.675808,-1.7991419,-1.3042464,1.1728339,2.5999966,-2.4146261,0.9930148,-0.2014308,2.4656863,-0.70649767,-2.8023458,2.171156,2.989132,1.7639542,-3.4378872,-3.6512055,1.0999856,1.3574381,-2.006908,-0.30362368,-2.524036,-3.4123702,0.77112913,-2.5803628,3.3598948,-2.8627133,-1.9877315,-3.156403,-0.7576661,-0.6428709,-2.3613367,-3.4330907,0.6864543,2.874226,2.7570505,3.7796211,0.88266754,2.6298838,1.5196052,0.32341433,2.503655,-2.2739701,-0.66896915,3.9166384,-2.985982,-3.7236323,-1.6358576,2.4349527,3.875896,2.225656,0.57402945,3.414616,-3.784542,-2.2358623,1.7033987,-2.6579027,-3.2670035,2.705388,-2.7807608,2.2474294,1.3341813,-0.39778996,-2.091179,0.91871643,-0.36022663,-1.034903,3.3115592,-2.3846178,-3.9740458,3.5587025,-3.3902836,-1.9827003,3.9404998,0.064742565,0.69593143,2.4698348,1.7005572,0.11156988,-1.2870798,-0.83980465,-1.8836131,-2.0271845,1.204854,2.102315,-3.2949824,-1.2274513,3.3889294,2.7549348,-1.547967,2.9039598,2.2445135,-1.7528992,-1.0984397,-2.7008734,1.6340795,0.50087833,2.6146011,-0.46939993,0.79932594,3.4001431,3.2533627,3.4578876,-3.0987644,0.19348097,1.5072918,3.8549423,-3.5550313,-1.4681635,3.8553467,2.3951273,0.0367198,3.921544,1.7665057,2.3792944,-0.21969748,3.164074,2.5093746,0.14721966,-0.31846333,3.864924,-3.6735783,0.09662914,-3.2410998,0.7224932,0.36309147,0.8424797,3.3545527,-2.5770502,3.6102448,1.9154887,2.4967494,-3.6322374,1.0270634,-1.4424291,-2.789382,-3.1567369,-2.0317755,-0.35724926,2.4986548,-0.015621662,-3.2602706,0.0024003983,-3.3352275,0.9266982,-0.6157222,-0.31637383,-0.21856928,3.7593403,2.7383976,0.07508564,2.2262225,3.5567117,-3.5115328,3.489462,3.0936127,-3.720333,-1.4425564,0.72589827,0.7541418,1.5834198,2.8143096,2.3197646,-3.6148043,-0.92160654,-2.9363976,-3.3152404,-0.95180273,-0.8373885,-2.733245,-3.6057034,-3.8879452,-3.9702702,-1.8069158,0.20228863,-0.6386423,-0.24029016,0.6741538,-2.081287,-0.08742046,-3.166267,-3.446803,2.7250953,-2.7749581,0.7992649,-1.600009,1.8275094,3.7883735,2.6436777,-1.9491606,3.9860435,-2.1282868,1.244884,-3.5982342,-2.7274446,-2.565967,2.867416,-1.6569839,-2.2184415,0.3650651,1.735013,-2.4975324,-1.1788435,-1.7773161,1.4868402,3.7873645,1.1244369,-3.7494621,-1.3970923,2.5517063,0.2615161,0.51958656,-0.9207492,1.7034774,0.6164336,1.4842248,2.7839766,-1.5405278,-1.6508584,3.1482782,0.6954446,-0.86136913,-0.8014536,-3.406467,3.9027214,-0.13472414,0.012242794,-0.8459778,1.7500587,-0.035671234,1.269844,-1.5317073,-0.244421,-2.0707517,3.9560323,0.5523262,0.37374115,-0.98710775,3.3192449,-0.12371111,0.11506939,2.7395787,-1.4790688,-3.210752,-1.9492764,3.0961409,3.5496168,-2.2574573,-0.40048838,2.3270087,-1.6170244,-1.0547671,3.6697483,-1.8689895,-1.7290668,-3.5730515,3.0820785,-3.1232376,3.7728386,-2.4348707,1.7496886,-2.7702165,-2.4901643,-2.3197975,-2.5852137,-2.835369,1.5707436,0.65409756,0.8661275,2.495398,3.9227638,-1.3467321,3.9658465,-3.1053195,-0.7773323,2.7300324,-1.5614796,-2.6048584,1.5763698,0.28184748,0.061070442,3.570198,-3.8434806,-1.8718524,-3.6580033,-3.0311809,-3.1144958,-1.4446831,2.379274,1.680234,-0.023387909,3.2923179,-1.318213,-0.23967934,2.9756188,1.5352898,-0.16668034,-2.5795493,0.6603141,3.3307729,-2.6376247,0.24431086,0.9629903,-1.444921,-3.9735603,2.715835,-0.16768932,-2.0659547,1.8217902,1.6525884,3.1227398,-2.186648,0.55435896,3.2155843,1.2934833,-0.6471019,-1.628756,0.4874606,-0.35881996,2.174191,-3.6366744,-0.98414516,-0.6670346,3.2181358,0.57439756,3.6423063,0.6255865,-3.6119456,2.1533847,-0.5312748,-3.0464869,0.38100815,-0.021346092,-1.0676985,1.066349,-2.9089189,2.2165189,-1.1125193,2.9918633,1.1202388,-0.36776638,-2.028901,2.5606308,-3.3410754,3.1715736,-2.9390187,3.2173471,3.1982598,-0.20054102,1.3048944,-2.3984032,-2.8912516,-2.7522373,-2.4247308,3.8435636,2.9165564,-2.668539,-2.3944893,-3.3229012,-1.4269304,-3.2055898,-3.8952098,-1.5105062,-3.2831688,3.9059086,2.206071,1.4485703,3.5644407,3.007401,3.2926092,-0.5220051,2.4588766,-3.8615766,2.1974025,3.185586,3.195282,3.5036397,2.0968227,-2.5388265,1.1058617,-3.2929597,2.1839228,-1.7505465,-3.2875266,-2.3975644,0.9881711,-2.2862911,1.8680625,3.55239,-0.76766443,-1.2126102,1.1516514,1.2551022,-1.0174656,-0.9632554,0.42637253,0.2544341,2.0283933,-2.1218166,-2.3885574,0.58147144,1.7729726,-3.933453,-1.322753,-3.8993545,-3.352806,3.6008205,2.5931969,0.088695526,-3.9723425,-2.1163273,-2.4889655,3.0245867,-1.6818862,-0.15289402,3.0470886,3.8020763,1.7066073,-0.4353881,1.455987,2.5079045,-2.8017058,-0.35927248,0.21076536,1.8033776,2.9357758,-3.1527095,1.590518,-1.1701555,-2.9485946,-1.9188209,2.0393367,2.6478581,0.15852451,2.5751548,-1.0533762,-1.5537148,2.861237,-0.4924941,-1.1675487,2.3706837,-1.436593,-0.17856741,2.6976752,2.5009112,0.7924614,2.203412,0.022942066,1.5585928,-3.7783422,-0.81594896,1.7440996,3.2721071,3.5437403,1.9418201,-0.86521244,-1.7240782,-0.55633307,0.8070617,-3.1191945,-1.585412,2.02115,2.8935452,-2.158318,-1.0856438,-0.8670807,2.1808891,-2.4495177,3.155747,2.3927183,-3.0986977,0.9989524,-0.80892944,1.2418747,2.9679008,0.2572527,-3.1726866,3.1601996,1.8468294,0.7454152,3.1799126,2.308539,-2.8970637,-0.9645543,0.8353338,2.0354314,0.8154745,-1.9567504,0.43391037,-0.1896925,-0.23227262,-0.061419487,3.8664417,-3.7866359,3.9891524,1.7543297,-1.542234,-3.9205394,0.72222996,-2.666041,-0.37109184,-2.3741488,0.6751418,0.86310434,2.8542514,-2.2174926,-0.39263296,-0.14141369,1.9180918,-1.6612153,-0.39523935,-1.6693497,1.660986,-1.5266051,-0.81475306,-3.7875676,-1.573853,2.2078238,-0.38749266,0.5098319,1.4417605,3.488391,2.0844903,1.5353913,2.7069588,-1.0994782,-1.9671674,1.7468042,2.297495,3.4369388,3.4698467,1.0246072,-1.7921753,1.0820818,-1.371738,1.7394247,3.1143222,1.3255973,0.15685797,1.7988677,-3.6526837,3.0177813,0.5891471,-0.581563,-3.7036686,1.4285102,2.043881,-2.1418314,-1.642664,2.3144217,-0.8781018,1.5626087,-0.43337297,-0.11101341,-1.66465,3.5146432,3.771459,3.850124,2.3691,-0.94567823,0.25787354,0.7148633,-1.118289,1.8144283,-3.144312,2.0194216,0.8814893,-1.3725824,-3.010448,-3.9224238,0.06303644,-2.6640596,1.9418411,-0.75244284,2.5883174,1.1544156,2.2870498,-3.1000948,-1.005115,2.159051,-2.462173,-2.8613653,-3.8107982,0.96554136,-2.813303,3.5634246,-0.56347466,2.5144968,-2.74685,0.85424185,-2.8828797,3.2170124,3.6434383,-3.2804046,-2.8354497,2.9521337,-1.0079732,3.9083467,2.698771,1.6336884,0.60262585,-3.1995444,-2.6503572,0.8018198,-3.4694238,0.9470606,0.86508083,-1.621695,-1.0251899,-2.6673431,-2.2004309,1.588603,-0.4914012,-1.2853098,3.7412052,-2.2187767,-2.848885,3.91643,0.7491455,-0.5279808,3.0305223,0.2903037,-2.3280673,-3.5605593,-1.7970743,3.7388577,-1.1745195,-0.38008928,2.0438032,0.81185436,2.71496,2.6753168,-1.0378871,1.7486567,0.69257545,-2.5025258,-1.1499963,2.287713,-2.6389256,2.772585,0.8052726,1.1274705,2.3909497,-3.6274366,0.6877451,-0.94343424,0.21683598,2.2148733,-2.495469,1.4505086,2.0921898,3.7390823,-2.8490095,0.71314096,-2.3880787,2.6769829,0.29653168,1.9371524,1.0997467,-2.897066,-0.20507812,0.6420903,0.5698476,1.4644723,0.3602686,-2.5500145,0.452734,3.368846,1.6059432,-1.6989245,2.3073578,2.2924256,0.18351221,1.408505,2.811246,0.73522186,-0.40369463,3.0070271,-3.5956812,-3.2604194,3.8366175,-1.4584188,-0.33832407,1.9965215,0.4707861,-0.5217252,2.0125337,2.4093142,-2.038414,-2.5894394,-2.4337215,-2.893865,-2.7134233,1.7100978,1.9484453,-1.2257137,0.3232937,1.8926988,0.15269804,0.46412945,-3.3084269,2.517766,0.24125957,0.8768716,1.0588813,0.3224411,-1.684114,-2.0729904,-0.75965595,-3.957768,-0.31541443,2.5027986,1.3003497,-3.2541318,1.8560996,-2.5929785,-2.5489006,2.3964596,0.31869173,0.14074898,-3.3655248,0.7514448,-1.8088975,-2.6848474,-2.3189363,1.7631702,3.0275202,0.98597,2.9032154,-1.4019856,3.0319672,3.2349358,0.56169605,1.6376233,-3.570527,0.6674471,-0.8631549,-1.3580594,-1.3085933,0.033334732,-1.350719,0.9313359,2.9550452,-0.98591185,-1.0488825,-3.3619752,1.0081258,1.9392791,1.1104741,-3.5805264,-1.291183,1.2035913,-2.4711819,1.1443915,-3.2903137,-2.5672107,1.6764331,3.0534549,-1.6716237,-0.082816124,-3.6548734,3.2238703,3.979127,-1.7571363,3.7632551,3.2311249,3.6974006,3.1509638,2.085281,-3.7384505,1.5406604,0.56467247,1.5704722,-2.985345,3.3149347,-2.8858871,-2.2579136,-3.8194752,1.0225248,-3.695012,0.56655025,1.3571591,0.15169382,-2.327558,0.66988754,3.993412,-3.713975,3.4912262,0.98061895,1.4378085,2.763332,3.9316554,-1.5893312,-3.6202946,-0.51131773,1.5869365,0.6221056,-3.527948,-2.335248,-0.67080927,-3.6029735,0.8218546,-2.996194,-0.17209864,-1.6799607,0.38585997,3.268588,-2.775117,-1.8241911,-0.37570333,0.9203658,-1.5504551,-3.8645563,-3.3742847,3.8207955,0.5597544,-3.4147139,0.08038759,3.6986012,1.5476856,-3.064931,3.5088968,0.36378956,-3.6699495,-0.64222956,2.8938694,-3.3416262,2.8594646,-0.9139719,-2.0985951,-3.6126132,-0.47166538,0.9086795,-1.5977774,-0.6711774,3.0788913,-3.2100515,-1.356298,3.8527355,-3.11875,3.6120863,0.94060755,2.2894526,3.2658386,3.0839186,-0.97276306,0.20145369,2.2926412,-1.3481317,-1.745233,2.9843454,3.7276454,-1.7893977,3.7575517,3.5053234,1.0220914,-1.423368,-2.6541471,-2.1709433,2.8227787,-1.2760015,2.6075425,-3.5945873,3.1772537,-1.7559018,-3.6582112,0.8953967,3.4563427,2.6113434,0.5174937,-3.7182846,3.5436487,-0.7679219,1.7841983,-3.3589845,-1.489325,0.87574816,-0.43949318,1.6896381,1.470931,0.09891558,-2.3454857,0.8968868,1.0493002,-3.561789,-2.2336273,0.11538601,3.479926,2.8819647,1.3122377,-3.2870574,-3.508638,-3.1182942,2.1277394,1.1975303,0.45005608,-2.6965628,-3.0471048,-3.8994298,1.6968732,0.47412205,3.1868358,-0.64572763,0.21811056,-1.3413343,3.987668,0.67264986,3.694807,3.0708752,3.2630358,-3.2505708,-2.0935235,3.6675596,-0.54169416,-2.7289433,3.0292745,0.9120922,3.4345818,-2.7141385,2.9727464,-1.538527,-1.6042213,3.5791416,1.6792369,2.9933186,1.1555667,-3.3851185,2.7109861,3.4352236,2.5389142,0.72215176,2.6313553,-3.3972306,-0.97790384,1.5407152,-0.79857635,2.2330637,-3.4128919,-0.56249523,-0.9428749,-1.2178016,0.08435583,2.4767365,1.943708,-0.07354307,-1.8310213,-3.7063594,0.069586754,-1.1174622,-1.7658744,-2.0154028,0.082659245,-3.5194054,0.96667147,1.2861886,1.4755306,1.0495028,-0.41990662,3.2816315,-2.8773866,-3.3689394,1.9433208,-3.9031906,0.46250582,-1.6115642,-3.6438613,0.47632456,1.9977922,-1.0523214,-2.6210103,1.419725,-0.36907196,0.7217183,-1.2094412,3.569271,-1.9385571,2.2437105,-3.5717754,-1.319622,-1.004714,3.2661405,0.4970293,3.147591,3.5018039,-3.6565156,-0.82982826,-3.9696074,2.571145,0.2216897,-2.6690893,5.9223175E-4,0.88826656,0.99078083,-1.3699875,2.7730904,-1.6627727,3.973301,2.2873025,-0.13898754,-2.0035834,0.03522253,1.0082946,1.5161371,3.6388903,-0.59707355,-0.09991217,-2.297235,2.7559414,-1.5849533,-0.6374583,2.7592173,-1.8483129,3.5122461,-3.42483,-2.497355,-3.8892784,-1.3897476,-0.75666475,0.03125286,-2.9341536,1.6425934,1.9445753,0.10003948,3.7757134,-1.7353911,-3.7051153,-3.9567814,-0.38082838,-3.7850094,3.5136275,2.4247732,-2.6794324,-3.7859254,-2.4120965,-0.075808525,-0.7497039,3.4994507,-0.3492198,-0.6865573,-3.294787,-1.051763,0.46042824,2.459815,2.8548503,-0.37433815,0.9842863,-0.82374907,2.4497633,3.7767186,-1.0999742,-1.6804724,-2.1248264,-2.657022,-2.452724,-1.214426,2.9220943,0.6113944,2.0086517,1.8857217,-1.3548727,-2.2522697,-2.8016634,0.34211922,-0.19818258,2.5898905,1.8492289,0.936151,3.0226927,2.3599463,-3.001844,-2.2132568,-0.7854276,2.0037718,2.9808311,2.20929,-2.841741,3.3456092,-3.8032336,2.119605,-1.1989808,3.4727998,-0.7528248,-2.4246168,-1.6831865,-2.6553245,-1.1312499,-2.5412865,-2.0798988,3.044569,2.8909183,3.8143096,1.9925575,-0.72089577,3.8665628,-1.0540624,-3.2384696,3.2134652,-2.9115038,3.6395302,-2.3209667,3.342074,-0.35504007,2.0522866,0.94344807,-1.008214,0.8928442,-3.2657766,2.0441947,0.38105154,3.6423178,0.40867996,2.2283154,0.4111972,1.2322936,2.2679496,2.8490353,0.90985394,2.2874484,-0.9850116,-1.8145885,2.1217632,0.31550264,0.63299847,1.2309647,-3.0164561,2.3333259,0.6566992,1.298964,-0.70515585,0.057896137,-3.4762158,-1.6593962,3.325718,1.101953,-0.41489983,-1.0865636,0.8252306,3.3466535,-0.23108768,3.1032543,-3.5984578,2.3574133,-2.4446106,-3.3372946,-3.7861218,-1.3777714,-0.11626148,3.4654627,3.9465342,-2.0930476,-0.45171165,-1.3946309,0.026105404,1.6470084,3.0974917,-2.6265302,2.275878,-1.3372364,-1.7889094,-3.491508,-2.9263158,-3.6460633,-0.006750107,-0.14512491,-3.6750221,1.4511743,1.8130841,1.7976112,0.8292985,2.6757364,-2.3301296,-2.6048307,2.6861424,-3.3810253,-3.6787114,1.920093,2.5282168,3.513177,3.0716162,3.8711033,-1.4296432,2.8534317,-3.5385437,-0.53108454,3.3037705,-2.491352,-2.517198,-0.55596495,-2.4628386,1.1586089,-2.6603713,-2.6416135,3.3458652,1.0491099,0.7863345,-1.1803017,1.9997106,3.1131263,3.9307356,1.4910774,-1.692904,1.9303069,-0.06341839,2.0857673,-1.0738368,1.4504786,0.37306452,0.42705774,-2.3373795,-3.6280594,1.1985788,-0.56038,0.8226018,0.21931839,0.9831352,2.6777716,-3.7422214,0.58131266,0.05713272,-3.0993547,-3.003244,2.4896822,3.4276218,1.3437757,0.64635134,-2.1792397,-1.6990461,0.702436,2.26585,3.7135262,-0.8808813,2.9627805,-1.23843,1.9420147,-1.3615003,-2.1348162,3.6859784,-3.840693,-2.359418,-0.7017083,-2.2759876,-3.39156,-2.6962094,-3.04814,-1.4555454,3.362793,3.0908647,-3.7611294,-3.001955,-2.066103,-1.5379972,-1.8470459,0.7706604,-2.7759461,-1.9229398,2.5328894,2.0883021,-0.9751768,-1.1737761,3.4148636,-3.9150376,2.5568876,3.172083,-3.6114388,2.7736788,-0.08010769,0.74830246,3.1473284,-3.3806438,1.9053531,-3.5821657,-3.6550298,0.53826,1.679472,-0.851696,-1.8843722,-0.59247637,-0.2515092,-3.159576,3.0380378,0.14767742,-3.11513,-0.001376152,-2.5564356,-1.9439106,-2.049097,3.838059,1.1520314,-2.1415663,-3.4347901,1.680398,0.22357082,1.0728908,-3.800334,-2.471262,3.5654616,3.5368161,3.5775514,1.3813915,3.0505934,1.742166,-0.6991253,3.6214905,-1.8659472,2.0030618,-1.2762799,-3.1938787,-1.1332884,-0.89939165,3.5919113,-1.8985686,-2.1050773,2.2055254,0.39509773,-1.1794739,-0.17623043,-0.5176945,-0.641634,3.9954834,-0.3468399,1.4123554,3.2944417,-2.7449412,0.44161272,1.2646456,-2.9726715,2.712171,2.607285,-2.9525132,0.7916293,-2.0583534,1.159821,1.8613334,2.0415955,-2.0745368,-2.3845954,-2.9389305,-3.2719846,2.1615143,0.45115852,1.6727171,-1.2978482,2.6991868,0.89918137,1.5649796,3.4335766,2.0324378,3.9852624,-1.3823023,-3.1009188,-1.4748793,-2.5719538,3.063809,-3.0544653,-3.0344448,-0.09858942,-2.9644508,-2.0568113,-2.64287,-1.0786014,3.224029,0.7914891,1.1734257,-3.1632843,0.16004372,2.5690618,0.7385812,-2.6481447,-3.7206697,3.224843,2.3125834,-3.7112002,0.03233385,-3.976647,0.9627681,-0.9720917,1.1890206,-0.305161,-2.3147082,-2.8041577,2.6331124,0.86440325,1.9507895,-3.220315,-0.11397791,2.5951352,0.50887537,1.208899,1.1786275,-2.367271,-3.4523125,-1.4992275,-1.9492068,-1.1198359
