-2.1198153,-3.0328283,1.705874,0.36952782,2.045393,1.3977928,3.8349876,1.5470033,-1.366765,-0.3731718,1.7411242,3.5855002,-0.16051006,2.8354173,-2.9913244,-0.08680725,-0.53438044,2.0521479,-0.17136574,-3.0107236,-2.1714115,-0.040536404,0.55132675,-1.0019212,-3.421968,-2.651031,-0.8817563,-2.9438076,2.9413128,-0.15677357,0.15293503,-1.7932534,0.09389639,-3.028389,0.9716387,-2.5887346,0.63698244,3.5685916,1.4507494,-2.2638426,-2.6128464,0.6771779,3.5416517,-1.2995319,1.2836819,-2.3983836,-2.1071858,-0.8287597,0.51307535,-2.483971,-1.0859895,3.7486067,-1.0653682,1.589087,-0.17562437,2.6468515,-1.1079907,-2.9484859,-2.9009323,-1.7898564,0.52907133,2.2111182,-0.710454,-3.5770917,0.62635803,1.5813518,-2.5399795,-3.0168,3.8398314,-2.849162,0.75419617,2.0672078,-3.387455,-2.601231,3.6161895,1.5876379,-0.5624852,3.9960728,-1.4806004,-3.1977544,0.36236,-0.061093807,2.8751245,0.8946247,-2.6357694,1.9475431,3.2002792,2.662115,-3.1187177,-1.2153845,-3.9544969,-3.111753,-1.1031504,-1.7070227,1.7851906,-3.54746,-3.1990876,1.723721,-3.2674565,-1.0986814,-3.7580767,-2.853692,-3.814476,-0.8132243,-3.8285565,-3.2969403,-0.5267925,-0.1249342,1.3536777,0.5127802,2.4860597,-1.2282572,2.0699477,-2.256949,-0.7216759,-3.208445,3.6021285,2.0082703,1.4587669,3.9421568,-2.9910417,1.7592793,1.1834974,0.09300232,1.0539165,-0.2822318,-1.0388322,0.4188428,-0.6711273,-0.74384785,-2.637456,0.4941411,-1.7808194,0.5444832,2.023264,-2.0908046,-3.0367217,2.7241,1.6865435,-0.42521048,1.1934352,1.2020245,-0.66856575,-2.8707356,-2.6873608,0.09733868,-0.37959957,1.4303436,2.72962,-1.3455625,-0.90473366,-3.828837,-1.4049997,1.4136372,-0.40562153,0.24122858,-1.9201603,0.39386415,-0.42229414,-1.7519546,-3.989059,0.008522987,-1.5560088,3.1757565,-0.9534559,-3.0235238,0.6373849,0.098279476,1.1567783,2.7746806,0.30688,-2.5749025,3.804586,0.12262058,-0.7262578,-2.1762385,-3.5099325,-3.5890555,-3.3349185,-2.8718824,1.3931546,1.485486,-3.8897934,3.2344432,-3.7345853,0.67852783,2.3909369,0.7486119,-3.2532134,-3.5687923,2.0866413,2.0875878,-3.530127,1.4021106,-3.840757,-1.7714658,3.5555358,0.30860615,2.7792935,3.3578134,-1.4442244,-3.750218,-1.0034251,-3.984621,-1.6330109,-2.5311809,-3.2699876,-0.70786715,-1.8156772,3.4608555,0.9454956,0.9666519,1.4290566,0.025985241,3.4624977,3.1297488,3.6030283,-1.1587915,-3.8197541,3.4557152,2.870006,3.5088801,-3.713491,-0.51680374,1.9143944,-3.846621,-3.7034812,-3.110466,2.340869,-2.3120804,-2.5134645,-0.0054740906,-0.35676765,-0.059811115,-1.9237247,1.1557226,0.77630424,2.0948377,3.144268,3.5218358,2.744977,3.1388512,1.5689797,0.028426647,-1.4318886,-2.2153096,-1.3905907,2.911336,-0.408669,1.3631277,-3.26115,-2.8344717,-3.5051975,-1.7291136,-0.80794716,3.7029657,2.8097787,2.2923045,0.17940283,-0.47922134,1.6850486,3.273797,2.8281512,-2.7009668,0.08734131,-1.319818,-2.1026683,0.1635704,-2.6823835,-3.4743867,0.46524954,0.11491871,-1.7602181,0.91486025,-0.53242826,3.9018297,-3.884202,-3.7164245,1.6615772,2.393229,1.7237878,-3.1225076,-3.4674096,0.32458115,0.91159725,3.0087142,2.9354877,-1.8783374,-0.32120037,-0.99391127,3.167706,1.0309253,-1.4811206,1.659277,3.7725282,-2.3694854,-0.23107433,2.7154493,-3.629551,-3.821981,-0.24959517,-2.1738768,3.2346702,-3.3583822,-3.7995143,-2.5919895,-3.9694095,2.4240437,3.884317,1.0506129,2.7264018,0.8460846,-1.1635227,-0.68408203,3.5379124,-0.5779772,-2.4535856,-3.4348583,2.3995657,0.3541646,-0.04446554,0.30482292,2.2403903,3.897015,0.6475725,0.22753477,-1.8263769,3.457018,2.7622943,0.35783148,-3.6157575,2.7632637,-0.38627672,1.5065227,1.3510113,-1.8161836,-2.8734937,0.9956517,0.8465252,-2.468782,1.9025989,-1.2671814,0.3318758,2.6817298,-2.646616,-3.7086453,0.2920766,-2.4446483,-2.5564504,3.0889406,3.0263133,-1.9811773,-3.3638725,-2.7509842,-2.025023,-0.5463023,3.2958755,-1.698041,-3.4376345,1.5273414,1.3373666,0.41007042,0.8417201,3.2955546,0.77742434,0.75898314,-1.1980753,-3.226592,-0.56058264,-3.8233347,1.8630424,1.9341617,0.5652728,3.731326,-1.8130212,0.9260063,-1.2913074,-1.2770476,0.5634427,0.02367115,-2.2660298,-2.9099698,-3.8573685,1.1038351,2.2673678,-3.6868143,1.2469535,0.6681943,3.7318301,-1.2346067,-3.8854547,3.6879506,-1.9595394,3.1389132,1.1051192,-0.62026405,-3.6698165,-3.0727053,3.2182493,1.0577974,-0.36248636,0.575572,1.5442824,2.2163,2.349866,0.93063354,1.0104775,-0.7543211,-0.20436859,-1.5556254,-2.2606668,-1.214334,3.7899032,0.58340836,1.3280506,3.5438528,3.4366922,-3.3097072,-0.3375802,0.05995226,-3.0561824,3.9416475,-3.502625,-0.36460638,2.5285053,2.6886568,2.514113,-1.3289857,-1.3769169,-0.12934875,2.91776,1.588274,-0.9549742,3.890242,3.7877913,-2.7920995,2.7258835,-2.4521275,0.03936243,2.3561516,3.320485,2.5234118,0.7814188,3.928155,2.3811908,0.21803474,1.6635199,-2.2536635,2.0133743,-2.6118693,0.9355674,-0.98175955,-1.7365742,1.4473987,-1.0009208,0.25766945,2.2735677,2.1938725,0.7094307,-3.1241798,-3.1812596,2.457512,-0.8209934,-1.8310604,-3.989387,3.7367039,0.045986176,-3.4796534,-0.3499956,-3.654976,-1.3257241,-1.9783525,2.5329957,1.5063977,-1.104454,1.966867,1.0029373,-0.1046648,-2.123495,2.2322826,-1.9496331,-3.1136055,3.3132086,0.30525303,-2.0855117,3.3759136,-1.3609056,0.40946245,-0.60067415,-2.9982681,2.2880216,-3.0122566,1.265625,-0.95449495,1.4668193,-0.65514326,0.24690247,-1.7274876,0.93246126,-1.7768326,-2.1120052,-1.9268074,1.9901581,2.5060577,-1.6315885,-0.69536114,-2.9491782,0.98088694,1.1330757,3.847444,-0.346066,1.4726443,1.1171227,0.005733967,-3.3925233,0.27778006,-0.21293736,-1.2510829,1.510107,-1.5469937,1.606617,1.0289216,0.105003834,-1.0482674,2.71589,-1.9214969,-3.5906315,-0.42205048,0.38834906,0.7277274,3.8544564,3.0875401,-2.784111,-2.413549,2.2640624,-1.599298,-2.28576,2.7457228,2.2052994,3.8819313,-3.7367992,-3.5773516,-2.3521204,-1.8529487,1.411407,-2.431209,3.1750808,3.0446491,-3.329856,1.2101154,2.9569516,-0.80130816,-3.326116,-1.3074522,3.454317,-2.3139062,-0.36654568,0.4425044,2.7242332,-0.51400375,0.951149,2.4697018,-2.0538416,-0.7052212,-1.6266084,0.017094612,3.4228492,3.660069,-3.0012965,1.9545765,2.0123587,-1.5473433,-3.1661263,0.9578357,0.18576384,2.8644638,-2.6057754,0.50889254,-2.6542654,-0.7974405,-0.8709736,3.4872842,-1.5537224,0.46066904,3.0435076,-2.2946415,-2.2002892,0.7074919,-1.4577699,2.3471098,-2.6545916,-1.9783669,0.28004885,-3.6865058,-1.4414916,-0.87269735,2.306419,-1.9941621,0.44724178,-0.905118,2.587874,-3.3093662,0.51755524,-2.993084,-2.859623,2.1065822,-1.6128364,-1.5274568,-0.14119482,2.941544,-2.3361773,-0.03412676,2.8834205,3.6201525,-1.469029,0.03955698,-2.7015157,-1.4711561,-0.6943536,3.8910685,0.6833687,-3.140089,0.281919,0.041377544,3.3266659,1.9274678,3.477858,-1.1783433,0.7550206,-2.8195696,1.7982817,2.4088159,0.80310345,2.8348317,2.9133735,3.855597,3.545353,3.1773214,2.3175821,3.9057355,-1.6246343,-1.7809987,-3.6854763,-0.8499594,-3.1016269,3.317833,-2.7940245,-3.1452107,-0.29442263,-1.9920688,2.759408,-3.1496034,-3.7481103,-1.6676445,-1.7736373,0.62737226,-0.15613842,-3.5762901,-0.4682598,3.2713642,-0.21984339,-1.0677319,-1.8495765,-1.2191782,-1.9549279,-3.231307,0.2697177,-1.0434918,-0.10651779,2.9866467,-3.9030027,-3.3743997,2.2267323,0.31095505,-0.57722425,-3.3276253,0.7354965,-3.863976,0.5544648,-3.0842,3.9983082,3.6337352,2.0984893,-1.3882799,-1.6339068,0.7782345,-2.9483604,-3.7838855,1.872005,3.5481997,3.40273,-3.1129751,2.675416,-3.4791746,2.2361493,-2.5076332,0.5528965,0.47370768,-3.839758,1.5291252,-1.8319225,-2.8893604,2.23249,-1.6022072,-1.0802813,-2.3073788,-2.438541,0.9629159,-0.5812578,-3.411006,0.3029375,-0.21420574,-3.2168589,-2.6889186,-3.1988149,-2.2706704,0.3977313,3.998088,-1.4608479,-1.9010229,0.24124718,3.855929,0.94914675,2.821219,-2.0959578,-2.0390663,-0.04729843,-0.83621216,2.0831528,-1.8749008,3.1138535,2.4501767,0.11689377,0.9172001,1.974834,-3.2482634,0.1102829,2.5179281,-1.179481,-3.4767919,0.79841566,-3.4455266,-2.2739615,-1.8390431,2.8180537,-3.8684926,0.01184082,1.8012714,-3.2445374,1.1712866,3.4828358,-1.4238577,-3.8346758,1.0329609,3.0299869,3.101625,-3.0635705,-0.97265863,-0.68672705,-0.35920954,-1.8568864,2.22474,0.9708314,-0.6649022,2.287538,3.8525906,1.4659138,3.524795,-2.7617059,-2.6522279,-1.723978,3.8870773,-2.5360007,1.3791566,3.3546128,1.5868082,-1.0557551,-3.2354445,0.623559,-2.465776,1.0845346,-1.0085359,0.5928464,1.3053885,0.38986635,3.6212873,0.43423462,-1.1219916,-1.3649769,-2.2619262,2.3861828,-3.8723702,0.3781681,1.7444816,-1.9135442,-3.505539,-2.8757725,1.1778245,3.2402673,-3.0837665,0.9868088,0.58635426,2.7320886,-2.392775,0.70005274,-1.2052474,0.55685663,-2.4539876,-1.5803118,0.31600666,1.7158971,1.0871058,-1.2730637,-2.0670013,-0.140481,-0.6744876,-3.123024,-0.39249754,-1.7929344,2.7423787,1.6691766,-2.161439,0.6396513,-0.11443281,-1.2677794,2.261633,-1.0515728,-1.3481421,-2.3529735,3.1797242,-0.2344799,-3.4779506,3.7322912,-1.7221704,0.4119048,0.9321823,-1.9845643,1.2435689,-3.6724987,2.1270885,-2.8953853,-0.11626387,-2.1226745,-3.814015,-3.5948205,-0.47160912,0.24010181,3.4549189,0.45407534,0.19157743,0.609756,0.05109644,-0.11210394,3.2131863,-2.316739,-3.682292,-3.568242,1.290452,-1.6182942,-1.3969045,-0.73580647,-1.2343879,-1.9224052,-0.96792316,3.4381719,-2.8705215,-3.6853852,-1.333857,1.3577013,-2.8207207,3.3342752,1.7929754,-1.3534603,-2.8437452,-3.6700363,-2.8809195,2.5477543,-3.3461437,3.3456082,0.79567575,1.1303363,-3.759736,1.9229369,-2.9559617,2.947585,-2.5005732,-1.2360034,2.2037153,-0.16581249,-2.1913,2.5625658,-0.81986284,2.4270983,-2.8415866,-2.4100723,-0.88399315,-1.3647027,3.5157537,2.9149122,-2.4248505,-0.9990454,0.6001463,0.21608162,-2.389565,-0.2418747,-3.17524,-0.44839716,-2.2274065,0.8702297,-2.0295272,1.3708544,-3.3457503,-1.1847682,3.454585,0.5310998,0.80749416,-1.6274171,-3.3601403,0.044173717,-2.3658319,-1.4276805,-3.546741,0.17233133,3.6328826,3.600801,2.2624469,-3.5058355,-0.38375282,-1.5129447,3.820241,2.1713934,0.32456207,-3.5928535,-2.625352,3.1218162,-0.42391777,0.5964279,-3.2267118,-1.4122529,-3.3692374,-0.8260875,2.739201,3.493888,-1.0323853,2.0557208,-2.4769406,-3.3510947,2.247942,-2.2630482,2.4592547,-3.2578068,3.0865288,0.21226645,-1.4366641,2.2463336,-3.724903,0.0679369,-0.82573986,1.3784008,-0.9164567,-0.45482302,-0.750566,-0.3459015,-2.2975426,3.5932064,-0.05868721,-0.8320279,-1.7739816,-2.5902853,3.3949714,2.0043664,-0.3468914,0.10303879,-3.42319,0.01068306,-2.837556,0.7398877,0.37615824,3.5853887,1.0474601,1.1733818,-1.1100311,-1.3864732,-0.025200367,3.129334,-3.1165833,0.41813898,-3.6923146,0.83484364,1.9141626,-2.483592,-1.2371917,-1.2406058,2.1944795,3.6063824,2.2682939,-2.5854716,1.0796828,1.7902417,-2.976811,-2.2730818,-3.211246,-1.3213754,1.6641598,3.8454976,2.8793268,-1.248888,1.5559988,-2.958868,-0.61083317,-2.1168156,1.8328595,-3.914688,3.380515,-1.3568544,2.566443,2.2874918,1.006383,-2.5356774,0.46613836,-2.94734,-2.2834687,-1.3115234,-1.3522763,-1.3086667,-3.56106,1.6805277,-1.312305,1.937252,-1.5789738,1.7993464,1.8314195,1.0005484,-2.7142506,0.58665943,-3.6423473,-3.777936,1.377985,-2.0544848,-1.7903166,-3.9140177,0.46188545,0.4733081,-0.13910103,2.0156422,1.4753323,-0.10725641,-2.4121943,-2.5684276,1.6535959,0.91368246,-3.9801087,-1.776413,2.612836,2.8829312,1.9112458,1.9674454,0.69360304,3.024887,-3.8223348,-3.078351,1.0052562,1.6125402,-1.2795019,0.28346443,-3.8307934,-0.009774208,-0.61071634,2.0630484,-2.030795,-3.1579819,0.9295263,-2.316143,-0.11639023,0.36513662,3.9692383,1.2286139,-3.478959,2.4755692,3.2594213,-0.83033323,-3.868793,2.0753741,1.5706892,-0.6492386,-1.3306413,-3.4715858,0.70229197,-1.5125651,-5.2022934E-4,-1.2396598,-3.5861592,2.4879146,2.519627,-2.3285046,-1.817709,-3.921093,2.6501756,-1.5305595,2.2244163,3.6217127,-3.1018581,0.052125454,3.6567192,-3.5784235,-3.053028,-3.026719,2.169837,2.2409139,-0.18575239,2.8421988,-1.9111862,0.18641233,-3.4493275,1.8959012,-2.6519818,2.9261632,-1.6913347,-0.19526243,1.8193712,3.6006727,3.8706994,-1.8086247,0.81675196,0.43641663,-3.7558923,-1.6883855,2.3254962,-1.4209218,3.0325832,-3.766355,-3.149157,-2.3729072,3.0135002,-2.8466687,0.6811547,3.0404983,0.54036474,-0.49952745,1.182447,-0.4020586,-0.27626657,-3.8562589,0.6182914,0.6975198,3.2665486,-3.3562407,-3.5749488,-0.37553787,0.8404503,-3.167231,-0.6449547,-1.7416811,-2.110312,1.8400006,1.4876375,3.8656583,0.77757406,-3.896658,3.9465866,0.8534298,-2.6847963,1.8760552,0.12926435,0.42512703,0.48953485,-2.8429623,-2.3659873,-3.3665447,-3.9085217,-1.2651105,1.2890735,-0.8073473,2.5012708,3.1599836,3.6613884,0.42971325,2.8237681,0.052804947,-3.542677,-2.8629332,-0.20650291,3.6774235,-1.8557844,0.68210125,-2.012219,0.48728752,-0.86818695,2.5593095,2.649424,-3.4153657,-3.8797598,-3.426609,-0.7498083,3.723753,1.9555888,-3.5996418,-1.0926805,-3.592647,2.4291534,0.592011,-0.5059624,-1.0814557,0.38126135,-2.1335363,-1.66854,-1.0950456,-2.798421,3.5670881,-0.10337925,1.4853048,-2.611287,-3.4859476,-3.6533203,0.6004162,-2.353825,-2.0828543,3.812141,3.8300748,0.360919,-3.6123629,-0.5982518,0.8541846,3.5888495,-0.060464382,-2.0886116,-3.302009,2.940751,-1.1074667,-2.0792155,-0.12699842,0.043962955,0.8092766,2.39788,2.0708194,-2.321875,2.61273,0.6580672,2.3989744,2.184239,1.6376595,3.3228545,-0.49276018,-1.7282472,1.9375901,3.0127993,1.6210523,0.29549694,2.6559253,1.9380884,-0.49157333,-2.5743828,-1.189373,0.41550732,2.4730687,2.7471428,1.3636265,2.1746345,2.0079517,-2.800095,3.5983915,2.37357,-2.3694615,-2.3765006,-0.5434036,-3.0046277,-2.1899242,3.9236336,0.15953636,1.6474414,-3.6031914,-2.7212677,3.7002525,-3.0870214,1.6071248,3.1878924,0.22212696,-1.1007314,-1.6222754,2.3327575,1.0079198,0.37170982,0.99732256,-1.968173,2.2121553,-0.18721247,-3.047821,0.07418966,0.6892376,-1.8955641,-0.6461992,-0.023614883,0.026805878,1.6126657,3.5179229,-0.6665449,1.3354082,1.7762856,2.6750274,-2.8666897,-0.33542633,-0.56149054,0.34458494,-1.6375389,-2.2134256,-3.570857,2.9379506,-2.143991,-0.58710194,3.9653244,0.2679286,2.0750341,-1.3604512,3.6427107,-0.37510443,2.434659,2.0652723,-2.238562,0.6815047,-1.8731532,-2.484808,0.47796917,-3.171938,1.6351967,-2.0727324,-0.45417118,3.297637,-3.4440918,-0.337543,-1.2407756,-1.6476607,3.3286257,2.2550106,1.3504367,3.473506,1.685679,1.1243925,-1.9333782,0.2731309,3.9569955,-1.3344674,-3.741551,-1.4300323,1.778028,3.053969,-1.8756509,-1.7158084,-3.3067017,0.3316145,0.33689404,1.3475003,3.4098935,1.8362899,-3.1067085,0.3232298,2.288178,1.0083432,3.1135912,-2.6908474,3.5661745,3.2326474,-1.4981074,1.0449061,1.467339,-2.2164125,3.5968971,1.4264703,-2.4680028,1.1655674,3.5019126,-2.6364865,3.034874,1.5663939,-3.827094,2.0297432,1.3900719,-0.2844658,-3.0641031,-1.6314998,-3.9381342,-3.5650349,-2.561387,1.7718778,-1.2095413,-2.1684608,1.7176213,0.087370396,3.705042,2.0944214,-0.0820179,-3.9932847,2.2738042,-0.26940775,0.026340008,-3.05027,0.6932535,-2.268324,-1.4446869,2.7996063,0.13235521,2.0347643,0.5658698,2.6165066,1.1170096,-0.37396097,1.0612726,-2.5589795,0.11424732,-0.23603678,3.0339303,0.41518688,-1.6255126,-3.8605084,3.7632294,-1.7259197,3.1668515,0.30289984,-1.7853708,1.2326107,-0.008533955,-2.5812745,-2.7918992,3.0513463,2.6797876,3.929307,-0.3991561,-2.6687727,-3.7459044,-1.7888236,-0.4625144,-2.6787004,3.9843817,3.5763345,2.1547947,-2.2729435,-0.82971525,-1.7836456,3.515935,-2.592866,-2.982739,-3.7950945,-2.5314417,3.8351445,-0.16600513,-0.14153671,-1.5519409,1.7428813,3.313241,-3.9638348,1.2443223,-2.8803005,2.5554833,3.5027556,-2.1770205,3.1992254,1.3926511,-2.9251375,3.5091376,-3.890933,3.2723737,3.6887517,3.3241143,-0.15568018,2.2392316,-0.28983355,0.27337313,-3.5757442,-3.4227047,0.613811,-0.3000865,-3.3784614,0.42919874,3.042575,3.018983,2.9857106,0.5823965,2.0215425,-2.2872057,1.8659377,2.201274,2.8228521,2.1206264,1.5004721,3.6403122,-2.7211733,-3.8617215,2.1453147,-2.4401307,1.6989884,-1.5270572,2.834453,0.4570961,1.2791543,2.2707753,-0.70769405,-3.0655236,-1.9345961,-0.22719431,-0.86728954,2.863657,0.19647646,-3.3503222,-0.054256916,-0.79358196,0.04113722,0.9473481,2.8715658,2.6800718,0.85825825,2.501319,-1.7500033,1.2006354,-3.4706388,3.1865091,0.615108,-3.6173606,0.6088276,-3.9596057,2.8146625,3.3482356,-3.670001,0.3717494,3.2473269,2.3907824,2.8954306,0.38096905,-2.224307,0.5087204,-2.6623626,3.778603,-1.1105661,3.8453622,0.6011925,1.5013471,-2.2072763,-0.16685009,1.9789124,0.31284142,1.8967237,3.0623846,-0.27912378,-3.590508,3.0690904,0.15165758,2.1927795,0.79851055,1.4623547,-1.4153857,0.40204573,-2.7891383,-2.9304185,-1.1011629,3.3690534,-3.2946792,-3.3006587,-1.9763966,2.4229732,2.425014,0.5683608,3.3329692,0.96641636,3.1227312,-3.7302547,1.7551813,-0.9862585,0.34050083,3.6457815,2.072568,1.612319,3.1773043,2.0488453,1.5813074,-2.3859024,-2.8033242,1.4372001,-1.65798,-0.93948126,2.4513535,-0.7731285,1.7853861,1.4745936,1.46666,2.5429077,-0.7297983,-3.1325731,1.3740387,-0.24794197,2.0344396,0.89471054,-3.6009512,0.019001007,0.97774744,2.4495888,-2.5419135,0.27470732,-3.0480695,0.42110443,3.6280184,1.9748788,-0.35721636,-3.8608236,-3.8890572,-2.3261108,-1.5009594,1.2338052,-2.219832,-0.55571604,-0.54603434,1.054102,-0.32278824,-3.6131177,-0.4418497,0.05949402,-1.611496,-1.4992714,-0.39025688,2.0590029,0.086111546,1.9228625,-2.4731035,-2.6794791,3.7736368,-2.0652814,0.07433605,2.79523,-3.974702,1.9676929,0.24591446,1.6188865,0.056217194,-3.026792,-2.914219,1.434495,-1.6402621,1.3227682,0.20533419,-0.49094582,-1.0191097,1.0794044,0.7827091,3.2337346,-3.7359414,2.2848482,-2.5641737,-3.1772442,1.4081073,-2.0411868,-1.6817985,-0.74179316,-3.3358788,2.0176597,1.3223152,1.7921019,0.5877037,-1.7783294,-3.8344631,-1.1828194,-1.433804,-0.14411068,-0.41744804,2.910111,3.851725,-3.0699582,1.3327851,2.3580914,3.485681,3.7659187,-0.800889,3.019402,2.051505,-3.4984155,3.6294012,0.45669365,3.199555,-3.4099894,-3.2375412,-0.13901854,-0.23237228,3.8280153,-3.0337896,1.6786051,-3.124332,0.95354366,1.1332016,-3.8794212,3.3934703,3.6816077,-2.138977,-1.5668936,3.9773617,0.89140606,-1.5002317,-0.49508858,-1.6344752,-1.1298714,-0.9931097,-0.3338642,-0.82135725,0.012623787,-3.053617,-2.7706695,2.0884323,2.9798694,-3.685278,0.17575645,-3.8154912,-0.08276224,2.0536103,0.49037313,-1.7263927,1.909493,3.7281098,-2.053956,-0.8691678,1.9871249,3.266171,1.9024787,3.9416857,3.1100135,1.7356534,3.0389476,3.7109551,-1.3778205,2.5733051,3.1331258,3.7395406,-2.9978194,1.4025378,-3.7088833,-1.7824597,-3.4478679,3.2928371,0.79058456,-0.3340993,0.56846476,-0.7409067,-3.9275713,-2.7517128,-2.8042417,-1.6185904,2.6947408,0.39475155,-1.9560499,-0.7369752,2.0123315,3.1438046,-2.971849,1.6762099,-2.148096,-0.7535844,-2.1273136,2.0242176,1.410038,1.6091132,-0.8673539,-1.0699072,-2.0156622,-1.9450884,-1.0077033,0.70642614,-3.2590408,0.010502338,-3.8953614,-3.070199,-1.5348988,-1.5739765,0.4744916,3.5218759,-1.6627078,1.2545018,2.4916253,2.7604594,2.6261444,-0.82893467,-2.306981,1.6518292,1.9193902,-3.7515016,-2.2584739,-2.3801436,3.5898442,2.0533905,0.42723513,-0.7637,-2.3567019,0.24284315,3.2326708,-1.0235214,-1.5027113,2.8025794,3.7996016,1.0641971,-1.3014531,-0.07189083,1.1717987,-0.92639446,-0.7457676,2.8778052,-1.0730748,-0.9227104,-0.2640128,3.356162,1.6409278,3.1131415,0.11544466,-1.4051404,2.3586607,3.8490353,3.545186,3.669137,1.8681607,-2.6280198,3.0911417,-0.63935566,2.2207193,0.39885902,1.8583221,2.5714297,1.112309,3.200786,0.39274883,-0.6446471,-0.07866955,-1.3835907,-2.3005185,3.8979206,1.7587795,0.5362072,-1.138978,-0.34435558,1.472322,-1.9385686,-1.3493986,-3.7696304,-1.622158,3.040853,-0.056212902,-0.12393665,1.0289326,-1.0471263,-3.615224,0.38947344,-1.4533792,1.1897068,-0.09887791,-1.4795036,-2.462966,3.5233946,-0.53060293,1.1697125,-2.1967287,-2.992185,-3.820321,1.1010237,-3.3404093,-3.6205144,1.5240364,-2.4040456,-0.2984109,-0.93680143,2.8073096,-1.7463217,2.0982118,0.64118433,2.7926254,-2.1937075,-1.9104037,-3.6353626,1.894702,-3.3799486,1.2416177,-0.4179244,0.44448853,3.1372132,-2.7835097,-0.71689796,1.813961,3.0517683,-0.30200386,0.888391,-0.18270636,-1.9023976,-1.8123989,-2.1814146,-3.5323792,1.2902403,-3.684845,3.914421,-1.9910893,-3.8073401,1.1147981,0.9781294,-3.1075044,-3.2290225,1.6405458,-3.0534549,2.9324565,-1.701674,0.8266597,-0.36403084,1.3108454,1.8828788,-0.4920597,2.266193,3.125577,2.0412745,-0.77963257,1.3454194,3.081007,1.6738658,0.50913954,1.6881499,-1.1011581,2.8781447,-0.4229145,-0.62431765,-3.7431989,-0.7237468,2.3683348,-3.8860216,-1.068294,0.070248604,-3.0291505,-3.729908,2.6854916,3.8761454,2.3274975,2.0173502,2.837205,0.8612132,-2.80931,1.0691404,0.008310795,-0.9276509,3.6168566,-1.545373,-3.501196,-0.5449724,-0.3194189,-0.59607935,3.55653,0.061975002,0.016532421,0.23128557,-1.8034782,-1.0704899,0.09440422,3.0231266,3.4343429,-1.7559428,3.0439072,-0.4568658,-0.76780796,-1.5254679,0.2723012,2.671023,-2.374927,-3.083097,0.95487356,-2.221868,3.990788,-1.5773239,3.7956424,-3.5863457,-0.21815825,2.8042479,1.9290261,-1.3175297,-2.6996164,-0.60476637,1.5066767,-2.390863,2.7094278,3.7594972,-2.5220776,2.7084327,-2.6262097,1.048686,3.8823051,0.90948486,-0.9163747,1.3468418,-1.7654347,-1.9127889,-3.9284334,-1.4196815,3.8681421,-0.7732215,-1.8226919,-0.7947817,-0.5113888,2.4149137,-2.9161587,-2.49019,-3.420978,3.444756,2.5574627,3.5561447,3.015275,2.7352962,1.8500667,-2.0678272,-1.033309,-3.73073,3.416162,-0.47008133,-3.922257,3.172948,1.9579916,0.5964565,3.7321048,2.5468736,1.3792129,2.9402828,2.2610126,2.2816248,0.7540612,3.3860955,-2.1529455,2.5518155,3.0338774,0.6545601,0.9194312,-2.7596393,-2.8011045,2.3742313,3.1395235,-3.179266
-2.1198153,-3.0328283,1.705874,0.36952782,2.045393,1.3977928,3.8349876,1.5470033,-1.366765,-0.3731718,1.7411242,3.5855002,3.0513096,2.8354173,-2.9913244,-0.08680725,-0.53438044,2.0521479,-0.17136574,-3.0107236,-2.1714115,1.5398564,0.55132675,-1.0019212,-3.421968,-1.1087346,-0.8817563,-2.9438076,2.9413128,-1.9809937,0.15293503,1.0411439,0.09389639,-3.028389,2.5046802,-2.5887346,0.63698244,3.5685916,3.5891175,-2.2638426,-2.6128464,0.6771779,3.5416517,-1.2995319,1.2836819,-2.3983836,-2.7796082,-0.8287597,0.51307535,-2.483971,-1.0859895,3.7486067,0.3364277,1.589087,-0.17562437,2.6468515,1.9686885,-2.9484859,2.8449645,-1.7898564,2.3433156,-1.7231407,-0.710454,-1.2610278,0.62635803,1.5813518,-2.5399795,-3.0168,3.8398314,-2.849162,0.75419617,-2.953938,-3.387455,-2.601231,3.6161895,1.5876379,-0.5624852,3.9960728,-1.4806004,-3.1977544,0.36236,-0.061093807,-0.34005785,0.8946247,-2.729024,1.9475431,3.2002792,2.662115,-3.1187177,-2.2319827,-3.9544969,-3.111753,-1.1031504,-1.7070227,1.7851906,-3.54746,-3.1990876,1.723721,-3.2674565,-1.0986814,-3.7580767,-2.853692,0.121582985,-0.8132243,-3.8285565,-3.2969403,-0.5267925,3.6409717,1.3536777,0.5127802,2.4860597,-1.2282572,2.0699477,-2.256949,-0.7216759,-3.208445,1.9596596,2.0082703,1.4587669,-3.152699,-2.9910417,1.7592793,-0.5681529,0.09300232,1.0539165,-0.2822318,0.1207819,0.4188428,-0.6711273,-0.74384785,-3.9505458,0.4941411,2.541926,-0.08116484,2.023264,2.9266357,-3.0367217,2.7241,1.6865435,-0.42521048,1.1934352,1.2020245,-0.66856575,-2.8707356,-2.6873608,0.09733868,-0.37959957,1.4303436,2.72962,-1.3455625,-0.90473366,-1.6241012,3.5462651,1.4136372,-0.40562153,1.4322629,-1.9201603,0.39386415,-0.42229414,-1.7519546,-3.989059,0.008522987,-1.5560088,3.1757565,-0.9534559,-3.0235238,0.6373849,0.098279476,1.1567783,2.7746806,0.30688,3.2350779,3.804586,3.7959456,-0.7262578,-2.1762385,-3.5099325,-1.5490131,-3.3349185,-2.8718824,-0.48267126,1.1736579,-3.8897934,-1.9006243,-3.7345853,0.67852783,2.3909369,0.7486119,-3.2532134,-3.5687923,2.0866413,0.06143713,-3.530127,1.4021106,-3.840757,-1.7714658,3.5555358,3.093789,2.7792935,3.3578134,-1.4442244,3.742866,-1.0034251,-3.984621,-2.4035473,-2.5311809,-3.2699876,-0.70786715,-1.8156772,3.4608555,0.9454956,0.9666519,1.4290566,0.025985241,3.4624977,3.1297488,3.6030283,-1.1587915,-3.8197541,3.4557152,2.870006,3.5088801,-3.713491,-0.51680374,1.9143944,-3.846621,-3.7034812,-3.110466,2.340869,-2.3120804,-2.5134645,-0.0054740906,-0.754066,-0.059811115,-1.9237247,1.1557226,0.77630424,2.0948377,3.144268,3.5218358,2.744977,3.1388512,1.5689797,0.028426647,-3.5400314,-2.2153096,2.6921444,0.12622595,-0.408669,1.3631277,-2.9689279,-2.8344717,0.4479699,-1.7291136,-0.80794716,3.7029657,2.8097787,2.2923045,-1.5221863,3.8351088,3.5740776,3.273797,2.8281512,-2.7009668,2.3561893,-1.319818,-2.1026683,0.1635704,-2.6823835,-0.4699278,0.46524954,0.11491871,-1.7602181,0.91486025,-0.53242826,3.9018297,-3.884202,-3.7164245,1.6615772,2.393229,1.7237878,-3.1225076,-3.4674096,0.32458115,-3.7889633,2.239482,2.9354877,-1.8783374,-0.32120037,-0.99391127,3.167706,1.0309253,-1.4811206,1.659277,3.7725282,-2.3694854,-1.6939616,2.7154493,-3.629551,-3.821981,2.2089944,-2.1738768,3.2346702,-3.2732444,1.0792284,-2.5919895,-3.9694095,2.4240437,-3.014,1.0506129,2.7264018,0.8460846,-1.1635227,-0.68408203,3.5379124,-0.5779772,-2.4535856,-3.4348583,1.4691129,0.3541646,-0.04446554,0.30482292,2.2403903,3.897015,0.6475725,-1.2315845,-1.8263769,3.457018,0.60379076,0.35783148,-3.6157575,2.7632637,-3.6387143,1.1725097,1.3510113,-1.8161836,3.057364,0.9956517,0.8465252,-2.468782,1.9025989,0.7160044,3.5052314,-0.6707525,-2.646616,-3.7086453,0.2920766,-2.4446483,-2.5564504,3.0889406,3.9801207,-1.9811773,-3.3638725,-2.7509842,-2.025023,-0.5463023,3.2958755,-1.698041,-3.4376345,1.5273414,1.3373666,0.41007042,0.8417201,3.2955546,0.77742434,0.75898314,-1.1980753,-3.226592,-0.56058264,-3.8233347,-0.042352676,1.9030905,-0.6228595,3.731326,-1.8130212,-1.0954127,-3.9417186,-1.2770476,0.5634427,0.02367115,-2.2660298,-2.9198852,-3.8573685,1.1038351,2.2673678,0.9265475,1.2469535,1.9248738,3.7318301,-1.2346067,-2.5136151,3.6879506,-1.9595394,3.1389132,1.1051192,-0.62026405,1.6292486,-3.0727053,3.2182493,1.0577974,-0.36248636,0.575572,1.5442824,2.2163,2.349866,0.93063354,-0.5535321,-0.7543211,-0.20436859,-1.5556254,-1.4414587,-1.214334,3.7899032,0.58340836,1.3280506,3.5438528,3.4366922,-3.3097072,-0.3375802,0.05995226,-2.552866,3.9416475,1.0355096,-0.36460638,2.5285053,2.6886568,3.7134833,-1.3289857,-1.4493408,-0.12934875,2.91776,1.588274,-1.1279755,3.890242,3.7877913,-2.7920995,2.7258835,-2.4521275,0.03936243,2.3561516,3.320485,-2.7328353,1.1266708,3.928155,2.3811908,3.9363976,1.6635199,-2.2536635,2.0133743,-2.6118693,0.9355674,-0.98175955,-1.7365742,1.4473987,-1.0009208,0.25766945,2.2735677,1.5258255,-1.1681452,-3.1241798,-3.1812596,-0.016236305,-0.8209934,-1.8310604,-3.989387,3.7367039,-3.3943772,-3.4796534,-0.3499956,-3.654976,-1.3257241,3.9137092,2.5329957,1.5063977,-1.104454,1.966867,1.0029373,-0.1046648,-2.123495,2.2322826,-1.9496331,3.0025043,3.3132086,0.30525303,-2.0855117,3.3759136,-1.3609056,0.40946245,0.8166146,-2.9982681,2.2880216,-3.0122566,1.265625,-0.95449495,1.4668193,-0.65514326,0.24690247,-1.7274876,0.93246126,-1.7768326,-1.240335,-1.9268074,1.9901581,2.5060577,-1.6315885,-0.69536114,-2.9491782,0.98088694,1.1330757,3.847444,-0.346066,1.4726443,1.1171227,0.005733967,-3.3925233,0.27778006,-0.21293736,3.5318851,1.510107,-3.312263,-1.518127,1.0289216,0.105003834,-1.0482674,2.71589,2.0887785,1.6067839,-0.42205048,0.38834906,0.7277274,3.8544564,3.0875401,-2.784111,-2.413549,2.2640624,-1.599298,-2.28576,2.7457228,2.2052994,3.8819313,-3.7367992,-3.5773516,-2.3521204,2.768876,1.411407,-2.1891623,3.1750808,3.0446491,-3.329856,-1.3112297,2.9569516,-0.80130816,0.38363934,-1.3074522,3.454317,-2.3139062,-1.5141397,0.4425044,-2.0775528,-0.51400375,0.951149,-2.5802546,-2.0538416,-0.7052212,-1.6266084,0.017094612,3.4228492,-3.022089,-3.0012965,1.9545765,2.0123587,-1.0650043,3.6021729,1.3578911,-0.3396449,2.8644638,-1.6749325,0.50889254,-2.6542654,-0.7974405,-0.8709736,3.4872842,-1.5537224,0.46066904,3.0435076,-2.2946415,-2.2002892,0.7074919,-1.4577699,2.3471098,-2.6545916,-1.9783669,0.28004885,-3.6865058,-1.4414916,-0.87269735,2.306419,-1.9941621,0.44724178,-0.905118,2.587874,-2.461636,0.51755524,-2.993084,-2.859623,2.1065822,-1.6128364,-1.5274568,-0.14119482,2.941544,2.833179,-0.03412676,2.8834205,3.6201525,-1.469029,0.03955698,3.4093423,-1.4711561,-0.6943536,3.8910685,0.6833687,3.860557,0.281919,0.041377544,3.3266659,-3.7137237,3.477858,-1.1783433,0.7550206,-2.8195696,1.7982817,2.4088159,0.80310345,2.8348317,2.9133735,3.855597,3.545353,3.1773214,2.3175821,3.9057355,1.1515236,-1.7809987,-3.6854763,-0.8499594,-3.1016269,3.317833,-2.7940245,-3.1452107,-0.29442263,-1.9920688,2.759408,-3.1496034,-3.7481103,-1.6676445,-1.7736373,0.62737226,-0.15613842,-3.5762901,-0.4682598,3.2713642,-0.21984339,-1.0677319,-1.8495765,-3.3687253,-1.9549279,-3.231307,0.2697177,-1.0434918,-0.10651779,2.9866467,-3.9030027,-3.3743997,2.2267323,0.31095505,-0.57722425,-3.3276253,0.7354965,-3.863976,0.5544648,-3.0842,3.9983082,3.6337352,2.0984893,-1.3882799,-1.6339068,0.7782345,-2.9483604,-3.7838855,1.872005,3.5481997,-3.3784413,-3.1129751,2.675416,-3.4791746,2.2361493,3.738634,0.5528965,0.47370768,-3.839758,1.5291252,1.3773265,-2.8893604,-2.9897451,-1.6022072,-1.0802813,-2.3073788,2.9915457,0.9629159,-0.5812578,-3.411006,0.3029375,-0.74544,-3.2168589,-3.1224728,2.7442927,3.624641,1.0508213,3.998088,-1.4608479,-1.9010229,0.24124718,2.4421253,0.94914675,2.821219,-2.0959578,-2.0390663,-0.04729843,-1.7377958,2.0831528,-1.8749008,3.1138535,2.4501767,0.11689377,0.9172001,1.974834,-3.2482634,0.1102829,2.5179281,-0.21696854,-3.4767919,0.79841566,-3.4455266,-2.2739615,-1.8390431,-3.3294134,-3.8684926,0.01184082,1.8012714,-3.2445374,1.1712866,3.4828358,-1.4238577,-3.8346758,1.0329609,3.0299869,1.0310221,-3.0635705,-0.97265863,2.3215008,-0.35920954,-1.8568864,2.22474,0.9708314,-0.6649022,2.287538,3.8525906,1.4659138,3.524795,-2.7617059,-2.6522279,-1.723978,3.8870773,-2.5360007,1.3791566,3.3546128,1.5868082,-1.0557551,3.4815207,-3.7887678,-2.465776,3.4911551,-1.0085359,0.5928464,1.6500602,0.38986635,3.6212873,0.43423462,-1.1219916,-1.3649769,-2.2619262,2.3861828,-3.8723702,0.3781681,1.7444816,-1.9135442,-3.505539,3.3454332,1.1778245,0.58024263,-3.0837665,0.9868088,0.58635426,2.7320886,-2.392775,1.5532031,-1.2052474,0.55685663,-2.4539876,-1.5803118,0.31600666,1.7158971,1.0871058,-1.2730637,-2.0670013,-0.140481,-0.6744876,2.5636768,-1.7942171,2.406301,2.7423787,1.6691766,-2.161439,1.9111075,-0.11443281,0.722373,2.261633,-1.0515728,-1.3481421,-2.3529735,-3.5210953,-0.2344799,-3.4779506,3.7322912,-1.7221704,0.4119048,0.9321823,-1.9845643,1.2435689,-3.6724987,2.1270885,-2.8953853,-0.11626387,2.6841078,-3.814015,2.0574336,-0.47160912,0.24010181,3.4549189,0.45407534,-1.3985267,0.609756,2.811504,-0.11210394,3.2131863,-2.316739,-3.682292,-3.568242,-0.39280796,-1.6182942,-1.3969045,3.8528438,-1.5557404,-3.0458698,1.808217,3.4381719,-1.756577,-3.340929,-1.333857,1.3577013,-2.8207207,3.3342752,1.7929754,-1.3534603,-2.8437452,-3.6700363,-2.8809195,2.5477543,-3.3461437,3.3456082,0.79567575,1.1303363,-3.759736,1.9229369,-2.9559617,2.947585,-2.5005732,3.993878,2.2037153,-0.16581249,-2.1913,2.5625658,-0.81986284,2.4270983,-2.8415866,-2.4100723,2.3397665,-1.3647027,3.5157537,2.9149122,-2.7359357,-0.9990454,0.6001463,0.21608162,-2.389565,-0.2418747,-3.17524,-0.44839716,-2.2274065,0.8702297,-2.0295272,1.3708544,-3.3457503,-1.1847682,3.454585,0.5310998,-2.9350686,-1.6274171,-3.3601403,0.044173717,-2.3658319,-1.4276805,-3.546741,0.17233133,3.6328826,0.25736952,-2.4988856,-3.5058355,-2.3804946,-1.5129447,3.820241,2.1713934,2.0857081,-3.5928535,-2.625352,3.1218162,-0.42391777,0.5964279,-3.2267118,-1.4122529,0.5222888,-0.8260875,2.739201,3.493888,-1.0323853,3.3193913,-2.4769406,-3.3510947,2.247942,-2.2630482,2.4592547,-3.2578068,3.0865288,0.21226645,-1.4366641,2.2463336,1.0632815,0.0679369,2.0374146,1.3784008,-0.9164567,-0.45482302,-0.750566,-0.3459015,-2.2975426,3.5932064,-0.05868721,-2.0545306,-1.7739816,-2.5902853,3.3949714,2.0043664,-0.3468914,0.10303879,1.4210258,0.01068306,-2.837556,0.7398877,0.37615824,3.5853887,1.0474601,1.1733818,-1.1100311,-1.3864732,3.4883213,3.129334,-3.1165833,0.41813898,-3.6923146,0.83484364,-2.2941155,-2.483592,-1.2371917,-1.2406058,2.1944795,3.6063824,2.2682939,-2.5854716,1.0796828,1.7902417,-2.976811,-2.2730818,-3.211246,-1.3213754,1.6641598,0.36004734,2.8793268,-1.248888,1.5559988,-2.958868,-0.61083317,-2.1168156,1.8328595,-2.562931,3.380515,-1.3568544,2.566443,2.2874918,3.322535,-2.5356774,0.46613836,-2.94734,-2.2834687,-1.3115234,-1.3522763,-1.3086667,-3.56106,1.6805277,-1.312305,1.937252,-1.5789738,1.8101506,0.75045395,1.0005484,-2.7142506,0.58665943,-3.6423473,-3.777936,1.377985,-2.0544848,-1.7903166,-3.9140177,0.46188545,0.4733081,-0.13910103,-2.3349152,1.9166322,-0.10725641,-2.4121943,-2.5684276,1.6535959,0.91368246,-3.9801087,-1.776413,2.612836,2.8829312,1.9112458,1.9674454,0.69360304,-0.3518052,-3.8223348,-3.078351,1.0052562,1.6125402,-1.2795019,0.28346443,-3.8307934,2.5980015,-0.61071634,-3.8531723,-2.030795,-3.1579819,0.9295263,-2.316143,-0.11639023,0.36513662,3.9692383,1.2286139,1.1477432,2.4755692,3.2594213,-0.83033323,-3.868793,2.0753741,1.5706892,-0.6492386,-1.3306413,-3.4715858,0.70229197,-1.5125651,-5.2022934E-4,-1.2396598,-3.5861592,-1.1978397,2.519627,-2.3285046,-1.817709,-3.921093,2.6501756,0.90292025,2.2244163,-1.4261413,-3.1018581,0.052125454,3.6567192,-3.5784235,-2.7545953,-3.7807717,2.169837,2.2409139,2.3120031,-0.48787785,-1.9111862,0.18641233,-1.9232535,1.8959012,-2.6519818,2.9261632,-1.6913347,-0.19526243,1.8193712,3.6006727,3.8706994,-1.8086247,0.81675196,0.43641663,-3.7558923,-1.6883855,2.6380405,0.8797221,3.0325832,-3.766355,-2.84377,-2.3729072,3.0135002,-2.8466687,0.6811547,3.0404983,0.54036474,2.1271176,1.182447,-2.305296,-0.27626657,-3.8562589,0.6182914,0.6975198,3.2665486,-1.4928913,3.0977407,-0.37553787,0.8404503,-3.167231,1.1674595,2.1828136,3.311308,1.8400006,0.80780697,3.8656583,0.77757406,-3.896658,-1.4882302,0.8534298,-2.6847963,1.8760552,0.12926435,0.42512703,0.48953485,-2.8429623,-2.3659873,-3.3665447,-3.9085217,-1.2651105,1.2890735,-0.8073473,2.5012708,3.1599836,3.7052412,-0.5366273,2.8237681,0.052804947,-3.542677,-2.8629332,-0.20650291,3.6774235,-1.8557844,0.68210125,-2.012219,0.48728752,-0.86818695,-3.8453078,2.649424,-0.14578581,-3.8797598,-1.1669569,-0.7498083,3.723753,-2.3044367,-3.5996418,-1.0926805,1.7386613,2.4291534,-3.004178,-0.5059624,-1.0814557,0.38126135,-2.1335363,-1.66854,1.5597711,-2.798421,3.5670881,-0.10337925,0.800128,-2.611287,-3.4859476,-3.6533203,3.571137,-2.353825,-2.0828543,3.812141,3.8300748,0.360919,-3.6123629,-0.5982518,0.8541846,3.5888495,-0.060464382,-2.0886116,-3.302009,2.940751,-1.1074667,-2.0792155,-0.12699842,0.043962955,0.8092766,2.39788,2.0708194,-2.321875,-3.006517,2.1154022,1.1968327,-2.3589635,-0.48128128,3.3228545,2.5628557,-1.7282472,1.9375901,3.0127993,-0.0740242,-3.2826805,2.6559253,-2.0121078,-0.49157333,-2.5743828,-1.189373,0.41550732,2.4730687,2.7471428,1.3636265,2.1746345,2.0079517,-2.800095,3.5983915,2.37357,-2.3694615,0.5650768,-0.5434036,-3.0046277,-2.1899242,3.9236336,0.15953636,1.6474414,-0.40031004,2.3289237,3.7002525,-3.0870214,1.6071248,3.1878924,0.22212696,-1.1007314,-1.6222754,-3.1952968,1.0079198,-1.3631687,0.99732256,-1.968173,2.2121553,-0.18721247,-3.047821,-1.4448938,0.6892376,-1.8955641,3.5679483,-0.023614883,0.026805878,1.6126657,3.5179229,-0.6665449,3.7850585,1.7762856,2.6750274,-2.8666897,-0.33542633,-0.56149054,0.34458494,-1.6375389,-2.2134256,-3.570857,2.9379506,-2.143991,-0.58710194,3.9653244,0.2679286,3.3518014,-1.3604512,3.250875,-0.37510443,2.434659,2.0652723,3.4991693,-0.8505182,-1.8731532,-2.484808,3.3854036,-3.171938,1.6351967,-2.0727324,-0.45417118,3.297637,-3.4440918,-0.337543,-1.2407756,-1.6476607,3.3286257,-3.0267658,1.3504367,2.4117584,3.9074311,1.1243925,-1.9333782,-2.7993045,3.9569955,-1.3344674,-3.741551,-1.4300323,2.977306,3.053969,-1.8756509,-1.7158084,2.7139912,0.3316145,-1.7759666,1.3475003,3.4098935,1.8362899,-0.37264347,0.3232298,1.1447845,1.0083432,3.1135912,-2.6908474,3.5661745,3.2326474,-1.4981074,1.0449061,1.467339,-2.2164125,3.5968971,1.4264703,-2.4680028,-0.7455859,3.5019126,-2.6364865,3.034874,1.5663939,-3.827094,2.0297432,1.3900719,-0.2844658,-3.0641031,-1.6314998,-3.9381342,-3.5650349,-2.561387,1.7718778,-1.2095413,-2.1684608,-0.2648759,0.087370396,3.705042,2.0944214,-0.0820179,-3.9932847,2.2738042,-0.26940775,-3.9634967,1.6603527,0.6932535,-2.268324,-1.4446869,2.7996063,0.13235521,2.0347643,0.5658698,2.6165066,1.1170096,-0.37396097,1.0612726,-2.5589795,0.11424732,-0.23603678,-0.47683477,0.41518688,-1.6255126,-3.8605084,0.8200774,-1.7259197,3.1668515,0.30289984,-1.7853708,1.2326107,-0.008533955,-2.5812745,-2.7918992,3.0513463,2.6797876,3.929307,-0.3991561,-2.6687727,-3.7459044,-1.7888236,-0.4625144,-2.6787004,3.9843817,3.5763345,2.1547947,-2.2729435,-0.82971525,-1.7836456,3.515935,-2.592866,-2.982739,-3.7950945,-2.5314417,3.8351445,-2.748415,-0.14153671,-1.5519409,1.7428813,3.313241,-3.9638348,1.2443223,-2.8803005,2.5554833,3.5027556,-2.1770205,-3.557599,1.3926511,-2.9251375,-2.1673412,-0.549767,3.2723737,3.6887517,3.3241143,-0.15568018,2.2392316,-0.28983355,0.27337313,-3.5757442,-3.4227047,0.613811,-0.3000865,-3.3784614,0.42919874,-2.673379,3.018983,2.9576092,0.5823965,2.0215425,-2.2872057,1.8659377,2.201274,2.8228521,2.1206264,1.5004721,2.412682,-2.7211733,-3.8617215,-3.1232018,-2.4401307,1.6989884,-1.5270572,2.9854875,-2.862658,1.2791543,3.4967766,-0.70769405,-3.0655236,-1.066124,-1.5837517,-0.86728954,2.863657,0.19647646,-3.3503222,-0.054256916,3.5597057,0.04113722,0.9473481,2.8715658,2.6800718,0.85825825,2.501319,-1.7500033,3.6080432,-3.4706388,3.1865091,0.615108,-3.6173606,0.6088276,-3.9596057,2.8146625,3.3482356,-3.670001,0.3717494,-3.8256836,2.3907824,2.8954306,0.38096905,-2.224307,0.5087204,-2.6623626,3.778603,-1.1105661,3.3941607,0.6011925,1.5013471,-2.2072763,-0.16685009,1.9789124,-0.26643467,1.8967237,3.0623846,3.2683573,-3.590508,3.0690904,0.15165758,2.1927795,0.79851055,1.4623547,-1.4153857,0.40204573,-2.7891383,-2.9304185,3.563509,-1.8017926,-3.2946792,-3.3006587,-1.9763966,2.4229732,2.425014,0.5683608,3.3329692,3.0331879,3.1227312,-3.7302547,1.7551813,-0.9862585,0.34050083,3.6457815,2.072568,1.612319,3.1773043,2.0488453,1.5813074,-2.3859024,-2.8033242,1.4372001,2.9238534,-0.93948126,2.4513535,1.2086434,1.7853861,1.4745936,2.9916744,2.5429077,-0.7297983,-3.1325731,1.3740387,-2.1240396,2.0344396,0.89471054,-3.6009512,0.019001007,0.97774744,2.4495888,-1.0368052,0.27470732,-3.0480695,0.42110443,3.6280184,1.9748788,-0.47819805,-3.8608236,-3.8890572,1.99577,-1.5009594,1.2338052,-2.219832,-0.55571604,-0.54603434,1.054102,-0.32278824,-3.6131177,-0.4418497,0.05949402,-1.611496,-1.4992714,-0.39025688,2.9506502,0.086111546,1.9228625,1.2394781,-2.6794791,3.7736368,-1.1700215,0.07433605,2.79523,-3.974702,1.9676929,0.24591446,1.6188865,0.056217194,-3.026792,-2.914219,1.434495,-1.6402621,1.3227682,0.20533419,-0.49094582,-1.0191097,1.0794044,0.7827091,3.2337346,-3.9956264,2.2848482,-1.0170131,-3.1772442,1.4081073,-2.0411868,-1.6817985,1.7385206,3.327169,2.0176597,1.3223152,1.7921019,0.5877037,-1.7783294,-3.8344631,-1.1828194,-1.433804,-0.14411068,-0.41744804,2.910111,3.851725,-3.0699582,1.3327851,2.3580914,3.485681,-2.8228455,-0.8405976,3.019402,2.051505,3.2969604,-3.875123,0.45669365,-0.44133902,-3.4099894,-3.2375412,0.025502682,-0.23237228,3.8280153,-3.0337896,-2.6219416,-0.971179,0.95354366,1.1332016,-3.8794212,3.3934703,3.6816077,-2.138977,-1.5668936,3.9773617,0.89140606,-1.5002317,-0.49508858,-1.6344752,2.908245,-0.9931097,-0.3338642,-0.82135725,0.012623787,2.6212745,-2.7706695,-0.5118089,2.9798694,-3.685278,0.17575645,1.1729441,-0.08276224,2.0536103,0.49037313,-1.7263927,1.909493,3.7281098,-2.053956,-0.8691678,1.9871249,3.266171,1.9024787,0.7582097,-2.7671013,1.7356534,3.0389476,3.9641747,-1.3778205,2.5733051,3.1331258,3.7395406,-2.9978194,1.4025378,-3.7088833,-1.7824597,-3.4478679,3.2928371,0.79058456,-0.3340993,0.56846476,-0.7409067,-3.9275713,-2.7517128,-2.8042417,-1.6185904,2.6947408,0.39475155,-1.9560499,-0.7369752,2.0123315,-1.1221547,-2.971849,1.6762099,-2.148096,-0.7535844,-2.1273136,2.0242176,1.410038,1.6091132,-0.8673539,-1.0699072,-2.0156622,2.9848485,0.30762434,0.70642614,-3.2590408,0.010502338,-3.8953614,-3.070199,-1.5348988,-1.5739765,0.4744916,3.5218759,-1.6627078,1.2545018,2.4916253,2.7604594,2.6261444,-0.82893467,-2.306981,1.6518292,-3.6780744,-3.7515016,-2.2584739,-2.3801436,3.5898442,2.0533905,0.42723513,-2.8653245,-2.3567019,0.24284315,3.2326708,-2.6515818,-1.5027113,2.8025794,-3.400579,1.9406619,-1.3014531,-0.07189083,1.1717987,-0.92639446,-0.7457676,2.8778052,-1.0730748,-0.9227104,-0.2640128,3.356162,1.6409278,3.1131415,0.11544466,-1.4051404,2.3586607,-3.2899103,3.545186,3.669137,1.8681607,-2.6280198,3.0911417,-0.63935566,2.2207193,0.39885902,1.8583221,2.5714297,1.112309,3.200786,0.39274883,-0.6446471,-0.07866955,-1.3835907,-2.3005185,3.8979206,1.7587795,0.5362072,-1.138978,-0.34435558,1.472322,-1.9385686,-1.3493986,0.90442896,-1.622158,2.3301015,3.811952,-0.12393665,1.0289326,-1.0471263,-3.615224,0.38947344,-1.4533792,1.1897068,-0.09887791,-1.4795036,-2.462966,3.5233946,-0.53060293,2.2397103,-2.1967287,-2.992185,-3.820321,1.1010237,-3.3404093,-3.6205144,1.5240364,-2.4040456,-0.2984109,-0.93680143,2.8073096,-1.3593111,2.0982118,0.64118433,2.7926254,-2.1937075,-1.9104037,-3.6353626,1.894702,-3.3799486,1.4640379,-0.4179244,0.44448853,3.1372132,-2.7835097,-3.6788082,1.813961,-2.0478764,-0.30200386,0.888391,-0.18270636,-1.8678074,-1.8123989,-2.1814146,2.641595,1.2902403,-3.684845,3.914421,-0.13221788,-3.8073401,1.1147981,0.9781294,-3.1075044,-3.2290225,1.9813919,-3.0534549,3.0936365,1.3412352,-1.8092232,-0.36403084,-2.4810252,1.8828788,-0.4920597,2.266193,3.125577,2.0412745,-0.77963257,3.6868567,3.081007,2.193501,0.50913954,1.6881499,-1.1011581,2.8781447,-0.4229145,-0.62431765,-3.7431989,-0.7237468,2.3683348,-3.8860216,-1.068294,0.070248604,-3.0291505,-3.729908,2.6854916,3.8761454,2.3274975,2.0173502,0.7680025,0.8612132,-2.80931,1.0691404,0.008310795,-0.9276509,3.6168566,-1.545373,-3.501196,-0.5449724,-0.3194189,-0.59607935,-2.84802,0.061975002,0.016532421,0.23128557,-1.8034782,-1.0704899,0.09440422,3.0231266,-1.369422,-1.7559428,3.0439072,-0.4568658,-0.76780796,-1.5254679,0.2723012,2.671023,-2.374927,-3.083097,0.95487356,-2.221868,3.990788,-1.5773239,3.7956424,-3.5863457,-0.21815825,2.8042479,1.9290261,-1.3175297,-2.6996164,-0.60476637,1.5066767,-2.390863,2.7094278,3.7594972,-2.5220776,2.7084327,-2.6262097,1.048686,3.8823051,0.90948486,3.149334,1.3468418,-1.7654347,-1.9127889,-3.9284334,-1.4196815,3.8681421,-0.7732215,-1.6731992,-0.7947817,0.627686,2.4149137,-2.9161587,-2.49019,-0.40161133,2.1998029,-0.91647434,3.5561447,1.3392425,2.7352962,1.8500667,-2.0678272,-1.033309,-3.73073,3.416162,-0.47008133,-3.922257,3.172948,-2.86581,3.2982707,3.7321048,3.2936249,1.3792129,-2.710269,2.2610126,2.2816248,0.7540612,3.3860955,-2.1529455,3.1355743,3.0338774,0.6545601,0.9194312,2.205556,-2.8011045,-0.9179325,3.1395235,-3.179266
-2.1198153,-3.0328283,1.705874,0.36952782,2.045393,1.3977928,3.8349876,-1.336277,-1.366765,-0.3731718,-1.3622646,0.8795519,3.0513096,2.8354173,-2.9913244,-0.08680725,-0.53438044,2.0521479,3.3607163,-3.0107236,0.23648787,1.5398564,0.55132675,-1.0019212,-3.421968,-1.1087346,-0.8817563,-2.9438076,2.9413128,-1.9809937,0.15293503,1.0411439,-1.3769011,-3.028389,2.5046802,-2.5887346,0.63698244,3.5685916,3.5891175,-2.2638426,-2.6128464,0.6771779,3.5416517,-1.2995319,1.2836819,-2.3983836,-2.7796082,3.8965106,0.51307535,0.34178782,-1.0859895,3.7486067,2.5464063,1.589087,-0.17562437,-1.6397877,1.9686885,-2.9484859,2.8449645,-1.7898564,-1.633883,2.9142146,-0.710454,-1.2610278,0.62635803,1.5813518,-2.5399795,-3.0168,3.8398314,-2.849162,0.75419617,-2.953938,3.7156878,-0.06370306,3.6161895,1.5876379,-0.5624852,3.9960728,0.2242918,-3.1977544,0.36236,-0.061093807,-0.34005785,0.8946247,0.25967264,1.9475431,1.645257,2.662115,2.606267,-2.2319827,-0.25435162,-3.111753,-1.1031504,-1.7070227,1.7851906,-3.54746,-3.1990876,1.723721,-3.2674565,-1.0986814,-3.7580767,-0.11985922,0.121582985,-0.8132243,-3.8285565,-3.2969403,-0.5267925,3.6409717,1.3536777,0.5127802,2.4860597,-1.2282572,2.0699477,-0.42815828,-0.7216759,-3.208445,1.9596596,2.0082703,1.4587669,-3.152699,-2.9910417,1.7592793,-0.5681529,0.09300232,1.0539165,-0.2822318,0.1207819,-0.17676115,-0.6711273,-0.74384785,-3.9505458,0.4941411,2.541926,-0.08116484,2.023264,2.9266357,-1.0745559,2.7241,1.6865435,-0.42521048,1.1934352,1.2020245,-0.66856575,-2.8707356,-2.6873608,0.09733868,-2.5288067,1.4303436,0.5391884,-1.3455625,-0.90473366,-1.6241012,3.5462651,1.4136372,1.4039063,1.4322629,-1.9201603,0.39386415,-0.42229414,-1.7519546,3.0609174,1.1340823,-1.5560088,3.1757565,-0.9534559,-0.3421073,0.6373849,0.098279476,1.1567783,2.7746806,0.30688,3.2350779,3.804586,3.7959456,-0.7262578,-2.1762385,-3.5099325,-1.5490131,-3.3349185,-2.8718824,-0.48267126,1.1736579,-3.8897934,-0.5970216,-3.7345853,0.67852783,2.3909369,0.7486119,-2.95533,-3.5687923,2.0866413,0.06143713,-3.516439,1.4021106,-3.840757,-1.7714658,3.5555358,3.093789,2.7792935,-3.7542272,-1.4442244,-2.2241654,-1.1943445,-3.984621,-2.4035473,-2.5311809,-3.2699876,-0.70786715,1.3704114,3.4608555,0.9454956,0.9666519,1.4290566,0.025985241,3.4624977,3.1297488,3.6030283,-1.1587915,-3.8197541,3.4557152,1.1401939,3.5088801,-3.713491,1.4564648,2.4322233,-3.846621,-3.7034812,-0.78270626,2.340869,3.2810626,-2.5134645,-0.0054740906,-0.754066,3.9937596,3.0725436,1.1557226,0.77630424,2.0948377,3.144268,3.5218358,2.744977,3.1388512,1.5689797,-0.185184,-1.5637836,-2.2153096,2.6921444,0.12622595,-0.408669,1.5671129,0.9209609,-2.3356223,0.4479699,-1.7291136,3.1796155,3.7029657,2.8097787,2.2923045,-1.5221863,3.8351088,3.5740776,3.273797,2.8281512,-2.7009668,2.3561893,-1.319818,-2.1026683,0.1635704,-2.6823835,-0.4699278,0.46524954,-0.867959,-3.7533169,-3.617189,-2.439538,3.9018297,-2.0163383,-3.7164245,1.6615772,2.393229,1.7237878,-3.1225076,-1.3800826,0.32458115,-1.9305148,2.239482,2.9354877,-1.8783374,-0.32120037,-1.8470669,3.167706,-1.4732552,-1.4811206,3.4052715,1.6481056,-2.3694854,-1.6939616,2.7154493,-3.629551,-3.821981,2.2089944,-2.1738768,3.2346702,-3.2732444,1.0792284,-2.5919895,-1.5134301,2.4240437,-3.014,1.0506129,2.7264018,0.8460846,-1.1635227,0.8531699,3.5379124,-0.5779772,-2.4535856,-3.4348583,1.4691129,0.3541646,-0.04446554,0.30482292,2.2403903,3.897015,0.6475725,-1.2315845,-1.8263769,3.457018,0.60379076,0.35783148,-3.6157575,2.7632637,-3.6387143,-1.4194026,1.3510113,-1.8161836,3.057364,3.9400997,0.8465252,-2.468782,1.9025989,0.7160044,3.5052314,-0.6707525,-3.8996615,-3.7086453,0.2920766,-2.4446483,-2.5564504,3.0889406,3.9801207,-1.9811773,-3.3638725,-2.7509842,-2.025023,-0.5463023,3.2958755,-2.9643164,-3.4376345,1.5273414,1.3373666,0.41007042,0.8417201,3.2955546,0.77742434,0.75898314,-1.1980753,-3.226592,-0.56058264,-3.8233347,-0.042352676,1.9030905,-3.0676737,3.731326,-1.8130212,-1.0954127,-3.9417186,-2.7723837,-0.9877753,0.02367115,-2.2660298,-2.9198852,-3.8573685,1.1038351,2.2673678,0.9265475,1.2469535,1.9248738,0.7596941,-1.2346067,-2.5136151,-0.894866,-1.9595394,-2.80621,1.1051192,-0.62026405,1.6292486,-3.0727053,3.2182493,1.0577974,-0.36248636,0.575572,1.208713,2.2163,2.349866,-0.6239767,-0.5535321,-0.7543211,-0.20436859,-1.5556254,-0.5077739,2.787488,3.7899032,0.58340836,1.3280506,3.5438528,3.4366922,-3.3097072,-0.3375802,0.05995226,-2.552866,3.9416475,1.0355096,-0.36460638,2.5285053,2.6886568,3.7134833,-1.1172338,-1.4493408,1.1817517,2.91776,1.588274,-1.1279755,3.890242,-3.762844,-3.4411993,2.7258835,-2.4521275,0.03936243,2.3561516,3.320485,-2.7328353,1.1266708,3.928155,2.3811908,3.9363976,2.6022182,-2.2536635,2.0133743,-2.6118693,0.9355674,-0.98175955,-1.7365742,1.4473987,-1.0009208,1.3918567,2.2735677,2.9422526,-1.1681452,0.71607256,-3.1812596,-0.016236305,-0.8209934,-1.8310604,-3.989387,3.7367039,-3.3943772,1.0361538,-0.3499956,-3.654976,-1.3257241,3.9137092,2.5329957,1.5063977,3.4118776,1.966867,1.0029373,-3.7198052,3.405837,2.2322826,-1.9496331,3.0025043,3.3132086,0.30525303,3.3039618,3.3759136,-1.3609056,0.40946245,0.8166146,-2.9982681,2.2877574,-3.0122566,1.265625,-0.95449495,1.4668193,-0.65514326,0.24690247,-1.7274876,0.93246126,-1.7768326,-0.9982705,-1.9268074,1.9901581,-3.433879,-1.6315885,-0.69536114,-2.9491782,0.98088694,1.1330757,3.847444,-0.346066,1.4726443,-2.9479594,0.005733967,-3.3925233,0.27778006,-0.21293736,3.5318851,1.510107,-3.312263,-1.518127,1.0289216,0.105003834,-3.6807122,2.71589,2.0887785,1.6067839,-0.42205048,0.38834906,0.7277274,3.8544564,3.0875401,0.7667589,-2.413549,2.2640624,0.37472343,-2.28576,2.7457228,2.2052994,3.8819313,-3.7367992,-3.5773516,-0.55846405,2.768876,1.411407,-2.1891623,3.1750808,2.5308175,-3.329856,-1.3112297,2.9569516,-0.80130816,0.38363934,-1.3074522,3.454317,-2.3139062,-1.5141397,0.4425044,-2.0775528,-0.51400375,0.951149,-2.5802546,-0.22121,-0.7052212,-1.6266084,0.017094612,3.4228492,-3.022089,-3.0012965,1.9545765,2.0123587,-1.0650043,3.6021729,1.3578911,-0.3396449,2.8644638,-1.6749325,0.50889254,-2.6542654,-0.7974405,-0.8709736,3.4872842,-1.5537224,0.46066904,3.0435076,-2.2946415,-2.4019175,0.7074919,-1.4577699,-1.2230272,-2.6545916,-1.9783669,0.28004885,-3.6865058,-0.060198307,-0.87269735,2.306419,-2.5554514,0.44724178,1.1139698,2.587874,-2.461636,0.51755524,-2.993084,-2.859623,2.1065822,-1.6128364,-1.5274568,-0.14119482,2.941544,2.833179,-0.03412676,2.8834205,3.6201525,-1.469029,0.18272352,3.4093423,-1.4711561,-2.736535,-2.447332,0.6833687,3.860557,0.281919,0.041377544,3.3266659,-3.7137237,3.477858,-1.1783433,0.7550206,-2.8195696,1.7982817,2.4088159,0.80310345,2.8348317,2.9133735,3.855597,3.545353,3.1773214,2.3175821,3.9057355,-2.435968,-1.7809987,2.4847016,-0.8499594,-3.1016269,3.317833,-2.7940245,-3.1452107,-0.29442263,-1.9920688,0.075890064,-3.1496034,-3.7481103,-1.6676445,-1.7736373,0.62737226,-0.15613842,-3.5762901,-0.2674017,3.2713642,-0.21984339,-1.0677319,-1.8495765,-3.3687253,2.3006635,-3.231307,0.2697177,3.6763024,0.01108551,-0.2646308,-3.9030027,-3.3743997,2.2267323,0.31095505,-0.57722425,-3.3276253,1.5529175,-3.863976,0.5544648,-3.0842,3.9983082,3.6337352,2.0984893,-1.3882799,-1.6339068,0.7782345,1.53022,-3.374082,1.872005,3.5481997,-3.3784413,-3.1129751,2.675416,-3.4791746,2.2361493,3.738634,-2.3745656,0.45125532,-3.7615404,1.5291252,1.3773265,-2.8893604,-0.59279966,-1.6022072,-1.0802813,-2.3073788,-1.944366,0.9629159,-0.5812578,2.5447474,0.3029375,-0.74544,-3.2168589,-3.1224728,2.7442927,3.624641,1.0508213,3.998088,-1.4608479,-1.9010229,0.24124718,2.4421253,0.94914675,2.821219,-2.0959578,-2.0390663,0.42215872,-1.7377958,3.5752497,-1.8749008,3.1138535,2.4501767,0.11689377,0.9172001,1.974834,-3.2482634,0.1102829,-3.0534482,-0.21696854,-3.4767919,3.7003412,-3.4455266,-2.2739615,-1.8390431,-3.3294134,1.1078486,0.01184082,1.8012714,-3.2445374,1.1712866,3.4828358,-1.4238577,-3.8346758,1.0329609,3.0299869,1.0310221,-3.0635705,-0.97265863,2.3215008,-0.35920954,-1.8568864,2.22474,0.9708314,-0.6649022,-1.5472417,3.8525906,2.1993542,3.0696836,-2.7617059,1.2489166,-0.018690586,3.8870773,-2.5360007,1.3791566,3.3546128,-1.4071555,0.63593197,3.4815207,-3.7887678,-3.424242,3.4911551,-1.0085359,0.5928464,2.0286846,0.38986635,3.6212873,0.43423462,-1.1219916,-1.3649769,2.678465,2.3861828,3.4610028,0.3781681,1.7444816,-1.9135442,-3.505539,3.3454332,1.1778245,0.58024263,-3.0837665,-1.9351606,0.58635426,2.7320886,-2.392775,1.5532031,-1.2052474,0.55685663,-2.4539876,-1.5803118,0.31600666,1.7158971,1.0871058,-1.2730637,-2.0670013,-0.140481,-0.6744876,2.5636768,-1.7942171,2.406301,2.7423787,1.6691766,-2.161439,1.9111075,-0.11443281,0.722373,2.261633,-1.0515728,-1.3481421,-2.3529735,-3.5210953,-0.2344799,-3.4779506,3.7322912,-1.7221704,2.0186553,-1.9190364,-1.9845643,1.2435689,-1.6324058,2.1270885,-2.8953853,-0.11626387,2.6841078,-3.814015,2.0574336,-0.47160912,-0.534215,3.4549189,0.45407534,-1.3985267,0.609756,2.811504,-0.11210394,3.2131863,-2.316739,-3.682292,-3.568242,-0.39280796,-3.72785,0.99725485,3.8528438,-1.5557404,2.78857,1.808217,-1.3796897,-1.756577,-3.340929,-1.333857,1.3577013,1.1740499,3.3342752,2.4451838,-1.3534603,-3.9519596,-3.6700363,-2.8809195,2.5477543,-3.3461437,3.3456082,0.79567575,-1.6379218,1.4023185,1.9229369,-3.377943,2.947585,-2.5005732,3.993878,2.2037153,-0.16581249,-2.1913,2.5625658,-0.81986284,2.4270983,-2.8415866,-2.4100723,3.923654,-1.3647027,3.5157537,2.9149122,-2.7359357,-0.9990454,0.6001463,0.21608162,-2.389565,-0.2418747,-3.17524,-0.7628236,-2.2274065,0.8702297,1.9186206,1.3708544,-0.249197,-1.1847682,3.454585,-2.0834084,-2.9350686,-1.6274171,-3.3601403,2.2445445,-2.3658319,-1.6305547,-3.546741,0.17233133,3.6328826,0.25736952,-2.4988856,-2.759719,-3.9169993,-1.5129447,3.820241,2.1713934,2.0857081,-3.5928535,-2.625352,3.1218162,-0.42391777,0.5964279,-3.2267118,-1.4122529,0.5222888,-3.2625504,2.739201,3.493888,-1.0323853,3.3193913,-2.4769406,-3.3510947,2.247942,-0.1184392,-1.334856,-3.2578068,3.0865288,0.21226645,-1.4366641,2.2463336,1.0632815,0.0679369,2.0374146,1.3784008,-0.9164567,-0.45482302,-0.750566,-0.3459015,2.7292,3.5932064,-0.05868721,-2.0545306,2.177174,-2.5902853,3.3949714,2.0043664,-0.3468914,0.10303879,1.4210258,0.43189383,-2.837556,0.7398877,-2.5271974,3.5853887,1.0474601,1.1733818,-1.1100311,-1.3864732,3.4883213,3.129334,-3.1165833,0.41813898,-3.6923146,0.41217995,-2.2941155,-2.483592,-1.2371917,-1.2406058,-1.0509892,3.6063824,2.2682939,-2.5854716,1.0796828,1.7902417,-2.976811,-2.2730818,-3.211246,-1.3213754,1.6641598,0.36004734,2.8793268,-1.248888,1.5559988,-0.63273335,-0.61083317,-2.1168156,1.8328595,-2.562931,3.380515,-1.3568544,2.566443,-1.8805132,3.322535,-2.5356774,0.46613836,-2.94734,-2.2834687,-1.3115234,-1.3522763,-1.3086667,-3.56106,1.6805277,-2.0043235,1.937252,-1.5789738,1.8101506,0.75045395,-3.408996,-2.7142506,0.58665943,-3.6423473,-3.777936,1.377985,-2.0544848,-1.7903166,-3.9140177,0.46188545,0.4733081,-0.13910103,-2.3349152,-3.1501503,-0.10725641,-2.4121943,-2.5684276,1.6535959,0.91368246,-3.9801087,-1.776413,2.612836,2.9222884,1.9112458,1.9674454,0.69360304,-0.3518052,-0.25723076,-3.078351,1.0052562,1.6125402,-1.2795019,0.28346443,-3.8307934,2.5980015,-1.6231503,-3.8531723,-2.030795,-2.7768893,-0.09336281,-2.316143,-0.11639023,0.36513662,3.9692383,1.2286139,1.1477432,2.4755692,3.2594213,-0.83033323,-3.868793,2.0753741,1.5706892,-0.6492386,-1.3306413,-3.4715858,3.675273,-1.5125651,0.18784475,-3.837078,-3.5861592,-1.1978397,2.7621331,-2.3285046,-1.817709,1.252058,2.6501756,-0.40636826,2.2244163,-1.4261413,-3.1018581,0.052125454,3.6567192,-3.5784235,2.7811751,-3.7807717,2.169837,2.2409139,2.3120031,-0.48787785,-1.9111862,0.18641233,-1.9232535,3.2542863,-2.6519818,2.9261632,-1.6913347,-0.19526243,1.8193712,3.6006727,3.8706994,3.341805,0.81675196,0.43641663,-0.12069702,3.0329099,2.6380405,0.8797221,-1.7514195,-3.766355,-2.84377,-2.3729072,3.06288,-1.966577,0.6811547,3.0404983,1.9799557,-0.027554989,1.182447,-2.305296,-0.27626657,-3.8562589,0.6182914,0.6975198,3.2665486,-0.09841776,3.0977407,-0.37553787,0.8404503,-3.167231,-3.2414136,2.1828136,3.311308,1.8400006,0.80780697,3.0314493,0.77757406,-3.896658,-1.4882302,0.8534298,-2.6847963,1.8760552,0.12926435,0.42512703,0.48953485,-2.8429623,1.7871366,-3.3665447,-3.9085217,-1.2651105,1.4307523,-0.8073473,2.5012708,-3.3272653,3.1964078,0.014025688,2.8237681,0.052804947,-3.542677,-2.8629332,-0.20650291,-0.20950556,-1.8557844,0.68210125,-2.012219,0.48728752,-0.86818695,-3.8453078,2.649424,-0.14578581,3.7667346,-1.1669569,-0.7498083,3.723753,-2.3044367,-1.273324,-1.0926805,1.7386613,2.4291534,-3.004178,-0.5059624,-1.0814557,0.38126135,-2.1335363,-1.66854,1.1987691,-1.3608522,3.5670881,-3.9714327,0.800128,2.768403,-3.4859476,-3.6533203,3.571137,-2.353825,-2.0828543,3.812141,3.8300748,0.360919,-3.6123629,-0.5982518,-3.2712212,3.5888495,-0.060464382,-2.0886116,-3.302009,2.940751,-1.1074667,-2.0792155,-0.12699842,0.043962955,-0.24322939,0.30541563,-0.8257222,-2.321875,-3.006517,2.1154022,1.1968327,-2.3589635,-0.48128128,3.3228545,2.5628557,1.0889034,1.9375901,3.0127993,-0.0740242,-3.2826805,2.6559253,-2.0121078,-0.49157333,-2.5743828,0.81383944,-2.0544825,-3.2638702,2.7471428,1.3636265,-2.3832555,2.0079517,-2.800095,3.5983915,2.37357,-2.3694615,-2.3830495,-0.5434036,-3.0046277,-2.1899242,3.9236336,0.15953636,1.6474414,-0.40031004,2.3289237,2.8839917,-3.0870214,1.6071248,3.1878924,0.22212696,-1.1007314,-1.6222754,-3.1952968,1.0079198,-1.3631687,0.99732256,-1.968173,2.2121553,-0.18721247,-3.047821,-1.4448938,0.6327801,-1.8955641,3.5679483,-0.023614883,0.026805878,1.6126657,3.5515685,-0.6665449,3.7850585,1.7762856,2.6750274,-2.8666897,-0.33542633,-0.56149054,0.34458494,-1.6375389,-2.2134256,-3.570857,2.9379506,2.2818875,-0.58710194,3.9653244,0.2679286,3.3518014,-1.3604512,3.250875,-0.37510443,2.6706243,2.0652723,3.4991693,-0.8505182,-1.8731532,-2.484808,3.3854036,-3.171938,3.0650187,-2.0727324,2.8175893,3.297637,-3.4440918,-0.337543,-1.2407756,-3.4450946,0.36817265,-3.0267658,1.3504367,2.4117584,3.9074311,1.1243925,-1.9333782,-0.31250048,3.9569955,-1.3344674,-3.741551,-1.4300323,-2.8208475,3.053969,-1.8756509,-1.7158084,2.7139912,0.3316145,-1.7759666,3.179637,3.4098935,1.8362899,-0.37264347,0.3232298,1.1447845,3.4869328,3.1135912,2.3337111,3.9840689,3.2326474,-1.4981074,1.0449061,1.467339,-2.2164125,3.5968971,1.4264703,-2.4680028,-0.7455859,3.5019126,-2.6364865,3.034874,1.5663939,-3.827094,2.0297432,2.517693,-0.2844658,-3.0641031,-3.2699232,-3.9381342,-3.5650349,-2.561387,1.7718778,-1.2095413,-2.1684608,-0.2648759,0.087370396,3.705042,2.0944214,-0.0820179,2.9254417,2.2738042,-0.26940775,-3.9634967,1.6603527,0.6932535,-2.268324,-1.4446869,2.7996063,0.13235521,2.0347643,0.5658698,1.2161212,1.1170096,-2.6840177,1.0612726,-2.5589795,0.11424732,-0.23603678,-0.47683477,0.41518688,-1.6255126,-3.8605084,0.8200774,0.9763937,3.1668515,3.8222857,-1.7853708,1.2326107,-0.008533955,-2.5812745,-2.7918992,3.0513463,2.6797876,3.929307,-0.3991561,-2.6687727,-3.7459044,-1.7888236,-0.4625144,-2.6787004,-0.7928438,3.5763345,2.1547947,-2.2729435,-1.1240826,-2.2711768,3.515935,-2.592866,-2.982739,-3.7950945,-2.5314417,3.8351445,-2.748415,-0.9903145,-3.3484159,1.7428813,3.313241,-3.9638348,1.2443223,-2.8803005,2.5554833,3.5027556,-2.1770205,-3.557599,1.3926511,-2.9251375,-2.1673412,-2.319662,3.2723737,3.6887517,-3.8406215,-0.15568018,2.2392316,-0.28983355,0.27337313,-3.5757442,-3.4227047,0.613811,-0.3000865,-3.3784614,0.42919874,-2.673379,0.37227106,2.9576092,0.5823965,2.0215425,-2.2872057,-0.39955616,2.201274,2.8228521,2.1206264,1.5004721,2.412682,-2.7211733,1.8175454,-1.4088254,-2.4401307,1.6989884,-1.5270572,2.9854875,-2.862658,1.2791543,3.4967766,-0.70769405,-3.0655236,-1.066124,-1.5837517,-0.86728954,-0.8143339,-3.8178158,-3.3503222,-0.054256916,3.5597057,-3.3741279,0.9473481,2.8715658,2.6800718,0.85825825,2.501319,-1.7500033,3.6080432,-3.4706388,1.0441713,0.615108,-2.8616624,0.6088276,1.1261573,2.8146625,3.3482356,-3.670001,0.3717494,-3.8256836,2.3907824,2.8954306,0.38096905,-2.224307,0.5087204,-2.6623626,3.778603,-2.5320907,3.3941607,0.6011925,1.5013471,-2.2072763,-0.16685009,1.9789124,-2.1911087,3.8063354,-3.4701986,3.2683573,-3.590508,3.0690904,0.15165758,2.1927795,0.79851055,1.4623547,-1.4153857,0.40204573,2.231998,-2.9304185,3.563509,-1.8017926,-3.2946792,-0.25103998,-1.9763966,0.53998995,-3.7472925,0.5683608,3.3329692,3.0331879,3.1227312,-2.5570955,1.7551813,-0.9862585,0.34050083,3.6457815,2.135591,1.612319,3.1773043,2.0488453,1.5813074,-2.3859024,-2.8033242,0.3319459,2.9238534,-0.93948126,2.4513535,1.2086434,1.7853861,1.4745936,2.9916744,1.3355737,-0.7297983,-3.1325731,1.3740387,-2.1240396,2.0344396,0.89471054,-2.2079978,0.019001007,0.97774744,2.4495888,-1.0368052,0.27470732,-3.0480695,0.42110443,3.6280184,-1.087451,-0.47819805,-3.8608236,-3.8890572,1.99577,-1.5009594,1.2338052,-2.219832,-0.55571604,0.5762167,1.054102,-0.32278824,-3.6131177,3.3669348,0.05949402,-1.611496,-1.4992714,-0.39025688,2.9506502,0.086111546,1.9228625,1.2394781,-2.6794791,3.7736368,-1.1700215,0.07433605,2.79523,-3.974702,1.9676929,0.24591446,1.6188865,3.515627,-3.026792,-2.914219,1.434495,-1.6402621,1.3227682,0.20533419,-0.49094582,-1.0191097,1.0794044,0.5544858,3.2337346,-3.9956264,2.2848482,-1.0170131,-3.1772442,1.4081073,-2.0411868,-1.6817985,1.7385206,1.6675801,2.0176597,1.3223152,-1.1925292,0.5877037,-3.2666078,-3.8344631,-1.1828194,-1.433804,-0.14411068,-0.41744804,2.910111,3.851725,-3.0699582,1.3327851,2.3580914,3.485681,-2.8228455,-0.8405976,3.019402,2.051505,3.2969604,-3.875123,0.45669365,-0.44133902,-3.4099894,-1.3038402,0.025502682,-0.23237228,3.8280153,-3.48565,-2.6219416,-0.971179,0.95354366,1.1332016,-3.8794212,3.3934703,3.6816077,-2.138977,-1.3437037,3.9773617,0.89140606,-1.5002317,-0.49508858,-1.6344752,2.908245,-0.9931097,-2.0591307,-0.82135725,0.012623787,2.6212745,-2.7706695,-0.5118089,1.6058149,-3.685278,0.17575645,1.1729441,-0.08276224,2.0536103,0.49037313,-1.7263927,1.909493,3.7281098,-2.1313677,-0.8691678,-2.5987973,3.266171,1.9024787,0.7582097,-2.7671013,1.7356534,3.0389476,3.9641747,-1.3778205,2.5733051,2.9495091,3.7395406,-2.9978194,1.4025378,-3.7088833,-1.7824597,-3.4478679,-0.99256897,0.79058456,3.8092957,0.56846476,-0.7409067,-3.9275713,-2.7517128,-2.8042417,-3.616548,2.6947408,0.39475155,-1.9560499,-0.7369752,2.0123315,-2.1354675,-2.971849,0.97822523,-1.7089138,3.6489348,-0.62157774,2.0242176,1.410038,1.6091132,-0.8673539,-1.0699072,-1.2422662,2.9848485,0.30762434,0.70642614,-3.2590408,0.010502338,-3.8953614,-3.070199,-1.5348988,-1.5739765,-3.7044668,3.5218759,0.22814465,1.2545018,2.4916253,2.7604594,-1.9806967,-0.82893467,-2.306981,1.6518292,-3.6780744,-3.7515016,-2.2584739,-2.3801436,3.5898442,2.0533905,0.42723513,-2.8653245,-2.3567019,1.3609667,-1.9182515,-2.6515818,3.160418,2.8025794,-3.400579,3.0618496,-1.3014531,-0.07189083,-3.0702372,-2.8022246,0.450974,-1.9231443,-1.0730748,-0.9227104,-0.2640128,3.356162,1.6409278,-3.8313942,0.11544466,-1.4051404,2.3586607,-3.2899103,3.545186,3.669137,1.8681607,-2.6280198,3.0911417,-1.8547168,2.2207193,0.39885902,1.8583221,2.5714297,1.112309,2.2421546,0.39274883,-2.8734179,-0.07866955,-1.3835907,-2.3005185,3.8979206,3.9370198,0.5362072,-2.3274403,-0.34435558,1.472322,-1.9385686,-1.3493986,0.90442896,3.7764225,2.3301015,3.811952,2.3341618,1.0289326,-1.0471263,-3.615224,0.38947344,-1.4533792,1.1897068,-0.09887791,-1.4795036,-2.462966,3.5233946,-0.53060293,2.2397103,-2.1967287,-2.992185,-3.820321,1.1010237,-3.3404093,-3.6205144,1.5240364,-2.4040456,-0.2984109,-0.93680143,2.8073096,-1.3593111,2.0982118,0.64118433,2.7926254,-2.1937075,-1.9104037,-3.6353626,1.894702,-3.3799486,-0.4022088,-2.0884895,0.44448853,3.617352,-2.7835097,-3.6788082,1.813961,-2.0478764,-0.30200386,0.888391,-0.18270636,-1.8678074,-1.8123989,-2.1814146,2.641595,1.2902403,-3.684845,3.914421,-0.13221788,-3.8073401,1.1147981,3.1910138,-3.1075044,-1.3321304,1.9813919,-3.0534549,3.0936365,1.3412352,-1.8092232,-0.36403084,-2.4810252,1.8828788,-0.4920597,2.381207,3.125577,2.0412745,-0.77963257,2.8771715,3.081007,2.193501,0.50913954,1.6881499,-3.7493334,-3.0213075,-0.4229145,-0.62431765,-3.7431989,-3.1355042,2.3683348,-3.8860216,-1.068294,0.070248604,-3.0291505,-3.729908,2.6854916,3.8761454,-2.5681906,2.317255,0.7680025,0.8612132,-2.80931,1.0691404,0.008310795,-0.9276509,0.9275441,-1.545373,-3.501196,-0.5449724,-0.3194189,2.9921708,-2.84802,0.061975002,0.016532421,0.23128557,-1.8034782,-1.0704899,0.09440422,3.0231266,-1.369422,-1.7559428,3.0439072,-3.4502301,-0.76780796,-1.5254679,-1.7000294,2.671023,-2.374927,-3.083097,0.95487356,-2.221868,3.990788,0.59453773,3.7956424,-3.5863457,-0.21815825,2.8042479,1.9290261,-1.3175297,2.801722,-0.60476637,1.5066767,-3.4966574,2.7094278,3.7594972,-2.5220776,-3.6666074,-2.9806848,3.1797795,3.8823051,0.90948486,3.149334,1.3468418,-1.7654347,-1.9127889,0.47303104,-1.4196815,3.8681421,-0.7732215,-1.6731992,-0.7947817,0.627686,2.4149137,-2.9161587,2.9355474,1.5779643,2.1998029,-0.91647434,3.5561447,1.3392425,2.7352962,3.6781082,-2.0678272,-1.033309,-3.73073,3.416162,-0.47008133,1.5794373,-0.28341913,3.0439587,3.2982707,3.7321048,3.2936249,1.3792129,-2.710269,2.2610126,2.2816248,0.7540612,3.3860955,-2.1529455,3.1355743,3.0338774,0.6545601,2.8822355,2.205556,-2.8011045,-0.9179325,3.1395235,-3.179266
-2.1198153,-3.386732,1.705874,2.0577645,2.045393,1.3977928,3.8349876,1.5470033,-1.366765,-0.3731718,1.7411242,3.5855002,-0.16051006,2.8354173,-2.9913244,-0.08680725,-0.53438044,2.0521479,-0.17136574,-3.0107236,-2.1714115,1.5398564,0.55132675,-1.0019212,-3.421968,-2.651031,-0.8817563,3.2997828,2.9413128,-0.15677357,0.15293503,-1.7932534,0.09389639,-3.028389,0.9716387,-2.5887346,0.63698244,3.5685916,3.5891175,-2.2638426,-2.6128464,0.6771779,3.5416517,-1.2995319,1.2836819,-2.3983836,-2.7796082,-0.8287597,0.51307535,-0.2656474,-1.0859895,3.7486067,-1.0653682,1.589087,-0.17562437,2.6468515,-1.1079907,-2.9484859,2.8449645,-1.7898564,0.52907133,2.2111182,-3.4639668,-1.2610278,0.62635803,1.5813518,-1.8058705,-3.0168,3.8398314,-2.849162,0.75419617,2.0672078,-3.387455,-2.601231,-3.9596848,1.5876379,-0.5624852,3.9960728,-1.4806004,-3.1977544,1.0489097,-0.061093807,2.8751245,0.8946247,3.8007526,1.9475431,3.2002792,2.662115,-3.1187177,-1.2153845,-3.9544969,-3.111753,-1.1031504,-1.7070227,1.7851906,-3.54746,-3.1990876,1.723721,-3.2674565,-1.0986814,-3.7580767,-1.6083589,0.121582985,-0.8132243,-1.5832591,-3.2969403,-0.5267925,0.09846878,1.3536777,-0.11897802,2.4860597,-1.2282572,-2.4136367,-2.256949,-0.7216759,-3.208445,3.6021285,2.0082703,1.4587669,3.9421568,-2.9910417,1.7592793,1.1834974,0.09300232,1.0539165,-0.2822318,0.1207819,0.4188428,-1.3814678,-0.74384785,-2.637456,0.4941411,-1.7808194,-0.08116484,2.023264,2.9266357,-3.0367217,2.7241,1.6865435,-0.42521048,1.1934352,1.2020245,-0.66856575,1.5230303,-2.6873608,0.09733868,-0.37959957,1.4303436,2.72962,-1.3455625,-0.90473366,2.5152774,-1.4634204,1.4136372,-0.40562153,0.24122858,3.2179303,0.39386415,-0.42229414,2.6817732,-3.989059,0.008522987,-1.5560088,3.1757565,-0.9534559,1.2326331,0.6373849,0.098279476,1.1567783,2.7746806,0.30688,-2.5749025,3.804586,3.7959456,-0.7262578,-2.1762385,-3.5099325,-3.5890555,-3.3349185,-2.8718824,1.3931546,1.485486,-3.8897934,3.2344432,-3.7345853,0.67852783,2.3909369,0.7486119,-3.2532134,-3.5687923,2.0866413,0.06143713,-3.530127,1.4021106,-3.840757,-1.7714658,3.5555358,3.093789,2.7792935,3.3578134,-1.4442244,3.742866,-1.0034251,-2.1974764,-2.4035473,-2.5311809,-2.0704575,-0.70786715,-1.8156772,3.4608555,0.9454956,0.9666519,-3.6221385,0.025985241,3.4624977,3.1297488,3.6030283,-1.1587915,-3.8197541,1.3825688,2.870006,3.5088801,-3.713491,-0.51680374,1.9143944,-3.846621,3.3815556,-3.110466,2.340869,-2.3120804,-2.5134645,-0.0054740906,-0.754066,-0.059811115,-1.9237247,1.1557226,0.77630424,2.0948377,3.144268,3.5218358,2.744977,3.1388512,1.5689797,0.028426647,-1.4318886,-2.2153096,2.6921444,2.911336,-0.408669,1.3631277,-2.9689279,-2.8344717,-3.5051975,-1.7291136,-0.80794716,3.7029657,2.8097787,2.2923045,0.17940283,3.8351088,1.6850486,3.273797,2.8281512,-2.7009668,0.08734131,-1.319818,-2.1026683,0.1635704,-2.6823835,-3.4743867,0.46524954,0.11491871,-1.7602181,0.91486025,-0.53242826,3.9018297,-3.884202,-3.7164245,1.6615772,2.393229,1.7237878,-3.1225076,-3.507711,0.32458115,-3.7889633,3.0087142,2.9354877,-1.8783374,-0.32120037,-0.99391127,3.167706,1.0309253,-1.4811206,1.659277,3.7725282,-2.3694854,-1.6939616,2.7154493,-3.629551,-3.821981,-0.24959517,-2.1738768,3.2346702,-3.2732444,-1.5821314,-2.5919895,-3.9694095,2.4240437,-3.014,1.0506129,2.7264018,0.78512764,-3.2504587,-0.68408203,3.5379124,-0.5779772,-2.4535856,-3.4348583,1.4691129,0.3541646,-0.04446554,0.30482292,2.2403903,3.897015,0.6475725,0.22753477,-1.8263769,3.457018,2.7622943,0.35783148,-3.6157575,2.7632637,-3.6387143,1.1725097,1.3510113,-1.8161836,3.057364,0.9956517,0.8465252,-2.468782,1.9025989,-2.5648327,2.6180267,2.6817298,-2.646616,-3.7086453,0.2920766,-2.4446483,-2.5564504,3.0889406,2.140585,-1.9811773,-3.3638725,-2.7509842,-2.025023,-0.5463023,3.2958755,-1.698041,-3.4376345,-2.0907602,1.3373666,0.41007042,0.8417201,3.2955546,0.77742434,1.8009472,-1.1980753,2.410091,-0.56058264,-3.8233347,-0.042352676,1.9030905,-1.8356676,3.731326,-1.8130212,0.9260063,-3.9417186,-1.2770476,0.5634427,0.02367115,-2.2660298,-2.9099698,2.4888039,1.1038351,2.2673678,0.9265475,1.2469535,0.6681943,3.7318301,-1.2346067,-2.7994385,3.6879506,-1.9595394,2.0813475,1.1051192,-0.62026405,-1.7263303,-3.0727053,3.2182493,1.0577974,-0.36248636,0.575572,1.5442824,1.0525818,2.349866,0.93063354,-0.5535321,-0.7543211,-0.20436859,-1.5556254,-1.4414587,-1.214334,0.37751484,0.58340836,1.3280506,3.5438528,3.4366922,-3.3097072,-0.3375802,0.05995226,-3.0561824,3.9416475,1.0355096,-0.36460638,2.5285053,2.6886568,3.7134833,-1.3289857,-1.3769169,-0.12934875,2.91776,1.588274,-0.9549742,3.890242,3.7877913,-2.7920995,-3.8098154,-2.4521275,0.03936243,2.3561516,3.320485,2.5234118,0.7814188,3.928155,2.3811908,2.055676,1.6635199,-2.2536635,2.0133743,-2.6118693,0.9355674,-0.98175955,-1.7365742,1.4473987,-1.0009208,0.25766945,2.2735677,-1.7703505,0.7094307,-3.1241798,-3.1812596,2.457512,-0.8209934,-1.8310604,-3.989387,3.7367039,-3.3943772,-3.4796534,-0.3499956,-3.654976,-1.3257241,3.9137092,3.3821583,1.5063977,-1.104454,1.966867,1.0029373,-0.1046648,-2.123495,2.2322826,-1.9496331,3.0025043,3.3132086,0.30525303,-2.0855117,3.3759136,-1.3609056,0.40946245,3.1655207,-2.9982681,2.2880216,-3.0122566,1.265625,-0.95449495,1.4668193,-0.65514326,0.24690247,-1.7274876,0.93246126,-1.7768326,-2.2864656,-1.9268074,1.9901581,-0.54710674,-1.6315885,-0.69536114,-2.9491782,0.98088694,1.1330757,3.847444,-0.346066,-3.9303012,1.1171227,0.005733967,-3.3925233,0.27778006,-0.21293736,-1.2510829,1.510107,-3.312263,-1.518127,1.0289216,0.105003834,-2.0964456,2.71589,2.0887785,1.6067839,-0.42205048,0.38834906,0.7277274,3.8544564,3.0875401,-2.784111,-2.413549,2.2640624,-1.599298,-2.28576,2.7457228,2.2052994,3.8819313,-3.7367992,-3.5773516,2.1323452,2.768876,1.411407,-2.431209,3.1750808,3.0446491,-3.329856,1.2101154,2.9569516,-0.80130816,-3.326116,-1.3074522,3.454317,-2.3139062,-0.36654568,0.4425044,2.7242332,-0.51400375,0.951149,-3.284914,-2.0538416,-0.7052212,-1.6266084,0.017094612,3.4228492,-3.022089,-3.0012965,-1.0152545,2.0057359,-1.0650043,-3.1661263,0.9578357,0.18576384,-0.9774604,-2.6057754,0.50889254,-2.6542654,-0.7974405,-0.8709736,3.4872842,-1.5537224,0.46066904,3.0435076,-2.2946415,-2.2002892,0.7074919,-1.4577699,2.3471098,-2.6545916,-1.9783669,0.28004885,-0.9546566,-1.4414916,-0.87269735,2.306419,-1.9941621,0.44724178,-0.905118,2.587874,-2.461636,1.0579348,-2.993084,-2.859623,2.1065822,-1.6128364,3.7478538,-0.14119482,2.941544,2.833179,-0.03412676,2.8834205,-3.912593,-1.469029,0.03955698,-2.8426147,-1.4711561,0.21292305,3.8910685,0.6833687,3.860557,0.281919,0.041377544,3.3266659,1.9274678,3.477858,-1.1783433,0.7550206,-2.8195696,1.7982817,1.3346267,2.4512162,2.8348317,2.9133735,-1.4539294,3.545353,3.1773214,2.3175821,1.9866152,-1.6246343,-1.7809987,-3.6854763,-2.8603277,-3.1016269,3.317833,-0.32436323,-3.1452107,-0.29442263,3.1219473,2.759408,-3.1496034,-3.7481103,-1.6676445,-1.7736373,-1.1004028,-0.15613842,-3.5762901,-0.4682598,3.2713642,-0.21984339,-1.0677319,-1.8495765,-3.3687253,-1.9549279,-3.231307,0.2697177,-1.0434918,-0.10651779,2.9866467,-3.9030027,-3.3743997,3.149744,1.2699528,-0.57722425,-3.3276253,1.7661128,-3.863976,0.5544648,-3.0842,3.9983082,3.6337352,2.0984893,-1.3882799,-1.6339068,0.7782345,-2.9483604,-3.7838855,1.872005,3.5481997,-3.3784413,-3.1129751,2.675416,-3.4791746,-0.9906349,-2.5076332,0.5528965,0.47370768,-3.839758,1.5291252,-1.8319225,-2.8893604,-2.9897451,-1.6022072,-1.0802813,-2.3073788,2.6746936,0.9629159,-0.5812578,-3.411006,0.3029375,-0.74544,-3.2168589,-3.1224728,-3.1988149,-2.2706704,0.3977313,3.998088,0.80830336,-1.9010229,0.24124718,3.855929,0.94914675,2.821219,-2.0959578,-2.0390663,-0.04729843,-1.7377958,2.0831528,-1.8749008,3.1138535,2.4501767,0.11689377,0.9172001,1.974834,-3.2482634,2.444118,2.5179281,-1.179481,-3.4767919,0.79841566,0.05768299,-2.2739615,-1.8390431,2.8180537,-3.8684926,0.01184082,1.8012714,-0.42645407,1.1712866,1.8001003,-1.4238577,-3.8346758,1.0329609,3.0299869,3.101625,-3.0635705,-0.97265863,-1.3494644,-0.35920954,-1.8568864,2.22474,0.9708314,-0.6649022,2.287538,3.8525906,-0.88143444,3.524795,-2.7617059,-2.6522279,-3.769723,3.8870773,-2.5360007,1.3791566,-1.9998603,1.5868082,-1.0557551,3.4815207,-3.7887678,-2.465776,-1.3771381,-1.0085359,0.5928464,-0.6111007,0.38986635,3.6212873,0.43423462,-1.1219916,-1.3649769,-2.2619262,2.3861828,-3.8723702,0.3781681,1.7444816,-1.9135442,-3.505539,-2.8757725,1.1778245,-2.3492756,-3.0837665,-2.0717711,0.58635426,2.7320886,-2.392775,1.5532031,-1.2052474,0.55685663,-2.4539876,-1.5803118,0.31600666,2.0199943,1.0871058,-1.2730637,-2.0670013,-0.140481,0.87469053,-3.123024,-0.39249754,2.406301,2.7423787,1.6691766,-2.161439,1.9111075,-0.11443281,0.722373,2.261633,-1.0515728,-1.3481421,-2.3529735,-0.0512228,-0.2344799,-3.4779506,3.7322912,0.18941402,1.507535,0.9321823,-1.9845643,1.2435689,-2.907456,2.1270885,-2.8953853,-0.11626387,3.246573,-3.814015,-3.5948205,-0.47160912,0.24010181,-3.9419613,0.45407534,-1.3985267,0.609756,0.05109644,-0.11210394,3.2131863,-2.316739,-3.682292,-3.568242,1.290452,-1.6182942,-1.3969045,-0.73580647,-1.2343879,-3.0458698,1.808217,3.4381719,-2.8705215,-3.6853852,-1.333857,1.222836,-2.8207207,3.3342752,1.3446922,-1.3534603,-2.8437452,-3.6700363,-2.8809195,1.6010284,-3.3461437,3.3456082,0.79567575,1.1303363,-3.759736,1.9229369,-2.9559617,2.947585,-2.5005732,-1.2360034,2.2037153,-0.16581249,-2.1913,2.5625658,-0.81986284,2.4270983,-2.8415866,-3.6326723,2.3397665,-2.402804,3.5157537,0.9424658,-2.4248505,-0.9990454,0.6001463,0.21608162,-2.389565,-0.2418747,-3.17524,-0.44839716,-2.2274065,0.8702297,-2.0295272,1.3708544,-3.3457503,-1.1847682,3.454585,0.5310998,0.80749416,-1.6274171,-3.3601403,0.044173717,-2.3658319,-1.4276805,-3.546741,0.17233133,3.6328826,0.25736952,-2.4988856,-3.5058355,-2.3804946,-1.5129447,3.820241,2.1713934,2.0857081,-3.5928535,0.16855478,3.1218162,-0.42391777,0.5964279,-3.2267118,3.2627273,0.5222888,-0.8260875,-0.23780346,3.493888,-1.0323853,3.2453208,-2.4769406,-3.3510947,2.247942,-2.2630482,2.4592547,-3.2578068,3.0865288,0.21226645,-1.4366641,2.2463336,-1.3894601,0.0679369,-0.82573986,1.3784008,-0.9164567,-0.45482302,-0.750566,-0.3459015,3.691238,3.5932064,-0.05868721,-2.0545306,-1.7739816,-2.5902853,3.3949714,2.0043664,-0.3468914,0.10303879,-3.42319,0.01068306,-2.837556,-3.9333677,0.37615824,3.5853887,1.0474601,1.1733818,-1.1100311,-1.3864732,3.4883213,3.129334,-3.1165833,2.6906762,-3.6923146,-0.74432564,-2.2941155,-2.483592,-1.2371917,-1.2406058,1.6550698,3.6063824,2.2682939,-2.5854716,-2.4040775,1.7902417,-0.083354,0.6963577,0.42359734,-1.3213754,1.6641598,3.8454976,2.8793268,-1.248888,1.5559988,-2.958868,-0.61083317,-2.1168156,1.8328595,-2.562931,3.380515,-1.3568544,2.566443,2.2874918,3.322535,-2.5356774,0.46613836,-2.94734,-2.2834687,-1.3115234,-1.3522763,-1.3086667,-3.56106,1.6805277,-1.312305,1.937252,-1.5789738,1.8101506,0.75045395,1.0005484,-2.7142506,0.58665943,-3.6423473,-3.777936,1.377985,-2.0544848,-1.7903166,-3.9140177,0.46188545,0.4733081,-2.1158576,-2.3349152,1.9166322,-0.10725641,-2.8611321,-2.5684276,1.6535959,0.91368246,-3.9801087,-1.776413,-3.6288395,2.8829312,1.9112458,-1.9740338,0.69360304,3.024887,-1.7381935,-3.078351,3.2141604,1.6125402,-1.2795019,0.28346443,-3.8307934,2.5980015,-0.61071634,-3.8531723,-2.030795,-3.1579819,0.9295263,-2.316143,-0.11639023,0.36513662,3.9692383,1.2286139,1.1477432,2.4755692,3.2594213,-0.83033323,-3.868793,2.0753741,1.5706892,-0.6492386,-1.3306413,-3.4715858,0.70229197,-1.5125651,-5.2022934E-4,-1.2396598,-3.5861592,-1.1978397,2.519627,-2.3285046,-1.817709,-3.921093,2.6501756,0.90292025,2.2244163,3.6217127,-3.1018581,0.052125454,3.6567192,-3.5784235,-2.7545953,-3.7807717,2.169837,2.2409139,2.3120031,2.8421988,0.34237957,3.7415037,-1.9232535,1.8959012,-2.6519818,2.9261632,-2.672544,-0.19526243,1.8193712,-2.8746867,3.8706994,-1.8086247,0.81675196,0.43641663,-3.7558923,-1.6883855,2.6380405,-1.4209218,3.0325832,-3.766355,2.33927,-2.3729072,3.0135002,-2.8466687,0.6811547,3.0404983,0.54036474,2.1271176,1.182447,-2.305296,-0.27626657,-3.8562589,0.6182914,0.6975198,3.2665486,-2.971355,3.0977407,-0.37553787,0.8404503,-3.167231,-0.6449547,-1.7416811,-2.110312,1.8400006,-1.3521008,3.8656583,0.77757406,-3.896658,3.9465866,0.8534298,-2.6847963,1.8760552,0.12926435,0.42512703,0.48953485,-2.8429623,-2.3659873,-3.3665447,-3.9085217,-1.2651105,1.2890735,-0.8073473,2.5012708,1.5040269,0.8605399,0.42971325,2.8237681,0.052804947,0.16588688,-2.8629332,-0.20650291,3.6774235,-1.8557844,0.68210125,-2.012219,0.48728752,-0.86818695,2.5593095,2.649424,-0.14578581,-3.8797598,-3.426609,-0.7498083,3.723753,1.9555888,-3.5996418,-1.0926805,-3.592647,2.4291534,0.592011,-0.5059624,-1.0814557,0.38126135,-2.1335363,-1.66854,0.40788603,-2.798421,3.5670881,-0.10337925,0.800128,-2.611287,-3.4859476,-3.2841778,3.571137,-2.353825,-2.0828543,3.812141,3.8300748,0.360919,2.6522417,-0.5982518,0.8541846,3.5888495,-0.060464382,-2.0886116,-3.302009,2.940751,-1.1074667,-2.0792155,-0.12699842,1.8399959,0.8092766,2.39788,2.0708194,-2.321875,-1.1495409,0.6580672,2.3989744,2.7717018,1.6376595,3.3228545,-0.49276018,-1.7282472,1.9375901,3.0127993,-0.0740242,-3.2826805,-0.2814107,-2.0121078,-0.49157333,0.8432498,-1.189373,0.41550732,2.4730687,2.7471428,1.3636265,2.1746345,2.0079517,-2.800095,3.5983915,2.37357,-2.3694615,-3.30626,-0.5434036,-3.0046277,-2.1899242,3.9236336,0.15953636,1.6474414,-3.6031914,-2.7212677,3.7002525,-3.76166,1.6071248,3.1878924,0.22212696,-1.1007314,-1.6222754,-3.1952968,1.0079198,-2.0852914,0.99732256,-1.968173,2.2121553,-0.18721247,-3.047821,-1.4448938,0.6892376,-1.8955641,-0.6461992,-0.023614883,0.026805878,-3.82799,3.5179229,-0.6665449,1.3354082,1.7762856,2.6750274,-3.762991,-0.33542633,-0.9040661,0.34458494,-1.6375389,-2.2134256,-3.570857,2.9379506,-2.143991,-0.58710194,3.9653244,0.2679286,3.3518014,-1.3604512,3.6427107,-0.37510443,2.434659,2.0652723,3.4991693,0.6815047,-1.8731532,-2.484808,-1.6870809,-3.171938,0.28331852,-2.0727324,-0.45417118,3.297637,-3.4440918,-0.337543,-1.2407756,-1.6476607,3.3286257,-3.0267658,1.3504367,2.4117584,1.685679,1.1243925,-1.9333782,-2.7993045,3.9569955,-1.3344674,-3.741551,-1.4300323,-1.6888828,1.7102118,0.8536396,-1.7158084,-3.3067017,0.3316145,-1.7759666,1.3475003,2.56598,1.8362899,-2.186398,0.3232298,1.1447845,1.0083432,3.158166,-2.5801487,3.5661745,3.2326474,-1.4981074,1.0449061,1.467339,-2.2164125,3.5968971,-0.90362215,-2.4680028,-0.7455859,3.5019126,-2.6364865,3.034874,1.5663939,-3.827094,2.0297432,1.3900719,0.08379841,-3.0641031,-1.6314998,-3.9381342,-3.5650349,-2.561387,1.7718778,-1.2095413,-2.1684608,-0.2648759,0.087370396,3.705042,2.0944214,-0.0820179,-3.9932847,-2.994256,2.5639253,-3.9634967,-3.05027,2.760666,-2.268324,-1.4446869,2.7996063,0.13235521,2.0347643,0.5658698,2.6165066,1.1170096,-0.37396097,1.0612726,-2.5589795,0.11424732,-0.23603678,3.0339303,3.5483274,-1.6255126,-3.8605084,0.8200774,-1.7259197,3.1668515,-0.985095,-1.7853708,1.2326107,-0.008533955,-2.5812745,-2.7918992,3.0513463,2.6797876,3.929307,-0.3991561,-2.6687727,-3.7459044,-1.7888236,-0.4625144,-2.6787004,3.9843817,3.8753018,2.1547947,-2.2729435,-0.82971525,-1.7836456,3.515935,-2.592866,-0.053744316,-3.7950945,-2.5314417,3.8351445,-2.748415,-0.14153671,-1.5519409,1.7428813,3.313241,-3.9638348,1.2443223,-2.8803005,2.5554833,3.5027556,-2.1770205,-3.557599,1.3926511,-2.9251375,3.5091376,-0.549767,3.2723737,3.6887517,3.3241143,-0.15568018,2.2392316,-0.28983355,0.27337313,1.1938972,-3.4227047,2.179071,-0.3000865,-3.3784614,0.42919874,3.042575,3.018983,2.9576092,0.5823965,2.0215425,-2.2872057,1.8659377,2.201274,2.8228521,2.1206264,1.5004721,2.412682,-2.7211733,-3.8617215,2.1453147,0.12436676,1.6989884,-1.5270572,2.834453,0.4570961,1.2791543,2.2707753,1.0639038,-3.0655236,-1.066124,-1.5837517,-0.86728954,2.863657,0.19647646,-3.3503222,-0.054256916,3.5597057,0.04113722,0.9473481,2.8715658,2.6800718,0.85825825,-0.8139796,-1.7500033,3.6080432,-3.4706388,3.1865091,0.615108,-3.6173606,0.6088276,-3.9596057,2.8146625,3.3482356,-3.670001,0.3717494,2.8189921,2.3907824,2.8954306,0.38096905,-2.224307,0.5087204,-2.6623626,3.778603,-1.1105661,3.8453622,0.6011925,1.5013471,-2.2072763,-0.16685009,1.9789124,-0.26643467,-2.350926,3.0623846,-0.27912378,-3.590508,3.0690904,0.15165758,3.459818,0.79851055,1.4623547,-1.4153857,0.40204573,-2.7891383,-2.9304185,3.563509,3.3690534,-3.2946792,-3.3006587,-1.9763966,2.4229732,2.425014,0.5683608,3.3329692,3.0331879,3.1227312,-3.7302547,1.7551813,-0.9862585,0.34050083,3.6457815,2.072568,1.612319,3.1773043,2.0488453,1.5813074,-2.3859024,-2.8033242,1.4372001,-1.65798,-0.93948126,2.4513535,1.2086434,1.7853861,1.4745936,2.9916744,2.5429077,-0.7297983,-3.1325731,1.3740387,-2.1240396,2.0344396,2.9305687,-3.6009512,0.019001007,0.97774744,2.4495888,-2.5419135,0.27470732,-3.0480695,2.8927464,3.6280184,-0.94805956,-0.35721636,-3.8608236,-3.8890572,-2.3261108,-1.5009594,1.2338052,-2.219832,-0.55571604,-0.54603434,0.041150093,-0.32278824,-3.6131177,3.1747231,0.05949402,-1.611496,-1.4992714,-0.39025688,2.9506502,0.086111546,1.9228625,1.2394781,-2.6794791,3.7736368,-1.1700215,0.07433605,2.79523,-3.974702,1.9676929,0.24591446,-3.1913757,0.056217194,-3.026792,-2.914219,1.434495,-1.6402621,1.3227682,0.20533419,-0.49094582,-1.0191097,1.0794044,0.7827091,3.2337346,-3.7076588,2.2848482,-3.6249204,-3.1772442,1.4081073,-2.0411868,-1.6817985,1.7385206,3.327169,2.0176597,1.3223152,-0.58303404,-0.8770995,-2.478063,-2.7482672,-1.1828194,-1.433804,-0.14411068,-0.41744804,2.910111,3.851725,-2.6891947,1.3327851,2.3580914,3.485681,3.7659187,-0.8405976,3.019402,2.051505,3.2969604,3.6294012,0.45669365,3.199555,-3.4099894,-3.2375412,-0.13901854,-0.23237228,3.8280153,-3.0337896,-2.6219416,-0.971179,0.95354366,1.1332016,-3.8794212,3.3934703,3.6816077,-2.138977,-1.5668936,3.9773617,0.89140606,-0.046740055,-0.49508858,-1.6344752,2.189508,-0.9931097,-0.3338642,-0.82135725,0.7473321,-2.926103,-2.7706695,-0.5118089,2.9798694,-3.685278,-3.9562945,1.1729441,-0.08276224,2.101458,3.7292013,-1.7263927,1.909493,3.7281098,-0.15417528,-0.8691678,1.9871249,3.266171,1.9024787,0.7582097,3.1100135,1.7356534,-3.6129518,3.9641747,-1.3778205,2.5733051,3.1331258,3.7395406,-2.9978194,1.4025378,-3.7088833,-1.7824597,-3.4478679,3.2928371,0.79058456,-0.3340993,0.56846476,-0.7409067,-3.9275713,-2.7517128,-2.8042417,-1.6185904,2.6947408,0.39475155,-1.9560499,-0.7369752,-1.4910884,3.1438046,-2.971849,1.6762099,-2.148096,-0.7535844,-2.1273136,2.0242176,1.410038,1.6091132,-0.8673539,-1.0699072,-2.0156622,-1.9450884,0.30762434,0.70642614,-3.2590408,0.010502338,-3.8953614,-3.070199,0.76190853,-1.5739765,0.4744916,3.5218759,-2.258833,1.2545018,2.4916253,2.7604594,2.6261444,-0.82893467,-2.4253764,1.6518292,1.9193902,-3.7515016,-2.2584739,-2.3801436,3.5898442,2.0533905,0.42723513,-0.7637,-2.3567019,0.24284315,3.2326708,-3.9702702,-3.9695325,2.8025794,-3.400579,1.9406619,-1.3014531,-0.07189083,1.1717987,-0.92639446,-0.7457676,2.8778052,-1.0730748,-0.9227104,-0.2640128,3.356162,1.6409278,-2.9824529,0.11544466,-1.4051404,2.3586607,3.8490353,3.545186,3.669137,1.8681607,-2.6280198,3.0911417,-0.63935566,-1.7943339,0.39885902,1.8583221,2.5714297,1.112309,3.200786,0.39274883,-0.6446471,-0.07866955,-1.3835907,-2.3005185,3.8979206,1.7587795,0.5362072,-1.138978,0.8485341,1.472322,1.4371395,-1.3493986,0.90442896,-1.622158,2.3301015,-0.056212902,-0.12393665,1.0289326,-1.0471263,-3.615224,0.38947344,3.946289,1.1897068,-0.09887791,-1.4795036,-2.462966,3.5233946,-0.53060293,1.1697125,-2.1967287,-2.992185,-3.820321,1.1010237,2.716608,1.5069513,1.5240364,1.3216467,-0.2984109,-0.93680143,2.5318637,-1.3593111,2.0982118,0.64118433,2.7926254,-2.1937075,-1.9104037,-3.6353626,1.894702,-3.3799486,1.4640379,-0.4179244,0.44448853,3.1372132,2.6866894,-0.71689796,1.1577816,3.0517683,-0.30200386,0.888391,-0.18270636,-1.8678074,-1.8123989,-2.1814146,-3.5323792,1.2902403,-3.684845,3.914421,-0.13221788,-3.8073401,1.1147981,0.9781294,-3.1075044,-3.2290225,1.6405458,-3.0534549,3.0936365,-1.701674,-1.8092232,3.3894372,1.3108454,1.8828788,3.239327,2.266193,3.125577,2.0412745,-0.77963257,1.3454194,3.081007,-3.1246924,0.50913954,1.6881499,-1.1011581,2.8781447,-0.4229145,-0.62431765,-3.7431989,-0.7237468,2.3683348,-3.8860216,-1.068294,0.070248604,-3.0291505,-3.729908,-3.8104572,3.8761454,2.3274975,2.0173502,2.8679357,0.8612132,-2.80931,1.0691404,-2.256287,-0.9276509,3.6168566,-1.545373,-3.501196,-0.5449724,-0.3194189,-0.59607935,3.55653,0.061975002,0.016532421,0.23128557,-1.8034782,-1.0704899,0.09440422,3.0231266,3.4343429,-1.7559428,3.0439072,-0.4568658,-0.76780796,-1.5254679,0.2723012,2.671023,-2.374927,-3.083097,0.95487356,-2.221868,3.990788,-1.5773239,3.7956424,0.03913355,0.46297503,2.8042479,1.9290261,-1.3175297,-2.6996164,-0.60476637,3.69425,-2.390863,2.7094278,3.7594972,0.848269,2.7084327,-2.6262097,1.048686,3.8823051,0.90948486,3.149334,1.3468418,-1.7654347,-1.9127889,-3.9284334,-1.4196815,3.8681421,-0.7732215,-1.8226919,-0.7947817,0.627686,2.4149137,-2.9161587,-2.49019,-3.420978,1.3068805,-0.91647434,3.5561447,-2.5502586,2.7352962,1.8500667,-2.0678272,-1.033309,-3.73073,3.416162,-0.47008133,-3.922257,3.172948,1.9579916,3.2982707,3.7321048,2.5468736,1.3792129,-2.9852033,2.2610126,2.2816248,0.7540612,3.3860955,3.5414076,3.1355743,3.0338774,0.6545601,0.9194312,1.8992786,-2.8011045,2.3742313,3.1395235,-3.179266
