-3.5367012,1.3711171,-2.7019353,-1.0523906,1.067277,-3.6480455,2.521142,-1.9481955,0.7130761,-1.379015,-3.5467615,-3.9881897,0.58166456,2.6002522,-0.046236992,-2.3441463,-3.8315315,-2.2389035,0.022871017,-3.1002216,2.7040777,0.4402914,3.578651,-2.7660608,0.19523287,-3.930223,0.41509676,-2.8354049,1.1306515,3.393622,1.3798242,-3.9305182,3.9498878,-1.9801373,2.1502342,1.3691645,0.30223083,-3.2239847,1.8047242,-2.58505,-3.3076086,-0.7869096,-2.4207,-3.7207332,3.200863,1.3331914,-3.4558654,-0.02870655,3.8789372,-1.8594136,-3.603506,-3.6429458,3.3909192,-0.6189575,-0.3919716,3.6266532,-1.4991612,-2.9929452,2.186769,0.10258293,-3.9039493,2.9981365,0.83244944,3.0931706,-1.8059602,-2.6941538,0.9555254,-2.8140125,-2.8540244,1.6959267,2.6564736,2.6546788,-1.0448356,-2.732705,1.4020629,2.1897006,0.18965912,-2.7384005,2.8942327,2.1432266,0.683321,3.754807,1.9982095,-3.90831,2.0476246,-0.8149748,-1.1051111,2.951758,0.04531002,-0.49018002,3.562911,-3.2778106,1.9165106,-1.2601261,2.5392218,1.7038426,3.5024729,0.70758724,-0.25648642,2.6998324,1.099699,3.5304985,2.5434299,-1.1288562,-0.98875046,-2.0137162,-3.71556,2.9016843,3.8982477,-2.2665038,-2.5963159,-2.1415753,3.804494,1.043787,-0.35946846,3.3001208,-0.9625201,-0.21692657,-2.6569777,3.0897484,0.886436,2.73849,0.16733646,0.56661415,1.020946,3.9343085,-3.8348045,2.7527037,-2.1739688,2.4936886,-0.60424614,-3.7842727,3.4552178,-1.1965704,-1.9700809,-2.7733908,-0.8733859,1.0691314,-1.5440912,-2.671741,-2.9675598,-3.7645588,-3.1494765,3.9496841,-2.9979067,1.9340043,-1.0075645,1.7706218,-2.2748518,-0.8841443,2.3876672,-1.9104748,-1.5686798,3.8663788,-3.2575064,-2.3108387,-0.21012211,-3.9302664,-1.133317,0.03540516,-3.5319428,-0.8063288,2.8405075,2.4521875,-3.5161843,3.2178884,-3.3038006,1.5581274,-2.8793998,-2.6033254,0.39440918,-3.3832998,2.9336896,0.126225,1.9206004,-0.43520784,-3.3390398,2.200179,-2.6550627,-3.3544955,3.754086,0.27904844,2.903225,3.3644013,-1.9552336,2.064258,2.0676699,1.8903432,3.3557448,1.397481,1.2757468,-1.2816882,-0.8648114,-0.64889336,-1.6542978,-0.9044895,-3.2749524,-1.4051876,1.3189816,2.1494865,-3.8755326,-0.6153674,-0.12586164,1.7695432,1.1288671,3.174086,1.1103215,-0.3627491,-2.7775197,-3.3956723,1.7960424,-3.5985756,1.967267,0.31767988,-3.898612,3.7539139,1.6913652,-2.8592215,-2.7256308,3.671647,-3.1173706,-1.1819534,-2.3209834,-2.012144,1.0933962,-3.928718,-3.1231265,3.5374184,1.2251024,-1.6730533,1.7253513,-0.3565178,-0.41805315,-0.6337104,3.410956,3.4995327,-0.49318552,-0.42149067,1.2021976,3.672081,-3.728736,0.95853615,2.0479894,-2.7832217,1.9533887,-2.7343292,1.3776622,-3.390141,-2.3131337,-2.9543357,-0.9399357,2.7285714,-3.835112,-1.9966822,2.3698244,1.4293051,3.1295705,-0.3167901,0.19545078,-2.664771,3.8691583,3.796855,3.7861795,-0.36153316,0.5242553,3.1013455,3.656187,3.0452147,-0.30864334,3.0401516,2.67626,-0.0745759,1.4476056,-0.48240137,2.3160524,-3.328145,-1.486423,-0.7001591,0.81455135,1.1748753,-1.8564701,-3.131349,1.4015613,-2.66649,-3.4138222,3.5866866,-2.8573637,-2.383029,1.669344,-3.4687552,0.15410852,1.8958526,-0.018583775,2.7501264,2.4600616,0.9034896,2.5631723,2.7641397,-1.7851043,-0.5539689,3.6736612,-1.4231625,2.0004325,0.43625784,1.5334239,3.395235,1.1251497,2.1462917,2.2577925,-0.31092548,1.6644492,3.925047,2.274969,0.41581964,2.3965998,-0.76147985,2.4298658,2.7399426,-2.3962593,-1.9290242,2.8290768,-0.51772785,-2.00846,-0.51112556,-2.7313519,1.7938933,-2.9734235,3.3993635,1.3405523,-2.6437545,-0.5990858,0.9636178,-3.8497834,-0.7383728,-0.35072374,1.2370353,-1.9064593,1.7789445,1.6599388,1.0340643,3.8195257,-3.8477592,3.865446,-1.062468,0.15083027,0.81961536,-2.2861733,-0.7168951,-1.1960835,-1.6119976,-2.3718467,-2.960462,-3.4053054,-2.100069,3.5959973,-3.8374066,1.5810289,-0.8398409,-1.2758322,-0.5093932,-2.2395139,1.9329596,-2.1939473,0.31134987,-0.6208215,-2.2921157,-0.15309763,-1.275733,0.19130516,2.6688867,3.784019,-3.3414779,-2.4978766,-2.740106,1.9484882,2.7835603,2.057787,-0.4553585,-3.98284,-0.66750145,3.0564766,-3.665464,-1.0316133,1.2207379,0.14413738,-2.9886284,-3.1004028,-1.2261848,-3.5834541,-1.101264,-3.9036899,1.900384,-1.8734746,-1.9110675,0.6592512,2.3921952,1.6615405,3.4095297,-1.6603208,-0.93097496,-0.020508766,-2.8797073,1.147809,-3.7881136,0.60034275,0.7090349,-3.1370144,-0.6795492,0.25871658,-0.6156826,3.601315,-1.1855874,3.9105134,1.0682335,-1.0044079,1.2233863,-1.3886123,-3.6040587,-0.37149096,0.9313774,1.7148328,0.023822784,1.3567562,-3.804494,-1.7043228,2.3286076,1.566443,-0.27315807,1.3385634,3.591085,1.3251882,-3.1921124,-1.2911558,2.377071,-1.4446845,1.0627275,-0.49401093,0.37384033,3.6451602,3.6335979,-2.4416547,-0.92797947,-1.4585786,2.9008136,-1.3851266,-1.5417943,1.7346377,-3.0408502,1.1119237,-0.28109407,-2.4273462,-3.9167252,1.3461032,0.6101384,3.3498697,1.3187695,2.0635676,0.0070877075,-0.19738436,-0.030179024,-0.2620163,-1.7404265,-2.61874,-2.0388546,0.5218644,-0.18985462,0.42191315,-3.246633,-3.1992083,-0.0066928864,0.6739378,0.032311916,-3.8816018,3.7035155,-0.32861853,-2.7465596,-3.7043314,-1.1435537,-0.36191225,2.9859161,3.2817535,3.5558615,-2.4295697,-3.2102408,-0.81006527,-1.6888428,-1.1477008,3.4184818,-3.359899,-2.865488,0.5273013,-3.0593605,3.3545408,0.3686037,-2.5117378,-3.78306,1.4463816,-3.5288897,0.9741039,-1.7979918,-0.9287882,-3.754682,-3.458818,-2.9626832,-0.574337,1.7289672,2.9864893,-1.4390135,-1.0555058,-1.4598632,-1.934619,-1.1766696,-0.36028004,-0.5126023,-3.0365987,2.755375,-2.8663187,-2.4670506,-2.1419425,1.5462756,-1.7933278,3.2596135,0.033480644,0.4109807,3.1290417,-1.5194616,-3.7426167,1.0870194,-2.1705375,-1.0738373,0.6424303,-1.5507879,-0.9732766,-3.6982098,0.51413774,1.5026379,-3.4055529,2.453741,-2.5967011,3.8523364,2.814979,-2.8152943,1.7572975,-1.7279034,-1.9946752,1.8804088,-2.4073834,-3.3246212,-1.633493,-3.845613,1.9169784,1.9254584,-0.12796068,-2.618073,-0.8796344,-2.4814672,2.7436848,0.44779968,3.49021,0.1833024,2.9628415,2.6152582,-2.2190566,0.83146,1.0421352,2.0438342,-1.4500556,2.2019534,0.88367176,3.7546148,-0.056210518,-1.7423687,-2.5574455,1.3611183,0.37810898,-1.3747196,-0.96170425,2.8602495,-3.1726956,3.460166,3.0395603,0.3082404,0.85027885,0.45064926,-0.95802546,-0.3262539,-2.2412539,0.74467516,-1.7181706,-1.0194855,0.0046982765,3.896061,-0.30964947,-0.26267147,-0.6432247,-1.0276451,3.1710243,1.1713524,-1.7429442,3.7101436,-0.6867118,0.24431181,3.342986,-1.20123,-3.4858909,1.8276381,2.0192504,0.52279377,2.5262232,0.9653692,-1.1754584,-0.09323311,2.7097344,-1.2595572,-1.9739032,3.3817286,-1.0514765,2.9807992,1.7049899,1.8122864,3.4314356,-1.740984,-2.2130046,3.7447104,-1.0763197,-0.6289797,-0.51032686,1.318872,2.6245184,-2.505015,-2.4352741,2.807909,-3.6602225,-0.17114925,-3.5220237,1.675808,-1.7991419,-1.3042464,1.1728339,-2.070991,2.566547,-0.4536085,-0.2014308,-1.61094,-0.70649767,-3.7587352,-3.8222828,1.1281047,-2.6665754,3.7361355,-1.8648844,1.0999856,-0.23601389,-2.006908,-0.30362368,3.1107688,1.6142764,-0.4749174,-2.5803628,0.5313134,-1.798687,-1.9877315,-3.156403,-0.7576661,-0.6428709,-2.3613367,-3.4330907,0.6864543,-1.0813565,0.4345765,-1.2127204,2.6585755,-0.43833017,2.9423337,-0.057761192,-2.3620424,-2.2739701,-0.66896915,3.9166384,0.9304967,-0.91712713,-0.938694,-3.8866248,-0.82352686,2.225656,0.57402945,3.414616,-3.784542,1.2481413,1.7033987,-2.6579027,-3.2670035,2.705388,-2.7807608,1.2015986,1.3341813,-2.8868456,-1.1905756,-1.6723094,-0.36022663,-1.034903,3.3115592,-2.3846178,-1.8703184,-3.4531512,3.113011,2.326096,3.9404998,0.064742565,0.69593143,-1.7662072,1.7005572,0.11156988,1.1715908,-3.0639567,-3.5017242,-2.0271845,-3.2458382,2.102315,-3.2949824,-1.2274513,3.5485268,-2.9784641,-1.2526493,-1.5400181,3.6446328,0.06616402,-1.0984397,-2.7008734,1.6340795,0.50087833,-1.7205186,-0.46939993,0.79932594,3.4001431,-0.78571844,3.4578876,-3.0987644,3.363336,1.5072918,3.8549423,-3.5550313,-0.6863651,-3.8309603,-0.1322403,0.0367198,-3.6360073,3.7337604,-0.708189,-0.44915628,3.164074,2.0635262,0.14721966,-0.31846333,3.864924,-3.6735783,0.09662914,-3.2410998,0.7224932,0.36309147,3.618703,0.60784817,-3.2717452,-0.9256487,2.2927132,-1.6311369,-3.6322374,-1.7946978,-1.4424291,-2.789382,-3.1567369,3.7198157,-0.35724926,2.4986548,2.6092129,-3.2602706,0.0024003983,-3.3352275,-1.360856,-0.6157222,-0.31637383,-3.9809155,0.21165848,2.7383976,-2.037877,-3.3797188,3.5567117,-3.5115328,-3.9411373,3.9883704,0.4966674,-1.4425564,-1.0747185,2.7576013,-2.0952382,-0.4341483,-1.4712777,2.5621042,-0.7246847,-2.9363976,-3.3152404,-0.95180273,-0.8373885,-2.733245,-3.6057034,-3.8879452,-3.9702702,-1.1392527,-2.7269435,-0.6386423,2.329762,0.6741538,-2.081287,-0.08742046,-3.166267,-3.446803,2.7250953,-2.7749581,0.7992649,-1.600009,-2.027863,3.7883735,2.6436777,-1.9491606,3.9860435,-0.25811386,1.3310013,-3.5982342,-2.7274446,0.4501319,2.867416,0.65017366,-2.2184415,0.3650651,1.735013,-0.22149038,-1.1788435,3.2197104,1.4868402,-3.064683,2.393486,2.009678,-1.3970923,2.0425053,0.2615161,0.51958656,1.2046351,1.7034774,0.6164336,-3.896274,-2.7103157,2.6902566,2.52387,-1.7300801,0.6954446,-2.5275865,-2.8537889,0.5214386,-1.7848334,0.91250706,-2.4258394,3.055203,1.7500587,0.75333834,1.269844,-3.5778666,-0.244421,1.2004466,3.9560323,0.5523262,0.37374115,0.5643196,1.6017361,-0.12371111,0.11506939,2.7395787,-1.4790688,-3.5869713,-1.364892,1.0944133,-3.6820493,-0.13828516,-1.6381001,2.3270087,-1.6170244,-1.0547671,3.6697483,-1.8689895,-1.7290668,-3.5730515,3.0820785,-3.1232376,-2.6179657,-2.4348707,1.6142974,-1.2219529,-2.2473435,-2.3197975,-2.5852137,-2.611906,-3.5445995,-0.9212723,-3.2781048,2.495398,2.2954865,3.0305767,2.506269,1.8087015,-2.6187463,2.7802505,-1.9901586,3.569654,1.5763698,2.6247382,-2.6628838,2.101797,2.5585842,-1.8718524,-3.6580033,-3.0311809,-3.1144958,-1.4446831,1.2395296,1.680234,-2.961636,3.2923179,-1.318213,-0.23967934,2.9756188,1.2244091,-1.4352622,-2.5795493,0.6603141,3.3307729,-2.6376247,-1.3101616,-1.4133005,0.9301863,2.3329606,2.715835,-0.16768932,-2.0659547,1.8217902,-0.64523363,2.1016026,-3.0436678,-3.3772302,3.2155843,3.2424693,-0.6471019,-1.628756,0.4874606,-0.35881996,-3.6183963,2.6234217,3.736487,-0.6670346,0.14635229,1.6281219,-3.098806,0.6255865,-3.6119456,1.17242,-0.5312748,-3.0464869,3.7368045,0.07004213,1.5879693,-2.428081,-1.4829993,2.2165189,0.5182395,2.027389,-3.435988,3.231924,-2.028901,2.5606308,-3.3410754,3.4697475,-2.9390187,3.2173471,3.1982598,-0.378726,1.2739501,-2.962225,-2.8912516,-2.7522373,-3.2126846,3.8435636,2.9165564,-0.29614925,1.2998176,-3.3229012,-1.4269304,-3.2055898,-3.8952098,1.1339712,-3.2831688,3.9059086,2.206071,1.5298362,3.5644407,3.1278763,3.2926092,-0.5220051,2.4588766,-3.8615766,0.6038928,-2.9270315,3.195282,3.5036397,3.631319,-3.0534892,-3.0649805,-3.2929597,2.1839228,-1.7505465,-3.2875266,-2.3975644,3.6812778,-2.2862911,-0.85528755,-3.5278783,-0.76766443,-1.2126102,1.1516514,1.2551022,-1.0174656,-0.9632554,0.42637253,-3.691115,2.0283933,-2.1218166,-2.3885574,0.58147144,1.7729726,-3.933453,-1.322753,-3.8993545,0.9565816,1.7715073,3.681439,2.849275,-3.9723425,2.4019032,0.13663578,0.10857391,-1.6818862,-0.15289402,3.0470886,3.8020763,1.7066073,-0.4353881,1.455987,2.5079045,0.10297394,-3.100967,-1.2429085,-2.6685572,2.9357758,1.3814979,-0.014704704,-1.1701555,0.14909697,0.49109125,-1.0627337,2.6478581,-0.24345732,2.5751548,-3.0263433,-0.050201416,3.7133603,-2.476945,3.3839517,0.5308471,-2.270846,0.971786,2.6976752,-3.742268,0.7924614,-1.7245517,2.8842316,-1.6500401,-3.7783422,-0.81594896,1.7440996,3.2721071,3.5437403,1.9418201,-0.86521244,1.603888,-0.55633307,0.8070617,-3.1191945,-1.585412,2.02115,2.8935452,-2.158318,-1.0856438,-0.95078135,3.8747873,3.689796,3.155747,-1.5725613,1.3549318,0.9989524,-1.5817494,1.2418747,2.9300342,-1.9476757,-1.5847845,3.1601996,1.8468294,0.7454152,3.1799126,2.308539,-2.8970637,2.6526961,-3.0274744,3.5741315,0.8154745,-1.9567504,0.43391037,-0.1896925,-0.23227262,-2.7124863,3.8097663,1.4761944,3.9891524,1.1630244,-1.542234,-3.9205394,0.72222996,-3.5198326,-0.37109184,-2.3741488,0.6751418,0.86310434,2.8542514,-2.2174926,-0.39263296,-0.14141369,1.9180918,-0.41459274,-0.39523935,-3.069209,1.660986,-3.7442613,-2.2342043,2.9443078,-1.573853,2.2078238,-0.8859334,3.5410628,2.775249,0.26442623,2.0844903,1.5353913,3.7992878,-1.0994782,-1.9671674,2.1258473,-2.802342,-2.8471355,2.032547,0.0271492,-1.7921753,1.0820818,-1.371738,-3.0736322,-3.7212234,2.7663097,2.7045112,1.7988677,-1.770607,-3.8757267,0.5891471,-0.581563,-3.7036686,-3.8995414,2.043881,-2.1418314,-2.780424,2.3144217,-0.8781018,3.2550745,-0.43337297,0.678761,-1.66465,3.873746,-0.8193369,3.6245766,-1.9776301,-0.37287807,0.25787354,0.23449898,2.4520965,2.2212567,3.0394788,2.9212542,1.1782284,-1.3725824,-3.010448,-3.9224238,0.06303644,-2.6640596,1.9418411,1.2592301,2.5883174,1.1544156,2.2274861,-0.008627892,-1.005115,2.159051,3.5240712,-3.7963495,-2.3117332,-1.0371056,1.6268334,3.5634246,-0.56347466,2.5144968,3.4874911,-3.8311076,-3.108975,-1.4118338,-2.0847049,-0.86747885,-2.8354497,2.9521337,-1.0079732,3.9083467,2.698771,1.6336884,3.107129,-0.19096851,-2.6503572,0.8018198,-3.4694238,1.3124633,0.2758088,-1.621695,-1.0251899,-2.6673431,-2.2004309,1.588603,-2.7545109,-1.2853098,3.7412052,-2.2187767,-2.848885,3.91643,-0.94207335,-0.5279808,3.0305223,0.2903037,-0.2758913,-3.5605593,-1.9195814,-1.5729003,-1.1745195,-0.38008928,2.0438032,0.81185436,2.71496,2.7688136,-0.8290105,1.7486567,0.69257545,-2.5025258,-1.1499963,2.0399232,-0.22132015,3.6240153,3.7878304,1.1274705,2.3909497,-3.2884817,-2.363233,-3.8097754,-0.0075592995,3.009159,-2.495469,1.4505086,2.0921898,3.7390823,-2.8490095,-0.64319944,-2.3880787,0.69931173,0.29653168,1.9371524,1.0997467,-2.897066,-0.20507812,1.9884033,-3.9859872,1.4644723,0.3602686,-1.9441113,-1.839253,2.607193,1.6059432,-1.6989245,3.4356523,2.2924256,0.18351221,3.246122,-1.4488311,-3.872826,-0.40369463,3.0070271,-3.5956812,-3.2604194,3.8366175,-1.6730437,-0.33832407,0.198349,-1.7175298,-0.5217252,-2.9644794,-3.655829,3.2242503,-2.5894394,-2.4337215,-2.893865,-2.7134233,1.7100978,1.4862003,2.998642,-3.1233015,2.0938063,-3.011032,0.46412945,-0.06256914,2.967956,0.24125957,0.8768716,1.0588813,0.3224411,-1.684114,-2.7286606,-0.75965595,-3.957768,-0.31541443,2.5027986,1.3003497,0.5541396,1.8560996,-1.030467,-0.043640137,2.3964596,0.31869173,1.3363204,-3.3655248,0.7514448,-1.8088975,-2.6848474,2.6697874,1.7631702,3.0275202,0.98597,2.9032154,-1.4019856,3.0319672,3.2349358,-1.4916444,1.6376233,-3.570527,-1.188045,0.424479,-1.1188407,-3.3091574,2.1564226,1.9701414,0.8188658,-0.507967,2.8580942,-2.3008633,1.0224977,-3.4185662,1.7251053,-1.2479515,-0.33691406,3.7379217,-1.0908027,-2.4711819,-1.6033998,-3.2903137,-2.5672107,-3.0509691,3.0534549,-1.6716237,-0.082816124,-3.6548734,2.1905441,0.2969408,0.5959263,3.7632551,-3.8232098,0.44560242,-0.367589,-2.954049,-3.7384505,1.5406604,-2.7984047,3.3667994,-2.334187,3.3149347,-1.2539258,-1.1449933,-3.8194752,3.2022877,-3.695012,0.56655025,-1.3389769,1.1846948,1.4962602,0.66988754,1.9283824,-3.713975,-3.6141534,-0.44580173,-1.3075132,2.763332,3.9316554,-1.5893312,-3.6202946,-0.51131773,1.5869365,0.6221056,-3.527948,2.2430382,-0.67080927,-3.6029735,-1.4955511,2.6598315,1.8854303,-1.6799607,-2.8587618,-1.6985931,-2.489263,-3.3679461,3.3885522,-0.053314686,-1.5504551,2.9028926,-3.7254462,3.8207955,0.5597544,-3.4147139,-3.4533138,-1.4397564,2.684692,-3.064931,3.5088968,-0.6330323,1.1408081,-0.64222956,2.8938694,-3.3416262,2.8594646,-0.9139719,-2.3471065,-3.6126132,-0.47166538,0.9086795,2.6361794,-0.20035315,3.6227612,1.3338084,-0.7423105,3.8527355,-0.920753,3.6120863,1.0151873,2.2894526,-3.4131923,-3.4157667,-2.7302327,0.20145369,2.2926412,3.5417671,3.5640411,2.047577,-2.258668,1.6646376,3.7575517,3.5053234,-2.6188307,-1.423368,-2.4372354,-2.3259845,2.8227787,-1.2760015,2.6075425,2.5525737,3.1772537,-0.28311014,-1.6227393,-2.156011,2.439517,-0.72872686,-0.5357876,-3.7182846,2.289506,3.214872,1.7841983,-0.74992514,1.4870806,0.87574816,0.8679447,1.6896381,1.470931,-1.7461557,0.30987692,-3.2833433,1.0493002,0.9435997,2.0805945,0.08960152,-0.6998787,1.7648902,1.3122377,-3.2870574,-3.508638,-3.1182942,0.6595068,-0.6667862,-1.7775688,-2.6965628,-3.706984,0.8198595,1.5669894,0.47412205,3.1868358,2.8174486,0.21811056,-1.3413343,0.14314461,-2.7481575,-3.5365787,3.0708752,-0.16533136,3.3366385,-3.7759948,3.6675596,-0.54169416,-2.7289433,3.0292745,0.9120922,0.2776556,0.15999603,3.6991062,-3.306974,-1.6042213,3.5791416,0.6647377,-0.43506098,2.471013,-3.3851185,2.7109861,3.7954955,-2.334293,2.473475,2.6313553,-3.3972306,-3.007462,-3.319622,-1.788034,1.9475574,-3.4128919,-0.56249523,-0.9428749,-1.2178016,0.08435583,2.4767365,1.943708,-0.07354307,-1.8310213,-3.7063594,0.069586754,0.28863,-1.914382,-3.070179,-0.6683426,-3.5194054,0.96667147,1.2861886,1.4755306,-2.5212202,-2.9788256,3.2816315,-2.8773866,-3.3689394,1.9433208,-3.092461,2.1984901,-3.6371498,-3.6438613,0.47632456,-0.59532595,0.012420654,3.9958954,2.8133368,-0.36907196,0.7217183,-1.2094412,3.569271,-1.9385571,2.2437105,-3.5717754,-1.319622,-1.004714,3.2661405,0.4970293,3.2302675,3.5018039,-3.6565156,-0.82982826,-1.9469161,-0.47878647,0.2216897,-2.6690893,5.9223175E-4,-0.36264896,0.99078083,-1.3699875,2.7730904,-1.6627727,3.973301,2.2873025,-0.13898754,-2.0035834,0.03522253,-0.8688073,-1.2142568,3.6388903,0.51950693,-0.09991217,-3.379416,-3.6837764,-1.5849533,-2.0941696,-1.8186836,-1.8483129,3.5122461,-3.42483,-0.35215902,-1.0667515,0.4703989,-0.75666475,0.03125286,-2.9341536,1.2213802,-3.6630526,0.10003948,3.7757134,-1.7353911,-1.2676864,-0.1706152,-1.4338899,3.2053123,-2.9962592,-2.4967456,0.99910116,-3.7859254,-2.4120965,-0.075808525,-0.7497039,0.25520086,-2.470518,-0.71982527,-3.294787,-0.061361313,-1.8494172,0.054437637,-3.2986422,-0.5165658,0.9842863,-0.82374907,2.4497633,3.7767186,-1.1402087,1.5035448,3.9280672,-0.500659,-2.452724,-1.214426,0.09354496,1.2304645,2.0086517,0.017509937,-3.7864547,-2.6761827,0.79504395,1.8999033,-0.19818258,-0.8885789,1.8492289,0.058100224,0.9293165,2.3599463,-3.001844,0.6582432,1.7159214,2.0037718,2.9808311,2.20929,-2.841741,3.3456092,-3.8032336,2.119605,-1.1989808,1.0920529,-0.7528248,-3.140151,2.8836007,-2.0961175,0.8221197,2.8297043,2.0883613,3.044569,1.65307,3.8143096,-2.9325285,-2.0305276,3.8665628,-1.0540624,-2.5211473,1.6110563,-2.9115038,3.6395302,-2.9099145,-3.2171726,1.0060606,2.0522866,-3.3438363,-1.008214,0.8928442,-3.2657766,2.0441947,-0.65528154,3.7592254,3.490223,-0.37100267,0.7145519,1.2322936,2.2679496,2.8490353,-0.5494199,2.2874484,-3.668665,-1.8145885,2.1217632,0.31550264,0.63299847,1.1115441,-3.0164561,-0.5657549,0.6566992,-1.2927752,-1.4455519,0.057896137,-3.4205303,2.83386,-2.7656422,-1.3322468,-0.41489983,-1.0865636,0.8252306,3.3466535,-0.23108768,-2.9110637,-1.5821471,2.3574133,-2.4446106,2.7450385,-3.7861218,-2.7416725,-1.1846843,-1.3017106,0.23237514,3.9239798,-0.21684408,-0.58272886,1.7446299,-0.7261729,3.0974917,-3.1892986,2.275878,-1.3372364,-0.7920656,-1.5113153,3.5773568,-0.10822487,0.7726884,1.2893724,0.43866634,-1.4368534,-2.30122,1.7976112,0.8292985,2.3814278,-3.8754354,-2.6048307,2.6861424,3.6372123,-2.368146,-2.8389387,1.7432723,3.746913,3.0716162,-3.603931,-1.4296432,1.0512781,3.8283043,-0.53108454,3.3037705,-2.491352,-2.517198,-0.55596495,-2.4628386,1.1586089,-2.6603713,-2.6416135,-3.2401109,2.0096388,-3.271922,-1.1803017,-1.0222692,-1.8854876,1.3336468,3.024352,1.1605625,-2.8030996,3.0985966,2.5807867,-0.35058737,1.4504786,0.37306452,0.20164299,-2.3373795,-3.6280594,1.1985788,-3.940022,-1.2195277,2.664915,0.9831352,2.6777716,-3.5494938,-0.06486702,-1.6253309,1.1669879,-3.003244,2.4896822,3.4276218,1.1094842,0.40735435,-1.0791941,-1.6990461,0.702436,-2.677341,0.11119652,-0.8808813,-1.8883758,-1.23843,1.9420147,-1.3615003,-2.1348162,1.6694746,3.3383842,-2.359418,2.6179566,-2.2759876,-2.6069226,3.2791142,-3.04814,-1.4555454,3.362793,3.0908647,-3.7611294,1.5186167,2.786487,3.6665268,-1.8470459,1.3169966,-2.7759461,-1.9229398,3.7758446,2.0883021,-0.9751768,-1.1737761,2.9672766,-3.9150376,0.7928419,3.172083,-3.6114388,1.6822762,-1.7165027,-0.42035627,-0.97549486,-3.549303,-2.6483274,0.12018108,-3.6550298,0.53826,-1.8637581,1.9782248,-3.4300022,-0.59247637,-0.2515092,0.5571151,2.1554327,0.14767742,2.5342078,-0.001376152,1.977037,3.229259,-0.58990765,-0.4245715,-2.3844194,-3.7617269,3.597515,-1.0590386,-1.0441227,1.0728908,-2.6955414,-2.471262,3.5654616,-1.4014888,-1.1573935,1.2606177,3.0505934,0.7820306,-3.6392784,3.6214905,-1.8659472,2.0030618,1.3355274,-3.1938787,-1.1332884,-0.89939165,3.5919113,-1.8985686,3.96215,-3.7887983,3.7065969,-0.35386753,-0.17623043,2.1331701,-0.641634,3.9954834,-0.74574184,1.4123554,3.2944417,1.073976,-1.8118024,0.59939766,2.6177683,-1.9268279,-2.259728,-2.9525132,0.7916293,-2.0583534,0.4855423,-0.5225568,2.0415955,-2.0745368,-2.3845954,3.791726,-0.5200429,-0.29720688,3.6400056,3.9463472,0.26860905,-2.8905149,1.8386598,-3.2167816,3.4335766,3.3852377,-3.8094845,-1.3823023,-0.6540437,-2.606256,-0.22060966,0.59760714,3.8731737,-1.7685404,1.0428553,-2.9644508,0.8092418,-2.64287,-1.0786014,-3.1264987,-1.6404324,-0.7026181,3.859889,3.6425772,-0.09236002,-0.33803415,-2.6481447,-3.7206697,3.224843,2.3125834,-3.7112002,2.6437507,3.8761911,0.9627681,0.14691925,1.1890206,2.8068495,-0.61287737,-2.6424947,2.6331124,0.86440325,1.9507895,-3.220315,2.8118181,2.5951352,0.50887537,-0.94800663,3.633287,-2.367271,-1.0932693,-1.4992275,-1.9492068,2.4751396
-0.043436527,1.7779493,3.5832405,-2.059143,-1.0473971,-3.49437,2.521142,3.9812841,-1.3618255,3.1408439,-3.9636526,-3.9881897,-1.0230064,0.22784853,-1.8777652,-0.16022635,-3.8315315,-2.2389035,0.022871017,-3.1002216,2.7040777,0.294065,-2.4728694,3.952012,-1.0898962,1.1330857,3.9153638,2.968728,-2.3523316,0.36289263,-1.401556,-3.9305182,-1.0896645,-0.9640322,2.1502342,1.3691645,-3.9655142,-1.6309166,2.415606,-1.4712954,-0.051968098,-2.5780768,2.0187798,-3.7207332,3.857543,2.8929114,1.4170346,-1.0152178,2.61411,0.8048568,-1.4658103,0.29740047,-3.0692124,-0.4163165,-0.3919716,2.1538548,-1.4991612,-0.58239603,0.42064953,1.8905439,1.3627839,2.742847,-2.9913893,0.37918139,0.67700624,-2.6941538,-2.0652342,-2.8140125,-2.8540244,-1.9926887,-1.4651232,0.34333897,3.9775171,-2.1527286,-1.8564315,0.026462555,1.5346203,3.2197075,-0.30504608,-2.9931273,-3.762453,3.754807,3.447424,-3.90831,-3.8889465,2.9624038,1.6886873,1.8615327,2.4529462,-2.5569172,2.5502543,-2.97787,1.9165106,-1.2601261,2.5392218,-1.1559668,-2.0498633,0.70758724,-0.25648642,-1.1364584,-3.250721,2.786251,-3.8262782,1.7641077,-1.9996715,-2.0137162,-3.71556,3.7837658,3.7095332,2.482668,-0.09047699,-2.1415753,-0.085579395,1.043787,0.8131685,-3.1040368,0.29676056,-1.5332179,-3.2769637,3.0897484,-0.49346447,-2.0770235,0.16733646,-3.4872837,0.6824794,-3.4985547,1.0788689,-1.9314542,2.9156818,-2.3966398,-0.38310194,-1.3207488,3.7856503,-2.1799822,3.7465472,-1.0179529,-0.8733859,-2.7085724,-1.5440912,-1.5267615,-0.7187238,3.8234582,-3.1494765,1.6735811,0.13251734,-0.49269676,-0.94788647,0.42866993,-2.1538167,-3.440765,-0.9125109,3.0228243,0.14237833,3.8663788,-1.1307764,-2.409923,-0.7611275,-3.9302664,-1.133317,0.03540516,-3.5319428,-0.8063288,1.640852,2.4881344,-3.5161843,1.0369902,0.77494574,1.5581274,-2.8793998,-1.905416,-2.2108936,-3.3508816,2.9336896,0.126225,1.9206004,-3.7061152,-3.3390398,2.200179,-2.6550627,-3.1133137,-3.5122905,-1.1903334,0.9825487,-0.20185089,2.30927,-2.690147,-0.95862913,1.8903432,-3.4389606,1.397481,-1.2354608,0.39673233,3.3324523,-2.2753644,-1.0851636,-2.9618773,-1.8731842,-0.80208683,0.53149605,-0.5276718,-3.8755326,-0.6153674,1.0337315,1.7695432,1.1288671,3.174086,3.5681252,3.325162,-3.8743534,-2.0055456,0.17845154,-0.65014505,-3.2101932,-0.8398113,-1.8412609,3.8208733,2.187807,-2.8592215,2.067563,3.671647,0.8156996,3.6451187,-2.1494246,3.2965932,1.0933962,-3.5234952,-1.3238907,3.5374184,1.2251024,-1.6730533,3.3398132,3.70396,-0.7115226,2.983591,-2.0029707,3.4995327,-0.49318552,-1.9131212,-0.62369585,-1.2743416,1.4909391,0.95853615,2.0479894,-2.7832217,0.037247658,3.1886501,-0.44261932,-3.390141,-2.3131337,-0.53075504,-0.30362797,0.41958094,-3.835112,3.7591372,0.9201608,0.7247591,3.1295705,-3.8907657,3.5802426,3.9587202,-1.313365,-1.2646542,-3.4691558,-3.656765,-3.6926494,2.8001986,-2.3129263,3.0452147,-0.30864334,3.0401516,-0.1914587,-0.0745759,1.4476056,-0.48240137,2.3160524,-3.328145,-1.486423,-3.2204137,1.0306673,1.1748753,-3.0235085,1.6742821,-1.4361396,-0.66032124,-2.0652404,-1.6682959,-2.8573637,0.4017167,-0.5451255,1.3345451,1.1378889,1.5954838,-0.15127516,-1.6736054,-2.94458,2.2340913,-2.137107,-2.8757353,-1.7851043,0.5193052,-2.4977026,-1.734592,-0.38995028,3.4769459,3.707006,3.395235,-1.7728,0.18357658,0.18983507,-0.31092548,-2.3933568,3.925047,3.0821228,1.8788443,3.872538,-0.76147985,-2.969131,-3.2584662,2.1229582,2.1949258,-0.5342598,0.0061273575,-2.6921997,-1.838881,-2.2226171,-3.8184147,-3.2469478,-1.8517365,0.97287226,-2.6437545,-0.5990858,-3.6621637,-1.4261737,0.33160305,0.86571217,1.2370353,-3.7984662,0.33635664,0.079194546,1.0340643,3.8195257,-3.8477592,3.105051,-3.89145,0.15083027,-3.5720997,-1.7734356,-3.5639153,3.7597055,1.5760059,-2.3718467,-0.93366814,-3.4053054,2.4752364,2.246097,-2.665844,-2.8420877,0.42805195,-1.7230172,-0.5093932,1.2461457,3.7775865,2.3183951,2.6481347,-0.6208215,-2.2921157,3.7141938,-0.9200387,0.19130516,2.6113434,0.5503912,-3.1201396,0.43983984,-0.29903364,-0.3137021,2.7835603,0.73110294,2.0931454,-0.3767929,2.709353,3.0564766,-3.665464,-1.0513859,-1.4488764,2.8701777,2.0269432,-3.7882185,-2.665338,-2.9756656,-3.6127496,1.6754827,0.5356674,0.044036865,-3.601489,-1.6369672,-3.2119503,1.6615405,-0.39241076,-3.1051464,2.1418352,3.2770987,3.301444,-1.8166165,2.3439727,-2.7208767,3.4912653,-3.1370144,-0.6795492,1.8158121,2.1123471,2.6005445,-0.7328367,1.1191387,0.4131937,-2.7224727,-3.232256,-2.6173964,-0.3321805,-0.37149096,0.53190565,0.92259884,-0.9951091,1.6294017,-3.804494,2.5479622,2.2043562,3.478778,-3.223567,0.27121067,2.1134863,2.8915982,2.5962462,0.31954336,-1.6345716,-0.97510767,0.6391611,-3.929399,0.37384033,3.6451602,-0.5647621,1.8987355,-0.92797947,-1.4585786,-0.2734542,-0.55131674,3.3705711,-2.2748604,-3.0408502,0.6566777,-0.7916937,3.3026047,-3.9167252,3.640696,1.5621204,-0.6540351,1.3187695,2.7333078,-0.8168373,-2.4600787,-1.165134,-3.590993,3.5842724,-2.61874,-2.0388546,2.2645602,-1.5125155,0.42191315,-1.7775187,1.7723436,-2.7541113,3.2622385,-1.2457204,2.094401,-3.498559,-0.8663449,3.298911,-3.7043314,-1.5250964,2.997837,-3.434679,-1.0700421,-3.1238532,2.79733,1.3326416,2.9184866,0.66795206,1.1088238,-0.47898626,-0.7504411,-2.865488,-3.1105795,-3.0593605,3.9022093,1.3423128,0.8071909,3.9369817,0.87505054,2.7063718,0.9741039,2.4810753,1.6934915,3.6841612,-3.458818,1.910223,0.9713416,2.433282,2.9864893,-1.4390135,3.5130033,-0.46756268,-1.934619,2.8270202,2.3376722,-3.351293,-3.0365987,1.8707752,-2.8663187,-2.4670506,-0.515646,1.5462756,-1.7933278,3.2596135,0.033480644,0.4109807,3.1290417,-2.3573608,-3.7426167,1.7760854,-2.631166,1.8258204,0.6424303,-1.5507879,0.45965576,-1.1407337,-2.0590825,1.169199,2.291597,2.453741,-2.5967011,3.8523364,2.814979,-3.0029502,-3.5156026,0.920804,1.0037823,-2.6085072,2.6257567,-1.4499822,1.9661083,3.5241556,-2.8157954,1.159894,-1.1322937,-3.4673567,2.4923863,-2.4814672,2.7436848,2.9231925,-2.0604706,0.1833024,2.9628415,-0.3938179,3.0140586,0.55657864,0.7869792,0.7312279,-3.7569842,-1.4107256,-0.3435359,1.65062,-0.6894536,-1.7423687,-2.5574455,1.3611183,0.37810898,-1.3747196,-0.96170425,-3.5595737,1.4265747,0.9661894,3.0395603,-1.998723,-2.415904,0.5725846,-1.7523017,2.853331,-3.192421,-2.861917,-1.7181706,-2.9533386,-0.51111937,-0.2521181,-0.6764488,-0.26267147,-0.27650404,-0.59217834,-3.8435717,1.5262928,3.89861,3.7101436,-1.9414988,3.6565366,3.342986,-1.20123,3.2348876,1.8276381,-1.9276748,-0.48137856,2.440835,0.9653692,-1.1754584,-0.1052413,-3.0301108,2.4341145,-2.101129,-2.6042395,2.6187897,2.9807992,1.7049899,0.42454147,-1.4332385,3.5614996,1.9323621,-0.09339285,-1.0763197,2.592805,-2.970015,-0.40666246,1.235692,-2.505015,-0.9684253,2.7740808,-3.6602225,0.47338963,1.0851197,-1.3715181,-0.8928795,-3.7364063,3.219841,-3.2926803,-3.0895534,3.1148987,-0.7496333,-1.61094,-3.1806479,2.8012433,-2.9862099,1.1281047,1.9216042,-1.868959,-3.585383,2.5221705,-0.23601389,3.8993769,-2.6910682,-3.5618162,1.3051233,-0.23477125,0.5511465,0.5313134,-1.798687,-3.048585,-3.9020534,-0.5218668,-1.4436231,1.0780702,3.4689012,1.2551799,0.9344106,0.4345765,-3.4118981,-0.9137993,-0.43833017,2.9423337,-2.5814462,-2.3620424,-2.042791,-3.730053,-2.0279164,3.1733913,-0.91712713,-0.938694,-3.853642,-3.6949391,0.46838427,-1.1676383,0.10899067,-2.511128,1.2481413,2.3829389,2.1528707,-3.65898,-3.1305227,2.5938349,1.2015986,3.2575717,2.2491493,-1.1905756,-1.6723094,2.7990656,-1.1577854,0.5206547,2.9855833,-1.8703184,-3.4531512,3.113011,-2.2045846,3.854762,-3.6734352,-1.8426023,2.3233447,-2.6355782,2.2393146,1.1715908,0.72208834,-1.8511381,2.1976233,-3.2458382,1.3932528,-1.8706269,-3.1531968,3.7247396,-3.00454,-1.2526493,-1.3340158,-3.8935552,0.06616402,1.1005859,-0.3792882,1.536468,-0.8935385,-1.7205186,1.9028225,-3.0865088,1.2011337,3.179893,2.5846977,3.392807,2.223343,-3.8026023,-0.8825326,-2.8269114,-0.09939957,-3.8309603,-0.1322403,-1.2604246,-3.6360073,3.7337604,-0.708189,1.7614884,-2.99016,-2.5570369,1.4906726,-3.4851546,2.7360225,-0.9833875,3.0024667,1.0424509,-1.3367882,2.966411,3.618703,0.60784817,-3.2717452,-0.06648493,2.23814,-0.705286,1.0820332,1.4723797,-1.6048846,-1.0820823,1.7013216,3.7198157,-0.15374708,-1.0574856,-0.67743444,-0.949687,2.821528,1.1726608,-1.360856,-2.121292,2.219408,-3.9809155,0.21165848,-1.8551216,-0.24725103,3.751688,-3.112886,0.92356825,-3.9411373,3.9883704,0.4966674,2.301629,-1.0747185,2.5825543,-2.9007592,-0.4341483,-1.4712777,0.9955349,-0.7246847,2.177227,-1.9597502,2.2458806,0.32170105,-0.6453376,1.8411422,1.8121052,-2.939763,-1.1392527,-2.7269435,-3.2530808,-3.4396658,-1.5930996,2.2893848,-1.8130488,0.37200356,0.73294926,3.1836572,-3.0188384,0.33163118,0.7497268,-2.027863,2.0095897,-3.456511,-0.8295903,-2.1471186,-0.055854797,2.875887,-1.0701208,2.9290552,3.9580693,0.4575019,-2.340794,2.171812,-2.8121476,3.3632097,-1.0728054,-1.8659158,-3.0645952,3.2286696,-3.6093369,-3.4372244,2.009678,1.843154,2.0425053,1.7696285,3.0454397,-3.620378,-3.830514,2.0120854,-3.896274,-1.0060477,-1.6871152,-0.2964282,-3.6228304,3.8505917,-2.5275865,-2.8537889,3.3826613,3.6237397,0.14004087,3.3890924,3.055203,-3.7794075,0.75333834,1.1846404,-3.5778666,0.8472128,1.2004466,-0.24114466,-3.3594942,-1.1925697,2.5986567,3.9542365,-0.036638737,-0.6806774,-3.6613584,1.4116025,-3.5869713,-2.1471763,1.0944133,0.75147724,-0.13828516,3.6673322,3.0279174,2.6783743,0.5759034,-3.2119823,0.7746353,-0.3094921,-0.108318806,3.485303,-2.5212512,-2.6179657,3.4984646,1.6142974,-1.2219529,0.27651644,-1.1110587,-0.59171057,-3.048356,-3.5445995,-0.9212723,-3.2781048,3.3481722,2.2954865,3.0305767,2.506269,1.6366076,-2.6187463,2.7802505,-1.9901586,3.569654,-2.2870326,2.6247382,3.9975438,-1.0011826,1.916379,2.5936222,-1.0416346,-2.3373442,-3.0580359,1.6014423,1.2395296,1.0546851,-2.961636,-0.8818569,1.3445258,0.33890915,-1.585772,2.9664407,-0.074121,3.0798712,-2.2195668,-2.8454466,1.5808015,-2.324676,-1.4133005,-3.1995487,2.3329606,3.0563593,-0.40382814,-2.3549967,2.1954446,-0.64523363,0.42457485,-3.0436678,-3.3772302,1.1419907,2.1225357,-2.508247,3.7624593,-1.8320704,1.3688502,-3.5728984,2.6234217,0.94201183,1.6861296,-0.26859426,1.6281219,-3.098806,-2.7941155,-0.5719857,1.17242,-2.255012,-1.375721,3.7368045,0.07004213,1.5879693,-0.54595137,0.55622244,-2.9780154,0.5182395,3.4689965,-3.435988,-3.936201,2.7138247,0.9566407,-2.4444866,3.4697475,-1.6592083,1.2684956,-1.742877,-3.1960201,2.044797,-2.962225,0.2846861,-1.7077665,0.084619045,-2.2025228,1.8689694,-0.29614925,1.2998176,3.67948,-3.8192096,-2.7774425,0.5377946,1.1339712,1.1510792,2.0027184,-2.6039696,1.5298362,0.5840745,3.1278763,-3.2040439,-0.94292307,-0.6884227,1.4175782,3.753559,3.1535172,-2.5823445,-3.793841,3.631319,-3.0534892,-3.0649805,-0.14588928,2.1541166,2.547069,0.29055738,-3.0640721,3.6812778,-1.658565,2.1034694,2.9996347,-3.0943432,-1.03229,-1.2145824,-0.823328,-2.3185534,1.0425973,2.9534297,0.025436878,0.5730672,0.7388706,0.26322508,3.7317023,-0.3991909,-2.3816218,0.34857178,-0.29667425,-3.7072644,1.7715073,-3.8983212,2.849275,-0.5805454,2.4019032,0.04349327,1.2130194,-0.30337715,-2.4510288,0.742126,-2.44812,0.42218828,-2.4570546,-2.3409243,-2.0439591,3.7292829,1.7280006,-1.2429085,-3.6523528,-3.735876,-1.5951056,-0.014704704,3.9808578,0.14909697,0.49109125,-1.0627337,-2.2081141,1.6971722,-0.42635965,-3.4273171,-0.83693504,0.2627945,-2.476945,3.3839517,0.5308471,-2.270846,0.971786,-2.246665,3.073471,0.45013762,3.6733413,-0.12018871,0.8738346,1.120079,-2.951851,2.3023667,0.5060153,3.2934752,-3.505012,-2.3521724,1.603888,3.5029445,-3.2609057,2.7096844,1.9264956,0.6346712,-1.219553,-0.43325043,2.6512928,-0.95078135,3.8747873,-3.6500921,1.6421618,2.6397333,-3.9728155,0.9018655,-1.5817494,3.481989,2.9300342,1.1055222,3.2812848,-3.04073,2.9857764,-2.5697432,-0.04289198,-3.6865306,3.4959168,1.5144453,0.2108717,0.33073282,0.3737564,-0.38508892,0.8685889,-0.96086884,2.5750198,-0.17139482,3.8097663,1.4761944,-2.6912303,1.1630244,-2.2994447,2.998901,-1.2204151,1.8272977,1.0534363,-3.0927587,2.6661887,3.611928,2.7918773,-3.1920633,0.73850584,-2.2001915,-1.3442006,2.2563624,1.7428055,-3.069209,1.9200463,-3.7442613,1.4956355,2.9443078,2.0525255,1.012032,-0.9400215,3.5410628,2.775249,0.26442623,-2.5915685,-2.8182516,3.7992878,-1.9575038,2.8034182,-3.9966712,-2.802342,2.4751792,2.032547,0.52695084,1.4975219,-2.948915,1.3485699,-3.0736322,-3.7212234,2.387423,2.7045112,-3.482862,2.1492972,3.1136894,-3.5029974,-1.1648574,-3.1582718,-0.950953,2.0112371,2.1434655,1.8819818,-0.29316092,-2.7991843,-0.72649765,0.4794426,0.678761,-1.9383788,-3.0735822,1.2724261,0.14265585,-1.9776301,-0.37287807,0.24376345,0.23449898,2.4520965,2.2212567,3.0394788,-1.915256,1.1782284,1.1095414,-0.75744915,1.8246112,-2.9554644,0.5350094,0.6626797,-3.1730976,0.8677392,-3.5995984,-2.1840796,-0.008627892,2.1514869,3.5818114,3.5240712,2.2743664,-2.3117332,-1.0371056,1.6268334,1.2791672,1.4502592,0.9987135,-3.5409021,0.075074196,-2.7093663,-2.3863225,-0.23876572,-0.86747885,-1.0760283,-2.9106083,-0.8583455,-0.8937073,3.0299034,-2.124165,1.3294945,-2.9480548,2.3542085,-1.3414974,1.5173888,-1.1591382,2.3742638,2.3552327,-3.8387156,1.0683951,-3.6334882,-3.0552597,1.5384359,1.886085,3.6877322,1.2147136,2.4774466,2.979947,1.7564898,2.8559604,-3.258185,-1.7922072,-0.2758913,-2.8590822,1.5522647,-1.5729003,-3.1991134,-0.8449383,-2.2472048,-3.113462,2.0308595,2.7688136,-0.8290105,-3.2340617,0.48452473,1.9406104,3.5835834,2.0399232,1.2385659,-1.6506615,3.7878304,-1.1688008,3.0505877,-3.2884817,-2.363233,-0.6205158,2.5728278,-0.48413706,-1.8138189,-3.9359136,-3.991724,3.5003943,-2.388012,2.0900707,-1.3527851,3.3255033,0.20285559,-3.8874907,-2.2915645,3.005498,-1.9465928,1.9884033,-2.0511713,-0.6783762,0.24214697,1.8942161,3.824315,1.3465428,1.0645604,1.2364521,3.4356523,3.1841726,2.7196202,3.246122,-1.4488311,-2.9850984,-2.8947644,0.14307928,-0.23355103,1.6048203,1.2395825,-1.3340769,-1.9350038,-0.21591043,-1.7175298,3.095203,-2.9644794,-3.655829,3.2242503,1.2849255,2.7572556,1.7916989,-1.142632,1.4175615,1.4862003,2.998642,-3.1233015,2.0938063,-3.011032,3.699284,-0.06256914,2.967956,-0.4714737,-0.17509842,-2.226273,-3.424142,2.5841756,-2.2179947,0.789495,-0.46732664,2.4880872,2.0400858,0.04885578,-3.71494,1.0092907,-3.0048566,-0.043640137,-1.4054046,1.8646178,1.3363204,-3.960288,-3.4608483,1.1614308,-1.4900742,2.6697874,-0.19567728,0.48045778,2.918375,-0.13216734,3.2806802,-3.0846024,-2.0935984,3.0500426,-3.5075622,1.7505741,-2.8063827,0.39543676,-3.7081852,-0.94447803,2.1564226,1.9701414,0.8188658,-2.5926085,-3.6862879,-2.3008633,2.3315344,3.9451551,1.7251053,-1.2479515,-0.33691406,1.3652515,-0.91214705,-2.9480872,-1.6033998,-3.736847,-1.4355531,3.4011202,-0.88323355,2.0108705,1.3576126,1.6471281,2.1905441,3.3632684,-0.5319009,-0.12584591,-3.5517879,3.0577426,-1.256197,3.649704,2.017715,-3.536438,-2.7984047,1.915472,-2.334187,-1.7960143,-0.28365326,-1.1449933,3.702232,3.2022877,-0.9823394,1.2845182,-3.6844845,1.1846948,1.4962602,3.7125168,3.7645168,0.9636307,3.6115313,1.7375255,0.9051285,2.4114313,3.0368242,3.0651116,-0.029120445,3.8224616,1.2665257,-3.0851402,0.3561039,2.2430382,1.8160429,0.36885786,-1.4955511,2.6598315,1.8854303,-1.6752858,-2.8587618,-0.96646976,-3.8381,-3.1777372,3.3885522,-0.053314686,-2.2014384,2.9028926,-3.7254462,3.4543762,-0.18303967,-0.25199318,2.4264627,-1.4397564,2.684692,-3.83252,3.0774336,1.1900482,-1.8131871,-2.2657638,2.804234,-3.1731997,2.6363316,-3.2237387,-2.3471065,-2.042719,-0.22501421,0.45655632,-1.1589599,-2.3640924,2.3461714,1.3338084,-0.7423105,-2.0999608,1.3475423,-3.2340674,-3.7854404,-3.8025122,-3.4131923,-3.4157667,-2.7302327,-3.2362428,-2.3091135,3.5417671,3.5640411,0.98995495,-3.3988175,1.6646376,3.2063813,-1.1460185,-0.6033864,3.9734817,-2.4372354,-2.3259845,0.716475,1.8833928,2.2560163,3.636106,-1.0724406,3.347992,-1.5323043,2.2233682,2.439517,-2.4736,1.045052,-2.065557,2.289506,-0.9154558,1.0109854,-0.74992514,1.4870806,0.48359013,0.8679447,1.0404587,-3.0466743,1.6724124,0.30987692,0.47896624,3.6497383,-3.9730577,-3.6325183,-1.3584642,2.4390364,2.3310528,2.4940248,0.69241285,-3.9167209,-1.139605,0.6595068,-1.024229,-1.7775688,1.6263466,-3.706984,0.8198595,1.5669894,3.6010718,-2.8456936,-1.4205966,3.194222,2.9406428,3.3089666,-1.4945893,-3.5365787,-3.8596988,-0.16533136,3.3366385,-3.7759948,3.6083674,-3.6681547,2.598628,2.5595737,-2.1280127,3.5084386,0.15999603,3.6991062,-3.306974,-3.0619912,-0.92886734,0.6647377,-0.43506098,3.5611997,0.45987558,-0.26927662,3.7954955,3.7452402,2.473475,-0.21444559,-2.3051682,-3.007462,-3.319622,1.2890744,1.9475574,1.0803914,-1.2943587,-2.1058345,-2.659461,-0.9728637,-3.478383,-1.7215681,-2.4413018,2.4485478,0.7275977,0.7506237,0.28863,-1.6502161,-3.070179,-3.6703658,-2.4517603,-1.9245586,-0.7967143,3.9360723,-1.2211003,-2.9788256,-0.5693183,-2.0920262,0.20896435,0.9276552,1.548037,2.1984901,-3.6371498,-1.6108022,1.482935,-0.59532595,0.012420654,0.9979749,1.5759373,-2.591877,-2.3638892,1.8182335,-3.119244,-1.7995214,3.4801898,-0.72395515,-0.07975435,-0.13496208,-3.8551512,0.8167653,-2.1649203,0.26019716,3.4094353,0.70731926,-1.373488,-2.6034603,0.04150629,-2.8485475,0.21554565,-0.36264896,-3.8448672,3.5760884,-2.20537,2.6275053,1.2144432,-3.51939,3.5363164,2.3383856,3.335434,-0.8688073,3.8725944,-2.9979897,0.51950693,-1.948144,-3.379416,-3.6837764,3.2406812,-2.0941696,-1.8186836,-1.4200721,3.051859,-2.9975228,-3.5198588,-1.0667515,0.3906541,0.06570101,-1.5235944,-2.6725125,1.2213802,-3.6630526,-2.2020445,-0.94588566,-3.9013095,2.252509,-0.1706152,-1.4338899,3.2053123,-2.9962592,-2.4967456,0.99910116,0.5653858,-1.227303,-0.16262674,-3.5608668,0.25520086,-2.470518,-0.71982527,-0.09096241,-2.28584,2.6140637,1.1468339,-3.2986422,3.9844694,1.6622486,-3.5473843,-3.3568735,-0.05912447,-2.3442497,1.5035448,-2.1683393,1.0382333,-3.0123415,2.5394769,-0.84867096,-0.92165804,-2.4301162,0.017509937,1.4142346,0.58603,-1.5738101,-1.1239662,-3.6667323,-0.8885789,-2.7040157,0.058100224,0.9293165,-1.8286729,1.0279942,-1.9512286,1.7159214,2.3789926,-0.39795542,-2.4637055,-3.4604106,-0.44230223,3.239276,0.49254227,-0.14729548,-1.266088,2.129024,-1.3627868,2.1537595,-3.4837337,0.8221197,1.4505019,-3.8331704,1.2607603,-0.55171967,-3.236424,-2.0059023,2.506774,-3.1325321,2.5988088,3.0321608,1.6110563,2.0443087,-3.2899227,-2.9099145,-3.2171726,0.848753,-0.98131704,3.2050939,2.7052116,-0.23205471,3.8209143,-2.4344215,-0.04036951,3.4215088,-0.4321699,-3.271031,0.7145519,-2.811984,1.9553719,0.2822442,2.672977,-2.3179026,-3.6327453,2.7514296,1.6507945,2.4022183,-3.7919507,3.3473258,-1.721684,-0.1435008,-0.4038353,-2.97959,-1.4455519,-0.7491498,-2.6436577,-2.8108997,0.6328058,-1.1020823,-0.82966995,-1.365169,-0.8123617,3.5097866,-3.2263951,-3.6512852,0.54053354,3.229784,-2.1440544,-0.16621637,-3.0889726,0.5219455,0.06087637,0.83239317,0.23237514,-2.1214623,3.0350413,1.9183879,-1.0420766,-3.1407232,-2.6699257,0.81332254,0.2892561,-3.5016193,-0.7920656,2.7257762,-2.9350886,-0.009870529,0.7726884,3.6678352,-0.2924776,-1.7019811,-3.1588187,3.8935523,-3.831936,3.559667,-3.8754354,3.7758212,1.0582137,3.6372123,-2.368146,-2.8389387,1.7432723,1.7738013,-0.13604975,1.2106099,0.65815353,0.068761826,-0.9022474,3.7741199,-0.3810401,-3.490056,-3.5434928,1.3364024,-3.4204879,2.8593926,-2.4697375,-3.8698254,1.8356857,-0.8393254,-2.3124151,1.9465108,-2.064536,-3.4692183,-2.3337846,-1.8788404,1.1605625,-2.1507583,3.0985966,3.5513926,0.57963085,0.71980906,-3.9377928,0.27409315,1.638587,-0.46137,-1.2290936,-3.940022,-1.2195277,0.54725647,0.9936147,1.03016,0.97700834,-2.311276,-0.8228016,-1.6309109,1.0700512,-0.1167407,-0.33708143,3.6019511,0.2229538,3.4989357,1.5468612,1.5102758,-3.4983473,0.11119652,0.9958916,-1.8883758,-0.89143133,0.40645075,0.1684823,-0.020905018,1.2741632,3.3383842,-2.0942154,0.35458422,-2.3979917,-2.6069226,3.2791142,-2.3017635,1.7344708,-1.2263355,1.7571931,3.2963767,1.6166668,2.786487,3.6665268,1.2693748,-2.5511189,-0.16134214,3.8628635,0.5094085,3.495109,-3.375547,3.8372345,1.2766385,1.0364356,0.7928419,-1.8017535,-2.5031743,3.7982092,-1.7165027,-0.42035627,-0.97549486,-3.549303,-2.6483274,0.12018108,-3.5063715,0.09408808,2.956181,1.9782248,-3.4300022,1.0148368,-1.3328557,-2.272357,2.1554327,2.855485,-0.30592299,-0.5888181,-2.9710503,-3.286717,-2.7020216,-0.39593744,-2.3844194,-3.7617269,-2.8837285,3.7906547,3.2441483,-0.17198801,-2.6955414,2.3710876,-1.2883611,-1.5721183,2.5160766,3.63489,-1.3408909,0.7820306,-3.6392784,0.3747487,-3.2473936,0.40445852,1.9814105,0.9576373,-2.3522682,2.84166,3.7851548,-3.8367887,-0.9815011,-2.6083336,-2.7228398,1.3441982,-1.5046101,-3.631701,0.6473336,-0.45645,-0.74574184,-2.0819378,-2.3793926,-1.5050974,-1.577672,0.59939766,2.6177683,-1.9268279,-2.259728,1.334085,-2.886146,-3.7376351,0.4855423,-0.180799,-1.0154762,1.4697833,-1.9079123,3.791726,-0.5200429,-2.379777,-3.109355,3.8348207,0.26860905,-0.23800945,3.762219,-2.891974,0.8823328,3.3852377,-3.8094845,-2.7185302,-3.872182,-2.606256,-2.7127357,-0.09238148,-3.0102363,1.4104323,1.0428553,-0.5686774,0.74654865,3.1861763,-2.356144,-3.1264987,-1.9178057,-0.7026181,-1.3559136,3.6425772,0.6669035,-0.33803415,3.6472797,0.1726489,3.8752775,0.90229464,1.6523261,-2.7640882,0.024229527,-3.9110827,0.14691925,0.03219366,3.8744726,-0.61287737,-2.6424947,2.193818,0.40801954,-0.29898882,-3.15702,2.8118181,-3.2900257,-2.70653,-0.94800663,3.633287,1.0769548,-1.0932693,-1.1307201,-0.5386777,2.4751396
-0.043436527,1.7779493,3.5832405,-2.059143,-1.0473971,-3.49437,2.521142,3.9812841,-1.3618255,3.1408439,-3.9636526,-3.9881897,-1.0230064,0.22784853,-1.8777652,-0.16022635,-3.8315315,-2.2389035,0.022871017,-3.1002216,2.7040777,0.294065,-2.4728694,3.952012,-1.0898962,1.1330857,3.9153638,2.968728,-2.3523316,0.36289263,-1.401556,-3.9305182,-1.0896645,-0.9640322,2.1502342,1.3691645,-3.9655142,-1.6309166,2.415606,-1.4712954,-0.051968098,-2.5780768,2.0187798,-3.7207332,3.857543,2.8929114,1.4170346,-1.0152178,2.61411,0.8048568,-1.4658103,0.29740047,-1.3252258,-0.4163165,-0.3919716,2.1538548,-1.4991612,-2.692832,0.42064953,1.8905439,1.3627839,2.742847,-2.9913893,0.37918139,0.67700624,-2.6941538,-2.0652342,-2.8140125,-2.8540244,-1.9926887,-1.4651232,0.34333897,3.9775171,-2.1527286,-1.8564315,0.026462555,1.5346203,3.2197075,-0.30504608,-2.9931273,-3.762453,-3.7280045,3.447424,-3.90831,-3.8889465,2.9624038,1.6886873,1.8615327,2.4529462,-2.5569172,2.5502543,-2.97787,1.9165106,-1.2601261,2.5392218,-1.1559668,-2.0498633,0.70758724,-0.25648642,-1.1364584,-3.250721,2.786251,-3.8262782,1.7641077,-1.9996715,-2.0137162,-3.71556,3.7837658,3.7095332,2.482668,-0.09047699,-3.8743005,-0.085579395,1.043787,0.8131685,-3.1040368,0.29676056,-1.5332179,-3.2769637,3.0897484,-0.49346447,-2.0770235,0.16733646,-3.4872837,0.6824794,-3.4985547,1.0788689,-1.9314542,2.9156818,-2.3966398,-0.38310194,-1.3207488,3.7856503,-2.1799822,3.7465472,-0.6924238,-0.8733859,-2.7085724,-1.5440912,-1.5267615,-0.7187238,3.8234582,-3.1494765,1.6735811,0.13251734,-0.49269676,-0.94788647,0.42866993,-2.1538167,-3.440765,-0.9125109,3.1126165,0.14237833,-1.3971443,-1.1307764,-2.409923,-0.7611275,-3.9302664,-1.133317,0.03540516,-3.5319428,-0.8063288,1.640852,2.4881344,-3.5161843,1.0369902,0.77494574,1.5581274,-2.8793998,-1.905416,-2.2108936,-3.3508816,2.9336896,0.126225,1.9206004,-3.7061152,-3.3390398,2.200179,-2.6550627,-3.1133137,-3.5122905,-1.1903334,0.9825487,-0.20185089,2.30927,-2.690147,2.1460176,1.8903432,-3.4389606,1.397481,-1.2354608,0.39673233,3.3324523,-2.2753644,-0.4036088,-2.9618773,-1.8731842,-0.80208683,0.53149605,-0.5276718,-3.8755326,-0.6153674,1.0337315,1.7695432,1.1288671,-0.28223085,3.5681252,3.325162,-3.8743534,-2.0055456,-0.38471556,-0.65014505,-3.2101932,-0.8398113,-1.8412609,3.8208733,2.187807,-2.8592215,2.067563,3.671647,0.8156996,3.6451187,-2.1494246,3.2965932,1.0933962,-3.5234952,-1.3238907,3.5374184,1.2251024,-1.6730533,3.3398132,3.70396,-0.7115226,2.983591,-2.0029707,3.4995327,-0.49318552,-1.9131212,-1.0239081,-1.2743416,1.4909391,0.95853615,2.0479894,-2.7832217,0.037247658,3.1886501,-0.44261932,-3.390141,-2.3131337,-0.53075504,-0.30362797,0.41958094,-3.835112,3.7591372,0.9201608,0.7247591,3.1295705,-3.8907657,1.9548202,3.9587202,-1.313365,-1.2646542,-3.4691558,-3.656765,-3.6926494,2.8001986,-2.3129263,3.0452147,-0.30864334,3.0401516,-3.9323192,-0.0745759,1.4476056,-0.48240137,2.3160524,-3.328145,-1.486423,-3.2204137,1.0306673,1.1748753,-3.0235085,1.6742821,-1.4361396,-0.66032124,-2.0652404,-1.6682959,-2.8573637,0.4017167,-0.5451255,1.3345451,1.1378889,1.5954838,-0.15127516,-1.6736054,-2.94458,2.2340913,-2.100163,-2.8757353,-1.7851043,0.5193052,-2.4977026,-1.734592,-0.38995028,3.4769459,3.707006,-1.7892232,-1.7728,0.18357658,1.9256167,-0.31092548,-2.3933568,3.925047,3.0821228,1.8788443,3.872538,-0.76147985,-2.969131,2.3021393,2.1229582,2.1949258,-0.5342598,0.0061273575,-2.6921997,-1.838881,-2.2226171,-3.8184147,-3.2469478,-1.8517365,0.97287226,-2.6437545,-0.5990858,-3.6621637,-1.4261737,0.33160305,0.86571217,1.2370353,-3.7984662,0.33635664,0.079194546,1.0340643,3.8195257,-3.8477592,3.105051,-3.89145,0.15083027,-3.5720997,-1.7734356,-3.5639153,3.7597055,1.5760059,-2.3718467,-0.93366814,-3.4053054,2.4752364,2.246097,-2.665844,-2.8420877,0.42805195,-1.7230172,-0.5093932,1.2461457,3.7775865,2.3183951,2.6481347,-0.6208215,-2.2921157,3.7141938,-0.9200387,0.19130516,2.6113434,0.5503912,-3.1201396,0.43983984,-0.29903364,-0.3137021,2.7835603,0.73110294,2.0931454,-2.7645917,2.709353,3.0564766,-3.665464,-1.0513859,-1.4488764,2.8701777,2.0269432,-3.7882185,-2.665338,-2.9756656,-3.6127496,1.6754827,0.5356674,0.044036865,-3.601489,-3.5262318,-3.2119503,1.6615405,-2.6709852,-3.1051464,2.1418352,3.2770987,3.301444,-1.8166165,2.3439727,-2.7208767,3.4912653,-3.1370144,-0.6795492,1.8158121,2.1123471,2.6005445,-0.7328367,1.1191387,0.4131937,-2.7224727,-3.232256,-2.6173964,-0.3321805,-0.37149096,0.53190565,0.92259884,-0.9951091,1.6294017,-3.804494,2.5479622,2.2043562,3.478778,-3.223567,0.27121067,2.1134863,2.8915982,2.5962462,0.31954336,-1.6345716,3.2129922,0.6391611,-3.929399,0.37384033,3.6451602,-0.5647621,1.8987355,-0.92797947,-1.4585786,-0.2734542,-0.55131674,3.3705711,-2.2748604,-3.0408502,0.6566777,2.9569535,3.3026047,-3.9167252,3.640696,1.5621204,-0.6540351,1.3187695,2.7333078,-0.8168373,-2.4600787,-1.165134,-3.590993,3.5842724,-2.61874,-2.0388546,2.2645602,-1.5125155,0.42191315,-1.7775187,1.7723436,-2.7541113,3.2622385,-1.2457204,2.094401,-3.498559,-0.8663449,3.298911,-3.7043314,-1.5250964,2.997837,-3.434679,-1.0700421,1.4748812,2.79733,1.3326416,2.9184866,0.66795206,1.1088238,1.8816323,-0.7504411,-2.865488,-3.1105795,-3.0593605,3.9022093,1.3423128,-2.9751606,3.9369817,0.87505054,2.7063718,0.9741039,2.4810753,1.6934915,3.6841612,-3.458818,1.910223,0.9713416,2.433282,2.9864893,-1.4390135,-0.20941353,-0.46756268,-1.934619,2.8270202,2.3376722,-3.351293,-3.0365987,1.8707752,-2.8663187,-2.4670506,-0.515646,1.5462756,-1.7933278,3.2596135,0.033480644,0.4109807,3.1290417,-2.3573608,-3.7426167,1.7760854,-2.631166,1.8258204,0.6424303,-1.5507879,0.45965576,-1.1407337,-2.0590825,1.169199,2.291597,2.453741,1.8133054,3.8523364,2.814979,-3.0029502,-3.5156026,0.21990108,1.0037823,-2.6085072,2.6257567,-1.4499822,-0.53025246,3.5241556,-2.8157954,1.3676248,-1.1322937,-3.4673567,2.4923863,-2.4814672,2.7436848,2.9231925,-2.2807016,0.1833024,2.9628415,-0.3938179,3.0140586,0.55657864,0.7869792,0.7312279,-3.7569842,-1.4107256,-0.3435359,1.65062,-0.6894536,-1.7423687,-2.5574455,1.3611183,0.37810898,1.6241994,-0.96170425,-3.5595737,1.4265747,0.9661894,3.0395603,-1.998723,-2.415904,0.5725846,2.7518964,2.853331,-3.192421,-2.861917,-1.7181706,-2.9533386,-0.51111937,-0.2521181,-0.6764488,-0.26267147,-0.27650404,-0.59217834,2.2585692,1.5262928,3.89861,3.7101436,-1.9414988,3.6565366,3.342986,-1.20123,-2.389349,1.8276381,-1.9276748,-0.48137856,2.440835,0.9653692,-1.1754584,-0.1052413,-3.0301108,-3.4487987,-2.101129,-2.0470247,2.6187897,2.9807992,1.7049899,-1.0294409,-1.4332385,3.5614996,1.9323621,-0.09339285,-1.0763197,2.592805,-2.970015,-0.40666246,1.235692,-2.505015,-0.9684253,2.7740808,-3.6602225,0.47338963,1.0851197,-1.3715181,-0.8928795,-3.7364063,3.219841,-3.2926803,-3.0895534,3.1148987,-0.7496333,-1.61094,-3.1806479,2.8012433,-2.9862099,1.1281047,1.9216042,-1.868959,-3.585383,2.5221705,-0.23601389,3.8993769,2.3800793,-3.5618162,1.3051233,-0.23477125,0.5511465,0.5313134,-1.798687,-3.048585,-3.9020534,-0.5218668,-1.4436231,1.0780702,3.4689012,1.2551799,0.9344106,0.4345765,-3.4118981,-0.9137993,-0.43833017,2.9423337,-2.5814462,-2.3620424,-2.042791,-3.730053,-2.0279164,3.1733913,-1.93465,-0.938694,-3.853642,-3.6949391,0.46838427,-1.1676383,0.10899067,-2.511128,1.2481413,2.3829389,2.1528707,-3.65898,-3.1305227,2.5938349,1.2015986,3.2575717,2.2491493,-1.1905756,-1.6723094,2.7990656,-1.1577854,0.5206547,2.9855833,-1.8703184,-3.4531512,3.113011,-2.2045846,3.854762,-3.6734352,-1.8426023,2.3233447,-2.6355782,2.2393146,1.1715908,0.72208834,-1.8511381,2.1976233,-3.2458382,1.3932528,-1.8706269,-3.1531968,3.7247396,-3.00454,-1.2526493,-1.3340158,3.1699944,0.18832493,1.1005859,-1.0418577,-0.31256533,-0.8935385,-1.7205186,1.9028225,-3.0865088,1.2011337,3.179893,2.5846977,3.392807,2.223343,-3.8026023,-0.8825326,-2.8269114,-0.09939957,-3.8309603,-0.1322403,-1.2604246,-3.6360073,3.7337604,-0.708189,1.7614884,-2.99016,-2.5570369,1.4906726,-3.4851546,2.7360225,-0.9833875,3.0024667,1.0424509,-1.2539177,2.966411,3.618703,0.60784817,-3.2717452,-0.06648493,2.23814,-0.705286,1.0820332,1.4723797,-1.6048846,-1.0820823,1.7013216,3.7198157,-0.15374708,-1.0574856,-0.67743444,-0.949687,2.821528,1.1726608,-1.360856,-2.121292,2.219408,-3.9809155,0.21165848,-1.8551216,-0.24725103,3.751688,-3.112886,0.92356825,-3.9411373,3.9883704,0.4966674,-2.2475014,-1.0747185,2.5825543,-2.9007592,-0.4341483,-1.4712777,0.9955349,-0.7246847,2.177227,-1.9597502,2.2458806,0.32170105,-0.6453376,1.8411422,1.8121052,-2.939763,-1.1392527,-2.7269435,-3.2530808,-3.4396658,-1.5930996,2.2893848,-1.8130488,0.37200356,0.73294926,3.1836572,-3.0188384,0.33163118,0.7497268,-2.027863,2.0095897,-3.456511,-0.8295903,-2.1471186,-0.055854797,2.875887,-1.0701208,2.9290552,3.9580693,0.4575019,-2.340794,2.171812,-2.8121476,3.3632097,-1.0728054,-1.8659158,-3.0645952,3.2286696,-3.6093369,-3.4372244,2.009678,1.843154,2.0425053,1.7696285,3.0454397,-3.620378,-3.830514,2.0120854,-3.896274,-1.0060477,-1.6871152,-0.2964282,-3.6228304,3.8505917,-2.5275865,-2.8537889,3.3826613,3.6237397,0.14004087,3.3890924,3.055203,-3.7794075,0.75333834,1.1846404,-3.5778666,0.8472128,1.2004466,-0.24114466,-3.3594942,-1.1925697,2.5986567,3.9542365,-0.036638737,-0.6806774,-3.6613584,1.4116025,-3.5869713,-2.1471763,1.0944133,0.75147724,-0.13828516,3.6673322,3.0279174,2.6783743,0.5759034,-3.2119823,0.7746353,-0.3094921,-0.108318806,3.485303,-2.5212512,-2.6179657,3.4984646,1.6142974,-1.2219529,0.27651644,-1.1110587,-0.59171057,-3.048356,-3.5445995,-0.9212723,-3.2781048,3.3481722,-2.5898108,3.0305767,-0.2540536,1.6366076,-2.6187463,2.7802505,-1.9901586,3.569654,-2.2870326,2.6247382,3.9975438,-1.0011826,1.916379,2.5936222,-1.0416346,-2.3373442,-3.0580359,1.6014423,1.2395296,1.0546851,-2.961636,-0.8818569,1.3445258,0.33890915,-1.585772,2.9664407,-0.074121,3.0798712,-2.2195668,1.7208672,1.5808015,-2.324676,-1.4133005,-3.1995487,2.3329606,3.0563593,-0.40382814,-2.3549967,2.1954446,-0.64523363,0.42457485,-3.0436678,-3.3772302,1.1419907,2.1225357,-2.508247,3.7624593,-1.8320704,1.3688502,-3.5728984,2.6234217,-0.4000883,1.6861296,-0.26859426,1.6281219,-3.098806,-2.7941155,-0.5719857,1.17242,-2.255012,-1.375721,3.7368045,0.07004213,1.5879693,-0.54595137,0.55622244,-2.9780154,0.5182395,3.4689965,-3.435988,-3.936201,2.7138247,0.9566407,-2.4444866,3.4697475,-1.6592083,1.2684956,-1.742877,-3.1960201,2.044797,-2.962225,-1.4817781,-1.7077665,0.084619045,-2.2025228,1.8689694,-0.29614925,1.2998176,3.67948,-3.8192096,-2.7774425,0.5377946,1.1339712,1.1510792,2.0027184,-2.6039696,1.5298362,0.5840745,3.1278763,-3.2040439,-0.94292307,-0.6884227,1.4175782,3.753559,3.1535172,-2.5823445,-3.793841,3.631319,-3.0534892,-3.0649805,-0.14588928,2.1541166,2.547069,0.29055738,-3.0640721,3.6812778,-1.658565,2.1034694,2.9996347,-3.0943432,-1.03229,-1.2145824,-0.823328,-2.3185534,1.0425973,2.9534297,0.025436878,0.5730672,0.7388706,0.26322508,3.7317023,-0.3991909,-2.3816218,0.34857178,-0.29667425,-3.7072644,1.7715073,-3.8983212,2.849275,-0.5805454,2.4019032,0.04349327,1.2130194,-0.30337715,-2.4510288,0.742126,-2.44812,0.42218828,-2.4570546,-2.3409243,-2.0439591,3.7292829,1.7280006,2.6291795,-3.6523528,-3.735876,-1.5951056,-0.014704704,3.9808578,-1.4747839,0.49109125,-1.0627337,-2.2081141,1.6971722,-0.42635965,-3.4273171,-0.83693504,0.2627945,-2.476945,3.3839517,0.5308471,-2.270846,0.971786,-2.246665,3.073471,3.9711685,3.6733413,-0.12018871,0.8738346,1.120079,-2.951851,2.3023667,0.5060153,3.2934752,-3.505012,-2.3521724,1.603888,3.5029445,0.7045126,2.7096844,1.9264956,0.6346712,-1.219553,-0.43325043,2.6512928,-0.95078135,3.8747873,-3.6500921,1.6421618,2.6397333,-3.9728155,0.9018655,-1.5817494,3.481989,2.9300342,1.1055222,3.59967,-3.04073,2.9857764,-2.5697432,-0.04289198,-3.6865306,3.4959168,1.5144453,0.2108717,0.33073282,0.3737564,-0.38508892,0.8685889,-0.96086884,2.5750198,-0.17139482,3.8097663,1.4761944,-2.6912303,1.1630244,-2.2994447,2.998901,-1.2204151,1.8272977,1.0534363,-3.0927587,2.6661887,3.611928,2.7918773,-3.1920633,0.73850584,-2.2001915,-1.3442006,2.2563624,1.7428055,-3.069209,1.9200463,-3.7442613,1.4956355,2.9443078,2.0525255,1.012032,-0.9400215,3.5410628,2.775249,-3.8206897,-2.5915685,-2.8182516,3.7992878,-1.9575038,2.8034182,-3.9966712,-2.802342,2.4751792,2.032547,0.52695084,1.4975219,-2.948915,1.3485699,-3.0736322,-3.7212234,2.387423,2.7045112,-3.482862,2.1492972,3.1136894,-3.5029974,3.5272303,-3.1582718,-0.950953,2.0112371,2.1434655,1.8819818,-0.29316092,-2.7991843,-0.72649765,0.4794426,0.678761,-1.9383788,-3.0735822,1.2724261,-3.1316514,-1.9776301,-0.37287807,0.24376345,0.23449898,2.4520965,2.2212567,3.0394788,-1.915256,1.1782284,1.1095414,-0.75744915,1.8246112,-2.9554644,0.5350094,0.6626797,-3.1730976,0.8677392,-3.5995984,-2.1840796,-0.008627892,2.1514869,3.5818114,3.5240712,2.2743664,-2.3117332,-1.0371056,1.6268334,1.2791672,1.4502592,0.9987135,-3.5409021,0.075074196,-2.7093663,-2.3863225,-0.23876572,-0.86747885,-1.0760283,-2.9106083,-0.8583455,-0.8937073,3.0299034,-2.124165,1.3294945,-2.9480548,2.3542085,-1.3414974,1.5173888,-1.1591382,2.3742638,2.3552327,-3.8387156,1.0683951,-3.6334882,-3.0552597,1.5384359,1.886085,3.6877322,1.2147136,2.4774466,2.979947,1.7564898,2.8559604,-3.258185,-1.7922072,-0.2758913,-2.8590822,1.5522647,-1.5729003,-3.1991134,-0.8449383,-2.2472048,-3.113462,2.0308595,2.7688136,-0.8290105,-3.2340617,0.48452473,1.9406104,3.5835834,2.0399232,1.2385659,-1.6506615,3.7878304,-1.1688008,3.0505877,-3.2884817,-1.8054132,-0.6205158,2.5728278,-0.48413706,-1.8138189,-3.9359136,-3.991724,3.5003943,-2.388012,2.0900707,-1.6761785,3.3255033,0.20285559,-3.8874907,-2.2915645,3.005498,-1.9465928,1.9884033,-2.0511713,-0.6783762,0.24214697,1.8942161,3.824315,1.3465428,-1.225018,1.2364521,3.4356523,3.1841726,2.7196202,3.246122,-1.4488311,-2.9850984,-2.8947644,0.14307928,-0.23355103,1.6048203,1.2395825,-1.3340769,-1.9350038,-0.21591043,-1.7175298,3.095203,-2.9644794,-3.655829,3.2242503,1.2849255,2.7572556,1.7916989,-1.142632,1.4175615,1.4862003,2.998642,-3.1233015,2.0938063,-3.011032,3.699284,-0.06256914,2.967956,-0.4714737,-0.17509842,-2.226273,-3.424142,2.5841756,-2.2179947,0.789495,-0.46732664,2.4880872,2.0400858,0.04885578,-3.71494,1.0092907,-3.0048566,-0.043640137,-1.4054046,1.8646178,1.3363204,-3.960288,-3.4608483,1.1614308,-1.4900742,-2.63484,-0.19567728,0.48045778,2.918375,-0.13216734,3.2806802,-3.0846024,-2.0935984,3.0500426,-3.5075622,1.7505741,-2.8063827,0.39543676,-3.7081852,-0.94447803,2.1564226,1.9701414,0.8188658,-3.4038944,-3.6862879,-2.3008633,2.3315344,3.9451551,1.7251053,-2.276998,-0.33691406,1.3652515,-0.91214705,-2.9480872,-1.6033998,-3.736847,-1.4355531,3.4011202,-0.88323355,2.0108705,1.3576126,1.6471281,2.1905441,3.3632684,-0.5319009,-0.12584591,-3.5517879,3.0577426,-1.256197,3.649704,2.017715,-3.536438,-2.7984047,1.915472,-2.334187,-1.7960143,-0.28365326,-1.1449933,3.702232,3.2022877,-0.9823394,1.2845182,-3.6844845,1.9912095,1.4962602,3.7125168,3.7645168,0.9636307,3.6115313,1.7375255,0.9051285,2.4114313,3.0368242,3.0651116,-0.029120445,3.8224616,1.2665257,-3.0851402,-3.814653,2.2430382,3.9936419,0.36885786,-1.4955511,2.6598315,1.8854303,-1.6752858,-2.8587618,-0.96646976,-3.8381,-3.1777372,3.3885522,-0.07473612,-2.2014384,2.9028926,-3.7254462,3.4543762,-0.18303967,-0.25199318,2.4264627,-1.4397564,2.684692,-3.83252,3.0774336,1.1900482,-1.8131871,-2.2657638,2.804234,-3.1731997,2.6363316,-3.2237387,-2.3471065,-2.042719,-0.22501421,0.45655632,-1.1589599,-2.3640924,2.3461714,1.3338084,-0.7423105,-2.0999608,1.3475423,-3.2340674,-3.7854404,-3.8025122,-3.4131923,-3.4157667,-2.7302327,-3.2362428,-2.3091135,3.5417671,3.5640411,0.98995495,-3.3988175,1.6646376,3.2063813,-1.1460185,-0.6033864,3.9734817,-2.4372354,-2.3259845,0.716475,1.8833928,2.2560163,3.636106,-0.09684944,3.347992,-1.5323043,2.2233682,2.439517,-2.4736,1.045052,-2.065557,2.289506,-0.9154558,1.0109854,-0.74992514,1.4870806,0.48359013,0.8679447,1.0404587,-3.0466743,1.6724124,0.30987692,0.47896624,3.6497383,-3.9730577,-3.6325183,-1.3584642,2.4390364,2.3310528,2.4940248,0.69241285,-3.9167209,-1.139605,0.6595068,-1.024229,-1.7775688,1.6263466,-3.706984,0.8198595,1.5669894,3.6010718,-1.1711702,-1.4205966,3.194222,2.9406428,3.3089666,-1.4945893,-3.5365787,-3.8596988,-0.16533136,3.3366385,-3.7759948,3.6083674,-3.6681547,2.598628,2.5595737,-2.1280127,3.5084386,0.15999603,3.6991062,-3.306974,-3.0619912,-0.92886734,-2.7440348,1.8629298,3.5611997,0.45987558,-0.26927662,3.7954955,3.7452402,2.473475,-0.21444559,-2.3051682,-3.007462,-3.319622,1.2890744,1.9475574,1.0803914,-1.2943587,-2.1058345,-2.659461,-0.9728637,-3.478383,-1.7215681,-3.2349014,2.4485478,0.7275977,0.7506237,0.28863,-1.6502161,-3.070179,-3.6703658,-2.4517603,-1.9245586,-0.7967143,3.9360723,-1.2211003,-2.9788256,-0.5693183,-2.0920262,0.20896435,0.9276552,1.548037,2.1984901,-3.6371498,-1.6108022,1.482935,-0.59532595,0.012420654,0.9979749,1.5759373,-2.591877,-2.3638892,1.8182335,-3.119244,-1.7995214,3.4801898,-0.72395515,-0.07975435,-0.13496208,-3.8551512,0.8167653,-2.1649203,0.26019716,3.4094353,0.70731926,-1.373488,-2.6034603,0.04150629,-2.8485475,0.21554565,-0.36264896,-3.8448672,3.5760884,-2.20537,2.6275053,1.2144432,-3.51939,3.5363164,2.3383856,2.5249786,-0.8688073,3.8725944,-1.253067,0.51950693,-1.948144,-3.379416,-3.6837764,3.2406812,-2.0941696,-1.8186836,-1.4200721,3.051859,-2.9975228,-3.5198588,-1.0667515,0.3906541,0.06570101,-1.5235944,-2.6725125,1.2213802,-3.6630526,-2.2020445,-0.94588566,-3.9013095,2.252509,-0.1706152,-1.4338899,3.2053123,-2.9962592,-2.4967456,0.99910116,0.5653858,-1.227303,-0.16262674,-3.5608668,0.25520086,-2.470518,-0.71982527,-0.09096241,-2.28584,2.6140637,1.1468339,-3.2986422,3.9844694,1.6622486,-3.5473843,-3.3568735,-0.05912447,-2.3442497,1.5035448,-2.1683393,1.0382333,-3.0123415,2.5394769,-0.84867096,-0.92165804,-2.4301162,0.017509937,1.4142346,0.58603,-1.5738101,-1.1239662,-3.6667323,-0.8885789,-2.7040157,0.058100224,0.9293165,-1.8286729,1.0279942,-1.9512286,1.7159214,2.3789926,-0.39795542,-2.4637055,-3.4604106,-0.44230223,3.239276,0.49254227,-0.14729548,-1.266088,2.129024,-1.3627868,2.1537595,-3.4837337,0.8221197,1.4505019,-3.8331704,1.2607603,-0.55171967,-3.236424,-2.0059023,2.506774,-3.1325321,2.5988088,3.0321608,1.6110563,2.0443087,-3.2899227,-2.9099145,-3.2171726,0.848753,-0.98131704,3.2050939,2.7052116,-0.23205471,3.8209143,1.2032499,-0.04036951,3.4215088,-0.4321699,-3.271031,0.7145519,-2.811984,1.9553719,0.2822442,2.672977,-2.3179026,1.260716,2.7514296,1.6507945,2.4022183,-3.7919507,3.3473258,-1.721684,-0.1435008,-0.4038353,-2.97959,-1.4455519,-0.7491498,-2.6436577,-2.8108997,0.6328058,-1.1020823,-0.82966995,-1.365169,-0.8123617,3.5097866,-3.2263951,-3.6512852,0.54053354,3.229784,-2.1440544,-0.16621637,-3.0889726,0.5219455,0.06087637,0.83239317,0.23237514,-2.1214623,-2.3324976,1.9183879,-1.0420766,-3.1407232,-2.6699257,0.81332254,0.2892561,-3.5016193,-0.7920656,2.7257762,0.7722783,-3.911553,0.7726884,3.6678352,-0.2924776,3.3087087,-3.1588187,3.8935523,-3.831936,3.559667,-3.8754354,3.7758212,1.0582137,3.6372123,-2.368146,-2.166016,1.7432723,1.7738013,-0.13604975,1.2106099,0.65815353,0.068761826,-0.9022474,3.7741199,2.2683735,-3.490056,-3.5434928,1.3364024,-3.4204879,2.8593926,0.42232132,-3.8698254,1.8356857,-0.8393254,-2.3124151,1.9465108,-2.064536,-3.4692183,-2.3337846,-1.8788404,1.1605625,-2.1507583,3.0985966,3.5513926,0.57963085,0.71980906,-3.9377928,0.27409315,1.638587,-0.46137,-1.2290936,-3.6786723,-1.2195277,0.54725647,0.9936147,1.03016,0.97700834,-2.311276,-0.8228016,-1.6309109,1.0700512,-0.1167407,-0.33708143,3.6019511,0.2229538,-3.6375709,1.5468612,1.5102758,-3.4983473,0.11119652,0.9958916,-1.8883758,-0.89143133,0.40645075,0.1684823,-0.020905018,1.2741632,3.3383842,-2.0942154,0.35458422,-2.3979917,-2.6069226,3.2791142,-2.3017635,1.7344708,-1.2263355,1.7571931,3.2963767,1.6166668,2.284288,3.6665268,1.2693748,-2.042696,-0.21764755,3.8628635,0.07650709,3.495109,-3.375547,3.8372345,1.2766385,1.0364356,0.7928419,-1.8017535,-2.5031743,3.7982092,-1.7165027,-0.42035627,-0.97549486,-3.549303,-2.6483274,0.12018108,-3.5063715,0.09408808,2.956181,1.9782248,-3.4300022,1.0148368,-1.3328557,-2.272357,-1.1189971,2.855485,-0.30592299,-0.5888181,-2.9710503,-3.286717,-2.7020216,-0.39593744,-2.3844194,-3.7617269,-2.8837285,3.7906547,3.2441483,-0.17198801,-2.6955414,2.3710876,-1.2883611,-1.5721183,2.5160766,3.63489,-1.3408909,0.7820306,-3.6392784,0.3747487,-3.2473936,0.40445852,1.9814105,0.9576373,-2.3522682,2.84166,3.7851548,-3.8367887,-0.9815011,-2.6083336,-2.7228398,1.3441982,-1.5046101,-3.631701,0.6473336,-0.45645,-0.74574184,-2.0819378,-2.3793926,-1.5050974,-1.577672,0.59939766,2.6177683,-1.9268279,-2.259728,1.334085,-2.886146,-3.7376351,0.4855423,-0.180799,-1.0154762,1.4697833,-1.9079123,3.791726,-0.5200429,-2.379777,-3.109355,3.8348207,0.26860905,-0.23800945,3.762219,-2.891974,0.8823328,3.3852377,-3.8094845,-2.7185302,-1.4300737,-2.606256,-2.7127357,-0.09238148,3.6814113,1.4104323,1.0428553,-0.5686774,0.74654865,3.1861763,-2.356144,-3.1264987,-1.9178057,-0.7026181,-1.3559136,3.6425772,0.6669035,-0.33803415,3.6472797,0.1726489,3.8752775,0.90229464,1.6523261,-2.7640882,0.024229527,-3.9110827,0.14691925,0.03219366,-1.7458005,-0.61287737,-2.6424947,2.193818,0.40801954,-0.29898882,-3.15702,2.8118181,-3.2900257,-2.70653,-0.94800663,3.633287,2.1954455,-1.0932693,-1.1307201,-0.5386777,2.4751396
-0.043436527,-2.051909,3.5832405,-0.1686039,2.4004278,-3.49437,2.521142,3.9812841,-1.3618255,3.1408439,-3.9636526,-3.9881897,-1.0230064,0.22784853,-1.8777652,-0.16022635,-3.8315315,-2.2389035,0.022871017,-3.1002216,2.7040777,-3.6819506,0.108192444,3.952012,-1.0898962,1.1330857,3.9153638,2.968728,-2.3523316,0.36289263,-1.401556,-3.9305182,-1.0896645,-0.9640322,2.1502342,1.3691645,-3.9655142,-1.6309166,-0.6969123,-1.4712954,-0.051968098,-2.5780768,2.0187798,-1.3462191,3.857543,3.1512656,-3.0527883,-1.0152178,2.61411,0.8048568,-1.4658103,0.29740047,-3.1335564,-0.4163165,-0.3919716,2.1538548,-1.4991612,-2.692832,0.42064953,1.8905439,1.3627839,2.742847,-2.9913893,0.37918139,0.67700624,-2.6941538,-2.0652342,-2.8140125,-2.8540244,1.6959267,-3.4542623,0.34333897,3.9775171,-2.1527286,-1.8564315,0.026462555,1.5346203,1.4935045,-0.30504608,-2.9931273,-3.762453,-3.7280045,3.447424,-3.90831,-3.8889465,2.9624038,1.6886873,1.8615327,-3.947721,-2.5569172,2.5502543,-2.97787,1.9165106,-1.2601261,2.5392218,-1.1559668,-2.0498633,0.70758724,-0.25648642,-1.1364584,-3.250721,2.786251,-3.8262782,1.7641077,-1.9996715,-2.0137162,-3.71556,3.7837658,1.0361948,2.482668,-0.09047699,-3.8743005,-0.085579395,1.043787,0.8131685,-3.1040368,0.29676056,-0.21692657,-1.4089227,3.0897484,-0.49346447,2.73849,0.16733646,1.1553454,-1.157754,-3.4985547,0.6621218,-1.9314542,2.9156818,-2.3966398,-0.38310194,-1.3207488,-0.089514256,-2.1799822,3.7465472,-0.6924238,-0.8733859,-2.7085724,-1.5440912,-1.5267615,-0.7187238,3.8234582,-3.1494765,-1.1306863,3.080328,-0.49269676,-0.94788647,0.42866993,-2.1538167,-3.440765,-0.9125109,3.1126165,-1.466299,-1.59939,-1.1307764,-2.409923,-0.7611275,-3.9302664,-1.133317,0.03540516,-3.5319428,-0.8063288,1.640852,1.0734153,-3.5161843,1.0369902,0.77494574,1.5581274,-2.8793998,-1.905416,-2.2108936,-3.3508816,2.9336896,0.126225,1.9206004,-3.7061152,-3.3390398,2.200179,-2.6550627,-3.1133137,-3.5122905,1.1693969,-2.7027316,-0.20185089,2.30927,-1.7229733,2.1460176,1.8903432,-3.4389606,1.397481,-2.9544601,0.39673233,3.3324523,-2.2753644,1.8234258,-2.9618773,-1.8731842,-0.80208683,0.53149605,-0.5276718,-3.8755326,-0.6153674,-3.3361387,1.7695432,1.1288671,-0.28223085,3.5681252,3.325162,-3.8743534,-2.0055456,-0.38471556,-0.65014505,-3.2101932,-0.8398113,-1.8412609,3.8208733,2.187807,-2.8592215,2.067563,3.671647,0.8156996,3.6451187,-2.1494246,3.2965932,1.0933962,-3.5234952,-1.3238907,3.5374184,1.2251024,-1.6730533,-9.536743E-7,3.4411168,-0.7115226,-0.6337104,-2.0029707,3.4995327,-0.49318552,-1.9131212,-1.0239081,-1.2743416,1.4909391,-2.7474174,2.0479894,-2.7832217,0.037247658,3.7267203,-0.44261932,-3.390141,-2.515315,-0.53075504,-0.30362797,0.41958094,-3.835112,3.7591372,0.9201608,0.7247591,1.4433742,3.5334415,1.9548202,3.9587202,0.0958848,-1.2646542,-3.4691558,-3.656765,-3.6926494,2.8001986,-2.3129263,3.0452147,-0.30864334,-0.6007142,-3.9323192,-0.695529,1.4476056,3.3661466,2.3160524,-3.328145,-1.486423,-3.2204137,-0.88975334,1.1748753,2.8949142,3.6647582,-1.4361396,-0.66032124,-2.0652404,-2.8904853,-2.8573637,0.4017167,-0.5451255,1.3345451,1.1378889,1.5954838,-0.15127516,-1.6736054,-2.94458,2.2340913,-2.100163,-2.8757353,-1.7851043,0.5193052,-2.4977026,-1.734592,-0.38995028,3.4769459,3.707006,-1.7892232,-1.7728,0.18357658,1.9256167,-0.31092548,-2.3933568,3.925047,2.274969,0.41581964,3.872538,-0.76147985,-2.969131,1.7071104,2.7910523,2.1949258,-0.5342598,0.0061273575,-2.6921997,-1.838881,-2.2226171,-3.8184147,-3.2469478,-1.8517365,0.97287226,-2.6437545,-0.5990858,-0.169034,-1.4261737,0.33160305,2.1516314,1.2370353,-3.7984662,0.33635664,0.079194546,1.0340643,3.8195257,2.9301848,3.105051,-3.89145,0.15083027,-3.5720997,-2.1733994,-3.5639153,3.7597055,1.5760059,-2.3718467,-0.93366814,-3.4053054,2.4752364,2.246097,-2.665844,-3.6796236,0.42805195,-1.7230172,-0.5093932,1.2461457,3.7775865,2.3183951,2.6481347,-0.6208215,-2.2921157,3.7141938,-0.9200387,0.19130516,2.6113434,0.5503912,-3.1201396,-1.8545508,-0.29903364,-2.605744,2.7835603,0.73110294,2.0931454,-2.7645917,2.709353,3.0564766,-3.665464,-1.0513859,-1.4488764,2.8701777,-2.6355662,-3.7882185,-2.665338,1.4530082,0.9687147,1.6754827,0.5356674,0.044036865,-3.601489,-3.5262318,-3.2119503,1.6615405,-2.6709852,2.1692195,2.1418352,3.2770987,3.301444,-1.8166165,2.3439727,-2.7208767,3.4912653,-3.1370144,-0.6795492,1.8158121,-1.9618664,2.6005445,-0.7328367,1.1191387,0.4131937,-2.7224727,1.0008483,-2.6173964,-0.3321805,-0.37149096,0.53190565,0.92259884,-0.9951091,1.6294017,-3.804494,2.5479622,2.7141428,3.478778,-3.223567,0.27121067,2.1134863,2.8915982,-3.3896337,0.31954336,-1.6345716,-1.5599833,0.6391611,-3.929399,0.37384033,3.6451602,-0.5647621,1.8987355,-0.92797947,-1.4585786,-1.2436876,-0.55131674,3.3705711,-2.2748604,-2.8259244,0.6566777,-0.107624054,3.3026047,-3.9167252,3.640696,-1.854384,-0.6540351,1.3187695,2.7333078,-0.8168373,-2.4600787,-1.165134,-3.590993,3.5842724,-2.61874,-2.0388546,-0.8363881,-1.5125155,0.42191315,-2.4251418,2.1867976,-2.7541113,3.2622385,-0.723691,2.094401,-3.498559,-0.8663449,3.298911,-3.7043314,-1.5250964,2.997837,-3.434679,-1.2274194,1.4748812,2.79733,0.90647125,2.9184866,3.6743755,1.1088238,1.8816323,-0.7504411,-2.865488,-3.1105795,-3.0593605,0.27592373,1.3423128,-2.9751606,3.9369817,0.87505054,2.7063718,0.9741039,2.4810753,-0.018762589,-0.32180977,-3.458818,1.910223,-0.9093194,2.433282,2.9864893,-1.4390135,-0.20941353,-0.46756268,-1.934619,1.6804991,2.3376722,-3.351293,-3.0365987,1.8707752,-2.8663187,0.90858746,-0.76171446,1.5462756,-0.9034219,3.2596135,0.033480644,0.4109807,1.2148161,-2.3573608,-3.7426167,1.7760854,-2.631166,1.8258204,0.6424303,-1.5507879,-0.9732766,-1.1407337,-2.0590825,1.169199,2.291597,2.453741,1.8133054,3.8523364,2.814979,-3.0029502,-3.5156026,0.21990108,1.0037823,-2.6085072,2.6257567,-1.4499822,-0.53025246,3.5241556,-2.8157954,1.3676248,-1.1322937,-3.4673567,2.4923863,-2.4814672,2.7436848,-2.2998757,-2.2807016,0.1833024,-2.365574,-0.3938179,3.0140586,0.2365923,1.0487561,0.7312279,-3.7569842,-1.4107256,-0.3435359,-0.78167534,-0.6894536,-1.7423687,-2.5574455,1.3611183,0.37810898,1.6241994,-0.96170425,-3.5595737,1.4265747,0.9661894,3.0395603,-1.998723,-2.415904,0.5725846,2.7518964,2.853331,-3.192421,-2.861917,-1.7181706,0.33631563,-0.51111937,-0.2521181,-0.6764488,-0.26267147,-0.27650404,-0.59217834,2.2585692,1.5262928,3.89861,3.7101436,-1.9414988,3.6565366,3.342986,-1.20123,-2.389349,1.8276381,-1.9276748,-0.48137856,2.440835,0.9653692,-1.1754584,-0.1052413,-3.3267908,-3.4487987,-2.101129,-2.0470247,2.6187897,2.9807992,1.7049899,-1.0294409,-1.4332385,3.3330364,1.9323621,-0.09339285,-1.3320155,2.592805,-2.970015,-0.40666246,1.235692,-2.505015,-0.9684253,2.7740808,-3.6602225,0.47338963,-2.236999,-1.3715181,1.7266688,-3.7364063,3.3876767,-3.2926803,-3.0895534,3.1148987,-0.7496333,-1.61094,-3.1806479,2.8012433,-3.8076196,-0.72351885,1.9216042,-2.751349,-3.585383,2.5221705,-0.23601389,3.8993769,2.3800793,-3.5618162,1.3051233,-0.23477125,0.5511465,-0.462842,-1.798687,-3.048585,-3.9020534,-0.5218668,-1.4436231,-2.8518453,2.0828876,1.2551799,0.9344106,0.4345765,-3.4118981,-0.9137993,-0.43833017,2.9423337,2.836668,-2.3620424,-2.042791,-3.730053,-2.0279164,3.1733913,-1.93465,-0.938694,-3.853642,-3.6949391,3.149712,2.646965,-0.053807735,-2.511128,1.2481413,2.3829389,2.1528707,-3.65898,-3.1305227,2.5938349,3.729517,3.2575717,0.06689119,-1.1905756,1.5169721,2.7990656,-1.1577854,0.5206547,2.9855833,-1.8703184,-3.4531512,3.5785708,-2.2045846,3.854762,-0.54205084,-1.8426023,1.1187496,-1.5651116,2.2393146,-3.9581904,0.72208834,-1.8511381,2.2490978,-3.2458382,1.3932528,-1.8706269,-3.1531968,3.207899,-3.00454,-1.2526493,-1.3340158,3.1699944,0.18832493,1.1005859,-1.0418577,-0.31256533,-0.8935385,-1.7205186,1.9028225,-3.0865088,1.2011337,-0.78571844,2.5846977,3.392807,2.223343,-3.8026023,-0.8825326,0.056466103,-0.09939957,-3.8309603,-0.1322403,-1.2604246,-3.6360073,3.7337604,-0.708189,1.7614884,-2.99016,-2.5570369,1.4906726,-3.4851546,2.7360225,-0.9833875,3.0024667,1.0424509,-1.2539177,-3.1057687,1.7772703,0.60784817,-3.2717452,-0.06648493,2.23814,-0.705286,1.0820332,1.4723797,-1.6048846,2.6868234,1.7013216,3.7198157,-0.15374708,-1.0574856,-0.67743444,1.5347772,2.821528,1.1726608,-1.360856,-2.121292,2.219408,-3.9809155,0.21165848,-1.8551216,2.622593,3.751688,-3.112886,0.92356825,-1.6127143,3.9883704,0.4966674,-2.2475014,-1.0747185,2.5825543,2.6168828,-0.4341483,-1.4712777,0.9955349,-0.7246847,2.177227,-1.9597502,2.2458806,0.32170105,-0.6453376,1.8411422,1.8121052,-2.939763,-1.1392527,-2.7269435,-3.2530808,-3.4396658,-1.5930996,2.2893848,-1.8130488,0.37200356,0.73294926,3.1836572,-3.0188384,0.33163118,0.7497268,-2.027863,2.0095897,-3.456511,-0.8295903,-2.1471186,-0.25811386,2.875887,-1.0701208,2.9290552,0.637619,0.4575019,-2.340794,2.171812,-2.8121476,3.3632097,-1.0728054,-1.8659158,-3.0645952,3.2286696,-3.6093369,-1.0092573,2.009678,1.843154,2.0425053,1.7696285,2.0164466,-3.620378,-3.830514,2.0120854,-3.896274,-1.0060477,-1.6871152,-3.5687513,-3.6228304,3.8505917,-2.5275865,-2.8537889,3.3826613,3.6237397,0.14004087,3.3890924,3.055203,-3.7794075,0.75333834,1.1846404,-3.5778666,-2.459775,1.2004466,-0.24114466,-3.3594942,-1.1925697,2.5986567,3.9542365,-0.036638737,-0.6806774,-3.6613584,1.4116025,-3.5869713,-2.1471763,1.0944133,-2.8078651,-0.13828516,3.6673322,3.0279174,2.6783743,0.5759034,-3.2119823,0.7746353,-0.3094921,-0.108318806,3.485303,0.115437984,-2.6179657,3.4984646,1.6142974,1.2929673,0.27651644,-1.1110587,-0.1952405,-3.048356,-3.5445995,-0.9212723,-3.2781048,3.3481722,-2.5898108,3.0305767,-0.2540536,-0.20215225,-2.6187463,2.7802505,1.5266576,-3.3642936,-2.2870326,2.6247382,3.9975438,-1.0011826,1.916379,2.5936222,-0.94333076,3.2414246,1.1260381,1.6014423,1.2395296,1.0546851,-2.961636,-0.8818569,1.3445258,0.045164585,-1.585772,2.9664407,-0.074121,3.0798712,-2.2195668,1.7208672,1.5808015,-2.324676,-1.4133005,-3.1995487,2.3329606,3.0563593,-0.40382814,-2.3549967,2.1954446,0.8363342,0.42457485,-3.0436678,-3.3772302,-1.1364665,2.1225357,-2.508247,3.7624593,-1.8320704,1.3688502,-3.5728984,2.6234217,-0.4000883,1.6861296,-0.26859426,1.6281219,-3.098806,-2.7941155,-0.5719857,1.17242,-2.255012,-1.375721,0.39762402,0.07004213,2.9794855,-0.54595137,0.55622244,-2.9780154,0.5182395,3.4689965,-3.435988,-3.936201,2.7138247,0.9566407,-2.0381417,3.4697475,3.3069549,1.2684956,3.592204,-0.378726,2.044797,-2.962225,-1.4817781,-1.7077665,0.084619045,-2.2025228,1.8689694,-0.29614925,1.2998176,3.67948,-3.8192096,-2.7774425,0.5377946,1.1339712,1.1510792,2.0027184,2.6378088,1.5298362,0.5840745,3.1278763,-3.2040439,-1.1373968,-0.6884227,1.4175782,3.753559,3.1535172,-2.5823445,-1.1851821,3.631319,-3.0534892,-3.0649805,-0.14588928,2.1541166,-1.2123194,0.29055738,-3.0640721,3.6812778,-1.658565,2.1034694,2.9996347,-3.0943432,-1.03229,-1.2145824,-0.823328,-2.3185534,1.0425973,-2.1749058,0.025436878,0.5730672,0.7388706,-1.7848458,3.7317023,-0.3991909,-2.3816218,0.34857178,-0.29667425,-3.7072644,1.7715073,3.681439,2.849275,-0.5805454,1.6638913,0.04349327,1.2130194,-2.495254,-2.4510288,0.742126,-2.44812,0.42218828,-2.4570546,-2.3409243,-2.0439591,3.7292829,-3.100967,2.6291795,-3.6523528,-3.735876,-1.5951056,-1.8971772,0.88092804,-3.668541,0.49109125,-1.0627337,-2.2081141,1.6971722,-0.42635965,-3.4273171,-0.83693504,0.2627945,-2.476945,3.3839517,0.5308471,-2.270846,0.971786,-1.731082,3.073471,3.9711685,3.6733413,-1.0114498,0.8738346,1.120079,-2.951851,2.3023667,0.5060153,3.2934752,-3.505012,-2.3521724,1.603888,-1.3935766,0.7045126,3.322002,1.9264956,0.6346712,-1.219553,-0.43325043,2.6512928,-0.95078135,3.8747873,1.5100508,1.6421618,2.6397333,2.8151011,0.9018655,-1.5817494,3.481989,-3.9510021,2.4427943,3.59967,-3.04073,2.9857764,-2.5697432,-0.04289198,-3.0488648,3.4959168,1.5144453,0.2108717,0.33073282,0.3737564,-1.0900102,-2.7924247,-0.96086884,2.5750198,-0.17139482,3.8097663,1.4761944,-1.8099766,1.1630244,-2.2994447,-0.7507663,-1.2204151,1.0813694,1.0534363,-3.0927587,-1.2898965,3.611928,2.7918773,-3.1920633,0.73850584,0.8406477,-1.3442006,2.2563624,1.7428055,-3.069209,1.9200463,2.5052266,1.4956355,2.9443078,2.0525255,1.012032,-0.9400215,3.5410628,2.775249,-3.8206897,-2.5915685,-2.8182516,3.7992878,-1.9575038,2.8034182,-3.9966712,-2.802342,2.4751792,2.032547,0.52695084,1.4975219,-2.948915,1.3485699,-3.0736322,-3.7212234,2.387423,2.7045112,-3.482862,2.1492972,3.1136894,-3.5029974,3.5272303,-3.1582718,-0.950953,2.0112371,2.1434655,1.8819818,-0.29316092,-2.7991843,-2.4903212,0.4794426,1.0951052,-1.9383788,-2.4290934,1.2724261,-3.1316514,-1.9776301,-0.37287807,0.24376345,0.23449898,1.737484,1.8680692,3.0394788,-1.915256,1.1782284,1.1095414,-0.75744915,1.8246112,-2.9554644,0.5350094,0.6626797,-3.1730976,0.8677392,-3.5995984,-2.1840796,-0.008627892,2.1514869,3.5818114,3.5240712,2.2743664,-2.3117332,-1.0371056,1.6268334,1.2791672,1.4502592,1.4207358,-3.5409021,0.7476301,1.2614894,-2.3863225,-2.0847049,-0.86747885,-1.0760283,-2.9106083,-0.8583455,-0.8937073,3.0299034,-2.124165,0.8595567,-2.9480548,2.3542085,-1.3414974,1.5173888,3.5297303,-0.86484194,2.3552327,-2.3381739,1.0683951,-3.6334882,-3.0552597,-0.66251564,3.8397098,3.6877322,1.2147136,2.4774466,2.979947,-2.7212763,2.8559604,-3.258185,-1.7922072,-0.2758913,-2.8590822,1.5522647,-1.5729003,-3.1991134,-0.8449383,-2.2472048,-3.113462,2.0308595,2.7688136,-0.8290105,-3.2340617,0.48452473,1.9406104,3.5835834,2.0399232,1.2385659,-1.6506615,3.7878304,-1.1688008,3.0505877,-3.2884817,-1.8054132,-0.6205158,2.5728278,-0.48413706,-1.8138189,-3.9359136,-3.991724,3.5003943,-2.388012,2.0900707,-1.6761785,3.3255033,0.20285559,-1.8983817,-2.2915645,3.005498,-1.9465928,1.9884033,-2.0511713,-0.6783762,0.24214697,1.8942161,3.824315,1.3465428,-1.225018,1.2364521,3.4356523,3.1841726,2.7196202,3.246122,-1.05443,-2.9850984,-1.243712,0.14307928,-0.23355103,1.6048203,1.2395825,-1.3340769,-1.9350038,-0.21591043,-1.7175298,3.095203,-2.9644794,-3.655829,3.2242503,1.2849255,2.7572556,1.7916989,-1.142632,1.4175615,1.4862003,2.998642,-3.1233015,2.0938063,-3.011032,3.699284,-0.06256914,2.967956,-0.4714737,-0.17509842,-2.226273,-3.424142,2.5841756,-2.2179947,0.789495,-0.46732664,-1.6507082,2.0400858,0.04885578,-3.71494,1.0092907,1.1792598,-0.043640137,-1.4054046,1.8646178,1.3363204,-0.21723747,-3.4608483,1.1614308,-1.4900742,-2.63484,-0.19567728,0.48045778,2.918375,2.4381413,3.2806802,-3.0846024,-2.0935984,3.0500426,-3.5075622,0.64871025,1.6038523,-0.46940088,-3.7081852,-1.2269073,2.1564226,0.0049085617,0.8188658,-3.4038944,-3.6862879,-2.3008633,2.3315344,3.9451551,1.8589826,-2.276998,-0.33691406,1.3652515,-0.91214705,-2.9480872,-1.6033998,-3.736847,-1.4355531,3.4011202,-0.88323355,2.0108705,1.3576126,1.6471281,-2.2738013,3.3632684,-0.5319009,-0.12584591,-3.5517879,3.0577426,3.0595217,3.649704,2.017715,0.28890467,-2.7984047,0.19732666,-2.334187,-1.7960143,2.3232179,-1.1449933,3.702232,3.2022877,-0.9823394,1.2845182,-3.6844845,3.0767326,1.4962602,3.7125168,3.7645168,0.9636307,3.6115313,1.7375255,0.9051285,2.4114313,3.0368242,3.0651116,-0.029120445,3.8224616,1.2665257,-3.0851402,-3.814653,0.98294926,3.9936419,0.36885786,-1.4955511,2.6598315,1.8854303,-1.6752858,-2.8587618,-0.96646976,-3.8381,-3.1777372,3.3885522,-0.07473612,-2.2014384,2.9028926,-3.7254462,3.4543762,-0.18303967,-0.25199318,2.4264627,-1.4397564,2.684692,-3.83252,3.0774336,1.1900482,-1.8131871,-2.2657638,2.804234,-3.1731997,2.6363316,-3.2237387,-2.3471065,-2.042719,-0.22501421,0.45655632,2.6361794,-2.3640924,0.706162,1.3338084,-0.7423105,-2.0999608,1.3475423,-3.2340674,-3.8846726,-3.8025122,-3.4131923,-3.4157667,-2.7302327,-3.2362428,-2.3091135,3.5417671,3.5640411,0.98995495,-3.3988175,1.6646376,3.2063813,-1.1460185,-0.6033864,3.9734817,-2.4372354,-2.3259845,0.716475,1.8833928,2.2560163,3.636106,-0.09684944,3.347992,-1.5323043,2.2233682,2.439517,-2.4736,2.4639091,-2.065557,2.289506,-1.5405931,1.0109854,3.3365583,1.4870806,0.48359013,0.8679447,1.0404587,-3.0466743,1.6724124,0.30987692,0.47896624,3.6497383,-3.9730577,-3.6325183,-1.3584642,0.24264431,2.3310528,-1.2305508,-1.4480286,-3.9167209,-1.139605,0.6595068,-0.6667862,-1.7775688,1.6263466,-3.706984,0.8198595,1.5669894,3.6010718,-1.1711702,-1.4205966,-3.17634,2.9406428,3.3089666,-1.4945893,-3.5365787,-3.8596988,-0.16533136,3.3366385,-3.7759948,3.6083674,-3.6681547,2.598628,2.5595737,-2.1280127,3.5084386,0.15999603,3.6991062,-3.306974,-3.0619912,-0.92886734,-2.7440348,1.8629298,3.5611997,0.45987558,-0.26927662,3.7954955,3.7452402,2.473475,-0.21444559,-2.3051682,-3.007462,-3.319622,1.2890744,1.9475574,1.0803914,-1.2943587,-2.1058345,-2.659461,-0.9728637,-3.478383,-1.7215681,-3.2349014,2.4485478,0.7275977,0.7506237,0.28863,-1.6502161,-3.070179,-3.6703658,-2.4517603,-1.9245586,-0.7967143,3.9360723,-1.2211003,-2.9788256,-0.5693183,-2.0920262,0.20896435,0.9276552,1.548037,2.1984901,-3.6371498,-1.6108022,1.482935,-0.59532595,0.012420654,0.9979749,1.5759373,-2.591877,-2.3638892,1.8182335,-3.119244,-1.7995214,-3.9926295,-0.72395515,-0.07975435,-0.13496208,-3.8551512,0.8167653,-2.4226708,0.26019716,3.4094353,-3.8235154,-1.373488,-0.97664404,-3.4447212,-2.8485475,0.21554565,-0.36264896,-3.8448672,3.5760884,-2.20537,2.6275053,1.110465,1.793612,3.5363164,-2.954997,2.5249786,-0.8688073,3.8725944,-1.253067,0.51950693,-1.948144,-3.379416,-3.6837764,3.2406812,-2.0941696,-1.8186836,-1.4200721,3.051859,-2.9975228,-1.6083646,-1.0667515,0.3906541,0.8059983,-1.5235944,-2.8613906,1.2213802,-3.6630526,-2.2020445,-0.94588566,-3.9013095,2.252509,-0.1706152,-1.4338899,3.2053123,-2.9962592,-2.4967456,0.99910116,0.5653858,-1.227303,-0.16262674,1.6682339,0.25520086,-2.470518,-0.71982527,-0.09096241,-0.061361313,2.6140637,1.1468339,-3.2986422,3.9844694,1.6622486,-3.5473843,-3.3568735,-0.05912447,-2.3442497,1.5035448,-2.1683393,1.0382333,-3.0123415,2.5394769,-0.84867096,-0.92165804,-2.4301162,0.017509937,1.4142346,0.58603,-1.5738101,-1.1239662,-3.6667323,-0.8885789,-3.709941,0.058100224,0.9293165,-2.6328034,1.0279942,3.9042568,1.7159214,2.3789926,-0.39795542,2.1712627,-3.4604106,1.4804249,3.239276,2.5898876,-0.14729548,-1.266088,-0.9575381,-1.3627868,2.1537595,-3.4837337,0.8221197,1.4505019,-3.8331704,1.2607603,-0.55171967,-3.236424,-2.0059023,2.506774,-3.1325321,2.5988088,3.0321608,-3.0506687,2.0443087,-1.2644901,-2.9099145,-3.2171726,0.848753,-3.0103326,3.2050939,2.7052116,-3.597444,3.8209143,3.365425,-0.04036951,3.4215088,-0.4321699,-3.7087078,0.7145519,-2.811984,1.9553719,0.2822442,1.3872309,-2.3179026,-3.6767292,1.1410975,1.6507945,2.4022183,-3.7919507,3.3473258,-1.721684,-0.1435008,-0.4038353,-2.97959,-1.4455519,-0.7491498,-2.6436577,-2.8108997,1.291255,-1.1020823,-0.82966995,-1.365169,-0.8123617,3.5097866,-3.2263951,-3.6512852,0.54053354,3.229784,-2.1440544,-0.16621637,1.30095,0.5219455,0.06087637,0.83239317,0.23237514,-2.1214623,-2.3324976,1.3368998,-1.0420766,-3.1407232,-2.6699257,0.81332254,0.2892561,-3.5016193,-0.7920656,2.7257762,0.7722783,-3.911553,-1.1816802,3.6678352,-0.2924776,3.3087087,-2.30122,-2.5534177,-3.831936,3.559667,-3.8754354,3.7758212,1.0582137,3.6372123,-2.368146,-2.166016,1.7432723,-0.8289466,-0.13604975,1.2106099,2.7668676,0.068761826,-0.9022474,3.7741199,2.2683735,-3.490056,-3.5434928,-2.6111112,-3.4204879,2.8593926,0.42232132,-3.8698254,1.8356857,-0.8393254,-2.3124151,1.9465108,-0.43040705,-0.73135185,-2.3337846,-1.8788404,1.1605625,2.7126327,3.0985966,3.5513926,0.57963085,0.71980906,-3.9377928,0.20164299,1.638587,-0.46137,-1.2290936,-3.6786723,-0.3629737,0.53304243,0.9936147,1.03016,0.97700834,-2.311276,-0.8228016,-1.6309109,1.0700512,-0.1167407,-0.33708143,3.5276928,0.2229538,-3.6375709,1.5468612,1.5102758,-2.677341,0.11119652,0.9958916,-1.8883758,-1.5734377,0.40645075,0.1684823,-0.020905018,-3.9612408,3.3383842,3.5296612,0.35458422,-2.3979917,-2.6069226,3.2791142,3.9870687,1.7344708,-1.2263355,1.7571931,3.2963767,1.6166668,2.284288,3.6665268,1.2693748,-2.042696,-0.21764755,3.8628635,0.07650709,3.495109,-3.375547,-1.602035,1.2766385,1.0364356,0.7928419,-1.8017535,-2.5031743,3.7982092,-1.7165027,-3.587988,-0.97549486,-3.549303,-2.6483274,0.12018108,-3.5063715,0.09408808,2.956181,3.33109,-3.4300022,1.0148368,-1.3328557,-2.272357,-1.1189971,2.855485,-0.30592299,-0.5888181,-2.9710503,-3.286717,-2.7020216,-0.39593744,-2.3844194,-0.18291426,-2.8837285,3.7906547,3.2441483,-0.91233873,-2.6955414,3.0322785,-1.2883611,3.9393673,-2.0245686,-2.7189531,-1.3408909,0.7820306,-3.6392784,0.3747487,-3.2473936,0.40445852,-0.6837821,0.9576373,-2.3522682,-3.4673023,3.7851548,-3.8367887,-0.9815011,-2.6083336,-2.7228398,1.3441982,-0.95914364,-3.631701,0.6473336,-0.45645,-0.74574184,-2.0819378,-2.9553633,-1.5050974,-1.577672,0.59939766,2.6177683,-1.9268279,-2.259728,2.027338,-2.886146,-3.7376351,0.4855423,-3.056717,-1.0154762,1.4697833,-1.9079123,2.8417158,-0.5200429,-2.379777,-3.109355,3.8348207,0.26860905,-0.23800945,3.762219,-2.891974,-1.600925,3.3852377,-3.8094845,-2.7185302,-1.4300737,-2.606256,-2.7127357,0.59760714,3.6814113,1.4104323,1.0428553,-3.7537813,0.74654865,3.1861763,-2.356144,-3.1645832,-1.9178057,-0.7026181,-1.3559136,3.6425772,0.6669035,-0.33803415,3.6472797,-3.220389,3.8752775,-0.5980334,1.6523261,-2.7640882,0.024229527,-3.9110827,0.14691925,0.03219366,-1.7458005,-0.61287737,-2.6424947,2.193818,0.40801954,-0.29898882,-3.15702,2.8118181,1.4522967,-2.70653,-0.94800663,3.633287,2.1954455,-3.3077855,-1.1307201,-0.5386777,2.4751396
